512
-0.23659703135490417	0.10333774238824844	0.2605023980140686	0.05709034949541092	-0.05661790817975998	0.049124348908662796	0.006218974478542805	0.09671207517385483	0.09163147956132889	-0.1240716502070427	-0.5095533728599548	0.1715308129787445	0.2106633484363556	0.02371361292898655	0.35601377487182617	-0.4524966776371002	-0.3997635841369629	0.09984493255615234	0.0898953527212143	-0.4315863251686096	-0.1132819652557373	-0.013709752820432186	-0.06794099509716034	-0.11196941882371902	-0.517704963684082	-0.16126221418380737	-0.5062438249588013	-0.012060098350048065	0.2389819175004959	0.4353727400302887	-0.01910792663693428	0.18345117568969727	-0.12501972913742065	0.05500839650630951	0.019034836441278458	-0.4162990152835846	-0.13665562868118286	-0.3973675072193146	0.06725531816482544	-0.13743798434734344	-0.45796632766723633	-0.08180709183216095	-0.053820058703422546	0.2152749001979828	0.14107537269592285	0.02067050337791443	0.14288772642612457	-0.8276771903038025	-0.7262924313545227	-0.9258285164833069	-0.14287637174129486	-0.43330898880958557	-0.2854192554950714	0.13550446927547455	-0.2251116782426834	0.10209942609071732	-0.31174740195274353	-0.009943237528204918	0.12389823794364929	-0.1202191710472107	0.20386537909507751	-0.19036385416984558	-0.472836434841156	-0.025437714532017708	-0.12651611864566803	-0.10406356304883957	0.014682947658002377	-0.10930299758911133	-0.11272040009498596	-0.29254698753356934	0.02269207127392292	0.07647471874952316	0.12393588572740555	-0.1610243022441864	-0.2357410192489624	-0.12084726244211197	-0.024630019441246986	-0.02713642828166485	0.36515334248542786	0.19967612624168396	0.013970849104225636	0.1876099854707718	-0.39492180943489075	0.2735765278339386	0.21115775406360626	0.2312137484550476	0.2990286350250244	-0.19420397281646729	0.1844511181116104	0.02615869976580143	-0.455672949552536	-0.04319039732217789	-0.08084648847579956	0.02169646881520748	0.20837745070457458	-0.7612055540084839	-0.04521537572145462	-0.20532968640327454	0.2886486351490021	-0.2644558250904083	0.2474173754453659	-0.08347049355506897	0.12472642958164215	0.2768559455871582	0.20829693973064423	0.19215376675128937	0.07843343913555145	-0.10362717509269714	0.10983177274465561	0.19279365241527557	-0.6776036024093628	-0.44161614775657654	-0.2927407920360565	-0.04823094606399536	0.19987182319164276	-0.2109711617231369	0.09424620866775513	0.492047518491745	-0.4639769494533539	-0.33258989453315735	0.18916350603103638	-0.5840469002723694	-0.32275113463401794	0.03635130822658539	0.04099927097558975	-0.007712019607424736	0.11458654701709747	0.45891737937927246	0.1844014972448349	-0.49986720085144043	0.2679412364959717	-0.09316369146108627	0.03743232786655426	-0.11336575448513031	0.12301074713468552	-0.22095675766468048	0.070785291492939	-0.16991105675697327	-0.18892328441143036	0.2367633730173111	-0.006234742235392332	0.1370753049850464	-0.45238494873046875	-0.08152300119400024	-0.31867581605911255	-0.3297678530216217	-0.06315799057483673	-0.20005491375923157	-0.3680339455604553	-0.21017903089523315	-0.09068010747432709	0.45010411739349365	-0.06978043168783188	0.07766712456941605	-0.04115210101008415	-0.4094749689102173	-0.033909089863300323	0.04656986519694328	0.04393882304430008	-0.5397735238075256	0.09912145137786865	0.021044669672846794	-0.09150318801403046	-0.24588674306869507	0.10139469802379608	-0.22736221551895142	-0.44338569045066833	0.39284294843673706	-0.1830974519252777	-0.19437730312347412	-0.059858713299036026	0.16308045387268066	0.11816158890724182	0.16747048497200012	-0.47031524777412415	-0.2715311050415039	-0.18759581446647644	-0.21664051711559296	0.2248958945274353	-0.11918926239013672	0.10363033413887024	0.26014694571495056	-0.31321755051612854	0.026542650535702705	0.04386783391237259	0.0214871596544981	0.14390014111995697	-0.26466071605682373	-0.1411743313074112	-0.5602626800537109	0.3698599934577942	-0.04581841081380844	0.02961326576769352	0.20835399627685547	-0.06877719610929489	-0.3726046681404114	0.12042291462421417	-0.3741466999053955	-0.033689938485622406	-0.1863333284854889	-0.03309817984700203	0.18740491569042206	0.1431778371334076	0.14040349423885345	-0.10165242850780487	0.14789626002311707	-0.18546143174171448	-0.4202944338321686	0.37091630697250366	0.16722366213798523	-0.2872178256511688	-0.5095112323760986	0.10919330269098282	-0.2515728175640106	0.06475798785686493	-0.0678296685218811	-0.1019539013504982	-0.2652641832828522	0.7453054785728455	0.04479408264160156	0.18901634216308594	0.06074117124080658	-0.31843170523643494	-0.2533681392669678	-0.7695124745368958	0.05105341225862503	-0.22452153265476227	-0.10500908643007278	0.04357219859957695	-0.05569591745734215	0.1619012951850891	-0.41951173543930054	0.3508005738258362	-0.5007163882255554	0.169987753033638	0.04200701415538788	0.15501181781291962	-0.3286595344543457	-0.05495103448629379	0.08629314601421356	0.02804679051041603	0.29096561670303345	-0.6981481909751892	0.0647687315940857	0.0981551930308342	0.0950341448187828	0.25171324610710144	0.13360311090946198	-0.029656171798706055	0.1759692281484604	0.10418584942817688	-0.06541994214057922	-0.7165116667747498	-0.017466438934206963	0.22779104113578796	0.3205229640007019	-0.2443368285894394	0.0047256676480174065	-0.7836158871650696	0.17843979597091675	-0.12356208264827728	0.08535642921924591	0.20231109857559204	0.058247435837984085	0.15363717079162598	-0.07493753731250763	0.13562804460525513	-0.06689944863319397	-0.17339491844177246	-0.018393486738204956	-0.32508525252342224	0.06899718940258026	0.3496377468109131	-0.7600038051605225	0.16384318470954895	-0.033189449459314346	0.20643660426139832	0.11872660368680954	-0.1911860704421997	-0.22945117950439453	-0.2279808074235916	-0.06046995148062706	0.05752895399928093	0.05362739413976669	0.06107247248291969	-0.1865321397781372	-0.29238003492355347	-0.10252722352743149	-0.49562785029411316	0.0489458329975605	0.202745258808136	-0.006514866836369038	-0.46419480443000793	-0.33963122963905334	0.06753368675708771	-0.17143060266971588	0.2297498732805252	-0.5657736659049988	0.131639301776886	0.09816578775644302	0.1373317539691925	0.13988973200321198	0.11352363228797913	0.2148839682340622	0.12327791005373001	0.26303035020828247	-0.018061280250549316	-0.2079840451478958	0.16467629373073578	-0.2956753671169281	0.14155840873718262	-0.017180854454636574	-0.6530072093009949	-0.2914021909236908	0.4422297775745392	-0.28877708315849304	0.0328383706510067	0.1435997635126114	0.1404547095298767	-0.04010261967778206	0.1329198032617569	-0.08822441846132278	0.14727512001991272	0.0892181321978569	0.25600582361221313	0.031054699793457985	-0.1483416110277176	-0.009084132499992847	-0.06079826503992081	-0.4698654115200043	-0.5572713613510132	0.1670272946357727	0.01438807975500822	0.15792721509933472	-0.07139158248901367	-0.1580887883901596	0.04328783228993416	-0.12368104606866837	0.4315766990184784	0.20305833220481873	0.06055538356304169	-0.2504322826862335	-0.07040967792272568	-0.04147417098283768	0.3855592906475067	0.11923220753669739	-0.09416508674621582	-0.025334693491458893	-0.07649220526218414	-0.32994645833969116	0.19916462898254395	-0.045898035168647766	0.15367551147937775	-0.1630074828863144	-0.16754209995269775	-0.06028676778078079	-0.4251401424407959	-0.09158416837453842	-0.007606107275933027	-0.4139558672904968	0.11357618868350983	0.09492640197277069	-0.19900725781917572	0.025348078459501266	0.19268760085105896	-0.9963328242301941	0.30056458711624146	0.0371825136244297	-1.4171501398086548	-0.30015185475349426	-0.2011587768793106	-0.0299150999635458	-0.3144655227661133	0.08427760004997253	0.2409142106771469	-0.015167123638093472	0.16202381253242493	0.15066131949424744	0.1599864810705185	0.016142619773745537	-0.1687689572572708	-0.009588348679244518	0.11636705696582794	-0.14005562663078308	0.12711957097053528	0.14985544979572296	0.1390775442123413	0.28257641196250916	-0.34699955582618713	0.046647779643535614	-0.6327866315841675	0.3032746911048889	0.14487510919570923	0.16101419925689697	-0.43676528334617615	-0.1777249574661255	0.1606922745704651	-0.28093042969703674	-0.08003595471382141	0.3093203008174896	-0.5156055092811584	0.2009766548871994	0.04845801368355751	0.23565655946731567	0.37330421805381775	-0.27874892950057983	-0.02114354632794857	-0.031053047627210617	0.2340560108423233	-0.12538324296474457	-0.16082993149757385	0.02372707985341549	0.43526455760002136	-0.031859975308179855	-0.14285343885421753	0.2976025938987732	-0.31174859404563904	-0.007085540797561407	0.1309063732624054	0.31679072976112366	-0.16546055674552917	0.187691330909729	0.13125762343406677	0.17094027996063232	-0.3066920340061188	0.17092442512512207	0.28963735699653625	0.3426688313484192	-0.4240783452987671	0.0923403650522232	-0.22586847841739655	0.19065971672534943	0.11976258456707001	0.053840719163417816	0.2754994034767151	0.033858805894851685	0.22332006692886353	-0.3640562891960144	-0.02774028107523918	0.16075825691223145	-0.27185362577438354	-0.07669421285390854	-0.05564253777265549	0.1431632936000824	0.00015348292072303593	-0.5420356392860413	-0.37207522988319397	-0.32938262820243835	0.18964780867099762	-0.25428682565689087	-0.029730213806033134	-0.25424209237098694	-0.35536208748817444	0.1709825098514557	-0.16438767313957214	0.20779982209205627	0.29118597507476807	-0.2484176605939865	-0.5561716556549072	0.4564795196056366	0.001578101422637701	-0.05376949533820152	-0.627435564994812	-0.28861287236213684	-0.10830065608024597	-0.08642572909593582	0.16024883091449738	-0.1043701097369194	-0.05494506284594536	-0.0369163416326046	0.18000411987304688	0.03479169309139252	-0.39403411746025085	-0.5893892049789429	0.37528735399246216	0.12322461605072021	-0.09987805783748627	-0.03860804811120033	-0.17804765701293945	-0.26586201786994934	0.013761796057224274	-0.6921862959861755	-0.011876329779624939	-0.36271485686302185	-0.10638029873371124	-0.0822691023349762	-0.04008204862475395	-0.06879238039255142	-0.4273395538330078	0.7449795007705688	-0.218271866440773	-0.1354445517063141	0.3449968695640564	-0.17476624250411987	0.2974586486816406	-0.11799045652151108	-0.007034760434180498	-0.5230308771133423	-0.25598692893981934	0.2698831260204315	0.21299637854099274	-0.03185347467660904	0.014420880004763603	0.10641434043645859	0.07279031723737717	-0.38937920331954956	-0.9924559593200684	-0.019124330952763557	0.0491543747484684	0.2413182109594345	-0.24526146054267883	0.4523191452026367	