126
0.2429354041814804	-0.20610330998897552	0.07810408622026443	0.34998756647109985	-0.06588944792747498	-0.18426160514354706	0.20501552522182465	0.21661128103733063	-0.04338845610618591	0.3139214813709259	0.007591272704303265	-0.23960107564926147	1.0547282695770264	0.09087716042995453	0.0346088744699955	0.38049834966659546	0.005651445128023624	0.12326701730489731	0.2561003565788269	0.08028986304998398	0.0034635409247130156	0.21785002946853638	-0.04177665337920189	0.12815357744693756	0.2721852958202362	-0.004293841775506735	-0.011878120712935925	0.19577522575855255	0.01898777484893799	0.21243587136268616	1.0172178745269775	-0.08180411905050278	0.007563456892967224	0.4873276650905609	0.024696888402104378	0.06717391312122345	0.2464921921491623	0.036195795983076096	-0.04948130622506142	0.20406968891620636	-0.05065648630261421	0.002484946744516492	0.2723384201526642	-0.04987362027168274	0.059500716626644135	0.27083319425582886	0.001323508913628757	0.017161257565021515	0.9244140386581421	-0.021720178425312042	0.04615863040089607	0.5925042629241943	-0.049540795385837555	0.006596675142645836	0.24901019036769867	-0.006368589587509632	-1.014322060655104e-05	0.195468008518219	4.165454811300151e-06	4.8324120143661276e-05	0.22109568119049072	-0.005578233860433102	8.474763490085024e-06	0.20429566502571106	-2.3559088731417432e-05	1.5625465721313958e-06	0.49129363894462585	-0.06879489123821259	-0.02962215431034565	0.38738057017326355	0.026000939309597015	0.1118059754371643	0.4233095943927765	-0.2236299365758896	0.046670373529195786	0.47488096356391907	0.17911547422409058	-0.04589425399899483	0.49247506260871887	0.20567141473293304	-0.07092911005020142	0.5256849527359009	-0.20096828043460846	-0.013672566041350365	0.4413115978240967	-0.06182307004928589	0.1247328445315361	0.26411792635917664	-0.05766575038433075	-0.09652997553348541	0.32263532280921936	0.09291812777519226	-0.20333856344223022	0.27107974886894226	0.12774468958377838	0.02673891931772232	0.3323306739330292	-0.10071174800395966	0.17261117696762085	0.305803507566452	-0.13212238252162933	-0.08404603600502014	0.13913604617118835	-0.03096124157309532	-0.0027862107381224632	0.28004059195518494	0.257786363363266	0.01754915900528431	0.1557915359735489	0.05824337527155876	0.012497900053858757	0.27750271558761597	-0.32622402906417847	-0.043874047696590424	0.21285061538219452	0.005020507145673037	0.03795656934380531	0.22344952821731567	0.028824087232351303	-0.05076931416988373	0.2840689718723297	0.03977679833769798	-0.023726340383291245	0.32924357056617737	-0.04124114662408829	-0.0714586153626442	