32	512
-0.2161165326833725	-0.17266152799129486	-0.05239948257803917	-0.10074317455291748	0.10799220949411392	0.05522661656141281	0.028193728998303413	0.11129926890134811	-0.1891694813966751	0.12727436423301697	-0.007010560017079115	0.04119434207677841	0.12558358907699585	-0.01047292910516262	0.06304842978715897	-0.07317392528057098	0.16354461014270782	0.18339790403842926	0.1091589629650116	0.020499445497989655	0.18512435257434845	-0.032748233526945114	-0.023187454789876938	-0.08006112277507782	0.02613917365670204	0.1269027590751648	-0.008758028969168663	0.027370544150471687	-0.11230867356061935	-0.27158257365226746	0.21897487342357635	0.009819348342716694	0.004819546826183796	-0.0003431650111451745	0.12945352494716644	-0.0031777897384017706	0.03322717547416687	0.01127801463007927	-0.05438877269625664	-0.01124585885554552	-0.05860985442996025	0.1782117336988449	-0.00026495064957998693	-0.052004002034664154	0.1023775115609169	-0.029624542221426964	0.07659327983856201	0.043505169451236725	-0.257844477891922	0.07937653362751007	0.010406657122075558	0.10452853888273239	-0.13557329773902893	0.059819478541612625	-0.028139464557170868	-0.06446713954210281	-0.056875474750995636	0.3689337372779846	-0.05966527760028839	0.120347760617733	-0.04790322110056877	0.052791036665439606	-0.033726997673511505	0.16286279261112213	-0.035877496004104614	-0.036364443600177765	-0.01521025225520134	0.027314286679029465	-0.04455465078353882	-0.029319947585463524	-0.06707867234945297	-0.04542726278305054	-0.12063358724117279	-0.0628824532032013	-0.07058167457580566	-0.024564912542700768	-0.04472139850258827	0.0508839376270771	0.05055319890379906	0.1826775074005127	0.13165093958377838	-0.025327647104859352	0.18277016282081604	-0.02522730641067028	0.09717845171689987	0.10742117464542389	0.12596362829208374	0.03715083375573158	-0.013651502318680286	-0.008261250331997871	-0.03054710291326046	-0.10123701393604279	0.028958715498447418	-0.07140306383371353	-0.06504689902067184	-0.014036678709089756	0.06492450088262558	-0.15421000123023987	0.08046210557222366	-0.044033076614141464	-0.03125593438744545	0.11415911465883255	-0.09147385507822037	0.09198612719774246	-0.03499528020620346	0.023885617032647133	-0.0718614012002945	0.043050769716501236	-0.08821847289800644	-0.038393259048461914	-0.04471375048160553	-0.00622494425624609	0.013380447402596474	-0.01498477440327406	0.01600252091884613	0.03948391228914261	0.010273684747517109	-0.03476967290043831	0.012413649819791317	-0.21827225387096405	0.030784670263528824	-0.13952858746051788	-0.0128542585298419	0.06332278996706009	-0.06492782384157181	0.013966635800898075	-0.3281594514846802	0.10779982805252075	0.13007883727550507	0.08826690167188644	-0.03629683330655098	-0.012342519126832485	0.015167541801929474	0.0031349363271147013	0.10923489928245544	-0.015560723841190338	0.020273756235837936	0.039324089884757996	0.010499268770217896	-0.01688506081700325	0.004247250501066446	-0.00521807698532939	0.030182713642716408	-0.007035336922854185	-0.08510938286781311	-0.015851430594921112	-0.05375222489237785	-0.06987448036670685	-0.02153242938220501	0.054944299161434174	0.06923767924308777	0.07251103967428207	-0.007435739506036043	-0.003123706206679344	-0.008821730501949787	0.0447223000228405	0.14389099180698395	-0.027379222214221954	-0.10720817744731903	-0.0301264226436615	0.0387423001229763	-0.03772898390889168	-0.060302309691905975	-0.02980745956301689	0.015029390342533588	0.05602208897471428	-0.1530158668756485	0.1598815619945526	0.04596607759594917	-0.0695008710026741	-0.014644384384155273	-0.09198066592216492	-0.012356508523225784	-0.007164133712649345	0.2727999687194824	0.028570426627993584	0.024963805451989174	-0.0290687195956707	0.020738333463668823	-0.01151115819811821	0.016790984198451042	0.10130840539932251	-0.0007055306923575699	0.005343387834727764	0.020991308614611626	0.0320969857275486	-0.05907860025763512	0.18049053847789764	0.01030658558011055	-0.11425477266311646	0.021187378093600273	-0.06659462302923203	0.0034130543936043978	-0.03145534172654152	0.008893530815839767	0.019144685938954353	-0.01148004550486803	0.33248019218444824	0.039210088551044464	0.03762524202466011	0.23599204421043396	-0.05867835879325867	-0.015462826937437057	-0.10434307903051376	-0.034906528890132904	-0.1475977599620819	-0.03711658716201782	0.002011875854805112	0.0034230384044349194	-0.08974563330411911	-0.06747791916131973	-0.11492402106523514	0.0599999874830246	-0.06742852926254272	-0.017347391694784164	0.06430010497570038	-0.03034529648721218	-0.08664567768573761	-0.011186962015926838	0.04084507375955582	-0.0011684934142977	0.005278724245727062	-0.05029246211051941	0.01710195653140545	0.010182968340814114	0.013230754062533379	0.2024039626121521	0.01859322190284729	0.05367494001984596	0.007704808376729488	0.03682207316160202	-0.08671780675649643	-0.009074455127120018	0.08123160153627396	-0.027992188930511475	0.003105200594291091	0.0394381619989872	-0.10689527541399002	0.0363386906683445	-0.011194691993296146	0.07676321268081665	0.009151560254395008	-0.006405926309525967	-0.20719295740127563	-0.00865284726023674	0.14294835925102234	-0.1064704954624176	-0.06468577682971954	0.005839537363499403	0.10485169291496277	-0.07554703950881958	0.018277212977409363	-0.0958002582192421	0.017010817304253578	-0.06851711124181747	0.008614928461611271	-0.017185643315315247	0.034139469265937805	-0.02437572553753853	-0.09286190569400787	-0.013738827779889107	0.05889386311173439	-0.12270483374595642	-0.03975505754351616	0.014716383069753647	0.058538779616355896	-0.08264977484941483	-0.01401396282017231	-0.053538497537374496	-0.0010579325025901198	0.31265708804130554	0.07437621802091599	-0.0032491693273186684	-0.2894428074359894	0.031896572560071945	0.0035679733846336603	-0.19153036177158356	-0.10523796826601028	0.026486314833164215	0.10957082360982895	0.0042198714800179005	-0.0426146537065506	-0.10688752681016922	0.07063563168048859	0.24749040603637695	0.014684428460896015	-0.04917801916599274	0.02844722382724285	0.025236744433641434	-0.016274835914373398	-0.008413122966885567	-0.07865060865879059	0.1729092001914978	-0.07582457363605499	-0.00045632990077137947	-0.24360963702201843	-0.015211091376841068	-0.009333906695246696	0.030008630827069283	0.08612393587827682	-0.01061550248414278	-0.022176479920744896	-0.21524053812026978	0.054037436842918396	0.01466040126979351	-0.015053804963827133	0.06157052889466286	0.033688075840473175	0.0039226519875228405	0.06669949740171432	0.25241976976394653	0.001183734042569995	0.02783125825226307	-0.017440026625990868	-0.018072854727506638	0.07524887472391129	0.08337991684675217	-0.0831327885389328	-0.0033838360104709864	-0.1772436499595642	0.3178214728832245	-0.07617697864770889	-0.03721633553504944	-0.07070214301347733	0.05522959306836128	0.020121853798627853	0.0043062069453299046	-0.009504062123596668	-0.07055845111608505	0.08905360847711563	0.004630241543054581	-0.01329457201063633	0.20067526400089264	-0.20810860395431519	-0.0033036901149898767	-0.21524040400981903	0.06975146383047104	0.008990177884697914	-0.016034359112381935	-0.004685929510742426	-0.009501587599515915	0.04363636672496796	0.023357488214969635	0.0012274897890165448	0.013711238279938698	0.011874120682477951	-0.15519604086875916	0.1030462309718132	-0.0571267195045948	-0.0751866027712822	0.0002850914606824517	0.046485841274261475	-0.033763397485017776	0.02958052046597004	0.023147637024521828	-0.04929843172430992	-0.025507455691695213	-0.024877013638615608	0.008807151578366756	-0.09211990982294083	-0.0052668326534330845	-0.05077572166919708	-0.23781141638755798	-0.022432276979088783	0.061243362724781036	-0.056100357323884964	0.03315550461411476	-0.015801098197698593	-0.021519336849451065	-0.013368465006351471	0.08085761964321136	0.05111009627580643	0.1250871866941452	0.07287520170211792	-0.013298559933900833	0.14856697618961334	-0.15214858949184418	0.003489428898319602	0.04305170476436615	-0.008294958621263504	0.024707697331905365	0.0246457289904356	-0.08756467700004578	0.20096413791179657	0.021412018686532974	0.11579374223947525	-0.11491791158914566	-0.017868872731924057	0.0475652851164341	-0.016704032197594643	-0.02925388514995575	0.07547131925821304	0.26384997367858887	-0.09815014898777008	-0.059531018137931824	-0.018897471949458122	-0.1009504422545433	-0.0515415333211422	-0.14844070374965668	-0.058740317821502686	-0.03841216862201691	-0.030185403302311897	-0.05075690522789955	0.011187887750566006	0.025497302412986755	-0.027140285819768906	0.08989758789539337	0.18712244927883148	0.011638578027486801	-0.08936275541782379	-0.001042855205014348	0.011869814246892929	-0.040827203541994095	0.07910071313381195	-0.08362676203250885	0.2826736569404602	-0.02937750145792961	-0.015111410990357399	-0.009864981286227703	0.010397670790553093	-0.061960142105817795	-0.08704308420419693	0.23306570947170258	0.03445187211036682	0.015826500952243805	0.011012537404894829	0.016556663438677788	0.03450033813714981	0.01880406215786934	0.005429583135992289	-0.24829891324043274	0.15568356215953827	0.08555832505226135	-0.004182610660791397	-0.13178841769695282	-0.02217675931751728	-0.09106364101171494	-0.14454355835914612	-0.002807898446917534	-0.05130420997738838	0.1380692571401596	-0.06921227276325226	0.02701377682387829	-0.028025221079587936	-0.16201256215572357	0.020682433620095253	-0.03270857036113739	-0.04745534062385559	0.009207476861774921	-0.03674128279089928	0.06337030231952667	0.047743551433086395	0.08249378204345703	0.055068232119083405	-0.02702164836227894	0.041924599558115005	-0.030195392668247223	-0.01624390110373497	-0.10563677549362183	-0.01592080667614937	0.040971867740154266	-0.1899559050798416	0.01292325183749199	-0.0044129109010100365	-0.029225928708910942	0.2579711973667145	0.02019294537603855	0.1521328091621399	-0.08892186731100082	0.24993766844272614	0.0498013012111187	-0.1153651773929596	0.041665151715278625	-0.0030262889340519905	0.010461494326591492	-0.058717280626297	0.03591064363718033	0.20149020850658417	0.010141127742826939	-0.06437930464744568	0.044089075177907944	0.05492815375328064	-0.0022894919384270906	0.005188927985727787	0.0027445503510534763	-0.0025593722239136696	0.04146549105644226	-0.001295961206778884	0.00014135662058833987	-0.02143290266394615	0.0010161659447476268	-0.1429266780614853	-0.0174726452678442	-0.0016490594716742635	-0.07477765530347824	0.0023875441402196884	-0.006813101004809141	0.1969543695449829	-0.01760563626885414	-0.11041156947612762	0.06445949524641037	0.04300486668944359	-0.03268715366721153	-0.0009505992056801915	-0.01247058529406786	0.07379001379013062	-0.004958513658493757	0.15536481142044067	0.040022943168878555	-0.10544329881668091	-0.014350924640893936	-0.016812285408377647	
0.05097126588225365	0.04756668210029602	-0.033487558364868164	0.0002922800194937736	-0.024744050577282906	0.058375660330057144	0.020098906010389328	0.11512504518032074	-0.008838597685098648	0.18193645775318146	0.013134593144059181	0.10883496701717377	-0.0004055637982673943	-0.0025396139826625586	-0.05875145271420479	-0.04530226066708565	-0.060657698661088943	-0.08239690214395523	0.06767010688781738	0.0466177724301815	0.0481969378888607	0.041999321430921555	-0.12337040901184082	0.034816935658454895	0.034660741686820984	-0.0013384377816691995	-0.15657329559326172	-0.07010535895824432	-0.017165271565318108	-0.04163460060954094	-0.08779383450746536	0.018868261948227882	-0.11516939848661423	-0.004035893362015486	0.052202336490154266	-0.1429619938135147	0.0938941091299057	-0.21840453147888184	0.0324576199054718	-0.01585625484585762	0.017186220735311508	0.06485598534345627	-0.00373850273899734	0.13091328740119934	-0.16168659925460815	-0.05805365368723869	0.030853966251015663	0.012131777592003345	0.03917784243822098	-0.09715010970830917	0.03793163225054741	-0.0604422353208065	0.16145139932632446	0.0479629747569561	0.01983463391661644	-0.04655682295560837	0.19404341280460358	-0.04690257087349892	-0.003676975378766656	0.031833115965127945	-0.008563101291656494	-0.14772866666316986	-0.16509214043617249	0.1736098676919937	-0.11594968289136887	0.00036000803811475635	-0.07715510576963425	0.045701950788497925	-0.0037281427066773176	-0.12796910107135773	-0.05168011039495468	0.09319350123405457	-0.03639943152666092	0.032225463539361954	-0.0685696229338646	-0.03286774083971977	0.010978580452501774	-0.01810348778963089	-0.01095594558864832	-0.03919526934623718	-0.1074221283197403	0.018971914425492287	0.035462044179439545	0.09146188199520111	-0.05032020062208176	-0.033566057682037354	0.03678908944129944	0.019457640126347542	-0.01158833783119917	-0.048758018761873245	-0.015920225530862808	-0.055565349757671356	0.05891033634543419	0.008284065872430801	0.0656188502907753	-0.006970360409468412	-0.017730029299855232	-0.10806147009134293	-0.1380506157875061	0.02940412238240242	0.06876052916049957	-0.04964181408286095	0.00654620910063386	0.003582375356927514	-0.037662845104932785	0.046890780329704285	-0.04369154945015907	0.02271444909274578	0.03323511779308319	-0.028266331180930138	0.000296466430881992	-0.03758210688829422	0.0032271896488964558	0.06107808277010918	0.08950047940015793	-0.05926722288131714	-0.02331271395087242	0.05511083826422691	-0.006912365090101957	-0.07425069808959961	0.25172147154808044	-0.019258856773376465	-0.07698573917150497	-0.019669804722070694	0.06500252336263657	-0.2588786780834198	-0.04007963091135025	0.011691727675497532	-0.00411082012578845	0.05964948609471321	-0.05795569717884064	-0.020745128393173218	0.09468493610620499	-0.0007042112410999835	-0.2204888015985489	0.12051986157894135	-0.036682430654764175	0.08418592810630798	-0.03495513275265694	-0.013759919442236423	-0.041076816618442535	-0.12885256111621857	-0.2083096206188202	-0.08966443687677383	0.008285103365778923	-0.11873500049114227	0.004262418951839209	-0.046948470175266266	-0.044919759035110474	-0.07407228648662567	-0.03571820259094238	0.09422511607408524	0.046987101435661316	0.0806802287697792	-0.02667250670492649	-0.06912190467119217	-0.02140175923705101	0.03612370789051056	-0.05195455253124237	0.013386634178459644	-0.4995235502719879	-0.007125616539269686	-0.3200873136520386	0.03400750458240509	-0.015829935669898987	0.05433842912316322	-0.17714862525463104	-0.05015966668725014	-0.001592219341546297	-0.04555664211511612	-0.06594990938901901	-0.11738326400518417	0.06449663639068604	-0.09995418787002563	-0.045552998781204224	-0.10217029601335526	0.15588195621967316	-0.09606659412384033	0.13695894181728363	0.01487698033452034	-0.03010917827486992	0.04505156725645065	-0.07991454750299454	-0.1260920912027359	0.08355538547039032	0.06189822405576706	-0.01194556150585413	0.0050693172961473465	0.024829553440213203	0.02332921512424946	0.047876421362161636	0.005405815783888102	-0.13156366348266602	-0.028046511113643646	-0.13117413222789764	0.0062250662595033646	-0.006112352944910526	-0.07990747690200806	-0.02575342170894146	0.06530428677797318	-0.17013387382030487	0.09258736670017242	0.1310289055109024	0.15949243307113647	0.08093992620706558	-0.05916670709848404	-0.03401001915335655	-0.13535569608211517	0.09286454319953918	-0.028192492201924324	0.0917595773935318	0.03477662056684494	-0.07669366151094437	0.015390581451356411	0.05551991984248161	0.08700039237737656	-0.1416839361190796	0.07417623698711395	0.07170659303665161	-0.011669502593576908	-0.12221706658601761	0.003577335039153695	0.015013709664344788	0.21009501814842224	0.049486007541418076	-0.10785921663045883	-0.026655413210392	0.06116997450590134	-0.20027108490467072	-0.07167340070009232	-0.13550162315368652	0.0170430988073349	0.07015831023454666	0.04968162626028061	0.02178056351840496	0.010426858440041542	0.02947804145514965	-0.06552846729755402	0.0059813810512423515	-0.0928620919585228	-0.10429474711418152	-0.0048994640819728374	-0.1058616191148758	0.13424217700958252	0.01697324961423874	0.09250470995903015	-0.03889413923025131	-0.01998157799243927	0.1707352101802826	-0.0010248771868646145	-0.0293100718408823	0.02565268613398075	-0.11837193369865417	0.06136501207947731	-0.11407040804624557	0.0358862467110157	-0.02558681182563305	0.040975313633680344	-0.08414196968078613	0.014592866413295269	-0.06251854449510574	0.026295039802789688	0.11632807552814484	-0.0074919164180755615	0.06346702575683594	0.13374879956245422	-0.04526713490486145	-0.10210627317428589	0.13621535897254944	0.06290324032306671	0.054097190499305725	0.01149457786232233	-0.036169249564409256	-0.019512809813022614	0.07715770602226257	0.08923570811748505	-0.08994332700967789	-0.010453074239194393	0.08639820665121078	0.03693264722824097	-0.010222037322819233	-0.03192669898271561	-0.050822485238313675	0.10277927666902542	0.035067617893218994	-0.0458010770380497	0.021736187860369682	-0.06896448880434036	-0.03623596206307411	0.06581822037696838	-0.08940785378217697	-0.10221042484045029	0.10617305338382721	0.09326615929603577	0.2387983202934265	-0.018207358196377754	-0.032769735902547836	-0.04819251969456673	0.02761189267039299	0.10719853639602661	-0.16707909107208252	-0.04134901240468025	0.10797180235385895	0.06825057417154312	-0.06698594987392426	-0.0597720704972744	0.2964920103549957	-0.04381855949759483	0.002819382818415761	0.06885313242673874	0.0005375334294512868	-0.0625157505273819	-0.028587451204657555	0.024220000952482224	0.12922382354736328	-0.04084203019738197	-0.07921615988016129	0.01965920627117157	-0.026235612109303474	-0.009764724411070347	0.10802455991506577	0.1321013867855072	0.014881240203976631	-0.03240412473678589	0.07209382206201553	-0.05788572505116463	-0.02626393549144268	0.018118130043148994	-0.1646970957517624	0.043036073446273804	0.07425303757190704	0.16153158247470856	-0.03769858554005623	-0.03466309607028961	0.030620122328400612	0.01867056079208851	-0.010846626944839954	-0.032153718173503876	-0.029896900057792664	0.11663758009672165	-0.0220476221293211	0.2284754365682602	0.112895667552948	0.11744865030050278	0.018991438671946526	-0.11925400048494339	0.047412578016519547	0.07763725519180298	0.10278242826461792	0.019264791160821915	-0.12195277959108353	-0.5336802005767822	0.008430158719420433	-0.052989162504673004	-0.05641956254839897	0.017321305349469185	0.1479918211698532	0.03893784433603287	-0.040092792361974716	0.1152254194021225	0.0528123714029789	-0.09316956251859665	-0.0519481897354126	-0.013866133987903595	0.4043298065662384	-0.0031972690485417843	0.03546665608882904	0.020189650356769562	0.00854896567761898	-0.026333102956414223	-0.05445611849427223	-0.14223116636276245	-0.05876018479466438	-0.06202927976846695	0.04831252247095108	-0.027913343161344528	0.0638226568698883	0.0072314683347940445	0.061256226152181625	-0.036209460347890854	-0.013852960430085659	0.0033438261598348618	-0.020620517432689667	0.02826480008661747	-0.0007444994989782572	-0.07852105051279068	0.00960587803274393	-0.01815604604780674	0.018732968717813492	-0.03824362903833389	0.07764039188623428	-0.036992836743593216	-0.087148018181324	-0.0001584379788255319	-0.05676920711994171	-0.03425697982311249	-0.07958829402923584	-0.0699465200304985	-0.007322883699089289	-0.011782125569880009	0.0858672484755516	0.18318437039852142	-0.01341370027512312	-0.011839380487799644	-0.05097213387489319	-0.017659010365605354	-0.031039882451295853	-0.08435452729463577	0.050389472395181656	-0.021715937182307243	0.15929099917411804	-0.07353164255619049	-0.000655983341857791	0.007790243253111839	0.14692020416259766	0.021473906934261322	-0.012131444178521633	-0.0053734672255814075	0.003026038408279419	-0.04229430854320526	0.003452479373663664	-0.09425010532140732	-0.13137902319431305	0.0853830873966217	0.027664437890052795	0.0197520162910223	-0.027745740488171577	0.1530863344669342	-0.03630959615111351	0.0009321585530415177	0.05261929705739021	0.14939871430397034	0.0564318411052227	0.017559537664055824	0.052264485508203506	-0.07043948024511337	0.06714808940887451	0.038013163954019547	0.2068783938884735	0.13875581324100494	0.0662812888622284	0.06786666065454483	-0.12340430915355682	0.020974067971110344	0.0018647288670763373	-0.014985295943915844	0.004502606112509966	-0.1269305944442749	0.05131801590323448	0.042027223855257034	0.007693619001656771	0.25199994444847107	0.02159511297941208	0.04538527503609657	0.1289817839860916	0.07307751476764679	-0.12422844767570496	-0.040529102087020874	-0.11487080901861191	0.05353730916976929	0.06511585414409637	-0.03233282268047333	0.013993246480822563	-0.04352125898003578	-0.004187649581581354	0.1171497330069542	-0.049821894615888596	-0.07343878597021103	-0.08417386561632156	0.17658384144306183	0.01390660461038351	0.10667889565229416	0.04982921481132507	0.09785996377468109	0.06432057917118073	-0.04226479306817055	-0.021433454006910324	-0.16925103962421417	-0.05118719860911369	0.00509838480502367	-0.011911260895431042	0.044803693890571594	0.06585962325334549	-0.153583362698555	0.05381600558757782	0.015475225634872913	-0.02290249988436699	0.030144941061735153	0.08695327490568161	0.1258721947669983	-0.020282026380300522	-0.05000091716647148	-0.10079275816679001	-0.09434766322374344	0.10768585652112961	0.08415698260068893	0.02748226374387741	-0.08349738270044327	-0.04204476252198219	-0.016924528405070305	-0.01686304248869419	0.0032235572580248117	0.0841011255979538	0.01540026068687439	-0.015056473203003407	0.05343170091509819	0.0866566076874733	-0.0983293354511261	-0.042220260947942734	-0.006979780271649361	0.04743821918964386	0.001922883908264339	
-0.13428670167922974	0.0747843012213707	-0.044388171285390854	0.16636715829372406	-0.10007239133119583	0.09981438517570496	0.0978906974196434	0.011172406375408173	0.21204319596290588	-0.043905746191740036	0.03986770287156105	0.045167356729507446	-0.010114756412804127	0.014480741694569588	0.009440772235393524	-0.04845183715224266	-0.14799824357032776	0.14179560542106628	-0.11911282688379288	0.05003795400261879	0.12807321548461914	-0.11333435773849487	0.17131753265857697	-0.0024217108730226755	0.06908436864614487	0.17668509483337402	0.05650191754102707	-0.07048960030078888	-0.002317640231922269	0.033464450389146805	-0.1939518004655838	-0.0641121044754982	0.1281459629535675	-0.004646718967705965	-0.0017174303065985441	-0.2871629595756531	-0.08957186341285706	-0.03280561789870262	-0.051077667623758316	0.016965782269835472	0.1398843228816986	-0.00661460543051362	-0.30170878767967224	0.07523925602436066	0.13594895601272583	-0.014577005058526993	-0.027616558596491814	0.10319069772958755	-0.19263534247875214	-0.025111332535743713	0.08529133349657059	0.008932390250265598	0.0018394635990262032	-0.02594889886677265	0.10920426994562149	-0.08390750735998154	0.02117770165205002	0.20543460547924042	-0.004282697103917599	-0.7249469757080078	0.05111413449048996	-0.004662832245230675	-0.04209325462579727	-0.36748939752578735	0.21760626137256622	-0.01754506677389145	0.06676895171403885	0.028050173074007034	0.033353887498378754	-0.05696937441825867	-0.01740383729338646	0.23167797923088074	0.06870070844888687	0.021356627345085144	-0.023186417296528816	-0.07859794795513153	-0.05494074150919914	0.02231096290051937	-0.017356282100081444	0.040476735681295395	-0.03777159005403519	-0.0987338125705719	0.05365710332989693	-0.007118860259652138	-0.020595630630850792	0.031279344111680984	-0.0779971182346344	0.0008139630081132054	0.0701834112405777	0.042114049196243286	-0.0021804713178426027	-0.028873195871710777	-0.02787688933312893	-0.0948578491806984	0.05262098088860512	0.11203383654356003	0.08007307350635529	0.019389605149626732	-0.032917242497205734	-0.012695160694420338	-0.024561451748013496	0.18307027220726013	-0.06949067115783691	0.027115177363157272	0.10596590489149094	-0.028634238988161087	0.01491767168045044	-0.024238038808107376	0.11312243342399597	-0.015241074375808239	0.012171078473329544	-0.1322195678949356	-0.09031937271356583	0.029229875653982162	0.09860337525606155	-0.03475599363446236	-0.1313905566930771	0.024878354743123055	-0.06152235344052315	0.1569538563489914	-0.0070130303502082825	-0.13031664490699768	0.0938325971364975	0.030586184933781624	-0.22123479843139648	0.021323490887880325	0.09125741571187973	0.05789867416024208	-0.0323348268866539	0.32142382860183716	-0.14255757629871368	-0.012365536764264107	-0.005701586604118347	-0.009276937693357468	-0.06506502628326416	-0.06391175836324692	0.03890585899353027	-0.08694866299629211	-0.0010867133969441056	0.001054378692060709	-0.10440842062234879	0.005708273500204086	0.12845225632190704	-0.004005690570920706	-0.6255481839179993	0.03051275946199894	0.03523074463009834	-0.030852485448122025	0.323407918214798	0.015112681314349174	0.05814127251505852	-0.0746140331029892	-0.01778905838727951	-0.020015817135572433	0.1343555599451065	-0.17558886110782623	0.026248902082443237	-0.04670126736164093	-0.06551603972911835	-0.006078430917114019	-0.000427660474088043	-0.538780689239502	-0.013265176676213741	-0.06882086396217346	-0.17598067224025726	0.014864398166537285	0.11142636090517044	0.15063811838626862	-0.1433754712343216	-0.22115297615528107	-0.02518192119896412	0.03469543904066086	0.10337422788143158	0.031668033450841904	-0.09523404389619827	-0.1009383350610733	-0.013307326473295689	0.1416626274585724	0.054602447897195816	-0.013887552544474602	0.2726767659187317	0.21872486174106598	0.010466450825333595	-0.1578686535358429	0.03779568150639534	-0.0006566732190549374	-0.012931546196341515	0.14056888222694397	-0.031005820259451866	-0.07352395355701447	0.06660064309835434	-0.46205466985702515	-0.027030665427446365	-0.0051977806724607944	0.04519065469503403	0.0734376385807991	-0.01340844202786684	-0.058765992522239685	-0.3238450586795807	0.06104811653494835	-0.02475901134312153	0.07770124077796936	-0.2753504812717438	-0.004054373595863581	-0.03316055238246918	-0.10038311034440994	-0.1571994423866272	0.05492784455418587	-0.014529396779835224	-0.03598671033978462	-0.021767908707261086	-0.01824830286204815	-0.08302873373031616	-0.023198070004582405	-0.012683959677815437	0.04055393859744072	-0.0778699591755867	0.044906988739967346	0.020197793841362	0.09118368476629257	-0.001923921168781817	-0.009352692402899265	0.004813846200704575	-0.019633863121271133	-0.004063463304191828	0.038823485374450684	0.0038163908757269382	-0.06304019689559937	-0.07688748836517334	-0.012079046107828617	-0.23529841005802155	0.14345012605190277	-0.02737404778599739	-0.01877973973751068	-0.04846041649580002	0.0095920255407691	-0.007311705499887466	-0.06556811928749084	-0.03030012547969818	0.1316530555486679	0.016847776249051094	0.39805659651756287	0.012912140227854252	-0.03519807383418083	-0.051758069545030594	-0.03923134133219719	-0.27154740691185	-0.02270561270415783	-0.09647276997566223	0.06661271303892136	0.12583962082862854	-0.08757174015045166	0.008635817095637321	-0.05268920212984085	-0.08151175826787949	-0.04734769091010094	0.026177266612648964	-0.04278138279914856	0.015107485465705395	0.017033329233527184	0.029655735939741135	0.045434918254613876	0.13240638375282288	-0.05572300776839256	-0.0026459619402885437	-0.024758638814091682	-0.04794803634285927	-0.04833432659506798	0.0990367978811264	0.03092460334300995	-0.19616106152534485	-0.14691559970378876	0.0372411385178566	0.1891351044178009	0.05515823885798454	-0.08271311968564987	-0.11734965443611145	-0.014213711954653263	0.00015495068510062993	-0.1466246396303177	0.06752905249595642	-0.09200159460306168	-0.048525333404541016	0.01417151466012001	-0.026024075224995613	0.03837365657091141	-0.04524325951933861	0.038722433149814606	-0.01724732667207718	-0.02527972310781479	0.023847471922636032	-0.012938382104039192	0.1726612001657486	-0.1552199423313141	0.0010346875060349703	-0.3146198093891144	-0.03036835603415966	-0.011605750769376755	0.07234641164541245	0.08553017675876617	-0.006161841098219156	-0.10738904774188995	0.017567047849297523	-0.051593389362096786	-0.06468522548675537	0.0006930019590072334	-0.02524429000914097	-0.06309250742197037	-0.08289550989866257	0.13655118644237518	-0.17738139629364014	-0.05193077027797699	0.0664844885468483	-0.21897611021995544	-0.07483071088790894	-0.046531375497579575	0.023366790264844894	0.15927664935588837	0.0030482474248856306	-0.03706832975149155	0.18043801188468933	0.047362472862005234	-0.002370550762861967	0.03524726256728172	-0.013532792218029499	-0.08181241899728775	-0.04085593670606613	-0.009662880562245846	0.0334598645567894	0.07978427410125732	0.15805160999298096	-0.042881760746240616	0.14161522686481476	-0.0016966818366199732	-0.07294788211584091	0.10886027663946152	-0.06686180084943771	-0.026415014639496803	0.015546221286058426	-0.11021174490451813	-0.03348776698112488	-0.023307528346776962	0.0671415776014328	-0.05167444422841072	0.012750090099871159	0.022072510793805122	0.337629497051239	-0.1984362006187439	-0.033057801425457	0.06215934827923775	0.00861557386815548	0.007025395520031452	-0.014128915034234524	0.34093666076660156	0.0035769210662692785	-0.042042478919029236	-0.024699920788407326	-0.0414978452026844	-0.020740650594234467	0.09896311163902283	-0.0997164323925972	-0.032818250358104706	0.23303645849227905	0.0016607196303084493	-0.024651991203427315	-0.0007074782042764127	-0.07710430026054382	0.019331129267811775	0.005113509949296713	-0.029658103361725807	-0.004315346945077181	-0.053263597190380096	-0.08032086491584778	-0.03524278104305267	0.009817618876695633	-0.028534360229969025	0.06648258864879608	-0.010714919306337833	-0.015611402690410614	-0.04499099776148796	0.0036163891199976206	0.07273172587156296	0.09540032595396042	-0.4015129804611206	0.003721191082149744	-0.2615545392036438	0.012020028196275234	-0.03304870054125786	-0.014695649035274982	0.029131459072232246	0.06321500986814499	0.02036920003592968	-0.09972230345010757	0.03596111014485359	-0.17777206003665924	0.008262227289378643	0.042571619153022766	-0.19765566289424896	0.07937303185462952	0.06971989572048187	0.1387946456670761	-0.15013152360916138	-0.3087683320045471	-0.003655830631032586	-0.0052755456417799	-0.003514036303386092	0.07518349587917328	0.3135332763195038	0.01105216983705759	0.06085960939526558	-0.03072366677224636	0.0433008074760437	0.014448639936745167	-0.03184277191758156	0.4178968369960785	0.21418091654777527	0.043978601694107056	0.04309552535414696	-0.044937677681446075	-0.05774535611271858	-0.14657342433929443	-0.039374858140945435	-0.0886957198381424	-0.07671298831701279	0.01520775631070137	-0.11336217075586319	-0.07654406130313873	0.15448026359081268	0.00516425771638751	0.017132993787527084	0.08942119777202606	0.2126566469669342	0.06438355147838593	0.1704593300819397	-0.18278804421424866	-0.005753241945058107	-0.29130983352661133	-0.0831521525979042	-0.0067616114392876625	-0.24257637560367584	0.06432861089706421	-0.09543167799711227	0.04188885912299156	0.05765417590737343	-0.2813132107257843	0.01662854664027691	0.01705147884786129	-0.13106226921081543	0.04170972481369972	0.0675516352057457	-0.02918565459549427	0.02803725190460682	-0.13447022438049316	-0.06893735378980637	-0.030780140310525894	-0.009848195128142834	0.04929051175713539	0.03481465205550194	0.07369044423103333	0.02506994642317295	-0.0836983397603035	-0.19337056577205658	-0.06401395797729492	0.008659864775836468	0.04062679409980774	-0.13936947286128998	0.1793413609266281	-0.029507072642445564	0.05904514342546463	-0.1668013632297516	-0.059284161776304245	0.06480568647384644	-0.01585017703473568	0.11224675178527832	0.03965585306286812	-0.07912560552358627	-0.02366349846124649	0.2205379456281662	-0.03553735464811325	-0.041507538408041	-0.05410211533308029	-0.011435199528932571	0.007894454523921013	-0.03091549314558506	0.008325048722326756	0.06215107440948486	0.0042887586168944836	0.05287189409136772	-0.02177239954471588	-0.014048601500689983	-0.14324791729450226	-0.03071044571697712	0.07147091627120972	0.027505261823534966	0.01852128654718399	0.05953240767121315	0.07557898014783859	-0.002956410637125373	0.003319517243653536	-0.025352487340569496	-0.02189810574054718	0.043546389788389206	0.04003278538584709	0.030763547867536545	0.04435153678059578	-0.22756142914295197	-0.022766144946217537	-0.01404544897377491	0.054205186665058136	-0.05500537157058716	-0.16711099445819855	0.011814703233540058	
0.0682947114109993	0.023613104596734047	0.07221981137990952	0.06692559272050858	0.09797403216362	-0.02978830598294735	-0.006548511795699596	-0.048263102769851685	0.03912138193845749	-0.096565380692482	0.05558747053146362	-0.08579059690237045	-0.04946595057845116	0.10457540303468704	-0.04364468902349472	0.00935907382518053	-0.14458076655864716	-0.025736169889569283	0.008478007279336452	0.036511026322841644	-0.0364338718354702	0.03570462390780449	0.0995204821228981	-0.013117964379489422	-0.05943698063492775	-0.08222129940986633	-0.022462598979473114	-0.057618703693151474	-0.1514354795217514	0.019843852147459984	0.07083345949649811	0.08436791598796844	-0.07670926302671432	0.08394455909729004	-0.007168937940150499	0.1295042335987091	0.0500272735953331	-0.012517915107309818	0.013627441599965096	-0.13232259452342987	-0.2626277208328247	-0.07903383672237396	-0.08028645068407059	0.05957406759262085	-0.04111814126372337	0.00174379360396415	0.04230361431837082	-0.18154017627239227	-0.05471958592534065	0.0038762157782912254	-0.040828634053468704	0.010285953059792519	-0.02974625863134861	-0.04784979671239853	0.21502508223056793	0.002205439144745469	-0.21263591945171356	0.03488660231232643	-0.03790074586868286	0.0658499225974083	-0.04344809055328369	-0.04746778681874275	-0.016692858189344406	-0.037568800151348114	0.02443964034318924	0.27655744552612305	0.011374461464583874	-0.07704004645347595	-0.046531934291124344	0.12305353581905365	0.036422453820705414	0.12123392522335052	9.571740520186722e-05	0.05612321197986603	0.29685741662979126	-0.09199196100234985	-0.05136061832308769	0.0062896134331822395	0.15664595365524292	-0.11333854496479034	-0.09545411914587021	-0.01014705840498209	0.13443298637866974	0.0008084569126367569	0.04303485527634621	0.07702495157718658	-0.04151200130581856	-0.3528135120868683	-0.03080608695745468	-0.01523592509329319	0.0002051646588370204	0.05800902843475342	-0.10785242915153503	-0.010546538978815079	0.06399360299110413	-0.10081512480974197	0.0395524688065052	-0.02097356878221035	-0.20083849132061005	0.16609905660152435	-0.10054482519626617	0.06560026854276657	0.09112747013568878	0.20859554409980774	0.019855890423059464	-0.21111850440502167	0.0075474395416677	-0.22396494448184967	0.10461034625768661	-0.007874639704823494	0.1508243829011917	-0.1019166111946106	0.04578300565481186	-0.25745582580566406	-0.0523013174533844	0.02164502814412117	0.10619014501571655	-0.013282566331326962	-0.045009464025497437	-0.06591367721557617	0.005201322492212057	0.07953739166259766	0.08379463851451874	-0.005436986684799194	0.029507050290703773	0.04600798711180687	0.04230736941099167	-0.147355854511261	-0.022167006507515907	0.06761317700147629	0.02421746775507927	0.013055915012955666	0.01828881911933422	0.09474561363458633	0.009328847751021385	-0.0835070088505745	-0.12930765748023987	0.1028904840350151	0.059878136962652206	0.13189853727817535	-0.12282492965459824	0.033026207238435745	0.10959577560424805	-0.049402955919504166	-0.0664508193731308	-0.0026969825848937035	-0.24949140846729279	0.01769494079053402	0.029573388397693634	0.021131275221705437	0.1232636496424675	0.07017361372709274	0.03615167737007141	-0.06019409000873566	0.04147784784436226	0.1073075607419014	0.09397821873426437	0.2894403636455536	-0.4193849563598633	0.010903908871114254	-0.032086484134197235	-0.15239788591861725	0.11887400597333908	0.1955740749835968	-0.16626445949077606	-0.03953316807746887	0.0038395333103835583	-0.003404167015105486	0.06311345845460892	0.11532608419656754	0.09985943138599396	-0.037700142711400986	-0.20045016705989838	0.017495110630989075	-0.14965090155601501	0.08873920887708664	-0.027719786390662193	0.011523792520165443	0.11557283252477646	-0.07183612883090973	-0.08482600003480911	-0.11582840979099274	-0.1488003432750702	-0.13415198028087616	-0.03016590140759945	-0.043085817247629166	-0.055115677416324615	-0.02373318187892437	0.016747569665312767	0.13954269886016846	0.1350504755973816	0.0020386064425110817	0.06371653079986572	-0.05015883967280388	0.12331735342741013	-0.06863462179899216	-0.06351169943809509	-0.040679529309272766	0.1249665841460228	0.14901983737945557	0.055681537836790085	-0.002865168498829007	0.020602421835064888	0.03773907199501991	-0.025529326871037483	-0.03336295858025551	0.06668397039175034	0.009549913927912712	-0.0041413456201553345	-0.04399866610765457	-0.025106731802225113	-0.01686485856771469	-0.09568633884191513	-0.0005479644751176238	-0.04226391389966011	-0.027343813329935074	0.015018641948699951	-0.01433257944881916	-0.22687293589115143	0.29903435707092285	-0.017802104353904724	-0.01599208638072014	0.08702194690704346	-0.005217516794800758	0.14524130523204803	0.044786062091588974	0.09356530755758286	-0.06881711632013321	-0.13064338266849518	0.19054627418518066	-0.015177330933511257	-0.030353084206581116	0.047888368368148804	-0.05173376947641373	0.026864251121878624	0.15569989383220673	-0.1459726095199585	0.2720867097377777	-0.06457410007715225	-0.04746038094162941	0.10234241187572479	-0.011305910535156727	-0.1793307065963745	-0.04081827402114868	-0.12118378281593323	-0.0033058300614356995	0.058874908834695816	0.1857587993144989	0.020686985924839973	-0.05018828809261322	0.1910761445760727	0.05468243733048439	-0.009692266583442688	0.06161858141422272	-0.08544086664915085	0.04707083851099014	0.021217696368694305	0.010920378379523754	0.02299804426729679	0.023195452988147736	0.0014403635868802667	-0.05353381484746933	-0.025719212368130684	-0.003457207465544343	-0.0302375890314579	0.10072322189807892	0.0941375270485878	0.0046975756995379925	0.134403795003891	-0.07358172535896301	0.048053208738565445	-0.07234480232000351	-0.13136327266693115	-0.015970073640346527	0.1086474359035492	-0.06677050143480301	0.03437426686286926	0.05701085552573204	0.020296797156333923	-0.13007046282291412	-0.09931231290102005	0.21862518787384033	-0.03822306916117668	-0.13580051064491272	-0.003935445100069046	-0.04260943457484245	-0.05018727481365204	0.005205483175814152	-0.007415566593408585	0.14887064695358276	-0.005676229950040579	0.01281951367855072	0.12806132435798645	-0.01039833389222622	0.0675596073269844	-0.06786570698022842	-0.047271329909563065	-0.018450045958161354	-0.16760168969631195	-0.0048239510506391525	-0.0639500766992569	0.14022673666477203	0.14916226267814636	0.04659353569149971	0.16559623181819916	-0.06594379246234894	-0.0495280884206295	-0.13581342995166779	0.10806647688150406	-0.0006550878169946373	0.023619266226887703	0.03415275365114212	0.047092050313949585	-0.0010085748508572578	-0.05919129028916359	0.03326936438679695	0.020248105749487877	0.07276960462331772	0.0008927129092626274	-0.009520784951746464	0.11266205459833145	0.021769197657704353	0.18199533224105835	0.0048851859755814075	0.034036360681056976	0.06634929031133652	-0.07113046944141388	-0.027109047397971153	0.016289448365569115	-0.01246615033596754	-0.0038167661987245083	0.1056046336889267	-0.09016963839530945	-0.10330105572938919	0.05137448012828827	-0.006851583253592253	-0.044452566653490067	0.025027858093380928	0.19199702143669128	-0.01242814026772976	-0.04358260706067085	0.0012627365067601204	0.06704605370759964	0.00915024895220995	-0.019158069044351578	0.004072507843375206	-0.04825486242771149	0.08778709918260574	-0.00958192814141512	-0.12364578247070312	0.021285440772771835	0.006983036175370216	0.015261066146194935	0.03953519091010094	0.00989699736237526	0.031392116099596024	0.05723443254828453	0.14513914287090302	-0.024798445403575897	-0.06747636944055557	-0.07497208565473557	0.16652508080005646	0.09611023962497711	0.0977676510810852	0.032630715519189835	0.044276509433984756	-0.1905250996351242	0.06557679921388626	-0.02810494974255562	0.08377939462661743	-0.08126683533191681	0.1341826617717743	0.10318224877119064	0.0698317438364029	0.02703551948070526	0.16710253059864044	0.037296321243047714	-0.1113419458270073	-0.07386848330497742	0.0730360820889473	0.02603827975690365	-0.13352236151695251	0.029584821313619614	-0.04573594406247139	0.042511675506830215	0.007579459343105555	-0.08916307240724564	-0.03505147248506546	-0.019132286310195923	-0.04963310435414314	-0.26060950756073	0.009431653656065464	0.03545132279396057	0.17514365911483765	0.09128757566213608	-0.031133968383073807	-0.01638435386121273	-0.001773328403942287	-0.07210121303796768	-0.21029387414455414	0.14026840031147003	0.12768854200839996	-0.06517677754163742	0.018651019781827927	-0.024295205250382423	0.03646295890212059	0.16681289672851562	-0.058358289301395416	-0.009509406052529812	0.08683069050312042	0.024433724582195282	-0.033909980207681656	-0.022248180583119392	0.018249256536364555	0.03593616560101509	-0.03602173179388046	0.034004174172878265	0.0751878023147583	0.16254539787769318	-0.003893636865541339	-0.09416239708662033	-0.2408904880285263	0.11081555485725403	-0.05171002820134163	0.012970568612217903	-0.08104825019836426	0.07929276674985886	-0.16587956249713898	-0.017399117350578308	0.06862543523311615	-0.060945719480514526	-0.06842115521430969	-0.08618888258934021	0.08100797981023788	0.05106518045067787	0.043299924582242966	0.11788249760866165	0.11923767626285553	0.019102951511740685	0.006520237773656845	-0.0073983799666166306	-0.0389929935336113	-0.13260330259799957	-0.011103594675660133	-0.022699974477291107	0.003758139442652464	0.025990242138504982	-0.21946050226688385	0.14032121002674103	0.10251034051179886	0.05801364779472351	-0.02010059729218483	-0.020380068570375443	0.07257295399904251	-0.026511041447520256	-0.06575392931699753	0.10804861038923264	0.10972268879413605	-0.045367155224084854	0.1008191704750061	0.04804143309593201	0.021441251039505005	-0.09456772357225418	0.017259690910577774	0.061732228845357895	0.08096420764923096	-0.02535059303045273	0.04598492383956909	-0.21722866594791412	0.17816096544265747	-0.009124518372118473	0.1281813383102417	-0.0764249935746193	0.17098046839237213	0.018761591985821724	-0.05125086382031441	-0.05073773115873337	0.10876177251338959	-0.01651965081691742	-0.15684320032596588	-0.14264705777168274	0.03477069362998009	-0.1926969438791275	-0.11165101081132889	0.04734694957733154	-0.1492239534854889	0.23821838200092316	0.06687065213918686	0.0016746731707826257	-0.0644889548420906	0.0649564117193222	-0.03862585499882698	-0.025164436548948288	-0.11321213096380234	-0.004824706353247166	-0.00344970915466547	-0.04977596923708916	0.026333460584282875	0.013223274610936642	-0.06672877073287964	-0.04146507754921913	-0.3659595549106598	-0.07065733522176743	0.01991385407745838	-0.0004541276430245489	-0.035149022936820984	-0.025847705081105232	0.054838038980960846	0.034066155552864075	-0.3396383225917816	0.10923876613378525	-0.048657916486263275	
-0.10347265750169754	0.03400279954075813	0.0886368528008461	0.05400894582271576	0.03206990659236908	-0.015173344872891903	-0.03147224336862564	-0.018660830333828926	0.08865746110677719	0.02145465649664402	0.032999325543642044	0.03156310319900513	0.010682221502065659	0.027377935126423836	-0.04019267112016678	-0.04327335208654404	-0.024043092504143715	0.09958284348249435	0.04981214553117752	0.13365723192691803	-0.27343857288360596	0.03883014991879463	-0.02720545046031475	0.04710223898291588	-0.015392438508570194	-0.07160671800374985	-0.031619708985090256	-0.028208617120981216	0.05331031605601311	0.10903757810592651	0.045629557222127914	0.012301284819841385	0.004983359947800636	-0.007060803007334471	-0.00797060877084732	-0.06244613975286484	0.06918634474277496	-0.01010921224951744	-0.05283823236823082	-0.06176487356424332	0.019965482875704765	0.03461325913667679	-0.006842403206974268	-0.09253065288066864	-0.0027479217387735844	0.004875058773905039	-0.01987503468990326	-0.06854402273893356	-0.04228930547833443	0.014156653545796871	-0.04749351367354393	0.010345198214054108	-0.04380957409739494	-0.061137210577726364	0.21007169783115387	-0.11458674818277359	0.03636731207370758	0.025158653035759926	-0.0241216029971838	-0.08525338023900986	0.06497003138065338	0.028053250163793564	0.0339050255715847	-0.07310259342193604	0.09198647737503052	0.05723985284566879	-0.002570562530308962	0.07444683462381363	-0.057764582335948944	0.08340675383806229	-0.04174353554844856	0.13392694294452667	-0.03857911378145218	-0.037266772240400314	-0.026313886046409607	0.03157098591327667	0.008483960293233395	0.007467242889106274	-0.0823756530880928	-0.20744317770004272	0.024067264050245285	0.1653171330690384	-0.12112736701965332	-0.005878631956875324	-0.004525322932749987	0.02045297622680664	0.03876413777470589	-0.051498133689165115	0.13476631045341492	-0.033995915204286575	0.028801513835787773	0.1740560531616211	0.08621754497289658	-0.05299306660890579	0.02251967042684555	0.060850147157907486	0.05437726899981499	-0.16091382503509521	0.04504668712615967	-0.016444936394691467	0.02217595838010311	0.0013192511396482587	-0.06484685093164444	-0.030184412375092506	-0.06716538965702057	0.08467398583889008	-0.04526279494166374	-0.012591607868671417	-0.099789559841156	0.042051009833812714	0.009308172389864922	0.019137000665068626	0.0650906190276146	0.05475465580821037	-0.07629286497831345	-0.017911942675709724	0.04442823305726051	-0.010831748135387897	-0.00711870240047574	-0.12934744358062744	-0.008260728791356087	0.08403626084327698	-0.06411168724298477	-0.033954162150621414	0.11599378287792206	-0.042574137449264526	-0.1977982223033905	-0.00926277693361044	-0.01959204487502575	0.07687100023031235	-0.012188339605927467	0.260713666677475	0.04962758719921112	-0.04701269418001175	-0.09437693655490875	-0.024054985493421555	-0.06835749745368958	-0.09058387577533722	-0.027698302641510963	-0.0240189041942358	-0.018319236114621162	-0.011591244488954544	0.08008799701929092	0.016422055661678314	-0.019761553034186363	-0.004736973438411951	-0.06798296421766281	0.06524612009525299	0.07831209152936935	0.021021664142608643	0.06525421142578125	0.002910042880102992	0.0503946989774704	0.004508060868829489	0.10096076875925064	0.19399341940879822	-0.04211676865816116	0.08365321159362793	-0.0007540017832070589	0.022514112293720245	-0.05725225806236267	0.09288503229618073	-0.03370366245508194	-0.0038700448349118233	-0.11426837742328644	0.02928033657371998	-0.017474189400672913	0.04349254071712494	0.005162600893527269	0.325051486492157	0.02798200026154518	-0.054443493485450745	0.05336175113916397	0.008342215791344643	-0.1580362766981125	0.08302108943462372	-0.03195436671376228	-0.11321074515581131	0.09319169819355011	0.021890705451369286	0.1896570771932602	0.035440653562545776	0.07717465609312057	-0.030569816008210182	-0.09189179539680481	0.032009050250053406	0.010317298583686352	0.23598790168762207	0.03662988170981407	-0.026526153087615967	0.04988812655210495	0.016860125586390495	0.01223835814744234	-0.05639304593205452	0.09076723456382751	-0.14871768653392792	0.039795976132154465	0.06537240743637085	0.004325307440012693	-0.03280758112668991	0.1325433850288391	-0.07858012616634369	-0.03784938529133797	-0.01936083473265171	0.029994292184710503	0.10881435126066208	0.14061345160007477	0.013921668753027916	-0.027831222862005234	-0.07300419360399246	0.08730519562959671	-0.01244034431874752	0.06021843105554581	-0.0630987212061882	-0.08819755166769028	-0.0024304965045303106	0.005841979291290045	0.05475037917494774	0.0015469203935936093	-0.21824736893177032	0.21298977732658386	-0.0036097124684602022	0.09318939596414566	-0.01353446301072836	0.014685023576021194	0.02438344433903694	-0.20385318994522095	0.02498578652739525	0.04431356117129326	0.09818301349878311	-0.06913534551858902	0.1101107969880104	-0.0018721235683187842	-0.09632799029350281	0.013170666061341763	-0.33548179268836975	-0.03280174359679222	-0.0716332197189331	0.06738142669200897	0.001579195843078196	0.05455799773335457	0.0266463253647089	0.08563466370105743	0.041177619248628616	0.08045375347137451	0.10625412315130234	0.0996980294585228	-0.005028899759054184	-0.004822519142180681	-0.0495372973382473	0.020881325006484985	-0.012444425374269485	0.026707790791988373	0.009798271581530571	0.1636476069688797	-0.03266281262040138	0.03868832811713219	0.0038096981588751078	-0.022683050483465195	0.056408997625112534	0.017704837024211884	-0.009221633896231651	0.04251161217689514	0.007171718403697014	-0.004022179637104273	-0.05140183866024017	0.19065679609775543	-0.00023199805582407862	-0.0915616974234581	0.07189557701349258	0.13745325803756714	-0.20539440214633942	-0.030527062714099884	0.12251666188240051	0.1685187667608261	-0.007824365049600601	0.11179367452859879	-0.033960647881031036	-0.004029075149446726	-0.03567671775817871	-0.005443450529128313	0.06940768659114838	-0.20130310952663422	0.11610451340675354	-0.0027544295880943537	-0.31054797768592834	0.048254698514938354	-0.014550146646797657	0.010452276095747948	-0.10167241841554642	0.0202628243714571	-0.033467162400484085	0.01032207440584898	0.05248710885643959	0.026436787098646164	-0.044992849230766296	-0.041834693402051926	-0.00769064761698246	-0.09873461723327637	-0.06681625545024872	0.006421438418328762	0.011876383796334267	0.01118463184684515	-0.013866446912288666	-0.006293402053415775	-0.004524089861661196	0.027571555227041245	0.022965585812926292	-0.02953531965613365	-0.04916955903172493	0.08116831630468369	0.03426437824964523	-0.01058135461062193	-0.06291507184505463	0.052733469754457474	0.03580445796251297	0.10799582302570343	0.08760898560285568	0.025634560734033585	0.049087777733802795	0.16111892461776733	0.024093976244330406	0.04040055349469185	-0.041656192392110825	-0.08224421739578247	0.07525249570608139	0.011452381499111652	-0.05253898724913597	0.027960004284977913	-0.070171058177948	0.06382835656404495	0.08771692216396332	-0.038405194878578186	-0.022429581731557846	0.11729152500629425	-0.1060786321759224	0.056792303919792175	-0.09049347788095474	0.009700125083327293	0.00825389102101326	0.10026679933071136	0.03403770551085472	0.0032477974891662598	-0.0023308012168854475	-0.0032041571103036404	-0.011490453965961933	0.03249241039156914	0.02382941171526909	0.12768377363681793	0.07165196537971497	-0.0007062766817398369	0.03365714102983475	0.0004254177038092166	0.0672176256775856	0.010338026098906994	-0.009266946464776993	-0.009896102361381054	0.10313096642494202	0.046258751302957535	-0.04752526059746742	-0.011284638196229935	-0.09774594753980637	-0.011078892275691032	0.00391542399302125	0.004927780479192734	-0.11296192556619644	-0.12804746627807617	-0.05866147205233574	0.03332095220685005	-0.0657832995057106	0.03150052949786186	0.047539591789245605	-0.20539496839046478	-0.036256782710552216	-0.01537540927529335	0.03520170599222183	-0.022403212264180183	-0.011798316612839699	0.00357263651676476	0.01783142052590847	0.08894336223602295	0.0472787544131279	-0.07316525280475616	-0.0016312296502292156	0.01062120869755745	-0.1474229395389557	0.06458500772714615	0.06542851030826569	0.07565341144800186	0.01624736376106739	-0.016225242987275124	0.013610810041427612	-0.1039862409234047	-0.22916948795318604	0.024893706664443016	-0.012500910088419914	-0.0388290137052536	-0.0286274254322052	0.033410944044589996	-0.04746352881193161	-0.06821329146623611	0.07163641601800919	-0.10867923498153687	0.020951300859451294	0.050480276346206665	-0.05398384481668472	0.00144084298517555	0.017579013481736183	-0.025546791031956673	-0.0377800390124321	0.0012852506479248405	0.017833825200796127	-0.0037843496538698673	-0.05943665653467178	-0.11977288126945496	-0.2874244153499603	0.01888500526547432	-0.12068233639001846	0.02936294488608837	0.020196519792079926	-0.018629327416419983	0.01184753142297268	-0.0006057669525034726	-0.10076458007097244	-0.00012034213432343677	0.07619527727365494	0.08831561356782913	-0.02678576111793518	-0.0050732786767184734	-0.04792534559965134	0.0025652300100773573	-0.04135354235768318	0.025236010551452637	-0.2794356048107147	-0.032125718891620636	-0.10302181541919708	0.20890425145626068	0.015943903475999832	0.0026797675527632236	0.02402268908917904	0.11653470993041992	-0.055849310010671616	0.04946336895227432	0.042756203562021255	-0.14167144894599915	0.017963076010346413	0.014213021844625473	-0.08801471441984177	-0.02503962814807892	-0.16164980828762054	0.0651354268193245	0.0059285289607942104	0.08885785192251205	0.14263859391212463	0.005104233976453543	0.03231695294380188	-0.05197620764374733	-0.03658892586827278	-0.05611657351255417	0.03645811602473259	0.1427372843027115	-0.007025964558124542	0.01971052959561348	-0.006684842053800821	0.02504688687622547	-0.09620111435651779	-0.01635923609137535	0.02119169384241104	0.10174772888422012	-0.14855267107486725	0.023653192445635796	0.016054214909672737	-0.0466151125729084	0.007546691223978996	0.047075461596250534	0.04013064131140709	0.020102225244045258	-0.007323265075683594	0.0936337560415268	-0.069902703166008	-0.02764739654958248	0.002852251287549734	0.05862406641244888	0.058155760169029236	0.02608586847782135	-0.041053544729948044	0.07605535537004471	0.021145565435290337	0.0009007479529827833	0.054334163665771484	-0.022534383460879326	-0.028920592740178108	0.000781184178777039	0.11087487637996674	0.045674629509449005	0.043346282094717026	0.018425974994897842	0.09363071620464325	-0.003260272555053234	-0.07901622354984283	-0.010460034012794495	-0.2354775220155716	-0.08411262184381485	-0.03087415173649788	-0.014020792208611965	0.031234601512551308	0.006536820437759161	-0.050760939717292786	-0.02815260924398899	0.14406464993953705	0.06976091861724854	0.04791189357638359	
-0.0449046716094017	-0.031074751168489456	0.005305166356265545	0.01053166575729847	-0.0001331609091721475	0.027334043756127357	-0.012262439355254173	-0.012785892002284527	0.009836371056735516	0.05199123173952103	0.013698779046535492	-0.0066945478320121765	0.12142360210418701	-0.011194553226232529	0.028209010139107704	-0.06454238295555115	0.01654389314353466	0.0013353924732655287	0.06725593656301498	0.014557997696101665	-0.009525204077363014	-0.003544048871845007	0.09734006971120834	0.005062827840447426	-0.007907789200544357	-0.044205475598573685	-0.026888743042945862	-0.16062885522842407	0.03548076003789902	-0.029970673844218254	0.008861863985657692	-0.02259240671992302	0.08073586970567703	-0.002330054761841893	0.0338936522603035	0.05565759539604187	-0.015144004486501217	0.015410136431455612	0.0524926520884037	-0.022070297971367836	0.009431128390133381	-0.1414651721715927	-0.08426478505134583	0.03657672181725502	0.053241029381752014	0.052790503948926926	0.07141877710819244	0.046290721744298935	0.002729962579905987	-0.005301154218614101	-0.009881074540317059	0.02840707078576088	-0.010252822190523148	-0.0014968361938372254	-0.012640726752579212	-0.05212234705686569	-0.0161601472645998	0.09289693087339401	-0.004728965926915407	-0.015170406550168991	0.02777099795639515	-0.07408630847930908	-0.03594890609383583	-0.1246238723397255	0.0647706389427185	0.02524958923459053	-0.010725810192525387	-0.007710898295044899	-0.01724441535770893	-0.0037663772236555815	-0.005610073450952768	-0.02849293313920498	0.023333752527832985	0.035324711352586746	0.02398206852376461	-0.03277906775474548	0.03865251690149307	-0.0023732066620141268	-0.005618374329060316	-0.0283206794410944	0.038240402936935425	0.001286693150177598	-0.0012731467140838504	-0.011727966368198395	-0.0018038325943052769	-0.019770881161093712	-0.00023069852613843977	-0.01695883274078369	0.014047802425920963	-0.01037104707211256	-0.024057865142822266	-0.0027999577578157187	6.454023969126865e-05	0.027570538222789764	0.06062968075275421	0.03518638759851456	6.046851922292262e-05	-0.009445811621844769	-0.0029395497404038906	0.006214448716491461	0.0015803768765181303	0.06669311225414276	-0.00041141806286759675	-0.037070825695991516	-0.018408384174108505	0.009402801282703876	0.025941116735339165	-0.04759407043457031	-0.006815700326114893	-0.020343655720353127	0.019172275438904762	-0.0038843639194965363	-0.02484399825334549	-0.02547324448823929	0.17699463665485382	0.030196592211723328	0.0019369303481653333	0.00813403818756342	0.006020530592650175	-0.13498269021511078	-0.22086794674396515	-0.002890234347432852	-0.1105610728263855	0.00789707899093628	0.04622749239206314	-0.006518347654491663	0.008843747898936272	-0.0018177914898842573	-0.005113951861858368	0.014490172266960144	-0.05319124832749367	-0.006975055206567049	0.026873884722590446	0.047678038477897644	0.0965658649802208	0.0571720153093338	-0.03371230140328407	-0.08576364070177078	-0.010721647180616856	0.029436904937028885	-0.01152037363499403	-0.010006005875766277	-0.08438568562269211	0.014722679741680622	0.04054807126522064	-0.048177964985370636	-0.0049155037850141525	0.04322689399123192	0.008343107998371124	-0.06020490080118179	0.02305436134338379	0.026005588471889496	-0.006095230113714933	-0.010748413391411304	0.01463271677494049	0.00627539586275816	0.03306679055094719	0.03903508931398392	-0.0307770948857069	0.004825477954000235	-0.11788597702980042	-0.07420580834150314	-0.01784244365990162	-0.027505557984113693	-0.08871778845787048	-0.031713731586933136	-0.006103065330535173	-0.04009054973721504	0.002754549728706479	0.004586282651871443	0.002645316068083048	-0.007949653081595898	-0.049891043454408646	-0.0011802113149315119	-0.030590051785111427	-0.014200347475707531	-0.02597649209201336	-0.003303536446765065	0.005529753863811493	-0.011264852248132229	-0.030804453417658806	0.009799929335713387	0.0330045185983181	0.04347763583064079	-0.0180938970297575	0.021073902025818825	-0.007331888657063246	-0.02942686527967453	-0.010156792588531971	-0.03364581987261772	-0.0033561023883521557	0.040495507419109344	0.06516962498426437	-0.05677550286054611	-0.05586743354797363	0.008963341824710369	0.0023252228274941444	-0.024875909090042114	-0.01168891228735447	-0.013409801758825779	0.16631202399730682	0.09329314529895782	-0.009588479995727539	-0.008873612619936466	0.0192090030759573	0.027318159118294716	-0.015524436719715595	-0.016408300027251244	0.051510270684957504	-0.03285256400704384	0.02756558172404766	-0.05022424831986427	0.07767929136753082	0.0036201647017151117	-0.0015790926991030574	0.011166810058057308	0.11095122247934341	-0.030516350641846657	0.023157110437750816	0.01374860294163227	0.01642022095620632	0.006283876486122608	-0.022762920707464218	0.017394300550222397	-0.04153560474514961	0.01184204313904047	-0.004087957087904215	0.009545685723423958	0.029274560511112213	-0.018895413726568222	-0.0813974142074585	0.0042049456387758255	-0.0075247325003147125	-0.01838710717856884	0.01308877021074295	0.06779729574918747	0.03835895285010338	-0.0575416162610054	0.001661556656472385	-0.023588215932250023	0.042679134756326675	-0.02118770219385624	-0.034265339374542236	-0.012446639128029346	0.007258634548634291	-0.046974118798971176	0.021511271595954895	-0.008418712764978409	-0.007436968386173248	-0.022381406277418137	-0.017541727051138878	-0.012841740623116493	0.0027303181122988462	0.03679530322551727	-0.012055780738592148	0.004818812012672424	-0.02285183221101761	0.03428768739104271	-0.010915063321590424	-0.03238489478826523	0.035343386232852936	-0.026275845244526863	-0.039921704679727554	-0.006565414369106293	-0.02677232399582863	0.025980917736887932	-0.07263364642858505	-0.005865420680493116	0.02284049242734909	-0.01594930700957775	0.025185732170939445	0.008488832972943783	0.0009588625398464501	-0.027908669784665108	-0.020959433168172836	0.06277978420257568	-0.083903968334198	-0.040442194789648056	0.025099076330661774	0.011297263205051422	0.02785342000424862	0.020332880318164825	0.044597312808036804	0.060184720903635025	-0.11186891794204712	-0.011625956743955612	0.04143171384930611	-0.08987639844417572	0.00735223013907671	-0.0027726925909519196	0.09090173244476318	-0.06399892270565033	0.05115422606468201	0.012631364166736603	-0.04768871143460274	0.0541125126183033	-0.006973078940063715	-0.0038524940609931946	-0.028826210647821426	-0.009234237484633923	-0.018124746158719063	0.004482387099415064	0.024255866184830666	-0.041523873805999756	-0.010946148075163364	0.020369108766317368	0.004759528208523989	0.018102431669831276	-0.035429947078228	-0.08477119356393814	-0.08608792722225189	0.06619268655776978	-0.011755631305277348	-0.04992673173546791	-0.035758644342422485	-0.0008310902048833668	-0.03302566334605217	0.0008241493487730622	-0.00027001366834156215	-0.04218771308660507	-0.00171327730640769	0.00884845107793808	0.006712759844958782	0.005738479550927877	-0.0007095737382769585	0.08665313571691513	0.006768392864614725	-0.009299345314502716	-0.014500811696052551	-0.005137795582413673	-0.01053980365395546	0.03380618244409561	0.04376605153083801	0.007007341831922531	-0.07073753327131271	0.009091923013329506	0.039774782955646515	0.010678127408027649	0.007626847364008427	0.03213543817400932	-0.04529181495308876	0.07824496179819107	-0.05687069520354271	-0.04470135644078255	-0.009122946299612522	-0.06004277989268303	-0.02658955380320549	-0.01616707816720009	-0.0553949773311615	-0.011840226128697395	-0.0018277098424732685	0.04706684872508049	0.0080307861790061	-0.01019541546702385	0.008317750878632069	-0.04227014631032944	0.04715245962142944	0.019930275157094002	-0.005031409673392773	-0.016607869416475296	0.04708376154303551	0.03247695043683052	0.021299412474036217	0.006880158092826605	0.14295756816864014	-0.05880511552095413	-0.04690980538725853	-0.002310473471879959	0.028298256918787956	-0.022055789828300476	-0.029416078701615334	0.059677623212337494	0.041386548429727554	0.05725669860839844	-0.006649831775575876	-0.03076842613518238	0.01086308155208826	-0.008602269925177097	-0.005231638438999653	-0.02359655499458313	0.003741317195817828	-0.024427779018878937	0.05353808403015137	0.029756076633930206	0.0005139909335412085	0.06880037486553192	0.024387018755078316	-0.02171054668724537	-0.009631425142288208	-0.010495319962501526	0.013222903944551945	0.012888208031654358	0.04514148458838463	0.03113756701350212	0.002637066412717104	-0.009218503721058369	0.02007179893553257	0.03846149146556854	0.06232256442308426	0.07222803682088852	0.012329989112913609	0.09501907229423523	-0.017759161069989204	0.003372330917045474	0.0004189153842162341	0.030833402648568153	0.011112700216472149	0.02357017621397972	-0.034869637340307236	-0.02420852705836296	-0.03474478796124458	0.012543739750981331	0.0035749233793467283	-0.021340103819966316	0.02549348585307598	0.043352529406547546	0.0034778863191604614	0.00430843373760581	-0.00733218714594841	0.033343542367219925	0.0018738082144409418	-0.027118438854813576	-0.05399136245250702	-0.002675261115655303	-0.03742848336696625	-0.0538315549492836	0.011604899540543556	-0.07051678001880646	-0.004274687729775906	0.002734708832576871	0.0388498492538929	-0.05943111330270767	-0.04889944940805435	0.011531945317983627	-0.027721529826521873	0.007306484505534172	-0.0036710614804178476	0.014493242837488651	-0.02695690095424652	-0.005705901887267828	0.017701592296361923	0.044760748744010925	0.026699094101786613	0.018701523542404175	-0.0194691251963377	-0.0007029167027212679	0.012816880829632282	0.03506976366043091	-0.00743506383150816	-0.012468364089727402	-0.026788583025336266	0.04897256940603256	0.07028549909591675	-0.021150784566998482	-0.05929157882928848	-0.0029743800405412912	-0.008702874183654785	0.0019080000929534435	-0.04309296980500221	-0.010642561130225658	0.047653209418058395	0.03816760703921318	-0.01975758746266365	-0.0028472819831222296	-0.03330255299806595	-0.014942304231226444	-0.015404774807393551	-0.03527352958917618	0.03468790277838707	-0.03717348724603653	-0.016607530415058136	0.036855440586805344	1.7424319594283588e-05	-0.04316937178373337	-0.014989614486694336	-0.07288075983524323	0.009014074690639973	-0.14526422321796417	0.002451653592288494	-0.003954599145799875	0.012382022105157375	-0.003244682215154171	0.021774664521217346	0.033126283437013626	-0.0033949646167457104	0.005498411133885384	0.0053563364781439304	-0.027229657396674156	-0.014606048353016376	0.03181089088320732	0.0037015273701399565	0.04103659838438034	0.027051199227571487	-0.03686511516571045	0.011018006131052971	0.03083336167037487	-0.016407182440161705	-0.01554547343403101	-0.03989680856466293	-0.0625629648566246	0.01894538849592209	0.03231503814458847	-0.054762568324804306	-0.00439152168110013	0.0040198215283453465	-0.013414950110018253	0.00048074524966068566	0.011954893358051777	0.02099672146141529	-0.0038490009028464556	-0.019408583641052246	-0.014908629469573498	
0.07402313500642776	0.13522693514823914	0.03762905299663544	0.16576528549194336	-0.13015134632587433	0.13268502056598663	-0.1317935436964035	0.08766349405050278	-0.00696359621360898	-0.13587020337581635	-0.030641449615359306	-0.07939393818378448	0.0404491163790226	-0.013785921037197113	-0.010880169458687305	-0.11312997341156006	-0.05359344929456711	0.43357497453689575	-0.17655394971370697	-0.062072042375802994	-0.19670620560646057	-0.13080313801765442	-0.07584888488054276	-0.031042084097862244	-0.0006936673889867961	0.126407653093338	-0.07792075723409653	-0.10254219174385071	-0.02248382568359375	0.5756146907806396	0.09449440240859985	0.05356086045503616	-0.09912816435098648	-0.006148952059447765	0.1252109855413437	0.013776210136711597	-0.07990071922540665	0.018059484660625458	0.0029026486445218325	0.034259844571352005	-0.10295841842889786	-0.13445475697517395	0.01731489971280098	0.034404776990413666	-0.019280115142464638	0.03238265588879585	-0.15014386177062988	-0.005329558625817299	-0.3335077464580536	-0.1416449099779129	-0.11758314818143845	-0.04239298775792122	-0.037638045847415924	-0.2156444638967514	0.23917491734027863	0.023520050570368767	-0.03785867616534233	0.144643634557724	0.039188265800476074	-0.08115255832672119	-0.049225129187107086	0.06518180668354034	-0.04811116307973862	-0.005323462653905153	0.12158092856407166	0.1652630865573883	0.05123021826148033	0.032612841576337814	0.06127369776368141	-0.1200820580124855	-0.0621689036488533	-0.005433949176222086	-0.07276647537946701	-0.07138758897781372	-0.04356992617249489	0.036575548350811005	0.2607059180736542	-0.07118365913629532	-0.047778498381376266	-0.3048774302005768	-0.06339524686336517	-0.07481426000595093	0.21447958052158356	0.0178011953830719	-0.016378872096538544	-0.05238977074623108	-0.19416731595993042	0.020542679354548454	-0.12223268300294876	-0.049146413803100586	-0.017357245087623596	0.1256193071603775	-0.08266113698482513	-0.1685389280319214	-0.06292831152677536	-0.12053471058607101	-0.15490856766700745	-0.08510421216487885	0.01982654631137848	-0.002267500851303339	-0.046849947422742844	-0.15385651588439941	0.14803564548492432	-0.05088723450899124	0.17432533204555511	-0.02949572540819645	-0.04399612918496132	-0.015388418920338154	-0.07759631425142288	-0.10623567551374435	0.003153211669996381	-0.35874372720718384	-0.04044141620397568	0.20747821033000946	-0.12118339538574219	0.07665024697780609	-0.10898516327142715	0.09357661008834839	-0.05296991020441055	-0.030186424031853676	0.09731747955083847	-0.08298636972904205	0.18652299046516418	0.08976054936647415	0.019013235345482826	-0.11108972132205963	0.282101035118103	-0.13057340681552887	0.04633617401123047	0.24650998413562775	-0.04475551098585129	-0.1534091979265213	-0.0339915007352829	0.11632883548736572	0.06713028997182846	0.09073498845100403	-0.020534668117761612	0.15922655165195465	-0.06413992494344711	0.07278704643249512	0.007921385578811169	-0.03135674074292183	0.260573148727417	0.13424628973007202	-0.18066178262233734	0.0005372383748181164	0.11118181049823761	-0.07588101923465729	0.08077216893434525	-0.11343672126531601	-0.009602692909538746	-0.07080717384815216	-0.030701711773872375	-0.052186690270900726	0.15353241562843323	0.04632037132978439	-0.1091427206993103	0.05639432370662689	0.009602008387446404	-0.12053914368152618	-0.04177643358707428	0.03282148763537407	-0.0008034682250581682	-0.05762234702706337	-0.07478132098913193	-0.05123843625187874	-0.1825309544801712	-0.051289115101099014	0.2709040641784668	-0.22143962979316711	0.17961545288562775	0.1713993102312088	0.17806196212768555	-0.030832892283797264	-0.22092993557453156	-0.03459063544869423	-0.17430448532104492	-0.2197558879852295	-0.0840221717953682	-0.012378511019051075	-0.6052585244178772	-0.17178907990455627	-0.03409867361187935	0.08792240917682648	-0.14435526728630066	-0.03690890967845917	-0.05872158333659172	-0.22234858572483063	-0.061833787709474564	0.06444991379976273	0.0874674990773201	-0.10450497269630432	-0.13950756192207336	-0.09625864773988724	-0.13981524109840393	-0.016127239912748337	0.021065808832645416	0.11051446944475174	-0.09759891033172607	0.0658874362707138	0.08804469555616379	-0.18506251275539398	0.13008306920528412	-0.0659998431801796	0.01308729313313961	0.13547232747077942	0.16992218792438507	-0.08361779153347015	-0.05370895192027092	0.023180773481726646	0.1330639272928238	-0.07989657670259476	-0.017258888110518456	0.0025402861647307873	0.08393542468547821	0.006524723954498768	-0.013470984064042568	-0.07846162468194962	-0.1854923665523529	-0.023106437176465988	0.22194762527942657	0.004841838963329792	-0.07326312363147736	0.07324264943599701	0.010041449218988419	0.05525033175945282	0.029762806370854378	0.09643726795911789	-0.06745980679988861	-0.12788976728916168	-0.11564455181360245	-0.01734146662056446	-0.010667619295418262	-0.020827552303671837	0.1292019635438919	0.18872205913066864	0.047569263726472855	0.05213477462530136	0.024021564051508904	0.06881076097488403	-0.11889208108186722	0.003333484521135688	0.012444337829947472	-0.038533005863428116	0.1389935463666916	0.06285922229290009	0.360419899225235	-0.11672466993331909	-0.016766367480158806	0.09540503472089767	0.03725830838084221	0.12490267306566238	-0.11924843490123749	0.060632143169641495	0.06241384893655777	0.051077332347631454	-0.10661311447620392	-0.03654791787266731	-0.06723912060260773	-0.060817986726760864	0.0758577287197113	-0.006077123340219259	-0.08988756686449051	0.05303172022104263	-0.06417513638734818	0.0761466920375824	-0.048924520611763	-0.04735536128282547	-0.004432717338204384	-0.19096100330352783	0.013502643443644047	-0.024119440466165543	-0.019512640312314034	-0.12438581883907318	0.06718368083238602	-0.028422903269529343	-0.02823856845498085	0.0026956067886203527	0.03211992606520653	0.1570621132850647	-0.03846944123506546	-0.025170840322971344	0.21338394284248352	0.03480028733611107	0.01711644046008587	-0.03189542144536972	-0.06787247955799103	0.04679381847381592	0.04401845484972	-0.20113706588745117	-0.00807653646916151	0.006705938372761011	-0.07801312208175659	-0.13492614030838013	-0.04001007601618767	0.18083913624286652	0.11115177720785141	0.01826070435345173	-0.09484399855136871	-0.18764634430408478	-0.15547984838485718	-0.1546427309513092	-0.12792052328586578	0.030633633956313133	0.028041070327162743	0.014176384545862675	0.11801047623157501	-0.023257536813616753	0.017361482605338097	0.025715650990605354	0.2229941040277481	-0.02958126924932003	0.024970369413495064	0.013100791722536087	-0.09183426201343536	-0.05814697965979576	-0.2265864759683609	-0.17703397572040558	-0.028816355392336845	0.03418046236038208	-0.038315702229738235	-0.03927287831902504	-0.03045753575861454	-0.18043723702430725	0.07139334827661514	-0.08653315901756287	-0.014413495548069477	0.042869873344898224	0.029055116698145866	-0.00814184918999672	-0.5391967296600342	0.013398329727351665	-0.09020654857158661	0.2726840674877167	-0.06585867702960968	0.2109060138463974	-0.041941192001104355	0.05515257641673088	-0.02674265392124653	-0.14375223219394684	0.03010597825050354	-0.033059943467378616	0.11855821311473846	-0.004614448640495539	-0.005516728851944208	0.0019363409373909235	0.05959581211209297	-0.17693990468978882	0.05433528125286102	-0.10499649494886398	0.08116120100021362	-0.055358581244945526	-0.034952204674482346	0.1273416429758072	-0.20342442393302917	0.07897834479808807	0.13252601027488708	0.008862080052495003	-0.05530356243252754	-0.1588876098394394	0.047286372631788254	-0.02672123722732067	0.24984432756900787	-0.0557035394012928	0.0776488408446312	0.10462171584367752	0.1464361846446991	0.060686398297548294	-0.018536925315856934	-0.009822091087698936	-0.07389311492443085	0.11678599566221237	-0.05483909696340561	0.07448150217533112	-0.06196502968668938	-0.11618062853813171	-0.07715225964784622	0.01618490368127823	0.04992055892944336	-0.04901204630732536	0.013164420612156391	0.11618637293577194	-0.13697150349617004	-0.34973859786987305	-0.03644907474517822	0.3171107769012451	0.09533719718456268	0.03419500216841698	0.07515963166952133	0.03254961967468262	0.3089395761489868	0.1575218290090561	0.18818801641464233	0.18528123199939728	0.18336497247219086	0.009359893389046192	-0.12029220163822174	-0.011710913851857185	-0.004076872020959854	-0.0244275089353323	-0.12030702084302902	-0.05370359495282173	-0.08620236814022064	0.027324898168444633	0.027262726798653603	-0.0031970362178981304	-0.09244764596223831	0.10679946094751358	-0.05328090116381645	-0.04550788551568985	0.006151818670332432	0.02842218242585659	0.10538890212774277	0.03960795700550079	-0.169425830245018	-0.0004060057399328798	0.06724125891923904	-0.06622294336557388	-0.0841354951262474	0.17224204540252686	-0.20903538167476654	-0.00901706051081419	-0.03595052286982536	0.11812523752450943	-0.00412873737514019	-0.012412281706929207	0.06964172422885895	0.22667735815048218	-0.014415787532925606	-0.008636686950922012	-0.07788480818271637	-0.11132928729057312	-0.06566540151834488	0.13960759341716766	-0.0830494686961174	0.03996165469288826	0.17373649775981903	0.2362784445285797	0.07377272844314575	-0.0015125584322959185	-0.18513073027133942	-0.1299562007188797	-0.09304238110780716	-0.07063961029052734	-0.18961045145988464	0.00979400984942913	0.030121449381113052	0.10912786424160004	-0.16651229560375214	0.09607457369565964	-0.10548622906208038	0.08047804981470108	-0.07935328036546707	0.10190889239311218	0.020688926801085472	0.0112130893394351	-0.07413338869810104	0.0406397208571434	0.0013974230969324708	-0.11867036670446396	-0.0860934853553772	-0.06897331774234772	-0.0017782902577891946	0.02002965845167637	-0.009190608747303486	0.1537178009748459	0.09219390153884888	-0.0757947489619255	-0.04942380636930466	-0.04982453212141991	0.08270291239023209	0.07040820270776749	0.005568096414208412	-0.021322237327694893	0.038271527737379074	-0.008373953402042389	-0.05896688997745514	0.05431007221341133	0.026379689574241638	0.158819779753685	0.08463875949382782	-0.031007884070277214	-0.0011129340855404735	0.14760053157806396	0.05447668954730034	-0.011874639429152012	0.004787571262568235	-0.08016858994960785	-0.01919666863977909	-0.022255266085267067	0.09749993681907654	-0.07588926702737808	-0.09873674809932709	0.06603249907493591	-0.022384382784366608	-0.11276468634605408	-0.1368926465511322	-0.30223459005355835	0.08569785952568054	-0.040828291326761246	0.07569454610347748	0.17935633659362793	-0.013157828710973263	-0.07534858584403992	-0.05722372233867645	-0.00038370239781215787	0.05032230168581009	-0.027922987937927246	-0.030818020924925804	0.04755028337240219	0.19521427154541016	-0.03465026989579201	
-0.010944141075015068	-0.32485079765319824	-0.03358782082796097	-0.1344984471797943	-0.15942393243312836	0.005335048772394657	-0.35038143396377563	0.10404260456562042	0.37263160943984985	-0.16869215667247772	0.09551730751991272	-0.1236681342124939	-0.1635698527097702	0.09698130935430527	-0.3114253580570221	0.0710737556219101	0.1460971087217331	0.0029144512955099344	0.3464573919773102	0.09012029320001602	-0.17867960035800934	-0.12096033245325089	-0.36147814989089966	0.016849473118782043	-0.22087375819683075	-0.104454904794693	0.17106126248836517	-0.10131958872079849	-0.01048219483345747	-0.07481390982866287	-0.03593583032488823	-0.0007224482833407819	0.08775609731674194	-0.017476635053753853	-0.25707748532295227	-0.1185164675116539	-0.34696367383003235	0.3752477169036865	0.294533371925354	0.07596072554588318	0.15508681535720825	-0.1583377718925476	-0.018370097503066063	-0.11229259520769119	-0.2051759958267212	-0.26824042201042175	-0.034714024513959885	-0.07633668184280396	0.1526968628168106	0.2810358703136444	-0.01625041477382183	0.2333700805902481	0.3875338137149811	-0.052281931042671204	0.06055372580885887	0.1590276062488556	-0.09977922588586807	-0.01985900290310383	0.7346683740615845	0.28556719422340393	-0.33007487654685974	-0.12530064582824707	0.03470440208911896	0.08589152991771698	-0.14518418908119202	0.012500938959419727	0.01248979289084673	0.08470360934734344	0.26886922121047974	0.08299253135919571	0.4248224198818207	0.09571460634469986	0.05375033617019653	-0.3220706880092621	-0.07080191373825073	-0.283000111579895	-0.24886086583137512	-0.3970469534397125	0.018765736371278763	0.01603984273970127	-0.06710623949766159	0.30517199635505676	-0.10561750084161758	0.281795859336853	-0.4250655770301819	-0.2674470543861389	-0.03932786360383034	-0.039008840918540955	-0.03577558696269989	-0.24202822148799896	0.1368030309677124	-0.10891034454107285	-0.21517784893512726	-0.34394970536231995	-0.37017184495925903	-0.07273328304290771	0.19286763668060303	-0.06792988628149033	-0.2825177311897278	0.07670272886753082	0.12668615579605103	0.42499443888664246	0.18841183185577393	0.19970355927944183	-0.04396916180849075	-0.12467389553785324	0.3552670478820801	-0.09183764457702637	-0.04778491333127022	-0.059461258351802826	-0.0209459587931633	0.23956656455993652	0.21499833464622498	-0.11925915628671646	-0.3292694389820099	0.29340794682502747	0.24626584351062775	-4.851511403103359e-05	-0.0423368439078331	-0.4707011878490448	-0.19503986835479736	-0.18775935471057892	-0.09843993186950684	0.372343510389328	-0.4072410762310028	0.11400803923606873	0.0842089131474495	-0.0703650414943695	0.5699883103370667	-0.020509961992502213	-0.21196000277996063	0.150045707821846	-0.11483096331357956	-0.06610937416553497	-0.24783967435359955	0.12311619520187378	0.28127241134643555	-0.1187872663140297	0.04383385181427002	0.18149514496326447	0.23517924547195435	-0.38442155718803406	-0.03727661445736885	-0.13086962699890137	0.05098981410264969	-0.0608784444630146	-0.05912800505757332	0.001336276880465448	0.3945401608943939	-0.2819829285144806	0.19684486091136932	0.057502105832099915	0.08350381255149841	0.0820571631193161	0.36029934883117676	0.4042913317680359	-0.0059936861507594585	-0.06321834027767181	-0.3616105318069458	-0.02302413620054722	-0.1736350804567337	0.05650455504655838	0.1821736991405487	0.27395525574684143	0.019750209525227547	-0.11903098970651627	-0.13983742892742157	-0.2903331220149994	0.2728458046913147	0.3899703025817871	-0.02099490910768509	0.04070454463362694	-0.0558684840798378	0.0682096853852272	0.24074093997478485	0.2834989130496979	0.14706476032733917	-0.27350547909736633	0.18311969935894012	-0.10090514272451401	0.3867720365524292	0.2415909320116043	-0.12616632878780365	0.004797096364200115	-0.15891042351722717	0.6076761484146118	0.14027072489261627	0.3486138880252838	0.16675616800785065	-0.045766431838274	-0.19277766346931458	-0.08664873242378235	-0.11624208837747574	0.11928080767393112	-0.07584206014871597	-0.16890186071395874	-0.08190573006868362	-0.01536401268094778	-0.0023966773878782988	0.010357433930039406	-0.0833418071269989	-0.14108848571777344	0.09931577742099762	-0.04863266274333	-0.06048298627138138	-0.1540626883506775	0.07079911977052689	-0.05310801416635513	0.12824663519859314	-0.1048712208867073	0.23316028714179993	-0.07356216758489609	0.07591451704502106	-0.28247854113578796	-0.18443003296852112	-0.46049946546554565	-0.04550395905971527	-0.16366326808929443	0.04185886308550835	0.06478675454854965	-0.08855265378952026	-0.3822821080684662	0.3469792902469635	-0.41014915704727173	0.08084602653980255	0.045221634209156036	-0.1279476135969162	0.2335936725139618	-0.23171557486057281	-0.2633468806743622	-0.13452361524105072	0.17134800553321838	0.15354807674884796	0.2701510488986969	-0.15610505640506744	-0.10706634074449539	-0.04513675719499588	-0.07358194142580032	0.012153835967183113	-0.005026114638894796	0.018549684435129166	0.12730732560157776	0.125319704413414	-0.4427955150604248	0.26143336296081543	0.10855375975370407	0.3274911046028137	-0.057470787316560745	0.0194509606808424	0.25179988145828247	0.020461460575461388	0.006974605843424797	-0.41544264554977417	-0.2342335432767868	0.0267165619879961	0.5631541013717651	-0.04536866024136543	-0.41792476177215576	0.6430779695510864	0.35012009739875793	-0.140700101852417	0.41061556339263916	-0.29312437772750854	0.3902686536312103	0.027535030618309975	-0.24752551317214966	-0.21361587941646576	-0.47329920530319214	-0.31931665539741516	-0.14278896152973175	0.0002639244485180825	0.011784621514379978	-0.02018160931766033	-0.15382756292819977	0.2329767495393753	-0.249847412109375	0.15423928201198578	-0.3743751645088196	-0.017507998272776604	0.18274135887622833	-0.1883491426706314	-0.10451109707355499	0.03051556646823883	-0.05282723531126976	-0.38178494572639465	-0.11093869805335999	0.18441961705684662	-0.20343391597270966	-0.5817517638206482	0.16716860234737396	-0.186457097530365	-0.2246326208114624	-0.002916513243690133	-0.2743351459503174	-0.017045684158802032	0.00674673356115818	0.08465993404388428	0.022816697135567665	-0.0538652278482914	0.00850805826485157	0.2442176789045334	0.7067025303840637	0.1393951177597046	0.08795293420553207	0.26143956184387207	0.014247873798012733	0.23747281730175018	0.11003512889146805	0.144474059343338	-0.1651569902896881	-0.27690476179122925	0.011424771510064602	0.02235250547528267	0.05670483782887459	-0.05675642564892769	-0.3211759924888611	-0.048336513340473175	0.1588478684425354	-0.005202143918722868	-0.15773017704486847	-0.2688290774822235	-0.3562307357788086	0.09762293100357056	0.34132346510887146	-0.004114625044167042	-0.26134419441223145	-0.057666704058647156	0.42214274406433105	-0.5104073882102966	0.13449400663375854	0.4187028408050537	0.3345528542995453	-0.03625353425741196	-0.23841769993305206	0.036929406225681305	0.035079121589660645	-0.26961812376976013	0.08200046420097351	0.03989417105913162	-0.20026642084121704	-0.25090113282203674	-0.0894627571105957	-0.1798684298992157	0.14956414699554443	-0.007531238254159689	0.2096518725156784	0.5917998552322388	0.1481379121541977	0.19346441328525543	0.09359662234783173	-0.43095704913139343	-0.0662521943449974	0.17455735802650452	-0.23730407655239105	0.11861955374479294	-0.02795283868908882	0.14203041791915894	0.07911290973424911	0.03453356400132179	0.1920604258775711	0.16306984424591064	0.018347276374697685	0.04824431613087654	-0.0241687148809433	-0.12116292864084244	-0.27617985010147095	-0.21594646573066711	-0.025283830240368843	-0.06209922954440117	0.09333372116088867	-0.0065272836945950985	-0.14761078357696533	-0.11638574302196503	0.1481877863407135	0.08543524891138077	0.04457021877169609	-0.2990702688694	0.031953006982803345	0.14678369462490082	0.14008769392967224	0.16256070137023926	0.09275050461292267	-0.12132176756858826	0.026099927723407745	0.06650461256504059	-0.18013949692249298	-0.1764819175004959	-0.0302067082375288	-0.08644992858171463	0.14865612983703613	0.09716189652681351	0.281974732875824	-0.1260087639093399	0.061047498136758804	-0.09436694532632828	0.03539644554257393	0.19284455478191376	-0.07163858413696289	-0.007122088689357042	-0.01866295374929905	-0.2549181282520294	0.07176463305950165	-0.027967311441898346	-0.4291307032108307	-0.04957498982548714	-0.06624405086040497	-0.3859736919403076	-0.08019187301397324	0.06160129979252815	-0.021587537601590157	-0.05559263378381729	0.1343773901462555	-0.560738742351532	0.11541967839002609	0.3765004873275757	-0.1973550021648407	-0.053952060639858246	0.1426801085472107	0.17571070790290833	0.2588140070438385	0.2939131557941437	0.31549692153930664	-0.08948499709367752	-0.40030696988105774	0.014185050502419472	-0.010159237310290337	0.08588626235723495	0.020528575405478477	-0.028166361153125763	-0.09819949418306351	-0.22690989077091217	-0.03273230791091919	-0.25507012009620667	0.215199276804924	-0.04592312127351761	0.025590574368834496	0.03283201530575752	0.054493341594934464	-0.0542558990418911	-0.04568813741207123	0.03253473713994026	0.182585209608078	-0.01367839053273201	0.15348684787750244	-0.330534964799881	0.5814588069915771	0.009042371064424515	-0.22469396889209747	-0.02763008140027523	0.0005235170247033238	-0.21480724215507507	-0.16530883312225342	-0.06839616596698761	-0.15331262350082397	-0.03262604400515556	0.028146415948867798	-0.004764570854604244	0.06067882105708122	-0.03867199644446373	0.10568773001432419	0.10953020304441452	0.2861051857471466	0.17926082015037537	-0.3313950002193451	-0.4285828173160553	0.17904476821422577	-0.10782504826784134	-0.14154879748821259	-0.06256698071956635	-0.0560825951397419	0.26689717173576355	0.09561260044574738	-0.04539452865719795	0.09754223376512527	-0.546562135219574	-0.015787700191140175	0.0210147425532341	0.042490944266319275	0.40325987339019775	0.15448936820030212	0.18110795319080353	-0.49144071340560913	-0.030773788690567017	0.18266095221042633	-0.22770850360393524	-0.06802014261484146	-0.020237687975168228	-0.05303342640399933	-0.4624229669570923	-0.07858874648809433	0.2026204615831375	-0.07553784549236298	-0.12897099554538727	-0.05160457640886307	-0.0556323416531086	0.06802677363157272	0.1267181783914566	-0.0014213476097211242	-0.08091704547405243	0.09250926226377487	0.40426576137542725	-0.3613797724246979	0.09796606004238129	0.14193756878376007	0.03858199343085289	0.19049324095249176	0.013783784583210945	-0.07637745141983032	0.2932796776294708	0.04066791757941246	-0.031154461205005646	-0.04936007037758827	
0.09177679568529129	-0.12070351094007492	-0.11405989527702332	-0.34104350209236145	0.025189336389303207	0.12577316164970398	-0.012854505330324173	-0.0017428825376555324	-0.16808082163333893	-0.23751531541347504	0.02256367914378643	0.08670322597026825	-0.1537623405456543	0.12586888670921326	0.023981109261512756	-0.05927587300539017	-0.03809315711259842	0.12118887901306152	-0.11697101593017578	0.07876622676849365	-0.07907411456108093	0.0456809364259243	-0.06467432528734207	0.09390730410814285	-0.17933295667171478	-0.025371329858899117	0.0046951486729085445	-0.06321829557418823	0.20004090666770935	0.05282706022262573	0.08889763802289963	-0.07452215254306793	0.07315673679113388	0.05707652121782303	0.19449394941329956	0.08420838415622711	0.1794576793909073	0.05137372389435768	0.13700541853904724	-0.025235317647457123	0.23356804251670837	-0.07648056000471115	0.059037718921899796	0.06428571045398712	-0.020730681717395782	0.08330962806940079	0.14171527326107025	0.0905756950378418	0.09134738892316818	0.07407699525356293	0.08093348890542984	-0.11720368266105652	0.012555655092000961	0.29024189710617065	-0.13397832214832306	0.09696689993143082	0.10442271083593369	0.06021266058087349	0.04069442301988602	0.11350055038928986	0.029307067394256592	0.02283666469156742	0.10928019136190414	-0.1077575832605362	0.12055326253175735	-0.08927273750305176	-0.01708819530904293	-0.001266159932129085	0.028626469895243645	0.0525178387761116	0.05740588158369064	0.036730557680130005	-0.15784843266010284	-0.16851072013378143	-7.293983799172565e-05	-0.06075715646147728	0.38475218415260315	-0.05988333001732826	-0.1672208309173584	0.04030860587954521	0.027352573350071907	0.20295032858848572	-0.07258474081754684	-0.06570100784301758	-0.042446982115507126	0.014301950111985207	-0.05655272677540779	-0.11076907813549042	0.2055787742137909	0.0038355670403689146	-0.023031234741210938	0.16645225882530212	-0.04294964671134949	0.10728119313716888	-0.1098598837852478	0.01119107473641634	-0.1894925832748413	0.05956338718533516	-0.13069145381450653	0.24711398780345917	-0.14567036926746368	0.0032867516856640577	0.11531615257263184	-0.006155288778245449	0.06873463839292526	-0.053010471165180206	0.015053908340632915	-0.3423236906528473	-0.09269849956035614	0.09856685996055603	0.23955167829990387	0.10651154071092606	0.18783821165561676	-0.07752815634012222	0.0010264619486406446	-0.07210491597652435	-0.17801117897033691	-0.07667947560548782	-0.23531761765480042	-0.010388796217739582	-0.08797561377286911	0.01083409320563078	0.09785273671150208	-0.002637665020301938	-0.0705237090587616	0.034697141498327255	0.15933357179164886	0.22255375981330872	0.022338442504405975	-0.0309415515512228	0.2797873914241791	-0.15277701616287231	0.028896572068333626	-0.07119043171405792	-0.07140151411294937	-0.12363992631435394	-0.19979625940322876	0.21496684849262238	-0.1642744243144989	0.07391560822725296	-0.09837199747562408	-0.030154254287481308	0.0010984335094690323	0.26824241876602173	0.09840293973684311	-0.09895990788936615	-0.008852651342749596	0.07141128927469254	-0.05130644142627716	-0.0880858525633812	-0.07395382225513458	-0.17451412975788116	-0.04352765902876854	0.07585182040929794	-0.0021462123841047287	0.09744500368833542	-0.13629703223705292	0.022577418014407158	0.04192320629954338	0.1732896864414215	0.013465333729982376	0.0282343327999115	-0.037431225180625916	-0.05392568185925484	0.043355561792850494	-0.19563208520412445	-0.09347432106733322	0.3024951219558716	-0.12989304959774017	-0.28488287329673767	-0.10389453172683716	-0.14250697195529938	-0.00551032368093729	0.11469942331314087	0.13744916021823883	0.0616241917014122	-0.12955307960510254	0.04215042665600777	-0.02454482577741146	-0.07040470093488693	-0.014905570074915886	0.06949905306100845	0.12584052979946136	-0.13044779002666473	-0.16497661173343658	-0.015096919611096382	-0.00661492021754384	0.04144018515944481	-0.04393672198057175	-0.28781312704086304	0.0372825525701046	-0.03791733458638191	-0.04686109721660614	-0.06127554178237915	-0.011739576235413551	0.19536827504634857	-0.057908691465854645	0.12439421564340591	-0.16509182751178741	-0.23878897726535797	-0.015427292324602604	-0.09322310239076614	0.18819274008274078	-0.07280144095420837	-0.037396710366010666	-0.1635144054889679	0.21806663274765015	-0.09152724593877792	0.0999486967921257	0.030689029023051262	-0.03200791776180267	-0.05059307813644409	-0.08061079680919647	0.012923011556267738	0.15225787460803986	-0.004831662401556969	0.13639788329601288	0.0015175987500697374	-0.28305578231811523	0.21854278445243835	-0.034863997250795364	8.866703137755394e-05	-0.06293436139822006	-0.07952330261468887	0.23042145371437073	0.049869854003190994	-0.04988301545381546	-0.2033848613500595	-0.013594049029052258	0.21523304283618927	0.03225363418459892	-0.06707321107387543	0.007881084457039833	0.04434279724955559	0.02995854616165161	0.0036464666482061148	-0.31541088223457336	0.017246205359697342	0.26604995131492615	-0.07653095573186874	0.15230578184127808	-0.013206972740590572	-0.228372260928154	0.08707395195960999	0.15970054268836975	0.039644334465265274	0.05919313803315163	-0.06287483125925064	0.0032577936071902514	-0.1419220268726349	0.08071669936180115	-0.06161980703473091	-0.19079595804214478	-0.10569857805967331	0.3862977921962738	0.027101147919893265	0.07964397966861725	0.040901653468608856	0.07824061810970306	0.057737864553928375	-0.04293273016810417	-0.02418619394302368	0.09216100722551346	0.06242051348090172	0.07282096892595291	0.026155443862080574	-0.1919354349374771	-0.025357898324728012	0.054704222828149796	-0.01929389126598835	0.07450401037931442	0.085969477891922	0.07487110048532486	0.05497150868177414	-0.28948134183883667	0.12879644334316254	-0.020246725529432297	-0.1568896472454071	-0.08381693065166473	0.18433327972888947	-0.12385101616382599	-0.0759458914399147	0.16641341149806976	-0.026498479768633842	-0.06446889787912369	0.14226123690605164	0.0973195806145668	0.011999347247183323	0.07227122783660889	-0.2898934483528137	-0.06500415503978729	0.17134977877140045	0.049043796956539154	0.0008527744794264436	-0.03629046306014061	0.11120309680700302	0.02816125936806202	-0.04714096710085869	0.27173253893852234	0.17249658703804016	-0.11152217537164688	-0.11120867729187012	0.03254672884941101	0.19583316147327423	0.01567225717008114	-0.024212582036852837	0.09101469814777374	-0.0669962465763092	0.022855037823319435	0.018924547359347343	-0.06781934946775436	-0.11672185361385345	-0.07257602363824844	0.06159643828868866	-0.18984517455101013	0.03108128346502781	-0.048792071640491486	-0.11880440264940262	0.08743137866258621	-0.02075275219976902	-0.12340977787971497	0.007572460453957319	0.1718190759420395	-0.08910094946622849	0.003821254475042224	-0.15394163131713867	0.003165562404319644	0.019141333177685738	0.031129028648138046	-0.02441154047846794	-0.13535451889038086	0.18726846575737	-0.1261858195066452	0.14258241653442383	-0.13033448159694672	-0.0334634929895401	-0.046757474541664124	-0.2122642695903778	0.16440129280090332	-0.06978338956832886	0.026323525235056877	-0.06054852902889252	-0.044201258569955826	-0.0447244718670845	-0.11893102526664734	-0.031242134049534798	0.23126427829265594	0.07178089022636414	0.025100912898778915	0.1947409063577652	-0.05588306114077568	0.018701478838920593	0.13196581602096558	0.025826361030340195	0.120280921459198	-0.15009596943855286	0.15911369025707245	-0.0322381928563118	-0.028589965775609016	-0.03237266466021538	-0.1592455506324768	-0.1177816390991211	0.11883731931447983	0.13963472843170166	-0.0801347866654396	-0.17998488247394562	-0.054012738168239594	0.1953209638595581	0.26060304045677185	0.2897261679172516	0.08663351088762283	-0.1622944474220276	0.02272632159292698	0.019581880420446396	-0.07757347077131271	-0.07026273757219315	-0.10653164982795715	-0.1281033754348755	-0.11364269256591797	-0.006260671187192202	-0.06810764223337173	-0.0769943967461586	-0.06217062100768089	0.057065416127443314	-0.052010584622621536	0.06439477950334549	0.2139432579278946	0.012884354218840599	-0.022877490147948265	0.09129255264997482	-0.27862247824668884	0.08344477415084839	-0.13402734696865082	-0.26143231987953186	-0.05544303357601166	-0.09106723219156265	-0.0758059024810791	0.009714994579553604	-0.000987469800747931	0.13701274991035461	0.10680688172578812	0.18017439544200897	0.015108744613826275	0.016784338280558586	-0.23241788148880005	0.06152012199163437	-0.03145042061805725	-0.11622186005115509	0.03531593456864357	-0.02818061038851738	0.1393406093120575	-0.07176624983549118	0.00324030639603734	0.01141919381916523	-0.15807269513607025	-0.2934879958629608	-0.05282207205891609	0.1940944641828537	0.09686046093702316	0.005416200961917639	-0.1469862461090088	-0.0790092945098877	-0.2703365683555603	0.06095460057258606	0.03144094720482826	0.006548198871314526	-0.5069324970245361	0.3028707802295685	-0.16130317747592926	0.25328484177589417	0.004919528961181641	0.05413511022925377	-0.025234568864107132	0.11780159175395966	-0.07514993846416473	0.10791986435651779	0.002438413677737117	-0.16201013326644897	0.022023998200893402	-0.09610520303249359	0.08232435584068298	0.14498494565486908	0.14746372401714325	-0.18812301754951477	0.00395992724224925	0.022402046248316765	0.01762249879539013	-0.13856656849384308	-0.03674745187163353	0.03743733838200569	0.005889407824724913	-0.020321877673268318	0.07904543727636337	0.004556045867502689	-0.19566917419433594	0.022893650457262993	0.003866710001602769	-0.2572801113128662	-0.003825647756457329	0.041860681027173996	0.06979881227016449	-0.06510309129953384	0.07367842644453049	-0.04283943399786949	0.1276548057794571	-0.03257887437939644	0.02934441901743412	0.12108588218688965	-0.10428860783576965	-0.06642746180295944	-0.003765663830563426	0.008601866662502289	0.04381444305181503	0.1188429743051529	-0.034504879266023636	0.1464695930480957	0.0015890732174739242	0.0528104305267334	0.03758120909333229	0.1953480988740921	-0.0814322754740715	-0.011051012203097343	0.07992304116487503	0.08576302230358124	-0.007770893629640341	0.1287892758846283	0.1222473606467247	0.06666738539934158	0.01882464997470379	0.08056248724460602	-0.048696279525756836	-0.0737880989909172	-0.02008204348385334	0.07404348254203796	-0.06256277859210968	-0.044366031885147095	0.2611677646636963	-0.06984203308820724	-0.0705147311091423	-0.13487163186073303	0.15756730735301971	-0.0005231013055890799	-0.016021089628338814	0.19403977692127228	-0.1035018190741539	0.36144110560417175	-0.12086877226829529	0.3762090504169464	-0.007486678659915924	0.15334883332252502	0.101217120885849	-0.02194628305733204	
