512
-4.095583062735386e-05	2.3937103833304718e-05	-0.0001198475292767398	-0.00019914905715268105	-8.731647540116683e-06	0.0002537746913731098	0.0013684651348739862	0.00017902994295582175	0.0006130999536253512	0.00033998003345914185	0.00011660181189654395	-0.000292597891530022	0.00034013079130090773	7.30943747839774e-06	0.00018295667541678995	-0.00012227753177285194	-0.0003942436305806041	-9.463133756071329e-05	0.0002001771645154804	-0.00017587168258614838	-2.920225597335957e-05	0.031575608998537064	-8.437159704044461e-05	-9.837436664383858e-05	4.055314639117569e-05	-0.00017750906408764422	1.3798770851281006e-05	-7.672022184124216e-05	-0.00034341320861130953	5.988274278934114e-05	0.00013175496133044362	5.791410876554437e-05	0.0002020921529037878	5.8373007050249726e-05	-0.00016777621931396425	0.0002656170981936157	-0.00014431611634790897	2.515915002732072e-05	-0.0002959519624710083	-0.0007483443478122354	0.00026553712086752057	9.075662092072889e-05	-0.00026054633781313896	-0.00018585272482596338	0.00018496933626011014	0.0004141624376643449	0.00036942498991265893	-0.01399551797658205	-1.347871875623241e-05	0.0002783267409540713	-9.733034858072642e-06	0.00018787661974783987	1.9483748019410996e-06	0.00016539040370844305	5.4118081607157364e-05	-0.0003998748434241861	0.00013758706336375326	-0.0003379846166353673	-0.00018930564692709595	-0.00014854544133413583	-0.00031573165324516594	0.0005974664236418903	-1.693509148026351e-05	0.0002466262667439878	-5.5994445574469864e-05	-0.00020343538199085742	-0.0003412724763620645	-0.014711889438331127	0.00022592797176912427	-5.117159957990225e-07	1.885051460703835e-05	-4.192169217276387e-05	-0.00032483646646142006	8.437652286374941e-05	0.0001049586062435992	0.010824466124176979	-0.23303784430027008	0.00023279472952708602	-0.020319858565926552	0.08532381802797318	-0.0004016448510810733	-3.8770114770159125e-05	-0.016956932842731476	-7.690743950661272e-05	-7.73383435443975e-05	-2.8571492293849587e-05	0.035236723721027374	0.00030407539452426136	2.0898831280646846e-05	-4.917017213301733e-05	0.07878687977790833	-3.942969851777889e-05	-0.046058326959609985	-0.3028101921081543	0.000845333794131875	-0.0025549978017807007	0.00011545490269782022	0.00040237465873360634	0.00017631525406613946	0.0002501860144548118	0.0003129365504719317	-0.0003738969098776579	0.0001698232808848843	0.07290655374526978	0.0003165762755088508	0.00021885328169446439	4.553606049739756e-05	-0.010954133234918118	-0.0002651384274940938	-0.0001797281001927331	-0.0004521651426330209	2.426184255455155e-05	-1.1519005965965334e-05	0.01970726065337658	-1.5624331354047172e-05	0.00018481082224752754	-0.0002849662268999964	-0.020413344725966454	-0.16394679248332977	0.036185529083013535	-0.0001689587952569127	-3.794118310906924e-05	0.0001872966531664133	-6.467919774877373e-06	-0.00011826406989712268	-0.018452251330018044	-0.10618386417627335	0.004916872829198837	-0.10534768551588058	0.000133395180455409	-7.418348832288757e-05	4.9458900321042165e-05	-0.0003631524450611323	-0.036460090428590775	0.0003160868363920599	-0.0004591270990204066	-0.00022750649077352136	-6.263871910050511e-05	0.00012328929733484983	-0.18337516486644745	-0.004237757530063391	-0.0001348934747511521	0.00017076893709599972	8.370844443561509e-05	2.9546397854574025e-05	0.0004307651543058455	-0.00011125789023935795	0.000521994021255523	0.000242128677200526	0.1378008872270584	2.209295598731842e-05	1.8438498727846309e-06	0.00025761083816178143	0.00011619865836109966	1.9597209757193923e-05	-0.00014389689022209495	-8.368613634957e-05	-0.00016126525588333607	-0.028645792976021767	-0.0014805275714024901	0.0001628981262911111	-2.8221884349477477e-05	5.41097397217527e-05	-0.0007371252286247909	0.0004491301078815013	-0.00025321776047348976	0.00012192858412163332	-0.00041181364213116467	0.0001218396209878847	-4.0387931221630424e-05	-0.000326221517752856	0.00016651347687002271	-3.961008042097092e-05	-0.0001823729689931497	-0.08054621517658234	-0.0002610978845041245	7.426778029184788e-05	3.703878519445425e-06	0.0003243118990212679	-0.0003315940557513386	-0.194733127951622	-0.00027027918258681893	0.00011211726086912677	0.00021494786778930575	-0.0002563422895036638	7.548715802840889e-05	0.012088842689990997	-0.00022311750217340887	-0.00014401385851670057	0.15287086367607117	0.00024221693456638604	-0.00029187818290665746	-0.0002908293390646577	0.00038798878085799515	-0.0003479858860373497	-9.987365046981722e-06	0.00010583802941255271	-2.1528792785829864e-05	-0.0001533302856842056	0.00025731243658810854	-0.00019986728148069233	0.00022916564194019884	0.00013559317449107766	-8.581396105000749e-05	-0.015871597453951836	-0.0002590742369648069	-0.00017006442067213356	-0.00036805710988119245	-6.291641329880804e-05	0.000191957427887246	0.00608997605741024	-0.00011468853335827589	-0.00012928953219670802	0.000632182287517935	0.00024226937966886908	-0.00012457501725293696	0.0004500241484493017	-2.1395604562712833e-05	9.943408076651394e-05	9.706523997010663e-05	-0.00028002503677271307	-1.2958997103851289e-05	-0.00011089942563557997	-0.0003136798623017967	-8.713061106391251e-05	0.00016552984016016126	-0.0002046867011813447	0.00020351263810880482	-0.0005216891877353191	-6.123007187852636e-05	-0.00011359806376276538	-0.0698193833231926	7.626062870258465e-05	0.0003594554145820439	0.000304634275380522	1.4050518984731752e-05	-0.00016227852029260248	-5.2619063353631645e-05	-2.050857074209489e-05	-0.00015638915647286922	0.00035800287150777876	0.00010891834244830534	6.213979213498533e-05	0.00012243389210198075	-0.0003287323343101889	0.00017471391765866429	6.263638351811096e-05	5.741143104387447e-05	0.00041673638042993844	-0.00033067274489440024	1.3865040273230989e-05	-0.11300820857286453	0.00020511978073045611	-0.0002558333217166364	0.0002821642265189439	-4.8135447286767885e-05	0.00024366722209379077	3.7016528949607164e-05	0.0001204006839543581	1.670267738518305e-05	-9.462131856707856e-05	-0.0003437876875977963	0.000133453359012492	2.8655658752541058e-05	0.002225451869890094	-0.0002574896498117596	-0.00030942726880311966	0.00013458463945426047	-7.280143472598866e-05	0.00018127550720237195	-0.0004456810129340738	-0.0002088798937620595	0.006426727864891291	0.0001880476193036884	-0.0004268465854693204	0.00016624758427497	0.00015926678315736353	0.00013717856199946254	-5.53303980268538e-05	0.0005222305189818144	0.00031047273660078645	0.00017021395615302026	-0.3721518814563751	-2.369690719206119e-06	7.06426944816485e-05	0.00012728356523439288	0.00014600763097405434	6.8792405727435835e-06	0.00012400966079439968	-2.0102972484892234e-05	-0.00041638925904408097	-5.322407741914503e-05	3.049698761969921e-06	-7.69570906413719e-05	-0.000278587598586455	-0.00025042565539479256	-0.1002441942691803	0.0002743554941844195	-0.014169394038617611	-0.00023623142624273896	0.0005039006355218589	-0.00024640109040774405	-0.00011236483260290697	0.0003259340301156044	2.7370006137061864e-05	-0.0004595553036779165	-0.0001567974832141772	0.00015976620488800108	-0.00037014743429608643	0.00019238036475144327	-0.00022115165484137833	1.546291241538711e-05	0.00018415159138385206	-0.0003021592856384814	0.0004560475063044578	4.104551408090629e-05	0.00024263429804705083	0.0005639089504256845	-5.043463534093462e-05	-0.00024254294112324715	-0.0002561955479905009	0.0001237989927176386	-0.00017063584527932107	-0.00022856118448544294	0.00015754555352032185	0.00028354444657452404	2.2271036868914962e-05	0.00023384240921586752	-7.076789916027337e-05	-0.023084424436092377	8.258122397819534e-05	-9.29590969462879e-05	0.037636540830135345	-6.37299453956075e-05	0.0001639132824493572	-0.0003469446091912687	2.6676249035517685e-05	2.9177010219427757e-05	0.00015157989400904626	-0.01873577944934368	-0.000454750464996323	0.00011567818000912666	-0.0002621540625113994	2.2339749193633907e-05	0.0002013591438299045	1.948446333699394e-05	5.99116065131966e-05	0.000523000315297395	0.06396277248859406	-0.00014016046770848334	-0.0002095167146762833	-5.101308852317743e-05	3.238964927732013e-05	-0.0005748525727540255	0.00045753619633615017	-0.002143834251910448	0.24510478973388672	0.00014978775288909674	-0.00022211871691979468	-0.00028663387638516724	-0.0002464300487190485	0.00019843870541080832	0.00012782974226865917	0.0004895311431027949	0.16149869561195374	-9.541257895762101e-05	-0.00040408060885965824	0.0005415840423665941	-0.000264301139395684	-0.0001314816763624549	-0.00026671227533370256	-0.00021146360086277127	-0.00043967340025119483	-0.00019220531976316124	0.00044271606020629406	-7.088240818120539e-05	-0.00015203311340883374	0.00017333385767415166	5.328542829374783e-05	0.00022175218327902257	-0.00012206857354613021	0.00018123372865375131	0.00011759272456401959	0.024115372449159622	1.949088073160965e-05	-4.856488885707222e-05	0.02823570929467678	0.0002668277302291244	0.00035510159796103835	5.264847914077109e-06	0.00044283471652306616	-0.0006143774371594191	0.00011903090489795431	-0.00022722601715940982	4.158874071436003e-05	-9.163154754787683e-05	0.0002575464022811502	-0.08094137161970139	0.0001846099621616304	0.00033957717823795974	-0.00027764809783548117	-0.000747077283449471	1.668643017183058e-05	-0.00035710103111341596	-0.00012426654575392604	6.643102096859366e-05	-0.00012303520634304732	-7.40972172934562e-05	-0.00016367599891964346	-0.00016440701438114047	-0.0013595828786492348	-9.067510109161958e-05	-0.0002982107689604163	-0.00014455642667599022	-0.00019185463315807283	5.338803384802304e-05	0.00011750496923923492	0.00025275888037867844	-6.048085924703628e-05	-0.021405668929219246	-0.0003568393876776099	0.00011446634016465396	-0.0004299071151763201	2.247698103019502e-05	-0.0006322417175397277	-8.875445928424597e-06	5.637903086608276e-05	-0.1837485134601593	-0.0002815025800373405	1.0513235793041531e-05	0.000118541247502435	-0.0001981232053367421	-0.0003100046014878899	-0.0002420978416921571	-0.00023364878143183887	-0.0002238883898826316	-8.652375981910154e-06	-1.1589440873649437e-05	3.831669528153725e-05	-0.0002015868667513132	0.00017743078933563083	0.0004284501192159951	-0.0002728489344008267	-0.0001460322819184512	-4.348386210040189e-05	4.5004806452197954e-05	0.018751198425889015	0.00012961466563865542	0.0001819694007281214	-0.0001759480219334364	-0.00042382001993246377	0.07964909076690674	-0.000545538729056716	0.0005482487031258643	-0.008050085976719856	2.228584162367042e-05	0.00032417080365121365	-0.00013030495028942823	7.918207120383158e-05	0.12580159306526184	-1.5587578673148528e-05	0.00019295889069326222	-0.00016413393313996494	0.000224500079639256	0.00020051791216246784	0.000509265810251236	0.0002768970443867147	-0.0002752996515482664	8.530175546184182e-05	0.0001706200564512983	0.00036644196370616555	-0.005525944754481316	0.03620219975709915	-9.354605572298169e-05	0.00021806535369250923	-0.0001901315408758819	0.022496270015835762	-0.8829252123832703	-0.3600160777568817	6.769216997781768e-05	-0.00013470558042172343	6.235314504010603e-05	0.0292183980345726	0.00014365195238497108	2.318903170817066e-05	0.0004293145320843905	0.0001999914093175903	-0.00034162576775997877	0.00016795596457086504	4.7747129428898916e-05	-6.180293712532148e-05	0.0002285465452587232	0.00012153528950875625	8.597563282819465e-05	-0.0003083960327785462	0.00013341053272597492	6.459750147769228e-05	6.63139289827086e-05	0.00024124656920321286	0.08362829685211182	4.362800609669648e-05	-0.00014235658454708755	-0.0006013523670844734	0.00026692397659644485	6.336451770039275e-05	0.00043280390673317015	-6.564117211382836e-05	-0.0002759485796559602	-8.978260552794382e-07	-5.169209180166945e-05	-0.00030255186720751226	0.00016980282089207321	