512
0.026414530351758003	0.0366949662566185	-0.0022459253668785095	-0.011974351480603218	0.005728109274059534	0.0021773301996290684	0.0025361543521285057	-0.028377577662467957	0.0006723366095684469	0.007679970469325781	-0.0036945240572094917	-0.009935762733221054	-0.009902984835207462	-0.006012055557221174	0.0015365927247330546	-0.008214304223656654	0.034760475158691406	-0.003906130325049162	-0.02693095989525318	-0.005252948962152004	0.001079706591553986	-0.020772183313965797	0.00876951776444912	-0.01622205786406994	-0.003537253476679325	0.0185894463211298	0.025940945371985435	0.0661364197731018	-0.0022788718342781067	-0.0010032578138634562	-0.009086995385587215	0.006179138086736202	0.022569922730326653	-0.005621478892862797	0.0013522397493943572	-0.004957397002726793	0.0755828469991684	-0.01564745604991913	0.017023835331201553	0.014756369404494762	0.03513509780168533	0.024403447285294533	0.014281822368502617	0.01586747355759144	0.00015560610336251557	0.06882385909557343	0.007975737564265728	-0.040774066001176834	0.0024543001782149076	0.017215533182024956	0.010711745359003544	0.006312685087323189	-0.010683916509151459	0.007290293462574482	0.006590874865651131	0.007135061547160149	-0.018999943509697914	0.028279844671487808	0.02930586226284504	0.02001005783677101	0.008415589109063148	0.0032811302226036787	0.07372066378593445	-0.0008266284712590277	-0.009731793776154518	0.023142559453845024	-0.006182077340781689	0.01001051627099514	0.04839380085468292	0.014254158362746239	-0.0049927011132240295	-0.01175078097730875	0.03104650229215622	-0.0013818793231621385	-0.00810690876096487	-0.004102867562323809	0.009408527053892612	0.0048492103815078735	0.0057250321842730045	0.013835960999131203	0.007345361635088921	0.03561205416917801	0.03101935423910618	0.010842906311154366	0.042213696986436844	0.016343597322702408	0.016002032905817032	0.013190288096666336	0.00045012604095973074	0.04308098927140236	0.0019648957531899214	0.026083925738930702	-0.017686473205685616	0.05010048672556877	0.014662330038845539	0.010115783661603928	0.046446386724710464	0.000864120083861053	0.009051909670233727	0.03778309375047684	-0.0025688305031508207	-0.0010969610884785652	0.01058938354253769	0.0005099211120977998	-0.011943052522838116	0.03335609659552574	0.006128882057964802	-0.012388329952955246	-0.0007077871123328805	-0.0016637782100588083	0.025860024616122246	0.031295739114284515	0.0020300012547522783	0.006216005422174931	0.03656073287129402	0.018209947273135185	0.02995256520807743	0.008183845318853855	0.039915550500154495	0.02292163483798504	0.02506917342543602	-0.011024683713912964	0.03181195259094238	0.008542021736502647	-0.019364751875400543	0.06139949709177017	-0.027140619233250618	-0.0018908842466771603	0.07232922315597534	0.03243177384138107	-0.02607516199350357	0.003894515335559845	-0.0008602566085755825	0.00234487047418952	-0.0017802752554416656	0.02500869147479534	0.012791624292731285	0.016398504376411438	-0.005023109260946512	0.012743302620947361	-0.026563921943306923	-0.018098238855600357	0.006043798290193081	0.003922524396330118	0.02576356753706932	-0.026133952662348747	-0.002401150995865464	0.03524774685502052	0.027176063507795334	0.01947321742773056	0.009237035177648067	-0.0402773916721344	0.0015115311834961176	0.025962980464100838	0.008720536716282368	0.034478068351745605	-0.007567377295345068	0.013607358559966087	0.0061151450499892235	0.04672786965966225	0.011152495630085468	-0.006956531200557947	-0.009831322357058525	-0.003646695055067539	-0.0029603121802210808	0.0010940441861748695	0.01868683658540249	-0.0037077786400914192	-0.010539342649281025	0.06952968239784241	0.01306203380227089	0.039436161518096924	0.04967828467488289	-0.011975739151239395	0.024800390005111694	0.009536480531096458	-0.0068716141395270824	0.05344028025865555	-0.030575113371014595	-0.003930583130568266	-0.025541173294186592	0.03644675388932228	0.006510533392429352	0.009787522256374359	0.006342098582535982	0.011102107353508472	0.0009099437738768756	0.028308292850852013	-0.00439969589933753	-0.0024361282121390104	0.07037071883678436	-0.002603531815111637	0.02396385930478573	0.03615054860711098	0.01753375492990017	0.0047271098010241985	0.0053954049944877625	0.00796552374958992	0.005641366820782423	-0.006105033680796623	0.039961397647857666	-0.00735701248049736	-0.024577802047133446	0.0032302415929734707	0.012457082979381084	0.005490585695952177	-0.005075202323496342	-0.022317664697766304	0.050060421228408813	0.003247286658734083	0.002286274451762438	0.0001540475059300661	0.0023876666091382504	0.006985766347497702	0.010354733094573021	0.009255570359528065	0.026618722826242447	0.006507587153464556	0.03150300309062004	0.028998970985412598	-0.024572232738137245	-0.009326644241809845	-0.01937210001051426	0.0039290208369493484	0.052274491637945175	0.006116966251283884	0.04127274081110954	0.026292473077774048	0.01721322350203991	0.05917193368077278	0.010896898806095123	0.07437252998352051	0.0030788362491875887	-0.004260008689016104	0.04146094247698784	0.051959328353405	0.015792109072208405	0.012655820697546005	-0.010447189211845398	0.018533004447817802	-0.003476381069049239	0.00025283716968260705	0.017230356112122536	0.019632620736956596	-0.0007419766625389457	0.01497352309525013	0.02822517417371273	-0.024361345916986465	0.030083131045103073	0.02888670191168785	-0.0030234595760703087	0.027095261961221695	0.07047848403453827	0.014684713445603848	0.030263816937804222	0.006619338411837816	0.004181234166026115	0.007057690992951393	0.000914712087251246	0.021350646391510963	-0.0036006346344947815	-0.02615339122712612	0.022801658138632774	0.03487395495176315	0.049119263887405396	-0.0038377451710402966	0.009068046696484089	-0.0028780498541891575	0.02440609410405159	-0.0012083934852853417	0.007396025583148003	0.018748808652162552	-0.012293418869376183	0.017168886959552765	-0.023128079250454903	0.032081346958875656	0.035593368113040924	0.05461191385984421	-0.012580353766679764	-0.010231529362499714	0.009961171075701714	-0.0036101541481912136	0.01468711532652378	0.06172240152955055	-0.029849179089069366	0.005455831531435251	-0.013780207373201847	-0.0012493961257860065	0.01031690463423729	0.0011227332288399339	0.03515525907278061	0.015571210533380508	-0.023532802239060402	-0.00048645370407029986	0.0011465881252661347	0.046243250370025635	0.024154555052518845	0.001591034815646708	0.0254933200776577	0.06544584035873413	0.02500493824481964	0.01854008249938488	0.009394686669111252	-0.003640810027718544	-0.000567306240554899	-0.004607959650456905	-0.01893262192606926	-0.0008525566081516445	0.049039315432310104	-0.001046178862452507	0.02883320488035679	-0.0032084796112030745	0.014455122873187065	0.0050356131978333	0.014256543479859829	-0.009739954024553299	0.01654592528939247	0.009140719659626484	0.038121774792671204	-0.016962619498372078	0.1027684360742569	0.04879148304462433	0.0009816420497372746	-0.011805474758148193	-0.002444493817165494	0.018168490380048752	-0.015112967230379581	0.0021818787790834904	-0.009666172787547112	0.034057024866342545	-0.0037378305569291115	-0.027845850214362144	-0.005408788565546274	0.013593715615570545	0.09984742105007172	0.006672099232673645	-0.02411302551627159	0.038271479308605194	0.006763321813195944	0.0029295971617102623	0.03314827382564545	0.012801457196474075	0.0445697121322155	0.005486265290528536	0.032781898975372314	0.030233830213546753	-0.025110334157943726	0.022809844464063644	0.06695713847875595	0.015873944386839867	-0.00043204528628848493	-0.0038290335796773434	0.020696666091680527	0.014572433196008205	0.00020749818941112608	0.009583241306245327	0.023218821734189987	0.07190418988466263	-0.005441513378173113	0.027661116793751717	0.00045402994146570563	0.029517609626054764	0.021944981068372726	-0.0030312840826809406	0.022056352347135544	0.010396820493042469	0.03066943772137165	0.01581154577434063	-0.0051963492296636105	0.05273088067770004	0.022478800266981125	0.026209374889731407	-0.001752764917910099	-0.00639175483956933	0.004362690728157759	0.0009500497835688293	0.046967677772045135	0.02506125718355179	-0.006109477020800114	-0.009927665814757347	-0.0021116738207638264	0.01997043564915657	0.0006601895438507199	0.00503713171929121	-0.004532633814960718	0.004663674160838127	0.0003199104394298047	-0.02362160012125969	-0.016126999631524086	-0.007426237687468529	-0.0015716349007561803	-0.014179880730807781	0.01200440339744091	0.00975956954061985	0.03001214750111103	0.06619741767644882	-0.004092303104698658	0.033467475324869156	0.009899819269776344	-0.005046000238507986	0.026515567675232887	-0.04552162066102028	0.02351507730782032	-0.015104585327208042	0.010776085779070854	-0.006684394553303719	-0.003064921125769615	0.008440624922513962	-0.021990546956658363	0.06069066748023033	0.007939551956951618	0.006537634413689375	-0.013930559158325195	0.01221583504229784	0.02094612456858158	0.01919751986861229	0.006605719681829214	0.04658960923552513	0.005221743136644363	0.029893353581428528	-0.0013076477916911244	0.018131259828805923	-0.007298851851373911	-0.02449251525104046	0.002264298964291811	0.01929941028356552	0.005873087327927351	0.0003394235100131482	-0.003124162321910262	-0.017571525648236275	0.002137397648766637	0.016359522938728333	0.00868930947035551	0.010667243041098118	0.002814254956319928	-0.010757489129900932	-0.005518543999642134	0.010568573139607906	0.03828923776745796	0.017803410068154335	0.00229682051576674	0.005339372903108597	0.03362296521663666	0.006091242656111717	0.01099528931081295	0.03377583995461464	0.011062930338084698	0.005172069184482098	0.00033479812555015087	-0.0075919134542346	-0.004306712653487921	0.0020895607303828	-0.008968174457550049	0.06903921812772751	0.018365876749157906	-0.025358691811561584	0.02892008051276207	0.019100306555628777	0.007644989527761936	0.03356035798788071	-0.02796969935297966	-0.01794249564409256	0.011652499437332153	0.037073004990816116	0.003229726804420352	-0.014186195097863674	0.01826637238264084	0.0033101337030529976	-0.01857561618089676	-0.01600075140595436	-0.007915969006717205	-0.029084354639053345	-0.006791863590478897	-0.005344683770090342	0.0506579764187336	-0.040626123547554016	0.020491210743784904	0.03727079555392265	-0.0001762133906595409	0.001833263086155057	0.004300723783671856	0.02638273499906063	0.007574135437607765	-0.00014568542246706784	0.010361939668655396	0.026437979191541672	-0.004983491729944944	-0.009264985099434853	-0.0136669697239995	-0.009921491146087646	-0.041028231382369995	0.001083865761756897	0.0018122615292668343	0.010989880189299583	0.041275229305028915	0.005842072889208794	-0.025535300374031067	0.010251139290630817	0.024773241952061653	-0.031151197850704193	-0.02913924865424633	0.014131751842796803	-0.001418817788362503	-0.006199008319526911	0.043955229222774506	0.003514291951432824	-0.004624378867447376	0.029826344922184944	0.04177350178360939	0.04996205493807793	0.004964156076312065	0.017583951354026794	