63	512
0.023290472105145454	0.18582668900489807	-0.33478960394859314	0.005704228766262531	0.034307461231946945	0.060363657772541046	-0.004384748637676239	0.2527797818183899	0.014985769055783749	-0.056073565036058426	-0.4715338349342346	0.018487252295017242	-0.27521830797195435	-0.0061506181955337524	-0.11334862560033798	0.013812142424285412	-0.07970266789197922	0.05372798070311546	0.031504519283771515	0.15317629277706146	0.037659961730241776	-0.0010657000821083784	-0.03387561812996864	0.1948569118976593	-0.01270732656121254	0.07707494497299194	0.027719704434275627	0.21380364894866943	0.028922267258167267	-0.05199078842997551	-0.046965014189481735	0.02343287318944931	-0.0688386932015419	-0.08611636608839035	-0.03236008062958717	0.0028642555698752403	0.05983477085828781	0.0003949289966840297	-0.0018642264185473323	-0.017653727903962135	-0.0349319688975811	-0.0589606873691082	0.13377158343791962	-0.023880189284682274	0.20020438730716705	0.006182240787893534	0.11577432602643967	0.08730320632457733	0.03730432689189911	-0.0791746973991394	-0.024022283032536507	-0.02730613388121128	0.0030415982473641634	0.20236456394195557	0.04517490789294243	0.016705352813005447	0.00337763293646276	0.4537070393562317	0.04017245024442673	0.037543199956417084	0.09036800265312195	0.18556424975395203	0.24775449931621552	-0.05762097239494324	0.007878434844315052	0.1454722285270691	0.01948782056570053	0.11072451621294022	0.018839366734027863	0.03985784947872162	0.046243712306022644	0.03614838048815727	0.07247421145439148	0.006328990682959557	-0.006232530809938908	-0.029611259698867798	0.2764016091823578	-0.030989164486527443	0.02093050628900528	0.0014068891759961843	0.0664002075791359	0.003262761514633894	-0.04637424275279045	0.12151274085044861	0.631169319152832	0.05141817778348923	0.05185041204094887	0.14509300887584686	-0.037486083805561066	0.05656398832798004	-0.12597954273223877	-0.0001300581789109856	0.0036465912126004696	0.038379326462745667	-0.2660937011241913	-0.031748514622449875	0.17105898261070251	0.0040475158020854	0.010325306095182896	0.024785777553915977	-0.05470001697540283	-0.05459578335285187	-0.037528492510318756	0.29045891761779785	0.021813707426190376	0.02377993054687977	-0.028422189876437187	-0.011080257594585419	-0.046948064118623734	-0.03952017426490784	0.014595065265893936	-0.08472098410129547	-0.010750584304332733	0.01928740181028843	-0.0319071002304554	0.10009066015481949	-0.0674222782254219	0.018749937415122986	0.021811164915561676	-0.0197555311024189	-0.06823138147592545	-0.08984985202550888	0.0649101510643959	0.08879278600215912	0.15689212083816528	-0.1054527685046196	0.004647634923458099	0.024353479966521263	-0.01815047115087509	-0.005460776388645172	-0.019592642784118652	-0.07304937392473221	-0.3421710431575775	-0.004556406755000353	0.047730714082717896	0.07649486511945724	0.05184215307235718	0.07167031615972519	-0.07362645864486694	-0.055309005081653595	0.017823651432991028	-0.11689770966768265	-0.01680537313222885	0.048829901963472366	-0.01607975922524929	-0.012884997762739658	0.026379700750112534	0.11288195103406906	0.1678055375814438	0.024248257279396057	0.04628155380487442	0.06993667036294937	0.007644291035830975	0.02188916504383087	-0.0035308259539306164	0.06042781472206116	-0.1482807695865631	0.03308294713497162	0.024530496448278427	-0.16077126562595367	-0.002249772660434246	0.11725713312625885	0.13460932672023773	0.023973898962140083	0.004748750012367964	-0.04100099205970764	0.01505319308489561	0.015848619863390923	0.02909763902425766	-0.029114307835698128	-0.0890926644206047	0.044579096138477325	-0.028161190450191498	0.0035134090576320887	0.033669110387563705	0.02476237528026104	-0.00038135965587571263	0.04521960765123367	-0.038976773619651794	-0.1357647031545639	-0.024562044069170952	-0.009564295411109924	-0.07704401761293411	-0.0001218400793732144	-0.03153286874294281	0.005103475414216518	-0.10557855665683746	0.056302979588508606	-0.05728229880332947	0.02537417598068714	0.07852260768413544	-0.02816152758896351	0.004041870124638081	0.11860380321741104	-0.17241644859313965	-0.07347633689641953	0.005167427472770214	-0.014152700081467628	0.053890716284513474	-0.0018818480893969536	-0.21542105078697205	0.02778860181570053	-0.015188425779342651	-0.05568135157227516	0.019351867958903313	0.0026835729368031025	0.0538707971572876	0.012674598954617977	0.008635959587991238	-0.0558982715010643	-0.09899630397558212	-0.02478918805718422	-0.05992596596479416	-0.009742025285959244	0.02026982791721821	-0.14991334080696106	-0.04581593722105026	-0.015358095057308674	0.13630816340446472	0.08861671388149261	-0.041894059628248215	0.17375825345516205	-0.6684306859970093	-0.02862163633108139	0.025023799389600754	0.04371058568358421	-0.07194221764802933	-0.15084849298000336	0.01816669851541519	0.0011320485500618815	-0.02636069245636463	0.053513769060373306	0.03060591034591198	0.08992527425289154	-0.04282746464014053	0.13609415292739868	-0.33465513586997986	0.06779178231954575	-0.03297335281968117	-0.06550686806440353	-0.1474938988685608	-0.005390299018472433	0.04292374476790428	0.20195476710796356	0.00030469492776319385	0.08603481948375702	0.05773736909031868	0.013570382259786129	0.05956313759088516	0.032675161957740784	-0.009847894310951233	0.012771794572472572	0.1850828379392624	0.022927427664399147	-0.004496771842241287	0.07969510555267334	0.007213294971734285	0.011937125585973263	-0.05160367861390114	-0.03572982922196388	-0.07479269057512283	-0.01808621920645237	0.45789340138435364	-0.037789445370435715	-0.0167121272534132	0.024594228714704514	0.05252552777528763	0.049851156771183014	0.07313597202301025	0.04698534309864044	0.03876394405961037	0.2681044936180115	0.06900472193956375	0.0016722336877137423	-0.01254731323570013	-0.05757305398583412	0.010189670138061047	0.05788317695260048	-0.03234608471393585	0.05401553958654404	0.17423126101493835	-0.20172345638275146	0.03490428999066353	0.046498075127601624	0.021474257111549377	0.014144659973680973	-0.38309624791145325	-0.036379240453243256	0.3135773241519928	0.0212854091078043	-0.02584230713546276	0.31214457750320435	0.020020129159092903	0.11671306192874908	0.021841876208782196	0.29450586438179016	0.005154123995453119	0.27127325534820557	-0.054217629134655	-0.04209943860769272	0.0865902528166771	-0.06418595463037491	0.09061754494905472	0.04045739769935608	0.08389361202716827	-0.012441388331353664	0.1857055425643921	-0.009054371155798435	0.061107806861400604	0.045836228877305984	-0.013161365874111652	-0.07314299046993256	0.07598499208688736	0.15724176168441772	-0.08142039179801941	0.06258118897676468	-0.021328244358301163	-0.0004247908655088395	-0.019536742940545082	0.07783111184835434	-0.07068187743425369	0.029784368351101875	0.058742910623550415	0.16314466297626495	0.051057614386081696	-0.0746215209364891	-0.04089165851473808	0.02963857725262642	-0.04511279985308647	-0.008236337453126907	-0.0702870562672615	0.01655864156782627	0.07560672610998154	0.041926175355911255	-0.013355016708374023	0.009144607000052929	0.19446276128292084	-0.000699917902238667	-0.2457803338766098	0.019463656470179558	-0.05602355673909187	0.031607165932655334	0.09354740381240845	0.022912967950105667	0.08813203126192093	0.0325506217777729	-0.01712288334965706	0.023459792137145996	0.022768288850784302	0.005370153579860926	-0.11439862847328186	0.0020460980013012886	0.024065816774964333	-0.03804246336221695	-0.07358577847480774	-0.04579012468457222	-0.029907025396823883	-0.03508419916033745	0.019610220566391945	-0.005956612527370453	-0.009503552690148354	0.23433320224285126	0.029253743588924408	-0.043502695858478546	-0.006266589742153883	-0.05375518649816513	-9.24009145819582e-05	0.00889771431684494	-0.0253473948687315	0.30739709734916687	0.03792448341846466	-0.046996548771858215	-0.004463777877390385	0.019150199368596077	0.028696633875370026	0.055095527321100235	0.04029376804828644	0.06805001944303513	0.09354795515537262	-0.1723930537700653	0.0033363879192620516	-0.023243412375450134	0.14885549247264862	-0.03972969204187393	0.09603997319936752	0.01351406890898943	0.06688576191663742	-0.011007321067154408	-0.1697501540184021	-0.07433108985424042	0.06673673540353775	-0.032131776213645935	0.06296481937170029	0.13062213361263275	0.030454017221927643	0.08895188570022583	0.04816199466586113	0.053147394210100174	0.053810976445674896	-0.03640085086226463	0.06530629843473434	0.07377530634403229	0.041307397186756134	-0.007882705889642239	0.16123142838478088	0.05280551686882973	-0.03554389253258705	9.546179353492334e-05	0.3145473599433899	0.10803458839654922	-0.0521806962788105	0.011418146081268787	0.03132140636444092	0.19563034176826477	0.0014412234304472804	-0.0029337750747799873	-0.0024636229500174522	0.1380016952753067	0.04968557879328728	-0.026349693536758423	-0.29182329773902893	-0.0442848838865757	-0.5097997784614563	-0.009862286038696766	-0.060894448310136795	0.19610723853111267	0.12795376777648926	-0.041163552552461624	0.05950968712568283	0.013128086924552917	-0.07485973089933395	0.03932679817080498	0.0666654109954834	-0.0003176914469804615	0.007412321399897337	-0.013484393246471882	0.02990017458796501	0.1727440506219864	0.01416822150349617	-0.0336209274828434	-0.04522034525871277	-0.02915504202246666	-0.28502997756004333	0.012339537963271141	0.0739564597606659	0.09735390543937683	0.004109692759811878	0.05204832926392555	-0.01153955701738596	0.013361276127398014	0.2304486185312271	-0.09990683197975159	0.014204943552613258	-0.013311686925590038	-0.02828812599182129	-0.011860613711178303	0.059863124042749405	-0.010642684064805508	0.1523556411266327	0.1834571212530136	0.018227756023406982	-0.011177288368344307	-0.018425509333610535	0.6275990605354309	0.06055326759815216	0.10735979676246643	0.07453323155641556	0.0913112685084343	0.032522041350603104	0.12708699703216553	0.08389648050069809	-0.14493556320667267	0.13795872032642365	0.04835576191544533	0.036674968898296356	0.03333316370844841	0.6369882225990295	0.12879972159862518	0.06567475199699402	0.030699901282787323	-0.01566917821764946	0.06379395723342896	0.11364085227251053	0.10748244822025299	0.05436292663216591	0.1603759527206421	-0.05788039788603783	-0.00196847110055387	0.025591379031538963	-0.03226582705974579	0.02801823802292347	-0.012511725537478924	0.1792135387659073	0.03574473410844803	-0.029878444969654083	-0.08598632365465164	-0.010192821733653545	-0.01457341481000185	0.003394837025552988	0.01325207483023405	0.02475280873477459	0.10039328038692474	0.031306810677051544	-0.0054915063083171844	-0.019823556765913963	-0.1995997279882431	0.06447979807853699	0.05617601051926613	-0.0123701561242342	-0.014217895455658436	-0.07220082730054855	0.019376719370484352	
-0.011671330779790878	-0.030693093314766884	0.01209180150181055	-0.03172178938984871	-0.008943788707256317	-0.07331400364637375	-0.0003461388114374131	-0.01561719086021185	-0.006702627055346966	-0.009164774790406227	-0.07188719511032104	-0.03909950703382492	-0.14410489797592163	-0.02392161637544632	0.13026170432567596	0.025709182024002075	0.048409171402454376	-0.020547576248645782	-0.009574975818395615	0.0034944931976497173	0.01031574234366417	0.022218184545636177	0.017273036763072014	0.1071714237332344	0.1608341783285141	0.021319881081581116	0.004221837967634201	0.03408677130937576	0.05396570637822151	0.010621138848364353	-0.058591097593307495	0.05424494296312332	0.021442687138915062	-0.16493657231330872	0.07441729307174683	0.02497684396803379	-0.0348498560488224	-0.0156023558229208	0.01930733025074005	-0.03902316838502884	-0.02135246992111206	0.019543739035725594	0.030523844063282013	-0.04609401896595955	-0.03777448087930679	0.08897752314805984	0.2131616175174713	-0.006696901749819517	-0.06793949753046036	0.015690766274929047	-0.030404923483729362	0.012885932810604572	-0.022266991436481476	0.026428816840052605	-0.03522609919309616	-0.020400766283273697	-0.026533322408795357	0.008941907435655594	0.03738906607031822	-0.027946019545197487	-0.07275871932506561	-0.062038179486989975	-0.008341671898961067	-0.07624833285808563	-0.09714052826166153	-0.023407820612192154	-0.023262623697519302	-0.009894708171486855	-0.00741175003349781	0.026239309459924698	0.024866880849003792	0.1326158493757248	-0.01612071692943573	-0.020877618342638016	-0.03798484057188034	-0.08914943784475327	-0.056044675409793854	-0.24898721277713776	-0.18184299767017365	0.037449635565280914	0.08752232044935226	-0.012279937975108624	-0.01305637788027525	-0.007005603518337011	-0.11883331090211868	0.022135209292173386	0.03842966631054878	0.1503250151872635	-0.05667983368039131	0.031102119013667107	-0.04248453676700592	-0.028005344793200493	0.11683426052331924	0.05445190146565437	0.020160693675279617	-0.21219679713249207	-0.05639373138546944	-0.12225693464279175	-0.00854264385998249	0.06992071121931076	-0.03009779565036297	0.04136265814304352	0.03647337853908539	0.11813066899776459	-0.017819108441472054	-0.020627055317163467	-0.002116833347827196	0.023582415655255318	-0.03886843100190163	-0.040667612105607986	0.039922162890434265	-0.035143107175827026	0.046780776232481	-0.04653189331293106	-0.021051770076155663	-0.04129306972026825	-0.020942365750670433	-0.053572602570056915	-0.024463342502713203	0.03354080021381378	0.004632472526282072	-0.01380209717899561	-0.014616256579756737	-0.07837870717048645	-0.011392880231142044	0.03648360073566437	0.051796555519104004	-0.062316153198480606	0.00465258676558733	0.015440878458321095	0.009398983791470528	-0.07183582335710526	-0.042256489396095276	0.002306257141754031	-0.014962369576096535	0.05862622335553169	0.022966619580984116	-0.04027463123202324	-0.1166238859295845	-0.027821598574519157	-0.022496137768030167	-0.05729373171925545	0.08135675638914108	-0.019252512603998184	0.009268995374441147	0.017491813749074936	0.06378623843193054	-0.06476927548646927	0.007052138447761536	-0.008916378021240234	0.030566077679395676	-0.03786836937069893	-0.06801194697618484	-0.014197828248143196	0.02324747107923031	-0.0376066230237484	-0.048662323504686356	0.06929820775985718	0.07296998053789139	-0.0009468519710935652	0.0029581685084849596	-0.24555416405200958	0.0754384994506836	0.16277460753917694	0.006341843865811825	0.01536561455577612	-0.02217286266386509	-0.004633380565792322	-0.05489364266395569	0.06076646223664284	-0.1923283338546753	-0.008680037222802639	-0.03394781053066254	0.0025918669998645782	0.02278492972254753	-0.044186607003211975	-0.07962018251419067	-0.05765620246529579	-0.0037080550100654364	-0.05334646627306938	-0.007469307631254196	0.026695173233747482	0.053767964243888855	0.0010178678203374147	-0.08196929842233658	-0.012385320849716663	-0.11243436485528946	0.02838626317679882	-0.12157568335533142	-0.09183448553085327	-0.04873998835682869	-0.04445628076791763	0.09273827821016312	-0.09384428709745407	-0.004788506310433149	0.04091108962893486	-0.20011268556118011	0.05126809701323509	-0.05999185889959335	-0.06102202087640762	-0.045383840799331665	0.033395055681467056	0.007131603080779314	-0.036448411643505096	-0.022981639951467514	-0.08660250902175903	0.022625265643000603	-0.06990061700344086	-0.015426038764417171	-0.07739018648862839	-0.25117024779319763	-0.03063604235649109	-0.12215825170278549	-0.019143879413604736	-0.08774342387914658	-0.05028374493122101	0.044039998203516006	-0.02758706919848919	-0.015599277801811695	0.10041582584381104	-0.007075493689626455	-0.10379505902528763	0.15557831525802612	0.023157738149166107	0.034848280251026154	0.12089300900697708	-0.019043507054448128	0.02864951454102993	-0.04589604586362839	0.020525122061371803	-0.1684144139289856	-0.08106803894042969	0.02586914412677288	-0.08360051363706589	-0.03966829180717468	0.002844291739165783	-0.2284180074930191	-0.04045724496245384	0.014152474701404572	-0.08438710123300552	-0.062419336289167404	-0.05936673283576965	0.036156050860881805	0.017215751111507416	-0.0024981405586004257	0.0004953605821356177	0.021707741543650627	-0.002837342442944646	-0.00889461487531662	0.01166539452970028	0.03136752173304558	-0.05763724818825722	-0.008209406398236752	-0.12124118953943253	-0.02195984497666359	-0.009114034473896027	0.024162055924534798	-0.06221696361899376	-0.09716225415468216	-0.0313057005405426	-0.1198047548532486	0.002055761404335499	-0.05565266311168671	-0.036666397005319595	-0.036410823464393616	-0.07978542894124985	0.008029352873563766	0.02454138547182083	0.0850558802485466	-0.0037846362683922052	0.0350085012614727	-0.0554845929145813	-0.040891971439123154	-0.012013961561024189	0.00239338050596416	0.05349094420671463	-0.05280685052275658	0.007898995652794838	-0.0030669323168694973	-0.05587291345000267	0.020327312871813774	0.011385226622223854	-0.07949154824018478	0.05753820389509201	0.07078864425420761	-0.0860225260257721	-0.03401196002960205	0.09852086752653122	0.1468290537595749	-0.01734050177037716	0.050205666571855545	0.024949902668595314	0.12717127799987793	-0.03911306709051132	-0.010124826803803444	0.014119052328169346	0.012493218295276165	-0.028409037739038467	0.07370389252901077	-0.01150428131222725	-0.011239630170166492	-0.08225475996732712	-0.12245503067970276	0.0654151514172554	0.041535597294569016	-0.08770010620355606	-0.018671784549951553	0.03685789555311203	-0.08354980498552322	-0.01732512190937996	0.03241521492600441	-0.011854802258312702	-0.05280843377113342	-0.03928249701857567	-0.02680567093193531	0.040253229439258575	0.04435412958264351	-0.11269819736480713	0.03041718527674675	-0.05005134642124176	0.09206382930278778	-0.04983744025230408	0.05243368446826935	-0.002661034232005477	0.06441779434680939	0.04841817915439606	0.0450313575565815	-0.016900504007935524	-0.1571391075849533	-0.02588546834886074	-0.07079392671585083	0.045702699571847916	0.0438612625002861	-0.018361862748861313	0.02094571478664875	-0.07003422826528549	-0.01169012300670147	-0.014096069149672985	-0.017355602234601974	0.1003512442111969	-0.03296264633536339	-0.07699370384216309	-0.004501666408032179	-0.03510279953479767	-0.07086728513240814	-0.06480076909065247	0.00835485104471445	0.013573149219155312	-0.02357400581240654	-0.04410656914114952	-0.08670652657747269	-0.03171780705451965	-0.08481946587562561	0.03812944516539574	0.15425743162631989	-0.07356434315443039	-0.10673736035823822	0.003482552245259285	0.10712388902902603	-0.10339141637086868	-0.07528481632471085	0.00784173235297203	0.11004286259412766	0.11205155402421951	0.029154418036341667	-0.015040806494653225	0.02792978100478649	-0.04523399844765663	-0.023642638698220253	-0.014896837063133717	-0.022650055587291718	0.022137964144349098	0.11911982297897339	-0.04328576847910881	-0.014475475065410137	0.04377508908510208	-0.0131502915173769	-0.0587909035384655	0.11133331060409546	-0.008428513072431087	-0.10606019198894501	0.06375330686569214	0.1344110667705536	0.0035536494106054306	-0.10562466084957123	0.04423992335796356	-0.14523369073867798	0.007824110798537731	-0.14554600417613983	-0.0166211798787117	-0.004520195536315441	-0.0005925871664658189	-0.0280484426766634	0.1196260154247284	-0.05719418451189995	-0.09914345294237137	0.04728921502828598	0.038649484515190125	-0.06480170786380768	0.1136256605386734	0.004359884187579155	-0.04746425524353981	0.029491718858480453	-0.0068400464951992035	0.13535086810588837	-0.078208327293396	0.054580800235271454	-0.005650618113577366	-0.00945382472127676	-0.09741117060184479	-0.029170652851462364	0.0423070453107357	0.017989391461014748	0.06766203045845032	0.03304613381624222	-0.006950225681066513	-0.007573864422738552	-0.10561563819646835	0.007742077577859163	-0.03570566698908806	-0.07435211539268494	-0.1385817676782608	0.062017958611249924	-0.01786119118332863	0.02391345426440239	-0.06881292909383774	0.04174210876226425	0.023953130468726158	-0.03126617521047592	0.06538604199886322	-0.0010182970436289907	-0.07494120299816132	-0.050582654774188995	-0.045831672847270966	-0.052943795919418335	0.0006042541936039925	0.03905034810304642	-0.014958567917346954	0.003997724503278732	-0.006477871909737587	0.06478969007730484	-0.01338939368724823	0.008747373707592487	-0.15290817618370056	2.7786640202975832e-05	-0.023158356547355652	-0.08737465739250183	0.1756795197725296	-0.032831668853759766	0.031434860080480576	-0.016974154859781265	-0.016459066420793533	-0.08789845556020737	0.01987857185304165	0.08973918110132217	-0.0009362308774143457	-0.017668528482317924	-0.05443127080798149	-0.11534120887517929	-0.09362511336803436	0.05846349149942398	0.11132591217756271	-0.013967500068247318	-0.28289908170700073	0.04141544923186302	-0.06129230186343193	-0.10771652311086655	-0.05710819363594055	0.06128620356321335	0.09107252210378647	-0.054428718984127045	0.124691441655159	-0.03410658612847328	-0.024707501754164696	-0.018260696902871132	-0.07330220192670822	-0.10288036614656448	-0.030784783884882927	0.12108023464679718	-0.13853956758975983	-0.0805225670337677	-0.07361508160829544	0.011843469925224781	-0.09922870993614197	-0.052080534398555756	-0.039245910942554474	0.006157975178211927	-0.033158041536808014	0.05180596932768822	0.06445028632879257	-0.09279827028512955	-0.021992797031998634	0.008096274919807911	-0.004898177459836006	0.004324075300246477	-0.027580322697758675	0.008782296441495419	-0.024404898285865784	0.0061788493767380714	0.037945352494716644	0.04884601756930351	-0.03907302767038345	-0.023733550682663918	0.038888778537511826	0.008956097066402435	-0.06064378097653389	0.2819383442401886	0.03786163032054901	-0.07145140320062637	0.04132312536239624	-0.12741084396839142	-0.14476633071899414	
-0.24882547557353973	0.026378031820058823	0.046086397022008896	-0.03861101716756821	-0.04053904861211777	-0.08872184157371521	0.08201377838850021	0.0033609922975301743	0.018335584551095963	-0.14805559813976288	-0.11594537645578384	0.01740947924554348	0.24189001321792603	-0.06201719492673874	0.059309087693691254	-0.026014607399702072	0.04642980545759201	0.019014978781342506	-0.0007114854524843395	-0.12552137672901154	0.08465185016393661	-0.009483401663601398	0.002979939104989171	-0.03608907386660576	-0.02216622233390808	-0.10038113594055176	-0.04767310619354248	0.06694072484970093	0.0320073626935482	-0.1317199468612671	0.06525862962007523	0.12220865488052368	0.09801699221134186	-0.03940219059586525	-0.08210793137550354	-0.040826693177223206	-0.05398159846663475	-0.007530516479164362	0.005067066755145788	0.023601433262228966	-0.06019626557826996	-0.04413050040602684	0.026306431740522385	-0.02405589632689953	0.0549512580037117	-0.056979723274707794	-0.032058462500572205	-0.029798397794365883	-0.005358410067856312	-0.11910220980644226	-0.021321527659893036	0.023130515590310097	0.017106547951698303	-0.04165956377983093	-0.03927747160196304	0.015232130885124207	-0.07290632277727127	-0.13282862305641174	-0.008732397109270096	-0.015890778973698616	-0.024553339928388596	-0.13670548796653748	-0.023028751835227013	-0.046924058347940445	-0.10148277133703232	-0.12953980267047882	0.02594117261469364	0.0592157281935215	-0.048714376986026764	-0.02695051208138466	0.026335664093494415	-0.11088474839925766	0.02824433147907257	-0.05744003877043724	-0.024524180218577385	0.05821801349520683	-0.0786394476890564	-0.05328505113720894	0.026719029992818832	-0.07158022373914719	-0.2539495527744293	0.016264110803604126	-0.033634915947914124	-0.09707289934158325	-0.0066071986220777035	-0.004462909419089556	-0.005273018032312393	-0.0017440620576962829	0.005591390188783407	-0.027225755155086517	-0.06776770949363708	0.0796726644039154	0.0010332700330764055	-0.10938616096973419	0.012054959312081337	-0.07355313003063202	-0.04306270182132721	-0.11551439762115479	0.04879561439156532	-0.08614097535610199	0.08284755051136017	0.07589730620384216	0.11225591599941254	0.03436771035194397	0.016083311289548874	0.022629452869296074	-0.02902948670089245	-0.005181275308132172	-0.051688164472579956	-0.04973942041397095	-0.04386094585061073	0.06498279422521591	0.042342811822891235	-0.06887423992156982	0.030735468491911888	0.0006669560098089278	-0.7054624557495117	0.0009571057162247598	-0.0470353327691555	0.14945001900196075	0.02403322607278824	-0.09734471142292023	-0.03881661593914032	-0.232636958360672	0.001553626381792128	-0.12438921630382538	0.001318854046985507	-0.015293462201952934	-0.007193394936621189	-0.01887596771121025	-0.023107679560780525	-0.009405243210494518	0.002013767370954156	0.0012301431270316243	0.11173859983682632	-0.032389648258686066	0.1043679267168045	0.06756451725959778	-0.0035869795829057693	0.05340851470828056	0.04292116314172745	0.0691082775592804	0.1797311007976532	0.044494178146123886	-0.01584029197692871	-0.014842252247035503	-0.006917163264006376	-0.05182899162173271	-0.008639962412416935	-0.012791993096470833	-0.030138209462165833	-0.010257786139845848	0.05790609121322632	0.00895688682794571	-0.11592751741409302	-0.09367362409830093	0.05164676159620285	0.015120316296815872	-0.0456857830286026	0.0056611900217831135	0.0206319447606802	-0.06684910506010056	-0.056835025548934937	-0.062323834747076035	0.0008355434983968735	0.027435632422566414	0.008986471220850945	0.04640490189194679	0.001299424679018557	-0.03134806826710701	-0.019442811608314514	0.08693107962608337	-0.014935428276658058	-0.023586921393871307	-0.01035422645509243	-0.11909518390893936	0.15334968268871307	-0.006750001572072506	-0.016770489513874054	0.1467912793159485	-0.018432511016726494	-0.07485244423151016	-0.03341032192111015	0.0406058132648468	0.0014766193926334381	0.018257062882184982	0.06721065938472748	-0.0059090242721140385	-0.00826159305870533	-0.01794629544019699	-0.07184376567602158	0.011647486127912998	0.00745268864557147	-0.1614205539226532	0.009041224606335163	-0.011189383454620838	-0.10143211483955383	-0.006650255993008614	-0.034351054579019547	-0.034898512065410614	-0.02107604779303074	0.07867898792028427	-0.003940457943826914	0.02827373892068863	0.01492129173129797	-0.08441571891307831	-0.014729746617376804	-0.011581969447433949	-0.05632323771715164	-0.1630656123161316	-0.1659233272075653	0.03299342095851898	-0.004908772651106119	0.07089652866125107	-0.06259869784116745	0.03998298943042755	-0.047709111124277115	-0.10821937024593353	-0.04669145122170448	-0.4484434127807617	0.01806456968188286	-0.14097942411899567	-0.06280399858951569	0.06421320885419846	0.04541359096765518	0.4491307735443115	0.0672658160328865	0.05651754513382912	-0.0160389244556427	-0.021696079522371292	0.0439901240170002	0.021717919036746025	-0.13540129363536835	0.003492349060252309	0.0452590137720108	0.05569382384419441	-0.25373584032058716	-0.03114660270512104	-0.024427780881524086	-0.10727284848690033	-0.08143576979637146	0.03822171315550804	-0.02650640159845352	0.02928340621292591	0.07548309117555618	-0.1825912743806839	0.02111794985830784	0.0782465785741806	-0.09981893748044968	-0.01028891745954752	-0.07923325896263123	-0.008747841231524944	-0.10026253014802933	-0.10923336446285248	0.19360803067684174	-0.027994222939014435	0.05210722237825394	-0.12186194211244583	0.04566263407468796	-0.01757759414613247	-0.024766171351075172	-0.01574639230966568	0.07291249185800552	0.03611103817820549	0.01441566739231348	-0.015910591930150986	0.0863470807671547	-0.02457282319664955	0.06438790261745453	0.00767224607989192	-0.01812630705535412	-0.07155688107013702	-0.11918825656175613	0.009472922421991825	-0.009179603308439255	0.0034183976240456104	-0.3918779790401459	-0.02565513364970684	0.015573942102491856	-0.08836783468723297	0.09795331954956055	-0.03933572396636009	-0.054851699620485306	0.014277709648013115	-0.015920178964734077	0.07624385505914688	0.0022191451862454414	0.08669938892126083	-0.16097889840602875	-0.041317690163850784	0.017587339505553246	-0.249605193734169	0.09511571377515793	0.14374426007270813	-0.11739692091941833	-0.2842444181442261	-0.017420751973986626	-0.09850148111581802	-0.011003084480762482	0.05989653989672661	-0.06390538811683655	-0.08629395812749863	0.0448056235909462	0.11604917049407959	-0.024895990267395973	-0.04524659365415573	-0.05449153482913971	-0.004917318932712078	0.06276802718639374	-0.013742516748607159	-0.010172347538173199	0.10194965451955795	-0.0629909485578537	-0.04992791637778282	-0.09135269373655319	-0.007338726427406073	-0.10305134207010269	0.015438728034496307	-0.047980114817619324	-0.07653415203094482	-0.034182772040367126	0.011631529778242111	-0.14396964013576508	0.022752223536372185	0.11358077079057693	0.03440869599580765	-0.06248476728796959	-0.019743427634239197	0.21020440757274628	-0.038837820291519165	0.040276460349559784	-0.005296748597174883	0.02787821926176548	-0.04387211427092552	-0.09182365238666534	-0.09213096648454666	-0.0032465048134326935	-0.008485461585223675	-0.2302040159702301	0.09555275738239288	0.09677543491125107	-0.008876310661435127	0.0004167636507190764	-0.005039107520133257	-0.028969628736376762	0.047037482261657715	-0.018913812935352325	-0.03318459168076515	-0.08335950970649719	0.07387208193540573	-0.030599478632211685	0.007344445679336786	-0.03520498052239418	-0.00945400819182396	-0.07736299186944962	-0.044341448694467545	-0.06892430782318115	-0.06227070093154907	-0.08810000866651535	-0.2357155680656433	-0.02237892895936966	-0.020807018503546715	-0.08252779394388199	0.0007018087198957801	-0.02050846628844738	0.02779543027281761	-0.08621523529291153	-0.007755829021334648	-0.039351243525743484	0.007553438190370798	0.0019233120838180184	-0.028943751007318497	0.06151927635073662	-0.01006546150892973	0.07915431261062622	0.1867193877696991	-0.08853056281805038	-0.009704697877168655	-0.028378497809171677	-0.02445663884282112	0.018623340874910355	0.08185819536447525	-0.04985100403428078	-0.056131862103939056	-0.05679720267653465	-0.0010923349764198065	-0.014872570522129536	-0.010136022232472897	0.18242909014225006	-0.0015583508647978306	-0.04605165496468544	0.014681011438369751	-0.05895765870809555	0.05125598981976509	-0.11669349670410156	-0.008726383559405804	0.009538750164210796	-0.0006688873399980366	0.053622979670763016	0.09612327814102173	-0.07186019420623779	0.0027729766443371773	0.008826566860079765	-0.024089451879262924	-0.04130356386303902	-0.017591293901205063	0.029139632359147072	0.004184350371360779	-0.031282346695661545	-0.03885155916213989	0.025905825197696686	0.032095786184072495	0.028246978297829628	-0.14571146667003632	0.026009438559412956	-0.05764688551425934	0.005309806205332279	-0.036122988909482956	0.048017628490924835	-0.011266588233411312	0.028593972325325012	-0.20980264246463776	-0.01541092898696661	-0.012629014439880848	-0.11524170637130737	-0.20414336025714874	-0.011730100028216839	0.01639433763921261	0.06351149082183838	7.218081009341404e-05	-0.08190306276082993	-0.06486260145902634	-0.015736199915409088	0.015341144986450672	-0.05872545763850212	-0.015539166517555714	0.12834659218788147	0.015302597545087337	0.02570088766515255	-0.02085168845951557	0.06655427068471909	-0.010260839946568012	-0.0019084644736722112	-0.1170661598443985	0.06990112364292145	0.02857077866792679	-0.03211663290858269	0.12931039929389954	0.023334894329309464	0.10857393592596054	-0.062064360827207565	0.027238108217716217	-0.028974996879696846	-0.05609595775604248	-0.1487545371055603	-0.018125880509614944	-0.03868773579597473	0.053227320313453674	0.03684920817613602	-0.06073451414704323	-0.0018972691614180803	-0.07431397587060928	0.01731180213391781	0.11062121391296387	0.032448660582304	-0.00403953529894352	0.008388354443013668	0.04725875332951546	-0.006116777192801237	-0.22674904763698578	-0.029626106843352318	-0.03898763284087181	0.09091135114431381	-0.05155986547470093	-0.13750837743282318	0.03046492487192154	0.09909477829933167	-0.17868083715438843	-0.09373517334461212	-0.052797894924879074	-0.009699142538011074	0.03308367356657982	-0.1135658547282219	-0.07927358150482178	0.01829308271408081	0.005661379545927048	0.049546096473932266	0.03640205040574074	0.0242120660841465	0.024876071140170097	0.01831596903502941	0.029006769880652428	0.09807199239730835	0.04173357039690018	-0.15923148393630981	0.006883988156914711	0.0015929840737953782	-0.17595073580741882	0.03679777309298515	-0.010661530308425426	-0.012140928767621517	-0.07541906833648682	0.048589471727609634	0.05902981758117676	0.008640709333121777	-0.10772646218538284	0.13378092646598816	-0.10595004260540009	-0.04194777458906174	-0.023418575525283813	-0.018349340185523033	-0.0023827441036701202	
0.03268662095069885	0.24230797588825226	0.20010605454444885	0.003930595237761736	0.05334267020225525	-0.0973498746752739	-0.014409136958420277	-0.24500146508216858	-0.011331860907375813	0.07619541883468628	0.14200925827026367	-0.023736270144581795	-0.0439639613032341	-0.016492774710059166	-0.039000190794467926	-0.05205991864204407	0.0036726396065205336	0.05810995399951935	0.041998304426670074	0.26549583673477173	0.04864604398608208	0.018696434795856476	-0.014371572993695736	-0.03643152117729187	-0.015824541449546814	-0.1533638834953308	-0.012208881787955761	0.07431046664714813	-0.043212611228227615	-0.007882603444159031	-0.08741337805986404	0.03132496774196625	-0.13790060579776764	-0.12955233454704285	-0.018482960760593414	0.005070011597126722	0.07467471808195114	-0.019186092540621758	0.10977403819561005	-0.03272857144474983	-0.01587672345340252	0.4367547631263733	0.25078925490379333	0.02968432381749153	0.17623111605644226	0.011249215342104435	0.0178848747164011	0.013785305432975292	0.005366353318095207	0.08673661947250366	-0.025614123791456223	0.01878347247838974	-0.010352973826229572	-0.06265940517187119	0.06376831233501434	-0.03685847669839859	0.057813722640275955	-0.012809239327907562	-0.06663423776626587	0.042885810136795044	0.10746980458498001	0.1831071525812149	0.2259993702173233	0.0354880653321743	-0.021391306072473526	0.12703166902065277	0.014975056052207947	0.11910562962293625	0.02141290344297886	-0.04154060781002045	-0.03535483777523041	0.04621965438127518	0.025358188897371292	-0.0026449388824403286	0.018415560945868492	-0.0240344051271677	-0.008918620645999908	0.04546244069933891	0.051715437322854996	0.003073677886277437	-0.16578850150108337	-0.029812537133693695	0.0017505818977952003	0.015015393495559692	-0.0631602555513382	0.07238605618476868	0.053486209362745285	0.006742493715137243	-0.05058031156659126	0.03246846795082092	0.09212812036275864	-0.01467090379446745	0.010547717101871967	0.003222988685593009	-0.20674698054790497	0.07360869646072388	0.1522844433784485	0.008451910689473152	-0.0033308793790638447	-0.009250345639884472	-0.031893882900476456	0.012093762867152691	0.06774399429559708	-0.23799215257167816	0.013510027900338173	-0.02039743773639202	0.03158688545227051	0.015239369124174118	-0.0834948793053627	0.013024688698351383	-0.014604493975639343	-0.11650930345058441	-0.061026569455862045	0.021787293255329132	-0.03034697100520134	0.0943169891834259	0.019604943692684174	-0.02180948294699192	0.036367274820804596	-0.07084491848945618	-0.010334892198443413	-0.025339316576719284	0.08570253103971481	-0.07310198992490768	0.10031541436910629	0.059804629534482956	-0.017237206920981407	-0.03195424750447273	-0.005372300744056702	-0.005171232391148806	0.016849154606461525	-0.0031042913906276226	0.1405140459537506	-0.005188409239053726	0.03537612780928612	-0.0025184249971061945	0.05675894394516945	-0.007663037162274122	0.004874109290540218	0.02272845432162285	0.03918151929974556	-0.08368869870901108	-0.06360308080911636	-0.07045841217041016	-0.018415512517094612	0.02247040905058384	0.05314059928059578	0.06370146572589874	0.19416749477386475	0.01878335326910019	0.08288079500198364	0.003935967106372118	-0.003466590540483594	0.06558804959058762	-0.00895426981151104	0.21484246850013733	0.06579458713531494	0.01774105615913868	-0.018593138083815575	-0.0032815388403832912	0.00801747478544712	-0.06260097026824951	0.14990514516830444	-0.06004899740219116	0.030208436772227287	-0.05026710033416748	0.0018549946835264564	0.04394296929240227	-0.02352004684507847	-0.02880115993320942	-0.04031362757086754	0.02659781277179718	0.03239087387919426	0.023963795974850655	0.07815609872341156	-0.03797396644949913	-0.018185419961810112	0.04180155321955681	0.19026224315166473	0.17603076994419098	0.012729053385555744	0.007977373898029327	0.2653503119945526	-0.015762101858854294	-0.017973609268665314	0.006064638961106539	-0.1275814324617386	0.020665064454078674	0.126837819814682	-0.04207690805196762	0.030670318752527237	0.011127486824989319	-0.06597661226987839	0.16539493203163147	-0.11840270459651947	-0.0017729464452713728	0.06254711002111435	-0.0008378162747249007	-0.0068036941811442375	-0.06382570415735245	0.4062674045562744	-0.08224916458129883	0.04600457102060318	-0.010910813696682453	0.04588167369365692	-0.010080769658088684	0.05781775340437889	0.007266880478709936	-0.01119714230298996	-0.008349480107426643	0.029681267216801643	-0.05602116510272026	0.07722236216068268	0.05828492343425751	0.06317731738090515	-0.18310722708702087	0.12499184906482697	-0.021696748211979866	0.10641162842512131	-0.0065235416404902935	0.007269739173352718	-0.36183294653892517	0.16866710782051086	-0.018652360886335373	0.03873729333281517	-0.0498499870300293	-0.16127346456050873	-0.17106115818023682	-0.006906016729772091	0.07410861551761627	-0.006725672632455826	0.05051305890083313	-0.0020987570751458406	-0.5729478001594543	-0.0219001155346632	0.10323280096054077	-0.07435169816017151	0.027752181515097618	-0.013195347972214222	0.13000427186489105	0.09161926805973053	0.003152434481307864	-0.10168702900409698	0.14745332300662994	0.016968626528978348	0.005701999180018902	-0.0254327654838562	-0.024892596527934074	0.10531559586524963	-0.013230683282017708	-0.048527687788009644	0.03279580548405647	0.1365053653717041	-0.002271401695907116	0.08951641619205475	0.037727560847997665	-0.06807255744934082	0.005178852006793022	-0.03177681937813759	-0.06676459312438965	-0.1442742496728897	0.016517993062734604	0.19041384756565094	0.0402379184961319	0.008798446506261826	0.09982423484325409	0.061056528240442276	0.05130363255739212	0.04559553414583206	0.0270086582750082	0.00912177748978138	0.1965470165014267	0.3147893249988556	0.001665998948737979	0.012588550336658955	-0.014296221546828747	0.0548333004117012	-0.004323931876569986	-0.006966554559767246	0.08447516709566116	0.37179720401763916	-0.05427208170294762	0.00894350279122591	0.0034513375721871853	-0.0016008964739739895	0.033795591443777084	0.027935052290558815	0.0614752322435379	-0.11026666313409805	-0.07405523210763931	-0.021986139938235283	-0.1579717993736267	-0.190286323428154	0.12072743475437164	0.15027257800102234	0.2537635862827301	0.09711151570081711	-0.15599682927131653	0.0341617576777935	0.16683000326156616	0.03186747431755066	0.508794367313385	0.03583104908466339	0.016088178381323814	0.038939207792282104	0.015965819358825684	-0.6096743941307068	0.04109824821352959	0.038814812898635864	-0.08242746442556381	-0.03393826633691788	-0.03654836118221283	0.07077215611934662	-0.17524486780166626	-0.024546414613723755	-0.42118799686431885	0.044813111424446106	-0.018135039135813713	-0.012202960439026356	0.11705249547958374	-0.02341430075466633	0.039287541061639786	-0.07862457633018494	-0.49235665798187256	-0.03154515475034714	-0.013063380494713783	0.2000718116760254	-0.011229177005589008	-0.0465790256857872	-0.012061454355716705	-0.05279207602143288	-0.02129761129617691	-0.0780825987458229	0.20878976583480835	0.09120748192071915	0.043887246400117874	0.14821569621562958	0.005844208411872387	0.1939917653799057	0.0017815771279856563	-0.030374199151992798	-0.014216935262084007	0.16898271441459656	0.11480413377285004	0.08936966955661774	0.09880267083644867	0.021469462662935257	0.6504279971122742	0.015566744841635227	0.013523630797863007	0.04899541661143303	-0.03638884425163269	0.0014863178366795182	-0.06779836863279343	0.09185491502285004	0.05879919230937958	-3.295579517725855e-05	-0.038786351680755615	-0.06067945063114166	0.13832469284534454	-0.018934370949864388	-0.3120635151863098	0.2003156840801239	-0.022776732221245766	-0.009481740184128284	0.22682355344295502	0.02403479442000389	0.005258508026599884	0.02632766403257847	0.14449800550937653	0.04278607666492462	-0.06345204263925552	-0.03193247690796852	0.05128663405776024	0.007348242215812206	0.09962151199579239	0.10811621695756912	0.045656874775886536	0.020321380347013474	0.24675911664962769	-0.003764936700463295	-0.11133471876382828	-0.14792221784591675	-0.06583499163389206	0.06441807746887207	0.00577623350545764	-0.07756469398736954	0.014525587670505047	-0.20915891230106354	0.004100104793906212	-0.0019148503197357059	-0.047719717025756836	0.08679551631212234	0.007233051583170891	-0.014575169421732426	0.04363935440778732	0.01989961974322796	0.05345289036631584	0.3968181908130646	0.01267793495208025	0.04489246383309364	0.024815255776047707	0.020839694887399673	0.009782660752534866	0.11553981155157089	-0.06152437999844551	-0.0052705383859574795	0.02226969040930271	-0.16548700630664825	0.09625846892595291	-0.01823289319872856	-0.036867983639240265	-0.05597439408302307	0.08074628561735153	-0.010868798941373825	0.0001100907611544244	0.00437749782577157	0.0888059139251709	0.06674154102802277	-0.055260106921195984	0.23829501867294312	0.03465110808610916	0.17000740766525269	0.17119961977005005	0.012848353944718838	0.3337521255016327	0.0799003541469574	0.05691885948181152	0.011503946967422962	0.020034033805131912	-0.019285891205072403	0.05608741194009781	0.022925429046154022	0.008852219209074974	-0.13133572041988373	0.04699850454926491	-0.03145567700266838	0.23613616824150085	0.042948443442583084	-0.10598774254322052	0.06790835410356522	-0.01661021076142788	-0.062089864164590836	0.02946573495864868	0.06590663641691208	0.0604177787899971	0.014899753965437412	0.02541036158800125	-0.000540787004865706	-0.021758342161774635	0.1573408991098404	0.021555589511990547	-0.004467745777219534	0.023731309920549393	-0.0870022177696228	0.013974776491522789	0.014764256775379181	-0.050720155239105225	-0.12506404519081116	0.1885768622159958	-0.01910177804529667	-0.008645222522318363	-0.011307891458272934	-0.12304579466581345	-0.009203537367284298	0.18483415246009827	0.019331911578774452	-0.004088015295565128	0.014559857547283173	0.05269821733236313	0.05062578245997429	-0.13958576321601868	-0.4571250379085541	-0.04386262968182564	0.03291316330432892	0.03814467787742615	0.08566899597644806	0.17659790813922882	-0.04805516451597214	-0.043559517711400986	-0.0025367429479956627	0.40431874990463257	0.08607249706983566	0.07372219115495682	0.0018017466645687819	0.13647565245628357	-0.008216752670705318	-0.02719973772764206	0.02008427120745182	-0.007584371138364077	0.05011766403913498	0.055606309324502945	-0.1826200634241104	0.029773391783237457	-0.0419975109398365	0.04222215712070465	0.015738097950816154	0.009901617653667927	0.05712435767054558	-0.021409837529063225	0.006827034521847963	0.08957173675298691	-0.02829553559422493	-0.00796631071716547	-0.06014198437333107	0.2163219004869461	0.05302133783698082	0.0492815300822258	0.6377341747283936	-0.014305646531283855	-0.07074828445911407	0.03610606864094734	
-0.0011245075147598982	-0.02475973404943943	0.039163898676633835	-0.07152560353279114	-0.020869450643658638	-0.04450482130050659	0.17700353264808655	-0.07643014937639236	-0.0014235794078558683	0.023719551041722298	-0.06728702783584595	-0.012753606773912907	-0.02364465221762657	0.026614239439368248	0.025646785274147987	0.10753673315048218	0.03467193618416786	-0.024134637787938118	0.008698811754584312	-6.544123152707471e-06	-0.0623052753508091	-0.07248547673225403	-0.05722236633300781	-0.10577432066202164	0.05409328639507294	0.03907250985503197	-0.021132322028279305	-0.01601227931678295	0.01545005664229393	-0.061781249940395355	0.017350787296891212	-0.05790458992123604	0.012125222943723202	0.06874242424964905	-0.08252140879631042	-0.01184618566185236	-0.09598374366760254	-0.005865582264959812	-0.03203801438212395	0.09274979680776596	-0.043206192553043365	-0.08183242380619049	-0.029186587780714035	-0.0005817411001771688	-0.01853656955063343	0.04645482450723648	0.15572798252105713	0.020410440862178802	0.018786143511533737	-0.139815092086792	0.03417517989873886	0.14132139086723328	0.02291189692914486	0.025849945843219757	0.017892515286803246	-0.06935840845108032	0.05473083257675171	0.00447971373796463	0.02252982184290886	-0.032987434417009354	-0.09528277069330215	-0.022790180519223213	-0.0744299367070198	0.06519962102174759	0.037296682596206665	0.008894374594092369	-0.004954532720148563	-0.017248472198843956	-0.08162159472703934	0.009948361665010452	-0.04440511390566826	-0.10935044288635254	-0.06770266592502594	0.01460781879723072	-0.0018893027445301414	0.10833414644002914	0.13160569965839386	0.11647307872772217	0.24307560920715332	0.029267655685544014	0.02573971264064312	0.00914758536964655	-0.010434802621603012	-0.06927207857370377	0.013905582018196583	0.015630412846803665	-0.054545529186725616	0.07481607794761658	0.008687990717589855	-0.08606395870447159	0.03430342674255371	-0.023165082558989525	-0.024886537343263626	0.0288982130587101	-0.01687038689851761	0.02044708840548992	-0.03663906082510948	0.08743539452552795	-0.07921934127807617	0.03474729508161545	0.08963228762149811	-0.02569611184298992	0.05310705676674843	-0.04845985397696495	0.0441000796854496	-0.05271582305431366	-0.02788260392844677	-0.05290497466921806	0.02772289514541626	0.00046564885997213423	0.0789811834692955	-0.03367110341787338	-0.013893241062760353	0.04388333112001419	0.035476360470056534	-0.019903142005205154	-0.0678921490907669	0.054167188704013824	0.04449274018406868	0.03865451365709305	-0.05006317049264908	-0.004769918043166399	0.015683773905038834	0.01839064247906208	-0.06409888714551926	-0.025844432413578033	-0.0005139329587109387	-0.050377488136291504	-0.04270195960998535	0.0028245653957128525	-0.021227259188890457	0.016048884019255638	0.03716422989964485	0.06953204423189163	-0.09462785720825195	-0.06026063114404678	0.012589959427714348	-0.11037765443325043	0.1507718712091446	0.06168487295508385	-0.01769750379025936	-0.03572230786085129	-0.02327219396829605	0.003963104449212551	0.04181943088769913	-0.02486959472298622	-0.444566547870636	0.0075620864517986774	-0.07223223894834518	0.04910304769873619	-0.005673643201589584	0.040189869701862335	0.07348757237195969	0.04733600839972496	0.013282828964293003	-0.0284598246216774	0.014312973245978355	0.004477296490222216	0.008706421591341496	0.03255574777722359	-0.021449988707900047	0.07361961156129837	0.006189762614667416	-0.12324782460927963	0.008304407820105553	-0.10345231741666794	0.05292002111673355	0.02017221972346306	0.0014354722807183862	-0.011505444534122944	0.07393183559179306	0.07078930735588074	0.07047028094530106	0.05900871753692627	0.04954609274864197	-0.06614676117897034	-0.09878481924533844	-0.0069719040766358376	-0.049766626209020615	-0.07578813284635544	-0.02672579139471054	-0.054886963218450546	-0.12938028573989868	-0.032218173146247864	-0.11920513957738876	-0.016806017607450485	0.17578734457492828	0.0011199975851923227	-0.006554600317031145	0.029032187536358833	-0.05398096889257431	-0.022888168692588806	0.009696826338768005	0.03863987326622009	-0.030241547152400017	0.028812836855649948	0.05891350284218788	-0.00633636862039566	-0.04356065019965172	-0.04327758029103279	0.02033599093556404	0.02521662600338459	-0.04403656721115112	0.04516875371336937	0.011238214559853077	0.023874837905168533	0.010748243890702724	0.08080761134624481	0.017678670585155487	-0.06729632616043091	0.059078942984342575	0.11389680951833725	0.0037210823502391577	-0.03885059431195259	-0.021456513553857803	0.012246034108102322	-0.07013604044914246	-0.08499883115291595	0.04601200670003891	0.03872698172926903	-0.08143329620361328	0.009693427942693233	-0.04594961181282997	-0.00930340401828289	-0.09507178515195847	0.022204112261533737	0.015499378554522991	0.028074374422430992	-0.005130528472363949	-0.07795384526252747	0.114690862596035	0.06293605268001556	-0.020123429596424103	0.09176486730575562	0.03503457084298134	-0.01433512568473816	0.029776019975543022	0.043025847524404526	-0.04327535256743431	0.06290284544229507	-0.029507648199796677	0.038652896881103516	0.016954300925135612	-0.03829943388700485	0.08740875869989395	0.09383796900510788	0.034257762134075165	-0.020372899249196053	0.006612683180719614	0.052328113466501236	0.024302653968334198	-0.02899809367954731	0.0019312542863190174	0.11608220636844635	-0.06438303738832474	0.03937742859125137	0.0021491802763193846	-0.006674344185739756	-0.026493240147829056	0.10115892440080643	0.20515994727611542	-0.04441269114613533	0.04076749458909035	0.06013904884457588	-0.03692016005516052	0.07766187936067581	0.07403060793876648	0.01200121734291315	0.019999012351036072	-0.01398984994739294	-0.0374184288084507	-0.05181638151407242	-0.0002077811659546569	0.007279598154127598	-0.024914996698498726	-0.004117623437196016	0.04013907164335251	-0.032091375440359116	0.01011550985276699	0.04333871603012085	-0.21614733338356018	0.10010742396116257	0.008170030079782009	-0.026645800098776817	-0.0005376755725592375	-0.026697609573602676	0.06686083972454071	-0.051174990832805634	0.12180717289447784	0.08226098865270615	-0.10094562917947769	0.0810244008898735	-0.0012764850398525596	-0.021829964593052864	-0.02538995072245598	-0.0017900574021041393	-0.03282846882939339	0.04013178125023842	0.06057995557785034	-0.0013060704804956913	0.026860393583774567	-0.08964291214942932	0.09515434503555298	-0.15758779644966125	-0.0490034818649292	0.04056837782263756	-0.12638087570667267	-0.03204650804400444	0.09224947541952133	0.09409689903259277	-0.09690883010625839	-0.13312608003616333	0.020721469074487686	-0.011783581227064133	-0.0329672172665596	-0.010159340687096119	-0.062354911118745804	0.15140782296657562	0.056944768875837326	0.0170136708766222	-0.09750466048717499	-0.0392637774348259	0.1589563488960266	-0.013548626564443111	0.0678696483373642	0.0361027866601944	-0.2221701741218567	-0.023365797474980354	-0.039989300072193146	0.06466518342494965	0.07035861909389496	-0.00020521276746876538	-0.025104107335209846	-0.03649301826953888	0.022610461339354515	-0.11182581633329391	-0.03511061519384384	0.015888700261712074	0.03811559081077576	-0.10490065813064575	0.018033446744084358	-0.018455561250448227	0.04363127797842026	-0.06334475427865982	-0.043928783386945724	0.025523314252495766	-0.018292872235178947	-0.048609498888254166	-0.0033910726197063923	-0.020347056910395622	-0.06937329471111298	0.08569187670946121	0.0012941095046699047	-0.06293536722660065	-0.020066551864147186	-0.007279199082404375	-0.003731080098077655	-0.026588475331664085	-0.06949757784605026	0.08606579154729843	0.04119070991873741	0.043910086154937744	-0.00045443858834914863	-0.0747031420469284	0.004838923923671246	-0.10941115021705627	-0.06449899077415466	0.004482659045606852	-0.03666774928569794	0.03832566365599632	0.037924375385046005	-0.01332882046699524	-0.09456715732812881	-0.0390893928706646	0.030284550040960312	-0.049313317984342575	0.014715331606566906	0.1408085972070694	-0.001760980230756104	0.047692105174064636	0.0933157280087471	0.07495662569999695	-0.014327844604849815	0.0010363099863752723	0.06431896984577179	0.05057792738080025	-0.09565318375825882	-0.034850962460041046	0.15562433004379272	0.010018611326813698	0.05468391627073288	0.030615082010626793	0.114735446870327	-0.04329340532422066	0.0014580750139430165	0.09422996640205383	-0.08415048569440842	0.025945842266082764	-0.09632875770330429	-0.017274925485253334	0.011859821155667305	0.05428452789783478	0.04842912033200264	-0.06191377714276314	-0.02924787811934948	0.12942197918891907	-0.04309576004743576	0.018003296107053757	-0.08960016816854477	-0.08110656589269638	0.12211688607931137	-0.020647693425416946	0.11871785670518875	0.003660643007606268	-0.06306179612874985	-0.019076472148299217	-0.02554398588836193	0.11495783179998398	-0.002185598248615861	-0.028423216193914413	-0.12001968175172806	-0.028248868882656097	0.07117363065481186	-0.01406809501349926	0.058086808770895004	-0.023112459108233452	-0.025951450690627098	-0.005119713023304939	0.054110292345285416	-0.07195974141359329	0.02058444358408451	0.12229057401418686	-0.0659581795334816	0.03792786970734596	0.12360024452209473	-0.0361625961959362	0.04506947100162506	0.049707960337400436	-0.06307308375835419	0.00858351867645979	0.005259366240352392	0.055953677743673325	0.023312486708164215	0.13389337062835693	-0.06277817487716675	0.02361319772899151	0.03369376063346863	0.0632757619023323	0.000857505772728473	-0.05517252907156944	0.018463045358657837	0.07526621222496033	-0.02539728581905365	-0.010540636256337166	-0.12215380370616913	-0.02847461774945259	-0.09884677082300186	0.057061366736888885	0.014746429398655891	0.045812539756298065	-0.011802004650235176	-0.014332190155982971	-0.04187587648630142	0.03228882700204849	-0.019739564508199692	-0.048372797667980194	0.06022610515356064	-0.0942782461643219	-0.014943954534828663	-0.039686910808086395	-0.04610469937324524	-0.14327774941921234	0.2457767277956009	0.0019855787977576256	0.12674324214458466	0.07628443837165833	-0.02806958556175232	0.09402971714735031	-0.07680656015872955	0.0021904457826167345	-0.03814055770635605	0.010075649246573448	-0.030885539948940277	-0.005613305605947971	-0.020945388823747635	-0.03140318766236305	0.05064703896641731	0.012595327571034431	-0.01844198815524578	-0.037045590579509735	0.08001916855573654	0.011566724628210068	0.08900520950555801	0.013728384859859943	0.09811314195394516	0.03320032358169556	-0.016697067767381668	-0.039412762969732285	-0.052746716886758804	0.009725634008646011	0.025960639119148254	0.03619697690010071	-0.12268591672182083	-0.029164733365178108	-0.0440521202981472	0.03135545924305916	0.01319036353379488	-0.0016501593636348844	-0.009653140790760517	-0.03404778614640236	-0.003537028329446912	0.11365749686956406	
0.016570057719945908	-0.046508148312568665	0.0016290703788399696	0.032576195895671844	0.018731234595179558	-0.11345765739679337	-0.009927403181791306	0.0941208228468895	-0.07113724946975708	0.19820387661457062	0.10384402424097061	-0.012431387789547443	-0.2434726059436798	0.002307119080796838	-0.07436301559209824	0.010763783007860184	-0.0345885306596756	-0.014706621877849102	-0.051630016416311264	0.05336052179336548	0.02762160822749138	-0.05636284872889519	0.04254407808184624	0.02816540002822876	-0.010647324845194817	0.15498590469360352	0.06437893956899643	-0.006542331073433161	-0.08735206723213196	0.09705761820077896	0.03404165059328079	-0.012157359160482883	0.12848824262619019	0.06699462980031967	0.17387397587299347	0.01595216989517212	0.2104092538356781	-0.008456824347376823	-0.01755557768046856	-0.013253014534711838	-0.009728441014885902	0.11016961932182312	0.023004403337836266	-0.053641147911548615	0.05634899437427521	0.12514106929302216	-0.09088975936174393	0.006913677789270878	-0.0044247801415622234	-0.2649894058704376	-0.03508542478084564	0.07858837395906448	0.001471731811761856	-0.04100661352276802	-0.0121202003210783	-0.00146735948510468	-0.06350699812173843	0.09360833466053009	-0.05946005508303642	0.009676884859800339	0.016789112240076065	0.2187959849834442	0.10353056341409683	-0.04405985400080681	-0.008336169645190239	0.06724618375301361	0.00616734242066741	-0.03126373142004013	-0.002637841273099184	0.10523573309183121	0.12906572222709656	0.07345005869865417	-0.0017427279381081462	0.18986807763576508	-0.013322688639163971	-0.08433358371257782	0.11481055617332458	0.09329505264759064	0.03773188963532448	0.028544003143906593	0.11893519014120102	-0.00943787582218647	0.016811426728963852	-0.03504052385687828	0.018872177228331566	-0.003144791116937995	-0.029165884479880333	-0.025095518678426743	0.11887723207473755	0.04370721057057381	-0.0012476530391722918	0.011001503095030785	0.0005847247084602714	0.04550726339221001	-0.03228616341948509	0.14928868412971497	0.08006139099597931	-0.0025081054773181677	-0.12087377160787582	0.11998893320560455	0.01170371100306511	0.028563370928168297	0.03322005271911621	0.19192653894424438	-0.020653927698731422	-0.03708125650882721	0.011285696178674698	0.02802659384906292	0.0644349530339241	-0.03494412451982498	0.004342555068433285	-0.0649913027882576	-0.017647122964262962	-0.006147371605038643	0.06331814080476761	-0.014434533193707466	-0.10981854051351547	-0.040781956166028976	0.034144286066293716	0.6185129284858704	-0.129713237285614	0.05371619760990143	0.12265404313802719	0.034256335347890854	-0.030909007415175438	-0.09863056242465973	0.012921135872602463	-0.07129428535699844	0.03531276434659958	0.01484635565429926	0.037685029208660126	-0.10513526201248169	0.06947232782840729	0.025061817839741707	-0.025862224400043488	0.026100140064954758	0.09400606155395508	0.2835712432861328	0.029687078669667244	-0.07476969808340073	-0.04157112166285515	-0.06380356103181839	-0.002114702947437763	-0.04957697167992592	-0.01219593919813633	0.03908821940422058	-0.11949558556079865	0.05758699029684067	0.005375268869102001	0.051982950419187546	0.10116350650787354	-0.0233857911080122	0.031465161591768265	0.06775008141994476	0.04099704325199127	-0.14503690600395203	-0.04836777225136757	-0.005681824404746294	0.08702218532562256	-0.012457366101443768	0.011922715231776237	-0.017194267362356186	0.08146771043539047	0.07187578827142715	-0.02323438599705696	-0.057264409959316254	-0.0016426502261310816	0.05553301051259041	-0.021434634923934937	-0.014587831683456898	-0.1289813369512558	-0.029158178716897964	0.07754189521074295	-0.0809621661901474	-0.08518306910991669	-0.042813487350940704	-0.14215479791164398	0.10743377357721329	0.05924224853515625	0.02575906738638878	0.04026507958769798	0.07988037914037704	-0.029272625222802162	0.05277445539832115	-0.030365686863660812	0.017512265592813492	0.054176732897758484	0.09069278836250305	-0.02049904316663742	0.004355586599558592	-0.018455883488059044	-0.03680878505110741	0.047256045043468475	0.11230089515447617	0.058927882462739944	-0.008605414070189	0.06884501129388809	-0.007234456017613411	-0.05331043154001236	-0.0480346754193306	0.009424860589206219	-0.08289533853530884	-0.09179148823022842	0.005931376479566097	-0.038649171590805054	0.07028381526470184	0.020637329667806625	0.06827639788389206	0.012943320907652378	0.10519508272409439	0.08575484156608582	-0.0017241383902728558	0.04677171632647514	0.012507881969213486	0.03891290724277496	-0.04777783527970314	0.11070536822080612	-0.12571309506893158	0.061312783509492874	0.30288198590278625	0.029393963515758514	-0.06985677033662796	0.035963453352451324	-0.02814827486872673	-0.015983127057552338	0.16923411190509796	-0.04553057253360748	-0.06860959529876709	0.009416305460035801	0.09350448101758957	-0.08911431580781937	0.029449012130498886	0.026761990040540695	0.11614937335252762	-0.06361628323793411	0.23342856764793396	0.21624411642551422	-0.043602388352155685	-0.0277368426322937	0.08202624320983887	0.006056318990886211	0.03203073516488075	-0.040630996227264404	0.2926276922225952	-0.043367285281419754	0.10338415205478668	0.007101485505700111	-0.035031724721193314	0.006074330769479275	-0.06371432542800903	-0.030462171882390976	-0.04151086509227753	0.04884922876954079	0.13368265330791473	0.2206217348575592	0.007897625677287579	0.07215172797441483	0.03709893301129341	0.046887945383787155	0.017239073291420937	0.01770324632525444	0.037329867482185364	0.07091234624385834	0.022048264741897583	0.08298851549625397	0.010209811851382256	-0.07014723122119904	0.0185688603669405	-0.018534159287810326	0.10030049830675125	-0.03496716171503067	0.04742632433772087	0.05826820433139801	0.029113315045833588	0.04253135621547699	0.01809181459248066	0.4224737882614136	0.009526285342872143	-0.06312555074691772	0.152701735496521	-0.21986576914787292	0.06105322018265724	0.005003073252737522	0.06025933101773262	0.04949254170060158	0.07393839210271835	-0.04334888607263565	0.023607701063156128	0.004503257572650909	0.11638293415307999	-0.056258756667375565	0.1471056193113327	0.11215170472860336	-0.087630495429039	-0.3368193507194519	0.09771031141281128	0.04455235227942467	-0.06684090942144394	0.02346009574830532	-0.10714474320411682	0.059149645268917084	0.16075024008750916	0.0812441036105156	0.012615762650966644	0.03188151493668556	-0.10492708534002304	0.12420351803302765	-0.00454943859949708	-0.03115076944231987	-0.025257533416152	0.028898019343614578	0.045684583485126495	0.0253536868840456	-0.08885209262371063	0.07735872268676758	-0.24958735704421997	0.12914703786373138	-0.09205732494592667	0.05714447796344757	0.026483377441763878	0.05888282507658005	-0.009215150028467178	-0.031573452055454254	0.03482586145401001	-0.013396664522588253	-0.046306267380714417	0.10953465849161148	-0.019867021590471268	0.0672503113746643	-0.029612500220537186	0.0029237186536192894	0.011511187069118023	0.06275322288274765	-0.05571971833705902	0.04941236600279808	0.037783700972795486	0.0464320108294487	0.11161781847476959	0.01894618384540081	-0.025886530056595802	0.014771024696528912	0.01031690277159214	0.031960029155015945	0.029928861185908318	0.013223852962255478	-0.040632061660289764	0.04789416119456291	0.0021560247987508774	0.047378990799188614	-0.04942746087908745	0.03856341540813446	0.003731930162757635	0.029761433601379395	-0.030846763402223587	0.0010866238735616207	-0.03478987514972687	0.07662342488765717	0.1226419135928154	0.002468856517225504	0.18479204177856445	0.011150567792356014	0.010511268861591816	0.060859937220811844	-0.012005334720015526	-0.06547839939594269	0.021483516320586205	0.021209806203842163	0.11319302022457123	0.02247771807014942	0.024031518027186394	0.016529127955436707	0.06635357439517975	0.03800247237086296	-0.014311837032437325	-0.0037149933632463217	0.23748981952667236	0.061390798538923264	-0.030150290578603745	0.021991558372974396	-0.13706590235233307	0.04976901784539223	-0.040135011076927185	-0.07188691198825836	0.04237568378448486	-0.10658063739538193	0.046617597341537476	0.07454031705856323	0.03630171716213226	-0.4554172158241272	-0.018528757616877556	-0.014713671989738941	0.014725168235599995	0.03136863932013512	-0.08505400270223618	0.06539251655340195	0.030216513201594353	-0.038794320076704025	0.031908899545669556	0.05800047516822815	-0.052687935531139374	-0.006284606643021107	-0.043178196996450424	0.022209160029888153	-0.04417989030480385	-0.05358625948429108	-0.04314376786351204	-0.0282155629247427	0.0163847878575325	0.10744055360555649	0.07703758031129837	-0.11200036853551865	-0.02311445213854313	-0.04591912403702736	0.12165550142526627	0.0074785505421459675	0.03176058828830719	-0.0019648645538836718	-0.009802754037082195	0.02902385964989662	-0.010802102275192738	-0.09982313960790634	0.17160819470882416	-0.044044412672519684	0.03664574399590492	0.059550538659095764	0.09119638055562973	-0.029316935688257217	0.020722296088933945	0.00598152307793498	0.04555491358041763	-0.07089030742645264	0.017137030139565468	0.02306411601603031	-0.013247269205749035	0.18003609776496887	0.06891145557165146	-0.018547382205724716	0.016896817833185196	-0.015749914571642876	-0.10193520784378052	0.08684049546718597	0.01823740266263485	-0.030095174908638	0.13471773266792297	0.06508157402276993	0.030678341165184975	-0.06738299876451492	0.195976123213768	0.015898428857326508	0.08523467928171158	0.1253727227449417	-0.019965536892414093	0.0018751965835690498	0.004409708082675934	-0.1357872188091278	0.03769205883145332	0.03555633872747421	-0.027000155299901962	0.01981867291033268	0.061595555394887924	0.00012477241398300976	0.018722521141171455	-0.0014894906198605895	-0.020747290924191475	-0.029446594417095184	-0.043480440974235535	0.0034183189272880554	0.042207878082990646	0.057691387832164764	0.0017071707407012582	-0.08103538304567337	0.07991030067205429	0.07023171335458755	-0.037838540971279144	0.09564314037561417	0.019519222900271416	-0.008932863362133503	0.19749505817890167	0.17931348085403442	-0.023516032844781876	0.021795088425278664	-0.017142200842499733	0.06085019186139107	0.01515237521380186	-0.03522205352783203	0.010967686772346497	0.20120738446712494	0.0034399889409542084	0.03468355908989906	-0.047075942158699036	0.055992528796195984	0.009756773710250854	0.07911732792854309	0.0975428968667984	-0.029838327318429947	-0.049209173768758774	0.035494543612003326	-0.09198708832263947	0.04641925171017647	0.03126014396548271	0.02559688501060009	0.009489266201853752	-0.02409161441028118	-0.11707253009080887	-0.026515008881688118	-0.05348467081785202	-0.02058035135269165	0.025530697777867317	-0.028124181553721428	0.07409483194351196	0.024109341204166412	0.013178803026676178	
0.11819889396429062	-0.14022693037986755	-0.06635226309299469	0.03756644204258919	-0.0006935551064088941	-0.028181595727801323	-0.03514465317130089	0.4000329077243805	-0.009710296988487244	-0.03998693451285362	-0.1192251443862915	0.008669678121805191	-0.08896874636411667	-0.053007349371910095	0.03103530779480934	-0.05550568178296089	0.03188318386673927	0.04943685978651047	0.02698018215596676	0.4213954210281372	0.018047286197543144	0.038340914994478226	-0.009311532601714134	-0.05093683674931526	-0.023887140676379204	-0.08971060812473297	-0.07449599355459213	-0.5744695663452148	0.009970118291676044	-0.009255054406821728	-0.05099530145525932	0.09790914505720139	-0.34564876556396484	-0.06443772464990616	0.05604624003171921	-0.05295436829328537	0.015561985783278942	0.0005376755725592375	-0.17926804721355438	0.19569456577301025	0.091673344373703	-0.30236726999282837	0.23706911504268646	0.039008256047964096	-0.08994463831186295	0.10225969552993774	0.10748614370822906	0.05350060015916824	0.022972866892814636	0.07092669606208801	0.005881831981241703	0.05335116386413574	-0.02260620705783367	-0.14518938958644867	0.05146893486380577	0.01526136789470911	0.028225049376487732	-0.21435628831386566	0.020598331466317177	-0.03765087574720383	0.062190886586904526	0.12418718636035919	-0.42285096645355225	-0.051223274320364	-0.045154545456171036	-0.03236699104309082	0.006771593354642391	0.026122529059648514	0.006141243036836386	-0.20641890168190002	0.00747666135430336	0.020781034603714943	-0.1534816175699234	-0.02526230551302433	-0.023083480075001717	-0.05592115595936775	0.3619355261325836	-0.049582261592149734	0.01115378551185131	-0.0038537525106221437	0.06960459798574448	0.02404026687145233	0.02768605761229992	-0.1612410843372345	-0.062233831733465195	0.08188700675964355	0.049763645976781845	-0.11858688294887543	-0.12362939119338989	0.07543560862541199	0.001635364256799221	-0.046866435557603836	0.022561103105545044	0.08080881088972092	-0.41011297702789307	0.09927535802125931	-0.3712978661060333	0.03314455226063728	-0.1389692723751068	-0.0669630616903305	0.008455443195998669	-0.024450834840536118	0.05838974565267563	0.014546619728207588	-0.08848888427019119	-0.0335855707526207	0.018859580159187317	0.021667052060365677	-0.1490219235420227	-0.20910680294036865	0.030481809750199318	-0.5434869527816772	-0.022257864475250244	0.003387309843674302	0.14018359780311584	0.031320903450250626	0.01384897530078888	-0.06733633577823639	0.1270252913236618	0.01931578852236271	-0.02408101037144661	-0.0703975036740303	0.03348219022154808	-0.0556369349360466	0.5817000865936279	-0.6246231198310852	0.01176574919372797	-0.018208442255854607	0.05255424603819847	0.1387321949005127	0.0028969887644052505	-0.035565443336963654	-0.06823856383562088	-0.010150352492928505	-0.04543837532401085	-0.1184362843632698	-0.1751726120710373	0.0943276584148407	0.020473729819059372	0.004306702874600887	0.03389103338122368	0.006994782481342554	0.06779775023460388	-0.036710720509290695	-0.03692889213562012	0.009629115462303162	0.03476420044898987	0.05641985312104225	-0.020296072587370872	0.013548050075769424	0.04824572801589966	0.025594791397452354	0.08750753849744797	-0.00045928783947601914	0.06557884067296982	0.07905757427215576	0.049068085849285126	0.007598367519676685	0.07956007868051529	-0.6532642245292664	0.01475884672254324	-0.05581430345773697	0.046914052218198776	-0.043176136910915375	0.025767825543880463	-0.05398218706250191	0.014621091075241566	0.04697197675704956	0.0069320364855229855	0.039197713136672974	0.09796508401632309	-0.02243286930024624	-0.004475284833461046	-0.037597063928842545	0.08868587762117386	0.0054763201624155045	0.010374816134572029	0.10530991107225418	0.5286109447479248	-0.0563640370965004	0.0032441478688269854	0.01658315397799015	-0.15303201973438263	0.04683703929185867	-0.11143460124731064	0.017052944749593735	-0.05038734897971153	0.016287786886096	0.07563000917434692	0.049327414482831955	0.05556662753224373	-0.028047092258930206	0.005543087143450975	-0.017727158963680267	-0.05037136748433113	0.07752545922994614	0.037584204226732254	-0.0028828256763517857	0.004221627023071051	-0.030543575063347816	-0.24778541922569275	-0.0339558906853199	-0.07231777906417847	0.07965752482414246	-0.010187556967139244	0.03887629508972168	-0.11514575779438019	0.009712662547826767	0.12211745232343674	0.004677413497120142	0.050560176372528076	0.024250630289316177	0.025937039405107498	0.0234848465770483	0.07630135864019394	-0.05807657167315483	-0.2948526442050934	0.008855175226926804	0.24554917216300964	0.0023992175702005625	0.031136177480220795	0.3014960289001465	-0.12262265384197235	-0.0064681475050747395	0.04508013650774956	0.03408259525895119	-0.6582305431365967	-0.6217690706253052	0.0210880059748888	0.04855916649103165	0.04594030603766441	0.10808087885379791	-0.008271190337836742	-0.1103329062461853	0.12547017633914948	-0.2290266454219818	-0.06623690575361252	0.06528600305318832	-0.020203417167067528	0.22928903996944427	0.04884663596749306	-0.014209273271262646	0.041554298251867294	0.01629135012626648	-0.021928910166025162	0.19833526015281677	0.009882134385406971	-0.0023695717100054026	0.03532210364937782	0.03772399201989174	-0.06167471408843994	0.06583356112241745	-0.3752686083316803	0.05679855868220329	0.0827871635556221	0.07300636917352676	-0.1091066524386406	-0.006177983246743679	0.003016389673575759	0.1779707819223404	-0.12494716048240662	0.005688405595719814	0.09867170453071594	-0.015229817479848862	0.027173370122909546	0.07461941987276077	-0.034595075994729996	0.05838566645979881	0.03631884604692459	0.07959738373756409	0.05132285878062248	-0.023668844252824783	0.5459663271903992	0.05604206398129463	0.006251036189496517	-0.059621937572956085	0.031032392755150795	0.07136880606412888	0.034626755863428116	0.18735383450984955	0.16518141329288483	-0.08763674646615982	-0.004766926635056734	0.08752817660570145	0.02248510904610157	0.02685287967324257	-0.17846472561359406	0.00447663152590394	0.03977106884121895	0.044776733964681625	0.03652556240558624	0.06408099085092545	0.07123835384845734	-0.01570960320532322	0.03436153382062912	-0.1849437803030014	0.14143280684947968	-0.03812585026025772	0.00013518334890250117	-0.5799098610877991	0.047272756695747375	0.14096879959106445	0.14481280744075775	0.03493271395564079	0.02482263371348381	0.027991920709609985	-0.03363247215747833	-0.00834755040705204	0.032457854598760605	-0.00689679803326726	0.0315808542072773	-0.014360020868480206	0.024789253249764442	0.03456003963947296	0.0380762554705143	-0.08515045791864395	-0.22177624702453613	0.025785179808735847	0.07039374858140945	0.5308071970939636	0.026642905548214912	0.03299522399902344	0.00780976889654994	-0.14886488020420074	-0.050794005393981934	-0.2777292728424072	-0.04074322059750557	0.0192889254540205	-0.0016169786686077714	0.0724310502409935	-0.025252144783735275	0.013076156377792358	0.0008519764523953199	-0.21067912876605988	0.06962548196315765	-0.0012722837273031473	0.583793044090271	0.053195711225271225	0.07856784760951996	0.03648349270224571	0.045542869716882706	0.017973674461245537	0.06856527924537659	0.14669540524482727	0.004289406351745129	0.08070321381092072	0.008940117433667183	0.08919898420572281	0.0683773085474968	-0.002882932312786579	0.005508107133209705	-0.025627467781305313	-0.11216725409030914	0.02478012442588806	0.015057515352964401	0.05556082725524902	-0.03009689413011074	0.022475920617580414	0.009527359157800674	0.0023037204518914223	-0.03166957199573517	-0.3209260404109955	-0.2770766317844391	-0.06369111686944962	-0.04162774980068207	0.04885946586728096	0.02974460832774639	0.05036557465791702	-0.01716102473437786	-0.07573141902685165	0.07618201524019241	-0.004826679360121489	0.016016988083720207	-0.029045723378658295	0.025114061310887337	-0.04286142811179161	-0.04919049143791199	0.12797830998897552	0.008444489911198616	0.05211832374334335	0.012356975115835667	0.040885891765356064	-0.0036785707343369722	-0.026359498500823975	0.032050661742687225	0.008713367395102978	0.015905296429991722	0.006713589187711477	-0.18233728408813477	-0.017672639340162277	0.060546379536390305	-0.024245206266641617	0.3840778172016144	-0.19478988647460938	-0.1580289900302887	0.09398026019334793	-0.0827169418334961	0.07644912600517273	-0.10678859800100327	0.061936039477586746	-0.4001225531101227	0.027490366250276566	0.018638940528035164	-0.00762878218665719	0.10668472200632095	0.19766926765441895	-0.046596821397542953	0.016203274950385094	0.480928510427475	0.07778187841176987	-0.09260061383247375	0.026272423565387726	5.497620804817416e-05	-0.2011677473783493	0.023012563586235046	-0.08116025477647781	0.014853501692414284	-0.00027732783928513527	0.009776603430509567	-0.022495316341519356	0.06577900052070618	-0.03341824933886528	0.07419499009847641	0.5369030833244324	0.007520845625549555	-0.02159193903207779	-0.011119866743683815	-0.0566299669444561	-0.027939708903431892	0.033431701362133026	-0.051306840032339096	0.07700957357883453	0.036582160741090775	0.004669164307415485	-0.030786637216806412	0.0039047175087034702	-0.07538696378469467	0.04359022155404091	0.06539615243673325	0.03954114392399788	-0.009090843610465527	0.06330348551273346	-0.6312100291252136	-0.08487512171268463	0.02215772122144699	0.005154844839125872	0.07000233232975006	0.012937680818140507	-6.924511399120092e-05	0.0023807520046830177	-0.03745192661881447	0.029880188405513763	-0.0058591412380337715	-0.6704310774803162	0.0356648787856102	0.007080473005771637	0.08047809451818466	0.013444067910313606	-0.031141232699155807	-0.0686878114938736	0.011785676702857018	-0.01605464145541191	-0.003216066164895892	0.10322762280702591	0.06711776554584503	0.5876113772392273	-0.015499452129006386	0.023567533120512962	0.045429401099681854	0.019919252023100853	0.005036613903939724	0.5505353808403015	-0.08557397872209549	-0.011879661120474339	0.008342450484633446	0.008311989717185497	0.11633209139108658	-0.4084315001964569	-0.005841499660164118	0.010936278849840164	-0.020816178992390633	0.1268787533044815	-0.06941435486078262	0.022504089400172234	-0.0003885766491293907	0.010244889184832573	-0.09532172232866287	-0.01333734393119812	0.023457340896129608	0.030627872794866562	0.015008112415671349	-0.0370551161468029	0.05292529985308647	0.12744785845279694	-0.024551380425691605	0.06436330825090408	0.006324412301182747	-0.01401506643742323	0.06789238005876541	0.014492333866655827	0.022145802155137062	0.09007231146097183	0.017718112096190453	-0.06692246347665787	-0.04527302086353302	-0.02078312821686268	0.008231167681515217	0.19494852423667908	-0.06286083161830902	-0.026332098990678787	-0.10622798651456833	0.11362636834383011	
-0.018721196800470352	-0.07411942631006241	0.09576502442359924	0.00794571079313755	-0.016438892111182213	0.17112338542938232	-0.046898361295461655	0.19728527963161469	0.03020339459180832	0.050329986959695816	0.027081198990345	-0.0010009680408984423	0.0929844081401825	-0.012908605858683586	0.07220595329999924	0.09493450820446014	0.017267752438783646	-0.026422953233122826	-0.02101222239434719	-0.08717948943376541	-0.0010049499105662107	0.004135913215577602	0.05720497667789459	0.0187708530575037	-0.06929675489664078	0.023905564099550247	0.03614494949579239	0.07123364508152008	-0.036918576806783676	-0.04728707671165466	0.11428553611040115	0.07885921746492386	0.0441366583108902	0.011218234896659851	0.0001368264784105122	-0.11214949935674667	-0.05619005858898163	0.0095945093780756	-0.11590465158224106	-0.024185853078961372	0.012762484140694141	-0.016193849965929985	-0.07569994032382965	-0.026882007718086243	-0.003214798867702484	-0.0033948258496820927	-0.118892602622509	0.024548137560486794	-0.00038985846913419664	0.06786556541919708	0.00208468921482563	0.25401079654693604	-0.027211420238018036	-0.027045242488384247	-0.03313715010881424	0.05532297492027283	-0.05241399630904198	-0.03889419138431549	0.07836836576461792	-0.04659396409988403	-0.03597613051533699	0.07448885589838028	-0.018218105658888817	-0.04510929435491562	0.0068752276711165905	0.06131184473633766	0.013528287410736084	-0.028379464522004128	-0.01588728092610836	0.25908347964286804	0.03434763848781586	-0.016802141442894936	0.027617519721388817	-0.04135902225971222	-0.02907230332493782	0.10985096544027328	0.10499782860279083	0.0438322052359581	-0.046208854764699936	0.002451567444950342	-0.03944331780076027	-0.018090801313519478	0.04173536226153374	-0.010304776951670647	0.2625713646411896	0.030775904655456543	-0.023754961788654327	-0.05519178882241249	0.03884037211537361	-0.06079481542110443	-0.5209337472915649	0.02701457031071186	0.030085409060120583	0.02711944654583931	-0.05397506058216095	0.41131144762039185	-0.034371986985206604	-0.02441231533885002	-0.040104106068611145	0.013624674640595913	0.1622985154390335	-0.04410940408706665	-0.11636438220739365	-0.08685140311717987	-0.06273648887872696	-0.007759789936244488	-0.040653448551893234	-0.07662416249513626	0.03867501765489578	0.020298341289162636	0.006734108552336693	0.059991974383592606	0.051885396242141724	0.04069990664720535	0.1704222857952118	-0.05943860858678818	-0.09581639617681503	0.0020989764016121626	0.04509255662560463	0.01855207420885563	0.0006906132912263274	0.060086689889431	0.08020658791065216	-0.019459977746009827	0.02477240562438965	-0.06604180485010147	0.036960337311029434	0.03805964067578316	0.03357952460646629	-0.02418532408773899	-0.0370296947658062	-0.0733141154050827	0.10488685220479965	0.015024854801595211	0.10550212860107422	0.029758308082818985	0.01255400013178587	0.0014122450957074761	-0.054692573845386505	-0.012836859561502934	-0.018591713160276413	0.08261905610561371	-0.175703763961792	0.027359502390027046	-0.04106234386563301	-0.03723116219043732	0.05826056748628616	0.015335151925683022	-0.009535479359328747	-0.03333031013607979	-0.010807518847286701	0.008875199593603611	0.09897883981466293	-0.0008159088902175426	0.012784111313521862	-0.03638643026351929	-0.016446618363261223	-0.007031613029539585	0.14622804522514343	-0.1009550541639328	0.004389187321066856	0.0359991192817688	-0.005941601470112801	0.022897521033883095	-0.20891448855400085	0.07860642671585083	-0.02661375142633915	0.04699106141924858	0.014372767880558968	-0.044681187719106674	0.019413486123085022	-0.005130100063979626	-0.062280505895614624	-0.07527026534080505	0.05709882453083992	-0.02704150415956974	-0.033061325550079346	-0.006788988597691059	-0.07847150415182114	-0.015114786103367805	-0.04285202920436859	0.009381286799907684	0.11236938834190369	-0.06077940762042999	0.053321436047554016	-0.005119016394019127	-0.06067885085940361	-0.0265811737626791	0.0406644344329834	0.010211248882114887	-0.07011870294809341	0.0026728673838078976	0.020202413201332092	-0.05313190817832947	0.020449690520763397	-0.058719269931316376	0.06595533341169357	0.0033295133616775274	0.008643422275781631	0.022413916885852814	-0.22966353595256805	-0.19901682436466217	-0.06700554490089417	-0.0055554816499352455	-0.029340671375393867	-0.035893023014068604	-0.062443654984235764	0.0005676749860867858	0.03935786336660385	0.043147701770067215	0.03253770247101784	0.009024827741086483	-0.18454618752002716	-0.07845880091190338	-0.02811063639819622	-0.016410425305366516	-0.022319138050079346	-0.10983888804912567	0.0005245328065939248	0.06294118613004684	-0.04279989376664162	-0.01029894594103098	-0.23126818239688873	-0.0005647448706440628	0.026604432612657547	-0.00607170257717371	0.0028574534226208925	-0.017733873799443245	0.018785908818244934	-0.035046111792325974	0.046435724943876266	0.04068407416343689	-0.08824911713600159	0.08220565319061279	0.021693041548132896	-0.022755911573767662	-0.025816135108470917	0.028611717745661736	-0.002822477137669921	-0.022975988686084747	0.0032725485507398844	0.004930001683533192	-0.019214175641536713	0.018846899271011353	0.01450011320412159	-0.04326029121875763	0.007766391150653362	0.0004271727229934186	-0.051855433732271194	0.023336149752140045	-0.0370870865881443	-0.026990259066224098	0.034587450325489044	-0.008736683987081051	-0.0635603591799736	0.03838878497481346	-0.02630748227238655	0.018142953515052795	-0.02558988891541958	0.011640124022960663	-0.008117173798382282	-0.029612651094794273	0.04134492576122284	-0.025163335725665092	0.018655218183994293	-0.0721670612692833	-0.05221801623702049	0.03459295257925987	0.0943014845252037	-0.028999678790569305	0.0530877411365509	-0.0009358954266645014	-0.1615293323993683	0.0017137302784249187	-0.03236601501703262	0.05330057814717293	-0.011414982378482819	-0.024868274107575417	0.048327088356018066	-0.047244492918252945	0.017641190439462662	-0.07475119084119797	0.02423955872654915	0.03885744512081146	0.03855590149760246	-1.1834219549200498e-05	-0.07705289125442505	-0.09272178262472153	-0.10459990054368973	-0.07687201350927353	-0.03356422111392021	0.02257937379181385	0.007242508232593536	0.02380291372537613	-0.029162833467125893	0.011158953420817852	0.006254086270928383	-0.33078789710998535	-0.00996583141386509	-0.11230280250310898	-0.09980075061321259	-0.08388374000787735	0.014023962430655956	0.11484993994235992	0.006681578699499369	0.07286645472049713	0.2689390182495117	-0.07698402553796768	0.012301084585487843	0.01599293015897274	-0.03569265455007553	0.12335436791181564	0.012945650145411491	-0.1301439255475998	-0.022225698456168175	0.09501402825117111	-0.036682404577732086	-0.01643407717347145	0.03433752804994583	0.01466367021203041	0.025728320702910423	-0.004824149888008833	-0.08215499669313431	0.08244884759187698	0.014864069409668446	0.031268972903490067	0.001913245301693678	-0.010329830460250378	0.06003536656498909	0.03727920353412628	-0.018461545929312706	0.04533791542053223	0.12251646816730499	-0.05361256003379822	-0.04934895411133766	-0.12595655024051666	0.006295213475823402	0.028520070016384125	0.008071609772741795	-0.02645362913608551	-0.03594440594315529	-0.045134443789720535	-0.08324028551578522	-0.02053399197757244	0.025973495095968246	-0.0968983843922615	-0.028834018856287003	-0.21922184526920319	0.04914022609591484	-0.03258750960230827	0.08771032094955444	0.009363817982375622	0.006686217151582241	-0.015016065910458565	-0.3937320411205292	-0.009024519473314285	-0.015640856698155403	-0.03672366589307785	-0.028122222051024437	-0.01047564297914505	0.04367233067750931	0.12156637758016586	-0.054158519953489304	-0.02343239076435566	-0.07784588634967804	0.1328394114971161	0.0010476813185960054	-0.01836315728724003	-0.04725068435072899	0.026041412726044655	0.03311976417899132	-0.0016119461506605148	-0.03409035503864288	0.05824009329080582	-0.005326257552951574	0.005275181494653225	-0.0325232669711113	-0.012603647075593472	-0.036951277405023575	0.013606593012809753	-0.028794322162866592	-0.1078057736158371	-0.23983675241470337	-0.05260767415165901	-0.0292392298579216	-0.015651103109121323	0.0034003606997430325	-0.03617873042821884	0.049758180975914	-0.06625935435295105	0.054631318897008896	0.014515255577862263	0.036665476858615875	-0.09563298523426056	0.004405409563332796	-0.0070473491214215755	-0.007740349043160677	-9.00089435162954e-05	0.1683415174484253	-0.07543366402387619	-0.02783876843750477	0.0012985384091734886	0.13263152539730072	-0.04539996758103371	-0.0014811352593824267	-0.10185794532299042	0.17480777204036713	-0.0005254080169834197	0.177814319729805	0.002647755201905966	-0.006983103696256876	0.0023373488802462816	-0.028507355600595474	-0.021634163334965706	-0.006197730544954538	-0.0033679537009447813	-0.0127588901668787	-0.009959385730326176	0.0015047533670440316	0.054884620010852814	0.26551833748817444	0.01381446048617363	-0.07634121179580688	-0.05757324770092964	-0.13765951991081238	0.021351244300603867	-0.052105724811553955	-0.05631350353360176	-0.006836482789367437	-0.01577754318714142	-0.008932829834520817	-0.010638042353093624	-0.021118268370628357	-0.008285410702228546	-0.0015614461153745651	-0.02015228196978569	-0.04054791480302811	-0.03850968927145004	-0.05249602720141411	-0.05895930156111717	-0.043922796845436096	-0.005220816470682621	-0.13830076158046722	-0.02989240176975727	-0.051324475556612015	-0.011603404767811298	-0.05369310826063156	0.023606952279806137	-0.026775700971484184	-0.003946462646126747	0.018350565806031227	-0.18276186287403107	-0.01761334016919136	-0.03098447062075138	-0.018208421766757965	-0.029377037659287453	-0.04476456716656685	0.08035780489444733	-0.048421457409858704	-0.05759192258119583	0.05598835647106171	0.018435988575220108	-0.0021327349822968245	0.23547688126564026	0.2693988084793091	-0.012917103245854378	0.01628524623811245	0.08107450604438782	0.022014565765857697	-0.019051088020205498	0.027742866426706314	-0.06778044253587723	-0.13861452043056488	0.12134873121976852	0.0008974909433163702	-0.03232928365468979	0.12607337534427643	0.00421855878084898	0.14521190524101257	0.1348140984773636	-0.011415091343224049	-0.1445876955986023	0.026559721678495407	-0.0023606112226843834	-0.0739588588476181	0.10723450779914856	0.05400529131293297	0.04824088513851166	0.011288805864751339	0.09996183961629868	-0.05131852999329567	-0.053451813757419586	0.6399493217468262	0.06781232357025146	0.018170729279518127	0.017449432983994484	-0.03572404757142067	-0.11505183577537537	0.028012597933411598	0.03904395177960396	0.05329851433634758	0.0015751091996207833	0.050682373344898224	-0.09506097435951233	0.020319435745477676	-0.6125687956809998	-0.10489337891340256	0.006779372692108154	-0.28333425521850586	0.0012917629210278392	-0.013680984266102314	-0.0696227103471756	
-0.06490573287010193	-0.16988839209079742	-0.036650169640779495	0.022113969549536705	0.004552156664431095	-0.22326822578907013	0.0016576925991103053	-0.01697029359638691	-0.035123132169246674	-0.049618229269981384	0.07265433669090271	0.01644277572631836	-0.1313781440258026	0.04189268872141838	-0.032077889889478683	0.06132376939058304	-0.00046836439287289977	-0.06641669571399689	-0.07578045129776001	0.028100112453103065	-0.030526651069521904	-0.053902026265859604	-0.016637437045574188	0.02203182876110077	0.01033230684697628	-0.0018899169517681003	-0.057765066623687744	0.07671879976987839	0.01472554262727499	0.009071225300431252	-0.09630781412124634	-0.027820201590657234	0.048989828675985336	-0.021520348265767097	-0.04771588742733002	0.035063471645116806	-0.027611752972006798	0.01789996400475502	-0.33345335721969604	-0.08926878869533539	0.07378498464822769	0.02629523165524006	0.033993400633335114	0.021420655772089958	-0.0021242466755211353	-0.004913865588605404	0.015889601781964302	-0.0537768118083477	-0.026324572041630745	-0.06786924600601196	0.0339709110558033	0.014975964091718197	-0.002674821764230728	-0.1974111795425415	0.01232802215963602	-0.04520966857671738	0.01535216998308897	0.02128416858613491	-0.010758941993117332	0.057757750153541565	0.011958514340221882	-0.08398666977882385	0.0666542649269104	-0.01945553533732891	0.021140316501259804	-0.0013568479334935546	0.0041304416954517365	-0.005562767386436462	0.0267003383487463	0.1951703429222107	0.030672423541545868	0.013676146976649761	0.03673369064927101	-0.08153374493122101	0.014675878919661045	0.018057409673929214	0.07308633625507355	-0.1055055558681488	-0.07909656316041946	-0.07680696249008179	-0.02130649983882904	-0.012690680101513863	0.01919667422771454	-0.1324656754732132	0.04348590970039368	-0.05270072817802429	0.03426835685968399	0.07362861186265945	-0.11696700751781464	-0.03276032954454422	0.060242414474487305	0.024521024897694588	0.0048651727847754955	0.021075507625937462	0.004340784158557653	-0.01500267256051302	0.1376630961894989	0.1067618653178215	0.08138952404260635	0.17013315856456757	-0.05662313103675842	0.19227729737758636	0.2075369656085968	-0.0795009583234787	-0.03753611445426941	-0.04711395129561424	0.03161783143877983	-0.0023929995950311422	0.17556002736091614	0.11645688116550446	0.019368913024663925	0.019252300262451172	-0.07567054033279419	-0.0007754192338325083	0.08333928138017654	0.009567353874444962	-0.04353645071387291	-0.06387056410312653	0.07266448438167572	0.03289184346795082	0.1603689342737198	0.06838231533765793	0.14444500207901	0.04091218113899231	-0.043771181255578995	0.06957359611988068	-0.008050764910876751	0.025905152782797813	0.09396404027938843	0.06881653517484665	0.007130289915949106	-0.18921589851379395	0.03818143159151077	0.010679316706955433	-0.16400663554668427	0.024937357753515244	-0.062294017523527145	0.026581348851323128	0.10212159156799316	0.11780794709920883	-0.04613456875085831	-2.254344326502178e-05	0.16840124130249023	-0.03615768253803253	-0.04448056221008301	0.003263309597969055	-0.011089860461652279	0.05254843458533287	0.0980985090136528	0.01599438302218914	-0.025213101878762245	-0.04466943070292473	-0.04245489090681076	-0.04059502109885216	0.059301864355802536	-0.056461650878190994	0.07915934920310974	0.0032276655547320843	-0.028526490554213524	-0.0033433842472732067	0.0007745226030237973	0.006339646875858307	-0.02534599043428898	-0.0529622808098793	-0.0706164538860321	-0.08129212260246277	-0.0167988408356905	0.025802528485655785	0.016655385494232178	-0.04253004491329193	0.0065231285989284515	0.06993014365434647	0.21028926968574524	0.05063355341553688	-0.017338071018457413	-0.5608137845993042	0.08341505378484726	-0.006752853747457266	-0.0016771898372098804	-0.0007938732160255313	0.0106999222189188	0.041083451360464096	0.08591319620609283	-0.02916262298822403	0.008787792176008224	-0.0031677293591201305	-0.05222725868225098	0.030354972928762436	-0.07470047473907471	0.010388086549937725	-0.04329879209399223	0.045704230666160583	-0.026034729555249214	0.002627417678013444	0.017986103892326355	0.11613556742668152	-0.1342030167579651	0.07998951524496078	-0.016209127381443977	0.012828666716814041	0.07011688500642776	0.17001661658287048	-0.03838717192411423	0.009767835028469563	-0.003384944749996066	0.0012945299968123436	0.014319369569420815	-0.005651009734719992	0.004316394217312336	-0.02044348418712616	0.11284629255533218	0.007083565928041935	-0.0077276634983718395	-0.016339242458343506	0.009096029214560986	-0.05278855934739113	0.05032460018992424	-0.5700472593307495	0.016962366178631783	0.10045436769723892	-0.01633381098508835	-0.18821826577186584	0.03680269047617912	-0.005498847458511591	-0.06050588935613632	0.04487396776676178	0.09024575352668762	0.05214256793260574	-0.019009754061698914	0.03799955174326897	0.05165952816605568	0.045899853110313416	0.05675724148750305	-0.014294084161520004	0.0488528273999691	0.09611935168504715	0.0075994026847183704	0.008971069939434528	-0.01788817159831524	-0.06475158035755157	-0.030029278248548508	0.0170008335262537	0.017845410853624344	0.23047541081905365	0.06334234029054642	-0.0335131511092186	0.012668714858591557	-0.044849369674921036	-0.009260390885174274	-0.07838375121355057	-0.0021082682069391012	0.004091320093721151	-0.0925656110048294	-0.04298005253076553	0.044846292585134506	-0.019575944170355797	-0.10785508900880814	0.037497103214263916	-0.013772465288639069	-0.09965050220489502	-0.014761431142687798	0.007702464237809181	-0.04441887512803078	0.06278500705957413	0.026535887271165848	0.020704161375761032	-0.24167382717132568	-0.004240827634930611	-0.026650240644812584	-0.11358582973480225	-0.057818107306957245	0.026031797751784325	-0.11149229854345322	-0.010378398001194	0.015780068933963776	-0.0687880888581276	0.006879743654280901	-0.0544610321521759	0.08766113966703415	-0.06913173943758011	0.04977720230817795	-0.02441839501261711	0.03684248775243759	-0.04679124057292938	-0.013538945466279984	-0.031102297827601433	0.003915648441761732	0.11512982845306396	0.09216967970132828	0.07159096002578735	-0.062009621411561966	-0.048479411751031876	0.05819164589047432	-0.01696775294840336	0.06683585047721863	-0.16080708801746368	0.0019722338765859604	-0.03676454722881317	-0.019786152988672256	-0.10809922218322754	0.003344555152580142	0.035437215119600296	-0.1798064261674881	-0.06101701408624649	-0.05691723898053169	0.062338586896657944	-0.02323145791888237	0.1239728257060051	-0.06018224358558655	-0.04648543521761894	0.04602157697081566	-0.10658121109008789	0.036185555160045624	0.06764925271272659	-0.00483915489166975	-0.041743386536836624	-0.17111210525035858	0.004396151751279831	-0.08064919710159302	-0.04022477939724922	0.04174039512872696	-0.08060278743505478	0.10907749831676483	-0.012049389071762562	0.053664807230234146	0.11746875196695328	0.04538885876536369	-0.01167350634932518	0.003878468880429864	0.007302296347916126	-0.050245948135852814	-0.015532879158854485	-0.07643293589353561	0.04028141126036644	0.08221812546253204	-0.029355522245168686	-0.024319514632225037	0.04195411503314972	-0.11305257678031921	-0.07992858439683914	-0.060861214995384216	-0.053853362798690796	0.025180798023939133	-0.03011319227516651	-0.00928067322820425	-0.006955940276384354	0.01096508651971817	-0.015858285129070282	-0.019313588738441467	-0.05978919938206673	0.016723427921533585	0.016310080885887146	0.054696131497621536	-0.037638284265995026	0.042505841702222824	-0.003423674264922738	-0.04953445494174957	-0.02856757491827011	0.09546778351068497	-0.0753648579120636	-0.021581480279564857	-0.044029686599969864	-0.11809137463569641	0.0036837991792708635	-0.05400760844349861	-0.010093375109136105	-0.03351691737771034	-0.04447907581925392	0.00029192163492552936	-0.06536468863487244	0.00040311255725100636	0.01478645484894514	0.2421695590019226	0.2774198651313782	-0.023102596402168274	0.011029290966689587	-0.010243592783808708	-0.04130496829748154	0.05793872848153114	0.027448084205389023	0.062372930347919464	-0.07316429167985916	0.0241877268999815	0.09000442177057266	-0.006564285606145859	-0.03975505009293556	-0.002237720414996147	0.008071386255323887	-0.012888521887362003	0.0537603385746479	0.045370154082775116	-0.005888695828616619	0.12737038731575012	0.16662104427814484	-0.07261508703231812	0.007298178039491177	-0.12288779020309448	-0.1200423538684845	-0.06699267774820328	0.04285319522023201	-0.11170174181461334	0.004524778109043837	0.042264070361852646	0.004489888437092304	-0.06451544165611267	-0.05140284076333046	0.05898473039269447	0.0026363972574472427	-0.038562044501304626	0.1298256814479828	0.08312991261482239	-0.025430934503674507	0.08555063605308533	0.04152093082666397	-0.062188245356082916	-0.020961787551641464	-0.014964514411985874	-0.013469357043504715	-0.09095491468906403	0.05649939924478531	0.09613081812858582	-0.1326776146888733	0.011244384571909904	-0.006514361128211021	0.05375682935118675	-0.06374702602624893	0.0481552854180336	0.30922529101371765	0.006720205303281546	-0.0027019393164664507	0.11500660330057144	0.0755806639790535	-0.15211565792560577	0.005843190010637045	0.03233863413333893	0.03118605725467205	-0.025374487042427063	-0.0257881972938776	-0.010116569697856903	-0.039921168237924576	0.3808251917362213	0.05254508927464485	0.017564577981829643	0.34706950187683105	-0.07936173677444458	0.07055947184562683	0.08710048347711563	-0.05201300233602524	-0.03927505761384964	-0.04602383077144623	0.011359445750713348	-0.05650028958916664	0.008873574435710907	-0.0024357112124562263	-0.08387324213981628	0.020207935944199562	-0.0035292168613523245	0.0172478798776865	-0.0785580426454544	0.04406309500336647	-0.008854391984641552	-0.0092358672991395	-0.012265791185200214	-0.01372130773961544	0.026456454768776894	-0.048204805701971054	-0.039791010320186615	-0.022052302956581116	-0.04808846861124039	0.009520224295556545	-0.0454111248254776	-0.04612559825181961	-0.06403858959674835	-0.02619916945695877	-0.018722793087363243	0.059265658259391785	-0.06517148017883301	-0.0635729730129242	-0.10973505675792694	0.03692321479320526	-0.008321362547576427	-0.03681030496954918	0.006772586144506931	0.001159423147328198	-0.037866659462451935	-0.31939682364463806	0.6299415826797485	0.0039736139588057995	-0.026137303560972214	0.01947512850165367	0.05744055286049843	0.18036922812461853	0.005183153320103884	0.029948262497782707	-0.20446337759494781	0.033377498388290405	0.013627182692289352	-0.5389279723167419	-0.07294882833957672	-0.013008986599743366	-0.016653649508953094	-0.03198222815990448	-0.06868882477283478	0.033546362072229385	-0.05058550462126732	-0.0356610082089901	-0.008653735741972923	-0.007982878014445305	0.009412195533514023	0.019572369754314423	-0.04155132174491882	-0.004574351012706757	
