512	32
4.915978206554428e-05	0.0005129853961989284	-4.309338692110032e-05	0.00045422796392813325	-0.0003424823225941509	-0.001474105753004551	-0.0005752149154432118	-0.00010074810415972024	0.00016092123405542225	8.210498344851658e-05	-0.00013832771219313145	0.0001463965163566172	-0.0004224691947456449	0.0005660273018293083	0.0003444690373726189	-0.0008067401358857751	-0.00046111378469504416	0.00107671192381531	-0.0004514831816777587	-0.0001159937892225571	-0.00012799307296518236	0.00022074639855418354	0.00010997158824466169	0.0006473033572547138	-0.00048613594844937325	0.00033646804513409734	-8.582895679865032e-05	-0.00019947045075241476	0.00014663091860711575	0.00023545065778307617	-8.313110447488725e-05	-0.00013043021317571402	
-0.0003055626875720918	-0.00017530372133478522	4.1422437789151445e-05	9.507935465080664e-05	-0.0006542201153934002	-0.0008101262501440942	0.00025069696130231023	2.186369601986371e-05	0.000124719284940511	4.023225847049616e-05	-0.00019468256505206227	0.0001915806351462379	8.911601980798878e-07	-0.00012370871263556182	3.694587212521583e-05	-0.0007192919147200882	-0.00028344630845822394	0.0006638514460064471	0.00014232625835575163	0.0001903920783661306	0.000195858912775293	-0.00012500285811256617	0.0004326121706981212	2.8828551876358688e-05	-0.0003701748501043767	0.0002868330921046436	0.000437766284449026	0.0004952530725859106	-7.745277252979577e-05	-4.261396043148125e-06	-0.000300535379210487	-0.0001707116316538304	
-0.00039538383134640753	-0.0012392359785735607	-0.00012385549780447036	-0.0004698887642007321	-0.0012847991893067956	0.0014004235854372382	0.0009440436842851341	-7.548031862825155e-05	-0.0001434696896467358	-0.00019434001296758652	0.0003106172080151737	-0.0001822240010369569	-0.0003840191347990185	-0.0010596953798085451	-0.00019064804655499756	0.0015387228922918439	0.00040892206015996635	0.00011035444913432002	-0.000471775681944564	0.00028550924616865814	-0.0002706185623537749	-0.00040331840864382684	0.00032657411065883934	-0.00020967787713743746	8.818681817501783e-05	-0.0007868276443332434	0.0008239159360527992	0.001750244409777224	-0.00032499313238076866	-0.0005443792324513197	-0.00028953992296010256	1.5513163816649467e-05	
8.134962263284251e-05	0.0001638968096813187	-0.0002689493994694203	2.6325584258302115e-05	-2.7131327442475595e-05	-1.991387762245722e-05	-0.0005719706532545388	1.5078861906658858e-05	-0.00019797882123384625	-0.00013083461089991033	-6.6155000240542e-05	0.0001426291564712301	-0.00019411601533647627	8.27594194561243e-05	-0.00028723597642965615	-0.0007853607530705631	-0.0007147990982048213	0.00021177786402404308	-0.00013479751942213625	0.00014944339636713266	-5.7591620134189725e-05	-7.299880962818861e-05	-9.966467041522264e-05	-0.0004819071036763489	-1.1949636245844886e-05	0.00039389365701936185	0.00043440834269858897	0.0005436870851553977	0.00010188012674916536	0.0005168324569240212	-0.0004896284663118422	-2.789338759612292e-05	
4.909340714220889e-05	-0.00034871743991971016	0.0006880342843942344	0.0008742300560697913	-0.00036919041303917766	7.17564980732277e-05	2.0748764654854313e-05	-4.091637674719095e-05	-0.00027941231383010745	-0.00015338676166720688	0.0005594546673819423	-0.0001867345708888024	-0.0012181255733594298	0.0013619044329971075	0.0009644891251809895	-0.0003951028920710087	-0.00039727514376863837	-0.00021869437478017062	-0.00043315975926816463	-0.00023108397726900876	-0.0002778943453449756	0.0004052263393532485	-0.0008324543014168739	-2.16267926589353e-05	0.000530572491697967	0.00017682930047158152	-0.00021269034186843783	-0.0005610318621620536	-0.00026031729066744447	-0.00021503483003471047	0.00028287095483392477	0.0007203913410194218	
0.00037883908953517675	0.0006221834337338805	0.0007294774986803532	-0.00011602394079091027	0.0009280482190661132	-0.0004264034505467862	-0.00037231200258247554	0.00020983895228710026	1.2199128832435235e-05	0.0003260713710915297	-0.0008129688794724643	0.0005060444236733019	4.4371288822731e-05	0.0007503339438699186	-0.00021563457266893238	-0.0025053832214325666	-0.00043627808918245137	-0.00045848870649933815	0.0004657781682908535	-0.00020147317263763398	0.0002943808794952929	-1.9898776372428983e-05	-0.001048862119205296	0.00019912005518563092	0.00017488037701696157	0.0002242691844003275	-0.00029318040469661355	0.0006780393305234611	0.000168561382452026	-0.00019205476564820856	-0.000920616090297699	-0.0005638582515530288	
-0.00022715420345775783	-0.00020918011432513595	0.0014000075170770288	0.0003521564358379692	0.0012089753290638328	0.0015619219047948718	-0.0003097235457971692	-2.1247555196168832e-05	0.0012331927428022027	0.0006863028393127024	-0.0007428282988257706	0.0012957052094861865	0.0008174596587195992	0.0008094324148260057	-8.60101354192011e-05	0.0013798275031149387	1.5211575373541564e-05	0.0004981789388693869	-4.017091850982979e-05	-0.0001019797200569883	-0.0001273230300284922	0.00021565814677160233	-0.00044472492299973965	-1.1660455129458569e-05	-0.000733718741685152	0.00017919957463163882	0.00043876352719962597	0.003370473627001047	5.1275357691338286e-05	-0.00014750607078894973	-0.0006605758680962026	-0.0010181971592828631	
0.00039843254489824176	0.000529701414052397	-0.0008738691685721278	-0.0005565810715779662	-0.0003277725481893867	-0.00028828898211941123	-0.00021667069813702255	0.0001573476183693856	-0.0006845626630820334	-0.0006327735027298331	0.0005427250871434808	-0.0008754295413382351	0.000266864022705704	-0.0008650549571029842	-0.00011844433902297169	-0.0013581888051703572	0.0004339413426350802	-0.000967237981967628	0.0005021542310714722	0.00013437995221465826	4.6130768168950453e-05	-0.00017385900719091296	4.1360279283253476e-05	-0.00045501216663978994	0.000800770940259099	-0.0001489090791437775	-0.00043913794797845185	-0.0033987052738666534	-7.685676973778754e-05	0.000678367679938674	0.00130713009275496	0.000628312467597425	
-0.0002687041414901614	0.00023417720512952656	0.0009356188820675015	0.0003954203275498003	0.0009695563931018114	2.26524643949233e-05	-0.00020867731655016541	0.00014596249093301594	0.0009017781703732908	4.963632090948522e-05	-0.0003010565706063062	0.0001674025843385607	0.0005832816241309047	0.000682509911712259	1.6601416064077057e-05	-0.003609373467043042	0.0008641665335744619	-0.0017227529315277934	0.001247131498530507	-0.00017635338008403778	0.0004581244138535112	0.00012009256170131266	0.0005107761826366186	0.00042533688247203827	9.968975064111874e-06	-0.0001631670311326161	-0.0008977646939456463	-0.001086467644199729	-4.728551357402466e-05	0.00010372996621299535	0.0004234407388139516	-0.0005627896753139794	
-0.0008147400221787393	-0.0008362054359167814	0.00030664203222841024	-0.0005687301163561642	-0.0001282328157685697	0.00021980149904266	0.001004010089673102	0.000176127883605659	0.00035189403570257127	0.00033165677450597286	-0.0001726577029330656	0.00012655214231926948	0.0007290754001587629	-0.0009720238158479333	-0.0005724224029108882	-0.0006986451335251331	0.0005825376138091087	-0.00042674349970184267	0.0004579234810080379	0.00044803853961639106	6.859721906948835e-05	-0.0004579453670885414	0.00036652409471571445	-1.713931305857841e-05	0.0001705022732494399	6.546279473695904e-05	0.0006712463218718767	0.0023992203641682863	-0.00024065023171715438	-0.0006384141161106527	-0.0005508862668648362	-0.000265488080913201	
-0.00021282817760948092	-0.0006080394377931952	-0.00031256600050255656	-3.924442353309132e-05	-0.001166373724117875	0.000576849386561662	0.0007844754727557302	-9.143256465904415e-05	-0.0003016144037246704	0.00032040581572800875	-0.0005423413240350783	0.0004485261451918632	-0.0007268275367096066	-0.0007983427494764328	-0.0002965469902846962	0.0003690742887556553	-0.0007281278376467526	0.0021487942431122065	-0.000429630366852507	0.00011340916535118595	4.30143263656646e-05	-0.00018333304615225643	-9.16860590223223e-05	-0.0003777669044211507	-0.0005178056308068335	-0.0005318635958246887	0.0005351715954020619	0.0017677226569503546	-9.545056673232466e-05	-0.0005039224633947015	-0.0028426663484424353	-0.00018078125140164047	
0.0002545707393437624	0.00015952125249896199	-0.0012780390679836273	-0.00035687346826307476	1.9327440895722248e-05	0.0016563901444897056	0.0002694208233151585	-0.0003296089416835457	-0.0004596487560775131	-0.0005461983382701874	0.0009050053777173162	-0.0008518540998920798	-0.00021066825138404965	-0.0009939414449036121	0.0008091691415756941	0.0037044971249997616	0.0006245314725674689	-0.0004528708232101053	-0.0017330428818240762	6.709462468279526e-06	-0.00028522213688120246	0.0002839297230821103	0.0007743251626379788	-0.00043228123104199767	-0.0002803746028803289	-0.0014609177596867085	0.0003060877206735313	-0.00296145211905241	0.0003214236639905721	0.0033875855151563883	0.00012513052206486464	0.0008132442599162459	
-0.0009872838854789734	3.5945718991570175e-05	-0.0008218685397878289	0.0002731280983425677	-0.00011836815974675119	0.003631111467257142	-0.0003030552470590919	-0.000341436272719875	0.000993426307104528	-0.00022618997900281101	5.82356660743244e-05	0.0002636239805724472	-0.0002032678748946637	-0.00010479336197022349	-7.433815881086048e-06	-0.00380569975823164	0.0007810648530721664	-0.0034346876200288534	0.000466779776616022	-0.0001788390800356865	0.0001661129790591076	0.00022401452588383108	0.0014880631351843476	0.00034639908699318767	-1.4786640349484514e-05	-0.0013321646256372333	-8.416952914558351e-05	-0.0011231000535190105	7.0443115873786155e-06	0.0028008949011564255	0.002021577674895525	-0.0009452889207750559	
-0.0002361633669352159	-0.0006014772807247937	0.0006951633840799332	0.0007253652438521385	1.1905741530426894e-06	-0.0007455922313965857	0.00011679071030812338	-5.0845799705712125e-05	0.00017723227210808545	-7.9144119808916e-05	0.0006723407423123717	-9.800407860893756e-05	-0.00015441466530319303	0.0012161675840616226	0.0008357251645065844	-0.001051942235790193	0.00018896943947765976	-9.148165554506704e-05	0.00019438289746176451	5.777027035946958e-05	-0.00027194456197321415	-5.996110485284589e-05	-0.00042979393037967384	0.000496655935421586	0.00039902018033899367	0.0009616314782761037	4.3549069232540205e-05	0.0016767485067248344	-0.0003706711286213249	-0.0010980844963341951	0.0012117732549086213	0.00017706038488540798	
-0.00018592657579574734	-0.0004368388035800308	-0.00019962870283052325	-0.0002160750882467255	-0.0007545248954556882	-9.241636143997312e-05	0.0010572954779490829	1.1925405488000251e-05	0.0003362719144206494	-0.00011867057764902711	-0.00030457047978416085	7.807395741110668e-05	-0.00015776731015648693	-0.0010485808597877622	-3.890342122758739e-05	0.0015613939613103867	0.00028662223485298455	0.0002741569478530437	0.0003860049764625728	5.210123345023021e-05	0.0005599543801508844	-0.00017844326794147491	0.0008804682875052094	-0.0005314512527547777	-0.0005076736561022699	-0.000671140558551997	6.738802039762959e-05	-0.0014289646642282605	-0.00021127224317751825	-0.0005181908491067588	0.00021106746862642467	-0.00017362047219648957	
-0.000392465473851189	-0.00021764823759440333	-0.00023474286717828363	-0.0008417386561632156	-0.0006278338842093945	-0.0004134004993829876	0.00018265242397319525	0.00015725863340776414	-0.0006989585817791522	0.00019271011115051806	5.429094471764984e-06	-0.0003246524138376117	0.00012016569235129282	-0.0006458850693888962	-0.0008298538159579039	-0.0013387765502557158	-0.00011836400517495349	-1.3394301277003251e-05	-2.062038765870966e-05	0.0004340079321991652	-0.0004922776133753359	-0.000546629074960947	-0.0006471844390034676	0.0005446133436635137	0.0007229456095956266	-0.00011330693814670667	0.0006403481820598245	0.0027579430025070906	-3.7690938370360527e-06	-0.0008298849570564926	-0.0008220580057241023	-0.00021585127979051322	
0.0002591088123153895	0.0005372167215682566	-0.0003105906362179667	0.00014644836483057588	0.0008089308394119143	0.000682693615090102	-0.000542287016287446	1.7900147213367745e-05	0.00031181404483504593	8.734091534279287e-05	-0.0001290064974455163	0.0003687817370519042	-0.0002934192889370024	-0.00042743736412376165	-0.00032431879662908614	0.0021971173118799925	-0.00041618911200203	-6.899298750795424e-05	-2.702574192881002e-06	-0.000323308864608407	0.0004438826581463218	0.00034777147811837494	0.00011253989941906184	-0.0006856850814074278	-0.00025716700474731624	-0.00073963962495327	-0.0006086049834266305	-0.0016393910627812147	0.00010452674905536696	0.000985665712505579	0.0006782350246794522	9.066820348380134e-05	
0.0008429752197116613	0.0010236402740702033	-0.0004180133400950581	-0.00016378260625060648	0.00039840643876232207	-0.0014405628899112344	-0.0008240846800617874	-0.00010634895443217829	-0.0007303992169909179	-0.00046414416283369064	0.00025633935001678765	-0.0007597209769301116	0.00033452300704084337	0.0006880020955577493	0.0002519788686186075	-0.0022100238129496574	-2.8808437491534278e-05	6.17883779341355e-05	7.901517528807744e-05	-2.4966551791294478e-05	-0.00014001110685057938	-0.00030910864006727934	-0.0002742768556345254	0.0003554134746082127	6.169735570438206e-05	0.0004926345427520573	-0.00046723068226128817	-0.0017584494780749083	0.0005185953341424465	0.00014412020391318947	0.00011216196435270831	-0.0006265759002417326	
0.000227601922233589	-0.0007349640363827348	0.0005471638287417591	0.0001986517891054973	0.0001775592245394364	0.0024808060843497515	0.00023589075135532767	-7.24929996067658e-05	0.00023804920783732086	-0.0006431703804992139	0.000795428641140461	-0.0008154791430570185	-0.00044980665552429855	0.0003628436825238168	0.0007423102506436408	-0.002420516684651375	0.0008197785937227309	-0.0017715165158733726	-2.3418140699504875e-05	4.6364133595488966e-05	5.643910844810307e-05	0.00011719074245775118	-0.00024578077136538923	-0.00026068452280014753	0.0005767860566265881	-0.000654281466268003	-0.0004789537051692605	-0.00092778739053756	-0.00024853975628502667	0.0006509962258860469	-0.0009548589587211609	0.0006514322012662888	
0.0007182732806541026	0.0004676884273067117	0.000339216465363279	0.0003826768952421844	9.503073670202866e-05	0.0004420257464516908	-0.0007595790666528046	0.00016203371342271566	-0.0006610252312384546	-0.00031558694900013506	0.0005380567163228989	-0.00011789028212660924	-0.00032252358505502343	0.001002246979624033	0.0004653823561966419	0.0005914982757531106	-0.0005214780103415251	1.4670910786662716e-05	-0.0001139273663284257	-0.00029030689620412886	-7.484441448468715e-05	0.0005674682906828821	-0.0010352262761443853	-0.00028820609441027045	0.0006059207953512669	-0.00013486594252754003	-0.0007212192285805941	-0.0019044389482587576	0.0001705811737338081	0.0008785756072029471	0.00014054820348974317	0.0008895783685147762	
-0.000587942311540246	-0.00027703907107934356	0.0006127700326032937	0.00011557392281247303	0.0006211132276803255	-0.0019205420976504683	0.000931709713768214	0.0001210491027450189	-0.0002326725225429982	0.0005848193541169167	-0.00010101372754434124	0.00019214201893191785	-0.0006801850395277143	0.00045715286978520453	0.0007975354674272239	0.00576846394687891	-0.0004815883294213563	0.001073421211913228	-0.0011191701050847769	-0.00012542025069706142	-9.20595703064464e-05	0.00015797674132045358	-0.00038580186082981527	9.800009138416499e-06	-0.0002017484075622633	0.00040793296648189425	0.000665362982545048	0.0005281002959236503	-0.00029400206403806806	-0.0013288897462189198	0.0005086362361907959	0.0004390418471302837	
0.010332871228456497	-0.09425071626901627	-0.013160277158021927	0.0002278637111885473	0.2606457769870758	0.14784376323223114	0.016903718933463097	-0.0022515354212373495	0.02459271252155304	0.0008837514324113727	0.0029725024942308664	0.06364021450281143	0.006430060602724552	0.03760946914553642	0.004579189233481884	-0.1526505947113037	0.001958774868398905	0.2548709511756897	-0.19869621098041534	0.0017444383120164275	0.0023946613073349	0.029166482388973236	-0.12300264090299606	-0.0023902941029518843	-0.0016401110915467143	0.04222581535577774	0.02840304560959339	0.14854571223258972	-0.002291081938892603	-0.06350468844175339	0.3851377069950104	-0.0027948699425905943	
-0.00018271735461894423	-0.0006932788528501987	0.0010036338353529572	0.000725404592230916	-0.0009039824362844229	-0.0008039648528210819	0.0005953449872322381	0.00021821701375301927	0.0001253215450560674	0.00011897409422090277	-0.00022124810493551195	0.0008426872664131224	1.5264289686456323e-05	0.0009883084567263722	0.00012524542398750782	0.0005064810975454748	-0.00037629311555065215	0.0008653278928250074	0.0004287715710233897	-0.00018620426999405026	0.0003378446854185313	-0.0001231682690558955	-0.0008084012661129236	9.567725646775216e-05	-6.272492464631796e-05	0.00024217170721385628	-0.00024307816056534648	0.0002544359886087477	-0.0001924414245877415	-0.0008720732294023037	-0.000984484446235001	-3.08822127408348e-05	
-3.7440371670527384e-05	-0.00032303849002346396	-9.977700392482802e-05	-0.0006774590583518147	-0.000467581587145105	-0.0004868393880315125	0.00048680356121622026	6.283352558966726e-05	-0.0005388352437876165	5.6795146520016715e-05	-5.378467176342383e-05	-0.00022046965023037046	-3.8173773646121845e-05	-0.0009618070325814188	-0.000181733732460998	0.0017972307978197932	0.0004866706149186939	0.00014834447938483208	-0.00029931223252788186	-5.710833647754043e-06	-7.125692354748026e-05	-0.00025309756165370345	-0.00010240230039926246	0.00032024530810303986	1.4848375940346159e-05	-0.0006863570888526738	0.0002593022654764354	-3.8758305890951306e-05	2.612087882880587e-05	-0.00024047208717092872	-0.00013861853221897036	1.4638812899647746e-05	
-0.00042534081148914993	-0.00044022584916092455	0.00048554089153185487	0.00023404402600135654	-0.0001831187546486035	0.00011700383765855804	0.0007915079477243125	-4.662419087253511e-05	0.00026923191035166383	0.0003022192686330527	9.903690624923911e-06	0.00020547206804621965	-0.00044695197721011937	0.0006482676253654063	0.00017641588055994362	-0.0007157931104302406	1.0122837011294905e-05	0.0001600455871084705	0.0003546565130818635	5.9990547015331686e-05	-9.294338815379888e-05	-0.0003100387693848461	-0.00011676916619762778	-0.00010064193338621408	-0.00011835381883429363	0.00012708500435110182	0.00026474904734641314	0.0006058111321181059	-0.00020007378770969808	-0.0011330719571560621	-0.00011760086636058986	-0.00020180603314656764	
-0.0006977881421335042	0.00013998158101458102	-0.00036147705395706	-0.0002757424663286656	0.00021067759371362627	-0.00061262515373528	-1.5033149793453049e-05	-0.00019926934328395873	0.0005300645134411752	0.0006075770361348987	-0.0005833831964991987	0.0002844241971615702	0.000670554640237242	-0.0006684759282507002	-0.0008602733141742647	-0.00019017064187210053	0.00029156228993088007	0.000656551739666611	-1.5118441751837963e-06	0.00016649313329253346	-0.00016626485739834607	-0.00048605771735310555	0.0007223415304906666	0.0006257150089368224	-0.0008127784240059555	0.00046242031385190785	0.0005108058103360236	0.002415706403553486	0.0002745055826380849	-0.00071358383866027	-0.0001540437515359372	-0.0012469952926039696	
-0.00023896894708741456	-0.00039527020999230444	0.000808632408734411	-0.00019525596871972084	0.00019305874593555927	0.0003493978001642972	0.0004836385487578809	4.5289511035662144e-05	6.039396612322889e-05	0.0004266425094101578	-4.468391853151843e-05	0.0001965352421393618	-0.00022426902432926	0.00011480977991595864	0.0002771213185042143	0.0007176470826379955	0.0002728975669015199	-1.2902146409032866e-05	-0.0002798779751174152	-0.00014948220632504672	-0.00014666112838312984	3.948365701944567e-05	-0.0005913946661166847	0.0004395686264615506	8.547554898541421e-05	-0.0004596667131409049	0.00016841382603161037	0.00191935570910573	-0.00012576028530020267	-0.0003252940659876913	-0.00034074782161042094	0.0001772487157722935	
0.0004973708419129252	0.0006068588118068874	4.6383236622205004e-05	0.0004380970203783363	0.0004884351510554552	-0.0011801448417827487	-0.0006101963226683438	0.00017521118570584804	-0.00048820648225955665	-0.0002669824461918324	0.0005195263656787574	-2.734008194238413e-05	-0.00035269264481030405	0.0011264764470979571	0.0007581816171295941	0.0007192076300270855	-0.00033140010782517493	0.00020011854940094054	-3.47332788805943e-05	-0.00036976137198507786	-6.786201993236318e-05	0.0005388837889768183	-0.0008399570942856371	8.079582039499655e-05	0.0006411770591512322	0.0002427473373245448	-0.0006717062788084149	-0.002301619853824377	1.1137737601529807e-05	0.0004973451141268015	0.0012219803174957633	0.0010347834322601557	
0.00014651771925855428	0.00022777750564273447	-0.000493932340759784	-5.6406515795970336e-05	5.176898412173614e-05	-0.0016557385679334402	-0.00017121621931437403	0.0002973576192744076	-0.0004906676476821303	0.0002794437750708312	-5.2722101827384904e-05	0.00035441984073258936	-0.00016169155423995107	-0.00025817504501901567	-0.00039865472353994846	0.0022847794461995363	-0.0007345760241150856	0.0009963461197912693	-9.469732322031632e-05	-7.340740557992831e-05	7.616142102051526e-05	9.005032188724726e-05	-0.00023552178754471242	-0.00017933035269379616	4.226509190630168e-06	-0.0006912449025548995	0.00013395497808232903	-0.0006412664079107344	0.0001019675110001117	0.00015806614828761667	0.0001645103911869228	0.0004423678619787097	
-0.00033756677294149995	0.00014823109086137265	0.0003536881413310766	0.00018707876733969897	0.00014797094627283514	-0.0004762807220686227	-6.386669701896608e-05	-0.00016165866691153497	0.00035888655111193657	0.00028904923237860203	-1.5530917153228074e-05	2.019482053583488e-05	0.0005396293709054589	0.0004513098392635584	-3.734290294232778e-05	-0.0009184062946587801	0.00041030882857739925	9.469220822211355e-05	0.00012263159442227334	-3.396084139239974e-05	-0.0002849365118891001	-0.00018005397578235716	-0.0001979431981453672	0.0007277270779013634	-0.00018137154984287918	0.0006368454778566957	-0.00017101193952839822	0.0016764095053076744	0.00014207075582817197	-0.0008122319704852998	-6.386163295246661e-05	-0.00042895827209576964	
-0.00018465016910340637	-0.00091904605505988	0.0005555074894800782	-0.00017807295080274343	-0.00016835374117363244	0.0033672447316348553	0.0006209727143868804	-0.0001992268953472376	0.0004026244569104165	0.0004536183550953865	2.808546196320094e-05	4.506216646404937e-05	-0.0008665601490065455	-0.0003667022683657706	6.351286720018834e-05	0.0003130983968731016	0.0001050407809088938	2.2857473595649935e-05	-0.00037965309456922114	0.00018974629347212613	-0.00010459728218847886	2.956993739644531e-06	-7.62842464610003e-05	0.0004159318923484534	-0.00024095790286082774	-0.000973852991592139	0.0007038415060378611	0.004395538941025734	-0.00024127877259161323	-0.0012996107107028365	-0.0013135276967659593	-0.0005630517844110727	
-0.0015740463277325034	-0.001405311282724142	-0.0002637507568579167	-6.340833351714537e-05	-0.0010091637959703803	0.003281397046521306	0.0018018234986811876	-0.0001990789023693651	-9.851876529864967e-05	0.0005530213238671422	0.00012995315773878247	0.0009173279395326972	-0.0011491220211610198	-4.214041109662503e-05	0.0006971783004701138	0.007964939810335636	-0.00018987459770869464	0.0004914620658382773	-0.0018977653235197067	-8.686816727276891e-05	0.00013773332466371357	0.00017637074051890522	6.0969665355514735e-05	0.0011210277443751693	-0.0006186867831274867	-0.0013438949827104807	0.0008044148562476039	0.0014075820799916983	-0.000372237351257354	-0.0022733393125236034	-0.001521834172308445	-0.00032955227652564645	
-0.0006616899045184255	-8.734285802347586e-05	7.800541789038107e-05	-7.787946378812194e-05	0.0002343444066355005	0.00021615740843117237	0.00011979733244515955	-0.00014593386731576174	0.0007911042775958776	0.00048264075303450227	-0.0006495215930044651	0.0004099882207810879	0.0005289363907650113	-0.00031121959909796715	-0.0007356102578341961	-0.0016036872984841466	-2.7543412215891294e-05	0.0003003414603881538	0.0003162171633448452	0.00025186192942783237	4.681817881646566e-05	-0.00043798895785585046	0.0006625015521422029	0.00012356114166323096	-0.0005843787221238017	0.00047280738363042474	0.0005148237105458975	0.0027527424972504377	5.6111930462066084e-05	-0.0009573355782777071	-0.0005898898234590888	-0.0012424796586856246	
-0.0004191605548840016	-0.00017010176088660955	-4.5888402382843196e-05	-0.0008821422816254199	0.0003733841294888407	-7.260837446665391e-05	0.00032274037948809564	-9.128716919803992e-05	1.6162506653927267e-05	0.0003206507826689631	-0.0003605498350225389	-0.0003046536585316062	0.0005878186784684658	-0.0011590010253712535	-0.0005485886940732598	-0.0005487516173161566	0.0005664423806592822	-0.00014550721971318126	-0.00024227450194302946	0.0003194487071596086	-0.00016099674394354224	-0.0005530659691430628	0.00041194423101842403	0.0004331050149630755	-0.0002421737153781578	-7.53150088712573e-05	0.00066881172824651	0.0024714404717087746	0.0001945060066645965	-0.0002945170272141695	-0.00031223907717503607	-0.0008262971532531083	
0.0019596845377236605	0.002365958411246538	-0.0005077820969745517	-0.0003834484959952533	0.0011379023781046271	-0.002030879957601428	-0.0015881209401413798	0.0002075390366371721	-0.0004865752998739481	-0.00028470574761740863	-0.0002361088991165161	-0.0013410146348178387	0.000848234398290515	-0.0008803140372037888	-0.0011569344205781817	-0.004484059289097786	-0.00042401300743222237	-0.0012333218473941088	0.0010276456596329808	0.00020246302301529795	-0.00019985427206847817	-1.1443898074503522e-05	-0.0009276957716792822	-0.0011982001597061753	0.0007028109394013882	0.0011785827809944749	-0.000388792366720736	-0.00025248134625144303	0.0005262669874355197	0.0017795718740671873	0.0007062845397740602	0.0008823106763884425	
-0.0001952815509866923	3.053582986467518e-05	0.00032404824742116034	0.0003716791106853634	-0.00017575961828697473	0.0007118377252481878	9.576023876434192e-05	3.683946852106601e-05	-9.719920490169898e-05	-3.7135174352442846e-05	8.003017865121365e-05	-0.0002425750863039866	-9.238554775947705e-05	0.0008923296118155122	0.00010077319166157395	-0.0016878540627658367	-0.00036710049607791007	-0.00015316261851694435	0.00032434373861178756	0.000117141091322992	-8.253314445028082e-05	-0.00011365685350028798	-0.00037010983214713633	-0.00025659368839114904	0.00037026830250397325	0.0003919570299331099	-0.00013516804028768092	-0.0002635946439113468	-0.00011008743604179472	-0.0006726509891450405	-1.670366145845037e-06	-7.866168016334996e-05	
-0.0001903479133034125	-0.0015158546157181263	-0.00043357445974834263	-0.0005042790435254574	-0.0006425532628782094	0.0019503749208524823	0.0005700674373656511	-0.00031423638574779034	-0.00019888626411557198	-0.00031469398527406156	0.0009413015795871615	-0.0011283468920737505	-0.0008046051952987909	-0.0008856779313646257	0.00046876035048626363	-0.0006711739115417004	0.0006014737882651389	-0.00010141305392608047	-0.0005117320688441396	0.0005623421748168766	-0.0003435433318372816	-0.0004011238634120673	-2.2968250050325878e-05	0.0007370381499640644	0.0005362182855606079	-0.00043126472155563533	0.0005383692332543433	0.0015135775320231915	-0.0003446607443038374	0.0007362562464550138	-0.000985979102551937	0.0004855797451455146	
0.00013395801943261176	0.0006088573718443513	-0.0006651669973507524	-0.00028348073828965425	0.0009378833347000182	0.0006539854221045971	-0.0003489254740998149	1.3561365449277218e-05	0.00037376105319708586	-0.0001170599352917634	-0.0001722880406305194	-0.00018659276247490197	0.0008088070317171514	-0.0006197234033606946	-0.00042845081770792603	6.0147096519358456e-05	0.0001251141948159784	-0.0005354200839065015	0.00032084103440865874	0.00015338711091317236	0.00030616222647950053	0.00013646988372784108	0.0008401740342378616	-0.00040979019831866026	-0.00011921022814931348	7.774188998155296e-05	-0.000169853083207272	-0.001113186008296907	0.00014618966088164598	0.0005562966107390821	0.0004755040572490543	-0.00016797859279904515	
0.0003350346232764423	-0.0003826018364634365	-0.0005077454261481762	0.00026155897649005055	-0.00067911297082901	0.0005878137890249491	-0.00022564618848264217	-5.0431914132786915e-05	-0.00022241688566282392	-0.00049571692943573	0.00030053785303607583	-2.4569691959186457e-05	-0.0003805489686783403	-0.00043587805703282356	-6.483840843429789e-05	0.0014436391647905111	-0.0002721105411183089	-0.00015841779531911016	-0.00013573050091508776	4.9497753934701905e-05	0.00010340251901652664	0.00015604656073264778	0.0002758566988632083	-0.0008063861168920994	-6.847892655059695e-05	-0.00030680556665174663	6.046924681868404e-05	-0.001068604295141995	-7.409345562336966e-05	0.0005569885252043605	0.0006349681643769145	0.0003830917412415147	
0.00015088170766830444	-0.0004274789826013148	-0.0008989394991658628	-0.00021305143309291452	-1.3757382475887425e-05	0.0012306423159316182	0.00022437467123381793	-0.0003979606553912163	-0.0002962992002721876	6.585285882465541e-05	0.0006134532741270959	-0.00013191875768825412	-0.0006991276168264449	-0.0005577147239819169	0.0005417087813839316	0.005431104451417923	-0.00045181080349721014	0.0010418734746053815	-0.0016967561095952988	0.0001023175791488029	-0.0005225019995123148	0.00031676236540079117	0.0007645486621186137	-0.00019747034821193665	-0.0007200442487373948	-0.0005228741210885346	0.0010647703893482685	0.001529311528429389	7.904647645773366e-05	0.0002089805930154398	0.0008466335712000728	0.0002634002885315567	
-9.770924225449562e-05	-0.00020413270976860076	0.0001339214068138972	-0.00016743683954700828	-0.001024194760248065	0.0021166424266994	0.0012349234893918037	0.00026773425634019077	-0.00016550779400859028	0.0005782820517197251	-0.0009323045960627496	0.0012691785814240575	-0.0005840766243636608	-0.0006825216114521027	-0.0007459235494025052	0.0014162480365484953	-0.0009060169686563313	0.0016665597213432193	-2.4105503371174564e-07	-0.00012651160068344325	0.0004136784409638494	0.00012260036601219326	-0.000341967330314219	-0.0008105153101496398	-0.0005814796313643456	-0.0021339240483939648	0.00013385649072006345	0.0005555155221372843	-5.720758781535551e-05	-0.0005067862803116441	-0.003240300575271249	0.00039907515747472644	
-0.0007028731633909047	-0.0014221112942323089	0.0009949269006028771	0.0006778397364541888	-0.0006428378983400762	0.002704988932237029	0.0006308687152341008	-7.023314537946135e-05	0.0008450794848613441	0.0006083785556256771	-7.094399916240945e-05	0.0007591874455101788	-0.0007025970262475312	0.00018215861928183585	0.00030538043938577175	0.0023282708134502172	4.16676766690216e-06	0.0006198176415637136	-5.690925900125876e-05	-0.0001401392655679956	9.326190047431737e-05	0.0002187593054259196	-0.00013636260700877756	0.00019894544675480574	-6.760069481970277e-06	-0.0005792090087197721	0.00014445446140598506	0.003155118552967906	-0.0005832018796354532	-0.0014190531801432371	6.436810053855879e-06	0.0004055608587805182	
0.000174710075953044	0.0010042324429377913	-0.00044382494525052607	0.00012971236719749868	0.0009554472053423524	-0.000258307671174407	-0.0012321681715548038	-3.4853157558245584e-05	0.0006434329552575946	0.0003423839225433767	-0.0005281808553263545	0.0009088339866138995	0.000421882577938959	6.31790971965529e-05	-0.0005852712201885879	-0.000275491300271824	-0.0007239393307827413	0.0007499204948544502	8.45542672323063e-05	-0.00020256203424651176	0.00017946686421055347	0.0002912294294219464	0.00025084317894652486	-2.9853905289201066e-05	-0.0005766511312685907	0.00029037398053333163	-0.0001750774827087298	0.0003556960728019476	0.00033109437208622694	0.0010120375081896782	-0.00023121201957110316	-0.00035098587977699935	
-0.00018876674585044384	0.0005923702265135944	-0.00022711168276146054	-0.00030354326008819044	0.0009501802269369364	-0.00030248230905272067	-0.00012886551849078387	5.385720214690082e-05	0.00021710094006266445	0.0004485698591452092	-0.0002741322387009859	0.00021136320719961077	0.0003500410821288824	7.052304681565147e-06	-0.00043927933438681066	-0.00027814050554297864	-9.73279747995548e-05	0.0005615256377495825	6.813585059717298e-05	-4.121694018976996e-06	7.936914698802866e-06	-0.00034081327612511814	0.00012637916370294988	0.00024265261890832335	-0.00012761438847519457	-6.589423264813377e-06	0.00011187588097527623	-0.0002093005459755659	0.00021323854161892086	-0.00031380317523144186	-8.477964001940563e-05	-0.0004990040324628353	
-0.0003337131638545543	-0.0007413243874907494	0.0004344056942500174	0.000466175697511062	-0.0006046327180229127	0.0006612110300920904	0.00026702979812398553	-0.00021220881899353117	0.00035127755836583674	-0.00041547551518306136	0.00028923124773427844	-0.0006669756257906556	-4.974743933416903e-05	-5.8412773796590045e-05	0.0004985428531654179	-0.001447641639970243	0.000918285979423672	-0.0014467244036495686	-9.339607458969112e-06	0.00013485670206137002	3.721044413396157e-05	-0.00018636026652529836	0.00020606738689821213	3.0015921765880194e-06	0.00016645535652060062	0.0007567059947177768	-0.0001394217979395762	-0.0009279643418267369	-0.0002843630500137806	0.0005406980635598302	-0.00014554010704159737	-0.00016957758634816855	
0.0012244201498106122	0.00106847716961056	-0.00041919341310858727	-0.0008001337992027402	0.00023120379773899913	0.0023874975740909576	-0.0004696734540630132	0.000307915877783671	-0.00034699024399742484	-0.000402942270739004	-0.00014351491699926555	-0.00010709944035625085	0.0003956138389185071	-0.0011510183103382587	-0.0009922485332936049	-0.0050997962243855	0.00030697486363351345	-0.0014154132222756743	0.0012856796383857727	0.00019268086180090904	0.00029883431852795184	-0.00013043121725786477	-0.00011882117541972548	-0.0006534995045512915	0.0006903609610162675	-0.0015533949481323361	-0.00046864195610396564	-0.0009444932220503688	0.00017513979400973767	0.0015206263633444905	-0.00040806233300827444	0.00046880729496479034	
0.00019655305368360132	0.0010842878837138414	-0.00045820046216249466	-0.0008021555258892477	0.0006213791784830391	-0.000620764447376132	-0.0007733102538622916	8.24710659799166e-05	2.4890556233003736e-05	-9.059195872396231e-05	-0.00029191517387516797	-0.0005211824318394065	0.0009926784550771117	-0.000897104328032583	-0.0011211151722818613	-0.004201696719974279	6.501263123936951e-05	-0.0003174488083459437	0.0013606962747871876	0.0005598020507022738	5.094685548101552e-06	-0.0003751979675143957	0.0003141284978482872	-0.0004287056508474052	0.0004853499121963978	0.00026651009102351964	-9.877652337308973e-05	0.0009730029269121587	6.165471131680533e-05	9.101525938604027e-05	2.2245172658585943e-05	-0.0002190687955589965	
0.21130993962287903	0.03982577100396156	0.01598517969250679	-0.04233987629413605	0.13279493153095245	-0.12998855113983154	-0.07147794961929321	-0.0021534510888159275	0.021336087957024574	-0.0021453185472637415	0.041405193507671356	0.04577694833278656	0.10878937691450119	0.001814483548514545	-0.00047435014857910573	-0.06923729926347733	-0.004741956014186144	-0.45774999260902405	-0.205714613199234	-0.0043078758753836155	-0.0024926660116761923	0.014598245732486248	-0.09931901097297668	0.0006249292637221515	-0.00024357059737667441	0.21274760365486145	-0.09186860918998718	0.1935337483882904	-0.00820091087371111	-0.07627470791339874	0.36718249320983887	0.0008973049116320908	
-0.0007805791683495045	-0.0009867664193734527	0.0002399605727987364	0.001220954000018537	-0.0010220862459391356	-0.0016449401155114174	0.0006105242064222693	-0.00035810386179946363	0.0007166603463701904	6.067395588615909e-05	0.0002790024154819548	-0.00016813039837870747	-0.00036750247818417847	0.0005743036163039505	0.0008792162407189608	0.0003917932044714689	0.0005262143677100539	0.0004433302965480834	-0.00021612636919599026	-0.00010617534280754626	9.674974535300862e-06	-0.00017372237925883383	0.000743915734346956	0.0006766669685021043	-0.0006000585854053497	0.0010877136373892426	-3.55430856870953e-05	0.0002320886851521209	-0.0003903284959960729	-0.0012445885222405195	0.0006913681863807142	-0.00042363794636912644	
-0.0006910603260621428	-0.0014749926049262285	0.0008573120576329529	0.0007282473961822689	-0.0010071657598018646	0.0003502109320834279	0.0010301211150363088	3.4319222322665155e-05	0.0003164200752507895	-0.0002844860719051212	0.0007710866630077362	-0.0002607960777822882	-0.0005174220423214138	0.0005340349744074047	0.00072802061913535	-0.0009443682502023876	0.00041310585220344365	-0.00038172604399733245	0.00010567054414423183	0.00017716213187668473	-9.69539032666944e-05	-0.00011718500900315121	-0.00029548496240749955	-2.0143221263424493e-05	0.0007429373217746615	0.0003494176489766687	0.00024654989829286933	0.0012053466634824872	-0.0007588171283714473	-0.0012579192407429218	0.00047510259901173413	0.0006591688143089414	
0.0001675224193604663	0.0006894773687236011	0.0008236558060161769	5.593021342065185e-05	0.0009693567408248782	0.00047918446944095194	-0.0009355172514915466	-6.72657261020504e-05	0.0002070089103654027	0.0001762672618497163	-0.0006134459981694818	0.0001775680430000648	0.0003864103346131742	0.0010467619867995381	-0.0003395660314708948	-0.002655856544151902	-0.00042192544788122177	-2.8602618840523064e-05	0.0002128674677805975	-9.222325752489269e-05	-0.00010532860324019566	6.190240674186498e-05	-0.0009885163744911551	5.5970453104237095e-05	-7.488437404390424e-05	0.000894830678589642	-0.00011399859067751095	0.001885923556983471	0.0005334085435606539	-4.5304546802071854e-05	-0.0016149227740243077	-0.000797429122030735	
-0.0008765269303694367	-0.0006795259541831911	0.00016153848264366388	-0.0003521381295286119	0.00023237492132466286	0.00013483392831403762	0.0005191660602577031	-0.00012660649372264743	0.0007844438659958541	0.0004473104199860245	-0.000443728145910427	0.00033645538496784866	0.0004091908922418952	-0.0009912237292155623	-0.000533832935616374	0.0002147090999642387	0.0003793290816247463	-0.0001300004223594442	-0.0001259261480299756	0.0002882567059714347	-5.300194970914163e-05	-0.00030078651616349816	0.00076389464084059	-5.388641147874296e-05	-0.000526965712197125	0.0001066229960997589	0.000923744635656476	0.003081842325627804	-0.00013426717487163842	-0.00031824290635995567	-0.00019854279526043683	-0.0005385759868659079	
0.00010896551248151809	-0.000769017671700567	0.00017745458171702921	0.00036081328289583325	-0.0007460687775164843	0.0007370703970082104	0.00030151737155392766	-2.680201578186825e-05	-7.182620174717158e-05	-0.0002799544599838555	0.0005425011622719467	-0.00025557592744007707	-0.0001894336164696142	0.00016711138596292585	0.0004736358532682061	0.0009023781167343259	0.0005357898771762848	-0.0008054545032791793	-7.22738477634266e-05	2.6862473532673903e-05	-0.00017692400433588773	0.00020806198881473392	-0.0001928787969518453	-7.656481466256082e-05	0.00019805585907306522	-1.4599791029468179e-05	-0.00014306438970379531	0.00024118371948134154	-0.0003166454844176769	-0.000173126783920452	0.00010544648102950305	0.0005296283634379506	
0.000180269664269872	0.0010387845104560256	-0.0004995360504835844	0.00028093779110349715	0.0010564011754468083	-0.0012486092746257782	-0.00038231295184232295	3.6763631214853376e-05	0.0002879071980714798	7.917929178802297e-05	-0.00017528289754409343	-2.9406428438960575e-05	8.834164327709004e-05	0.0007224377477541566	0.00031024558120407164	-0.0020498766098171473	-0.0002538406115490943	0.00034182745730504394	0.00032227791962213814	-3.5750079405261204e-05	0.00022143874957691878	0.00011790244025178254	0.0007064565434120595	0.00026324461214244366	-0.0001702410081634298	0.0006046205526217818	-0.00026003981474786997	-0.0018196569290012121	0.00011850731243612245	-0.00025441389880143106	0.0004564168630167842	-0.0003628192062024027	
0.00017584158922545612	-0.0001016783935483545	-4.275417450116947e-05	0.0003232113376725465	0.000226335963816382	0.0018484914908185601	0.0005285257357172668	7.220686529763043e-05	0.0002787480188999325	-0.0002648240188136697	0.0005511271301656961	-0.00022116201580502093	-0.000935068354010582	0.00010950314754154533	0.0005896144430153072	0.0011412164894863963	-6.483335891971365e-05	-0.000998889678157866	4.972477472620085e-05	-0.00028465918148867786	0.00020148383919149637	0.0006510307430289686	0.0002109852066496387	-0.000895995064638555	0.00037543693906627595	-0.001041832030750811	-0.00035838462645187974	-0.002550092525780201	-0.00044932140735909343	-8.059084939304739e-05	0.001329830032773316	0.0010952370939776301	
0.00046844789176248014	0.0002905741275753826	-0.0007074985769577324	-0.0006768105085939169	0.00033788333530537784	0.0002048857422778383	-0.0008940669358707964	0.000148441904457286	-0.0008903403650037944	-0.00016565504483878613	4.76729437650647e-05	-0.0002949053596239537	0.0003226551634725183	-0.0011026066495105624	-0.0007195906364358962	0.0016840267926454544	7.510143041145056e-05	-0.00017631027731113136	-0.0005903670098632574	-9.817808859224897e-06	-4.6425979235209525e-05	-0.0001607608428457752	-0.00028831730014644563	-9.375638182973489e-05	0.00019506319949869066	-0.0004814571002498269	6.458116695284843e-05	-0.00036297933547757566	0.00043793523218482733	0.0011228752555325627	0.00013684589066542685	-5.0075970648322254e-05	
0.001159530133008957	0.0006990246474742889	0.00041668707854114473	-0.0003159427142236382	-0.0005311096902005374	0.0012342057889327407	-0.0006629840354435146	0.0003019641153514385	-0.0005033130873925984	0.0006026236223988235	-0.0012502887984737754	0.0003607980615925044	-0.00016747330664657056	-0.00018327674479223788	-0.0011596203548833728	-0.0019222862320020795	-0.0007341941818594933	-0.0008553654770366848	0.0005380328511819243	-6.65950428810902e-05	0.00010706057219067588	-0.0001142738910857588	-0.0024745401460677385	0.00029786492814309895	-0.00022656099463347346	-0.0004495251923799515	-0.0001252137153642252	0.0034462062176316977	0.00039289018604904413	-0.0014347354881465435	-0.004365619737654924	-0.0011499265674501657	
7.311205081350636e-07	0.00047181660193018615	-0.0008781736250966787	9.218592822435312e-06	0.0006245680851861835	-8.663795597385615e-05	-0.0012538728769868612	0.00011617084965109825	0.00017809527344070375	6.925535217305878e-06	-0.00010645958536770195	0.0004452845314517617	0.0006945256609469652	-0.0007859574980102479	-0.0008294039289467037	0.0001737377606332302	-0.00027478529955260456	0.000357712124241516	5.8983223425457254e-05	3.798786929110065e-05	0.00012012070510536432	-4.922222797176801e-05	0.00026479107327759266	-0.00015731333405710757	-0.0001848224928835407	0.00013147963909432292	-8.20997593109496e-05	0.0005483523127622902	0.0003617222246248275	0.0008582418086007237	0.00046213719178922474	-0.0003378639812581241	
0.00023128064640332013	0.0002718863543123007	-0.000743597571272403	-0.0011349833803251386	0.0003677993081510067	9.908410720527172e-05	1.6872376363608055e-05	0.00036217932938598096	-0.000879002851434052	2.9044495022390038e-05	-4.275734318071045e-05	-0.00021983659826219082	0.00028420265880413353	-0.001362520270049572	-0.0007438291795551777	0.0017347782850265503	-7.773679681122303e-05	-0.0002532575454097241	-4.449512744031381e-06	0.00013701211719308048	0.00013087295519653708	-7.450881821569055e-05	-0.00011749321856768802	-0.0004078421916346997	0.000524842762388289	-0.0010892776772379875	0.00021141476463526487	-0.0007838636520318687	0.00011854415788548067	0.0006121185142546892	0.00019695711671374738	0.0003701206296682358	
0.0009198919287882745	0.0005708597600460052	-0.0007545623229816556	-0.00015508357319049537	-0.00014864667900837958	-0.0008518813410773873	-0.00047403830103576183	0.00015001624706201255	-0.0006631325813941658	-0.0009053604444488883	0.0007693202351219952	-0.0005728048854507506	0.00032587634632363915	-0.0002155688125640154	3.841722718789242e-05	-0.0010364732006564736	-0.00022237282246351242	-0.0010346181225031614	7.766731141600758e-05	0.00017455365741625428	-4.121925667277537e-05	3.438782732700929e-05	3.351103430304647e-07	-0.0007091806037351489	0.000568872841540724	4.9833721277536824e-05	-0.0002816086926031858	-0.0030799969099462032	9.240768849849701e-05	0.0012466603657230735	0.0004954523756168783	0.0008978031692095101	
-0.00013251247582957149	-0.00042443216079846025	0.0006162530626170337	0.00019378846627660096	0.00015249205171130598	-0.0003271196619607508	0.00010331787052564323	5.763750596088357e-05	0.00011163313320139423	0.00042998575372621417	9.601117926649749e-05	0.0006498004659079015	-0.0005627528298646212	0.00011713330604834482	0.00014446218847297132	0.0012901448644697666	-0.00017127193859778345	0.0003157127066515386	-0.0001931453007273376	-0.00023668132780585438	4.667567554861307e-05	0.0002963490260299295	-0.00035435945028439164	7.860735058784485e-05	3.7134736885491293e-06	-0.00028086223755963147	0.00014726775407325476	0.000810226600151509	-0.00010521380318095908	0.0006079821032471955	-0.0002528547775000334	0.0005357863265089691	
-0.04657188430428505	-0.02176378108561039	0.00010836807632585987	0.003942849580198526	-0.05081339552998543	-0.08932352066040039	0.012959528714418411	0.004707463085651398	-0.009724819101393223	-0.0008293024147860706	-0.0035471224691718817	-0.014636216685175896	-0.0006052189273759723	0.009333367459475994	-0.003857701551169157	0.10212813317775726	-0.0002453667693771422	0.023939182981848717	0.017428884282708168	-0.0025998142082244158	-0.0003959747264161706	-0.0006869914941489697	0.009581503458321095	-0.0005388031713664532	-0.003554251976311207	0.030392322689294815	0.0001802540064090863	0.06721562892198563	-0.0013037840835750103	0.007002054713666439	-0.09054438024759293	0.00490323593840003	
0.00044251259532757103	0.0003916415444109589	-0.0007817113655619323	6.891039811307564e-05	-1.313277880399255e-05	0.000646760337986052	-0.00030864536529406905	0.00011331318819429725	-0.00031026810756884515	-0.00043900281889364123	0.00030258295009844005	-7.719572022324428e-05	-0.0005254819407127798	-4.513072781264782e-05	9.96881935861893e-05	0.00031421275343745947	-0.0004522957606241107	-0.0002672616683412343	9.798781684366986e-05	-0.00011716311564669013	0.00015553762204945087	0.0004765347403008491	0.0002861015382222831	-0.0008027834119275212	0.00038238795241340995	-0.0005359428469091654	-0.00032638662378303707	-0.0029816944152116776	-7.757601997582242e-05	0.0007892751018516719	0.0007758461288176477	0.0008968264446593821	
-0.00019844868802465498	0.00017048802692443132	-0.0007447545067407191	-0.0008651773678138852	-0.0003578420146368444	-0.0008753990987315774	0.0004218563553877175	0.00011411892774049193	2.159675204893574e-05	0.00015027410699985921	-0.0006530635291710496	0.0001749258954077959	0.0010032487334683537	-0.0017440107185393572	-0.0009173616417683661	0.0011711404658854008	0.00035633554216474295	0.0006387887406162918	0.0004891981370747089	0.00031693882192485034	0.0003742485714610666	-0.00038101000245660543	0.0010337559506297112	5.14947714691516e-05	-0.0005786638939753175	-0.0006240546936169267	0.00012698513455688953	-0.0003730152966454625	0.00016462136409245431	0.0005413754261098802	-0.0005365925608202815	-0.00042859645327553153	
0.0006033055251464248	0.0002255159488413483	4.641884152079001e-05	0.00026621954748407006	-0.0003634535241872072	0.00045599613804370165	-0.0004297020786907524	0.0001435221784049645	-0.0007738290005363524	-0.0005476874066516757	0.000659931160043925	-0.0006442178273573518	-0.0005260373000055552	0.0008004296105355024	0.0006141386111266911	7.451617420883849e-05	-0.00034378288546577096	-0.0006453607347793877	-0.0001539938966743648	-9.99358162516728e-05	-0.00014363978698384017	0.0005157142877578735	-0.0008810891304165125	-0.00034178432542830706	0.0009548154193907976	-0.0001593680790392682	-0.0005693162092939019	-0.002017477760091424	-0.0001674188970355317	0.00037678179796785116	0.00029762351186946034	0.0010725215543061495	
-0.0003193845332134515	-0.0012422980507835746	-0.0007110276492312551	-8.630106458440423e-05	-0.0010308076161891222	0.0036751150619238615	0.0004933595773763955	-0.00042410410242155194	0.00045652425615116954	-9.806002344703302e-05	0.0006608167313970625	-0.00016458838945254683	-0.00022726101451553404	-0.0013672062195837498	4.9820999265648425e-05	0.0014047821750864387	0.0006419993587769568	9.324655547970906e-05	-0.0007839201134629548	0.00041296801646240056	-0.0002685034996829927	-4.73073851026129e-05	0.0011759428307414055	9.808986214920878e-05	-0.0004619242681656033	-0.0010821479372680187	0.0007476565078832209	0.0012261695228517056	-0.0001786634384188801	0.0020104669965803623	0.00015010303468443453	2.2249914763960987e-05	
-0.00028201722307130694	-0.00040231310413219035	0.0004420289187692106	6.496206333395094e-05	0.0001944683026522398	0.0011025381973013282	-0.0001661079004406929	-0.00010874321742448956	0.00029332394478842616	0.00022709347831550986	0.0004064335080329329	2.6856938347918913e-05	-8.963079744717106e-05	0.00033053080551326275	-0.0001348399237031117	0.00029170303605496883	-0.0003019933355972171	0.00012924375187139958	-1.1077398994530085e-05	0.00024058041162788868	-0.00043906463542953134	-1.6315985703840852e-05	-0.00027675979072228074	4.3225260014878586e-05	0.00021241451031528413	0.0006259115762077272	0.0006195806781761348	0.003982615191489458	-0.00013757069245912135	-0.0015563283814117312	0.00040611065924167633	-6.137159653007984e-05	
-0.013291260227560997	0.0016704619629308581	0.0002823752292897552	-0.018044887110590935	-0.04160752147436142	0.07526013255119324	0.0019658284727483988	0.0068284980952739716	0.001460684696212411	-0.0006638264749199152	-0.005181340966373682	-0.009943986311554909	0.0008601279114373028	0.0035731534007936716	-0.0004483551892917603	0.02742747589945793	0.0019711325876414776	-0.09942379593849182	0.023900330066680908	0.0017771351849660277	-0.003042946569621563	-0.002015617210417986	0.02913122996687889	-0.0003236161428503692	-0.004353647120296955	-0.055845633149147034	-0.0033295818138867617	-0.0330437496304512	0.0007920933421701193	-0.045390818268060684	0.03328787907958031	-0.00027635449077934027	
0.0002350158611079678	-0.0009758227970451117	0.0003097935696132481	0.00017682882025837898	-0.0006223650998435915	0.0005231216200627387	0.00048070363118313253	5.989849159959704e-05	-9.697805217001587e-05	-0.0004143642436247319	0.0003410345234442502	-9.387410682393238e-05	-0.0005589616484940052	3.8279948057606816e-05	0.0005680464673787355	0.00021959880541544408	8.89597213244997e-05	-0.0005795215838588774	-1.8974194972543046e-05	7.114965410437435e-05	0.00017808630946092308	0.00020935172506142408	5.214098928263411e-05	-0.0005748661351390183	0.0002191093226429075	-0.00028487577219493687	0.00011843032552860677	-0.0001059421556419693	-0.00034869389492087066	0.0004373631381895393	-0.00014795821334701031	0.0005870128516107798	
-0.000719201925676316	-0.0005355187458917499	2.8085458325222135e-05	0.00019672350026667118	-0.000631514354608953	-0.000892302137799561	0.0005490219919010997	-0.00015901542792562395	0.0004529172438196838	0.00038373577990569174	-0.00021382633713074028	0.000166734927915968	0.00040066379006020725	-0.00027982654864899814	-0.0002668378292582929	0.00027951394440606236	0.0004814061976503581	0.0006381439161486924	7.477806502720341e-05	0.00011561786232050508	-5.296967356116511e-05	-0.0004885592497885227	0.0005504299188032746	0.0007782303728163242	-0.0005716562736779451	0.0004140110104344785	0.00022218564117792994	0.0019128547282889485	-5.234892523731105e-05	-0.0011996004031971097	3.240079604438506e-05	-0.0009150637779384851	
0.0014312798157334328	0.0014562156284227967	0.0004731649823952466	-0.000500726921018213	0.0010502742370590568	-0.000946575659327209	-0.0015609845286235213	0.0003667156561277807	-0.0006303738337010145	-0.00019530105055309832	-0.0005091839702799916	-0.0003426500770729035	0.000529880344402045	0.0007540471269749105	-0.0007053209701552987	-0.003638380905613303	-0.0004752396489493549	-0.0014666208298876882	0.0007780999294482172	-2.8962183932890184e-05	-0.00012144069478381425	-6.564207433257252e-05	-0.0023656138218939304	-0.00010559827205725014	0.0007773253601044416	0.0010785730555653572	-0.0005764407105743885	0.0009000093559734523	0.0005164353642612696	-6.0300233599264175e-05	-0.0019623967818915844	-0.00023074436467140913	
0.0003288893203716725	0.00053900305647403	0.00037340394919738173	0.0003719365340657532	0.00022034422727301717	0.0003301366523373872	5.033418801758671e-06	-5.6525801483076066e-05	-4.038231782033108e-05	3.949775418732315e-05	-6.386591121554375e-05	-0.00011453269689809531	-0.0005204275948926806	0.000840278051327914	0.0003729202726390213	-1.1686698826451902e-06	-0.0003571630804799497	0.0004136367642786354	1.6082367437775247e-07	-0.000256264116615057	0.0001389099343214184	4.5669021346839145e-05	-0.00036838650703430176	-4.588380761560984e-05	-5.960905400570482e-05	-0.00017002725508064032	-0.0005797641933895648	-0.0018987134099006653	0.00012117775622755289	-0.0002459874376654625	0.00014486839063465595	-0.000130959611851722	
0.0005874037742614746	0.0005495402147062123	-0.0003589137631934136	-0.00028968253172934055	0.00047821298358030617	-0.001475814264267683	-0.0006566420197486877	0.0001455906603951007	-0.0009015457471832633	0.00022197268845047802	0.00012465051258914173	0.00015759769303258508	-0.00044144803541712463	4.52064850833267e-05	0.000234854785958305	0.002381568308919668	-0.000637998164165765	0.0008444664999842644	-0.0008249690872617066	-0.0001960600638994947	-0.0003906675265170634	0.0003106593794655055	-0.0007472988218069077	0.00047047913540154696	0.00018226084648631513	-0.0004234915249980986	0.00025533177540637553	0.00017440500960219651	0.00028719534748233855	0.0007224581204354763	0.00017223933537025005	0.0006061032763682306	
0.0001324353361269459	3.162193388561718e-05	0.00021231496066320688	0.0005707103991881013	-0.0008700167527422309	-0.00037124514346942306	7.947195263113827e-05	-8.094470831565559e-05	6.17586265434511e-05	-0.0002771712897811085	-3.745574576896615e-05	-0.00014637694403063506	-5.29541248397436e-05	0.0005738596664741635	0.00033146049827337265	-0.0006204356322996318	-0.00030523614259436727	0.0004332663957029581	0.0003287186846137047	0.000111825080239214	0.0001209761539939791	-1.665974014031235e-05	3.0427519959630445e-05	-9.433499508304521e-05	-0.0003359698166605085	0.0002836318453773856	-0.0003203313681297004	-0.00042867381125688553	-7.209792966023088e-05	-0.0003868516650982201	0.0002106371393892914	-0.00010398826270829886	
0.00015878293197602034	0.00031888773082755506	0.0007718518609181046	8.493199857184663e-05	0.0002834895276464522	-0.0003644172684289515	-0.0006024378235451877	6.511755054816604e-05	-0.00031850929372012615	-6.954497075639665e-05	-2.6923140467260964e-05	-0.0001240318379132077	3.493380791042e-05	0.0012207612162455916	5.8403991715749726e-05	-0.003182856598868966	-0.00038285573828034103	-8.389430877286941e-05	0.00022328384511638433	7.5365610427979846e-06	-0.0002745298552326858	-0.00012067024363204837	-0.0013120184885337949	0.00035952552570961416	0.0006232626619748771	0.0008595124236308038	-0.00012511674140114337	0.0014764746883884072	0.00020653699175454676	-0.00046351324999704957	-0.0011594623792916536	-0.0002448049490340054	
0.029996467754244804	-0.04019739851355553	0.061028726398944855	-0.06197090446949005	0.15231437981128693	0.23715907335281372	0.012533240020275116	0.0010363218607380986	-0.022520016878843307	-0.004778231494128704	-0.009959982708096504	0.03943285718560219	0.09189121425151825	-0.07726467400789261	-0.001689017633907497	-0.08058834075927734	0.00039061365532688797	0.06667715311050415	-0.1576949954032898	0.004116132855415344	-0.004655646625906229	0.0015937715070322156	-0.04655143618583679	-0.0013386704958975315	0.0015748916193842888	0.30829742550849915	0.01405755989253521	-0.04908489063382149	0.004982432816177607	-0.002241166541352868	-0.03860410675406456	-0.0037764525040984154	
-0.30983877182006836	0.09431305527687073	-0.22871603071689606	-0.09044908732175827	0.04773295670747757	-0.1538466066122055	-0.03787533938884735	0.08339423686265945	0.043990179896354675	-0.00023565841547679156	0.18496638536453247	-0.0176934152841568	-0.21887002885341644	-0.07523921132087708	0.00019668742606882006	-0.15063194930553436	-0.0007329079089686275	-0.06439771503210068	-0.07099586725234985	-0.1558658927679062	-0.0801781490445137	0.20169265568256378	-0.12785843014717102	0.0015528579242527485	0.00036145237390883267	-0.00010745837062131613	-0.1533639132976532	0.19191953539848328	-0.08331378549337387	-0.07073801010847092	-0.18082313239574432	-0.0013089251006022096	
-0.00038662823499180377	-0.00041650491766631603	6.053573088138364e-05	-0.00053839897736907	0.00013750814832746983	0.0011200642911717296	0.0009765581344254315	-6.0347290855133906e-05	0.0005797774065285921	7.787233334966004e-05	-0.00034090824192389846	-3.47680615959689e-05	0.0009486596682108939	-0.0008749440312385559	-0.0006115731666795909	-5.761988359154202e-05	0.0007475877064280212	-0.0004151427128817886	0.000725787365809083	0.0002739776100497693	0.00034742310526780784	-0.0004879774642176926	0.0008278254535980523	-0.0003748618473764509	-0.000367803469998762	-0.00011606926273088902	0.0001734038523864001	0.0005533912917599082	-5.405676347436383e-06	-0.000746451027225703	-0.00024205099907703698	-0.0006849506753496826	
0.0012668917188420892	-0.05758466199040413	0.059341102838516235	-0.08912589401006699	-0.11694598197937012	-0.3404080867767334	-0.023303493857383728	0.002879743231460452	-0.08350253105163574	-0.0007566440617665648	-0.02577570267021656	-0.12046313285827637	0.0616876520216465	-0.08005150407552719	0.0029103008564561605	0.5159587264060974	0.0010801488533616066	-0.05072031915187836	0.176454558968544	0.0017276875441893935	-0.005340241827070713	-0.01480049081146717	-0.004269124008715153	0.0036774452310055494	-0.0039098248817026615	0.25556591153144836	0.015359613113105297	0.048324938863515854	0.008692821487784386	-0.06611580401659012	0.2239607572555542	0.0002891162585001439	
0.14472196996212006	-0.02892378531396389	-0.3003123104572296	-0.01459734607487917	0.058794427663087845	0.4094976484775543	-0.1832302212715149	0.010341383516788483	-0.1937285214662552	-0.0016758133424445987	-0.09862402826547623	0.0801667645573616	-0.045246705412864685	0.0685054212808609	-0.0009261295781470835	-0.2809082567691803	0.001874804962426424	-0.2481578141450882	0.05405056104063988	-0.06949416548013687	0.022696873173117638	-0.027456695213913918	-0.3238392174243927	0.0022609704174101353	-0.000332284631440416	-0.04394909739494324	0.20118162035942078	-0.13739854097366333	0.057103872299194336	-0.2490837723016739	-0.238602876663208	-0.00021128079970367253	
0.0004615685611497611	0.0005813241004943848	-0.00045339608914218843	-0.00013678929826710373	0.0005775188328698277	-0.0009579330799169838	-0.0006869537755846977	-0.00010456450399942696	-0.0005619150470010936	0.00012121452891733497	6.479695730376989e-05	-0.0001562846009619534	-0.0007939116912893951	6.68208158458583e-05	0.0005048551829531789	0.0019442562479525805	-0.0003182887739967555	0.000557490682695061	-0.0010863578645512462	-0.00028362893499433994	-0.0003582420467864722	0.0003222342347726226	-8.221786993090063e-05	0.0005094115040265024	-0.00021130508685018867	-0.00023302259796764702	0.0001467310357838869	-0.0006883047171868384	0.000279294210486114	0.0007951321895234287	0.00019465469813439995	0.00031245112768374383	
-0.0005146709154359996	-0.0007333813700824976	-0.00020524727005977184	0.0002671482798177749	-0.00042661800398491323	0.00021649939299095422	0.0003795837110374123	-0.0002784166135825217	0.00043210817966610193	0.0005081209819763899	-0.0002009683958021924	0.0003462649474386126	-0.0007950234576128423	-0.0003232699236832559	4.499098395172041e-06	0.0020155322272330523	-2.684687206055969e-05	0.0004165312275290489	-0.0008192285313270986	-0.00010984843538608402	-0.00032492598984390497	0.00010964432294713333	0.00033878214890137315	0.0006962585612200201	-0.0005556604010052979	-0.00022690404148306698	0.0005374551983550191	0.002237113891169429	-0.00010921633656835184	-0.00011857769277412444	-0.0006431322544813156	-0.00026676879497244954	
0.0920681431889534	0.05667182803153992	0.1262945681810379	-0.10072634369134903	-0.1064436212182045	-0.12725360691547394	-0.03513549268245697	0.004248722456395626	-0.01254088245332241	-0.003528652712702751	-0.011030470952391624	0.04572172090411186	-0.010517759248614311	-0.0009263620595447719	0.0007427525706589222	0.15826599299907684	0.001897342735901475	-0.002854991005733609	-0.285508930683136	-0.004434442613273859	-0.0007830432150512934	-0.0036695313174277544	-0.13302651047706604	0.0003038118302356452	0.0038876573089510202	-0.11844521015882492	-0.029225904494524002	-0.5329917669296265	0.003761296160519123	0.09603430330753326	-0.10212196409702301	0.0025163781829178333	
0.0014242281904444098	0.0015604087384417653	-0.0003866732295136899	-0.0008376868208870292	0.0007641231641173363	-0.0024318965151906013	-0.0009983985219150782	0.0002948421170003712	-0.0005070144543424249	-0.0007846259977668524	3.134516009595245e-05	-0.0005737243336625397	0.0012008585035800934	-0.0001982586400117725	-0.0006491749081760645	-0.0044204178266227245	0.000166133904713206	-0.0012622112408280373	0.00123684445861727	0.0002780277281999588	4.530853402684443e-05	-0.0003261457022745162	9.210741700371727e-05	-0.0008015431230887771	0.0006760014803148806	0.0007687399047426879	-0.0005123638547956944	-0.0027874696534126997	0.00035444027162157	0.0019438326125964522	0.0006013671518303454	0.00025100226048380136	
-2.326469257241115e-05	-0.0008120170678012073	0.00022306866594590247	0.0011547125177457929	-0.0007901626522652805	0.0011565112508833408	-9.639914787840098e-05	-0.00015224145317915827	0.0005986992036923766	-0.00039533060044050217	0.0005867464933544397	0.00021777900110464543	-0.00040188358980230987	0.0009018507553264499	0.0005684272036887705	1.320035971730249e-05	1.7783341945687425e-06	-0.0004912524600513279	9.606085950508714e-05	-0.0001464066153857857	-1.955409061338287e-06	0.0004168272716924548	8.960283594205976e-05	-0.0003633149026427418	-3.157275205012411e-05	0.0004895726451650262	-0.0003581031924113631	-0.0003711093158926815	-0.0003805408487096429	2.8509599360404536e-05	0.00044347759103402495	0.000540026230737567	
0.0001376242289552465	0.00024506417685188353	-0.000890436873305589	-0.0004203892021905631	-0.0003110376710537821	-0.0007985002011992037	0.0003613236185628921	0.0001580559619469568	-0.000419566931668669	-0.00030907386098988354	0.0001265554310521111	-0.00037481897743418813	8.654028351884335e-05	-0.001201614853926003	-0.0001088055141735822	0.0020104534924030304	0.00019519586930982769	-5.018300726078451e-05	0.00020884440164081752	4.8138736019609496e-05	0.00029034214094281197	4.379316669655964e-05	0.0006301961257122457	-0.0004966190899722278	3.2432024454465136e-05	-0.0009314838680438697	-0.00026827570400200784	-0.003150970907881856	-0.00013950085849501193	0.0005817885976284742	0.0012177026364952326	0.0006319340318441391	
-0.31363385915756226	-0.18959450721740723	-0.13123272359371185	-0.27935710549354553	0.09049009531736374	0.22300031781196594	-0.11551942676305771	-0.002422182820737362	-0.06943408399820328	-0.0004781392344739288	-0.15315961837768555	-0.10442402958869934	0.09531635791063309	-0.030272934585809708	0.0009065450285561383	0.04887958988547325	-0.0008191177039407194	-0.05211946368217468	-0.1345713585615158	0.013520517386496067	-0.01264419686049223	-0.016856277361512184	0.0946326032280922	-0.0012905772309750319	-0.000521263456903398	0.15436075627803802	-0.016650265082716942	0.27266937494277954	-0.012254759669303894	-0.11004871875047684	0.35853758454322815	0.0015771834878250957	
-0.0005905284197069705	-0.0011536673409864306	0.00023979977413546294	0.00020197287085466087	-0.001372523489408195	-0.001049192389473319	0.0010581978131085634	1.0298070264980197e-05	7.874467701185495e-05	-0.00011946725135203451	0.00022379634901881218	-0.0001537144125904888	-0.000432700413512066	-0.0002423079131403938	0.0005172364180907607	0.0006145773804746568	0.0004322109161876142	7.333202665904537e-05	-0.00015939856530167162	0.00021163139899726957	-0.00012209155829623342	1.0831932740984485e-05	0.0003712393227033317	0.0002446443832013756	1.7577123799128458e-05	-1.0306558579031844e-05	0.0004802251060027629	0.0006577683379873633	-0.0005310620763339102	-0.0007658175309188664	-0.00024405861040577292	0.0004909957642666996	
-0.000650091446004808	4.8101446736836806e-05	-0.00014223909238353372	-0.0006760998512618244	0.00038705539191141725	0.0006006867624819279	-0.0002454737841617316	7.959859794937074e-05	0.00021649706468451768	0.0003676154592540115	-0.00027556437999010086	0.0004489984712563455	0.000842430570628494	-0.000904131040442735	-0.0010533711174502969	0.00022033635468687862	0.00013876997400075197	-0.0002708840183913708	0.0002685180224943906	0.00019585898553486913	-0.0001953048922587186	-9.76913797785528e-05	-7.735630060778931e-05	1.0200137694482692e-05	0.00018616151646710932	0.00013581478560809046	0.00040010586963035166	0.002809542929753661	1.699973472568672e-05	0.00011198822903679684	-0.0004263928276486695	-3.7140380300115794e-05	
0.00029060174711048603	0.0012058272259309888	-0.000588341907132417	-0.0006715825875289738	0.0009200269705615938	-0.0004730600630864501	-0.00024474336532875896	0.0001673992519499734	-0.00024115812266245484	0.0002715374284889549	-0.0007895976305007935	0.0005104399169795215	1.5733103282400407e-05	-0.0004764655022881925	-0.000573310477193445	0.0009320058743469417	-0.0007281291182152927	0.0010320714209228754	0.00018503937462810427	-0.00021481921430677176	0.0003201840736437589	0.00015848316252231598	0.000269038398982957	-0.00036773120518773794	-0.00033459352562204003	-0.000856483296956867	-0.00010880129411816597	-0.001597472233697772	0.0003575990267563611	0.00038604935980401933	-5.250314643490128e-05	-5.724898801418021e-05	
-0.0036553284153342247	-0.17249001562595367	0.08129830658435822	-0.13023127615451813	-0.18952077627182007	-0.12453547865152359	-0.17478986084461212	-0.010768254287540913	0.18215060234069824	0.0003757425583899021	-0.00112789252307266	-0.3598411977291107	0.06572120636701584	0.08538012206554413	-4.820047706743935e-06	-0.3075280487537384	-0.00035059594665654004	0.14929181337356567	-0.008772328495979309	0.010625521652400494	0.005273445975035429	-0.025563986971974373	-0.2797123193740845	0.0026123158168047667	-0.00011385306424926966	-0.4261869490146637	0.23591609299182892	0.3243463635444641	-0.04098741337656975	0.15022216737270355	0.07789212465286255	0.0022489747498184443	
-0.00033116614213213325	-0.001310765277594328	0.0013640114339068532	0.00040597893530502915	-0.0004756419511977583	0.001525097992271185	0.00048335979226976633	0.00012805934238713235	0.000698108458891511	0.00027831850457005203	-0.00016803153266664594	0.0008923686109483242	-3.453598037594929e-05	0.00023804361990187317	7.525402907049283e-05	0.0016104821115732193	4.486581383389421e-05	5.419805529527366e-05	0.00021925626788288355	-0.00010552437015576288	8.917406375985593e-05	1.89730435522506e-05	-0.0007331364904530346	-0.00026485088164918125	8.158137643476948e-05	-0.000486768432892859	0.00016633061750326306	0.0020537031814455986	-0.0004621465050149709	5.932923886575736e-05	-0.00023240281734615564	0.00020882589160464704	
0.04818475618958473	-0.021944304928183556	-0.015602314844727516	-0.030688276514410973	0.06492540240287781	-0.16897547245025635	0.015038581565022469	0.006267833989113569	0.026073992252349854	0.0023212337400764227	0.0064260754734277725	0.04813249781727791	-0.07185434550046921	0.13265669345855713	0.0017523091519251466	-0.538642406463623	-0.0012089352821931243	-0.3073672354221344	0.03360059857368469	-0.0021175751462578773	-0.003104900009930134	-0.0204181969165802	0.03415863215923309	0.0017832471057772636	-0.0006134792347438633	-0.12435076385736465	-0.07922478765249252	0.2866346836090088	-0.017815502360463142	0.2231457531452179	0.014958460815250874	0.006674156524240971	
0.14088022708892822	-0.2201234996318817	-0.04258185997605324	-0.0034026456996798515	-0.2207077294588089	0.1348428577184677	0.07175316661596298	0.048028428107500076	0.10635612159967422	-0.0009483423782512546	0.16482773423194885	0.1477230191230774	0.11879254877567291	0.4144655466079712	0.0011093108914792538	-0.12100570648908615	0.0003001107834279537	0.06961081922054291	-0.06854502111673355	-0.006382402498275042	-0.0775146558880806	0.1613369882106781	0.07145324349403381	0.00138602196238935	-0.00041027271072380245	0.006814335007220507	-0.16624334454536438	-0.3017238676548004	0.03777354210615158	0.19550304114818573	0.21643993258476257	0.000346775574143976	
-0.000612442207057029	-0.0013702437281608582	0.001094191800802946	0.00023280020104721189	-0.00063026521820575	0.000407645566156134	0.0016118985367938876	4.9694019253365695e-05	0.0005110331112518907	-6.669473077636212e-05	-9.516686986899003e-05	-0.00011442828690633178	-0.0004957744386047125	0.00037304384750314057	0.000814995204564184	-0.0017908639274537563	0.0006472658715210855	-0.0007664574077352881	0.0001875131274573505	0.00018229967099614441	0.00031418539583683014	-0.00015882861043792218	7.230261689983308e-05	0.0001718670391710475	0.00025636100326664746	-0.0002518357941880822	0.00010280882270308211	0.000533618382178247	-0.0007429998950101435	-0.0007629168685525656	-0.001377236214466393	0.00012404100561980158	
-0.004435333888977766	-0.004521945491433144	-0.006140909623354673	-0.001969624077901244	-0.007181841414421797	-0.0025233332999050617	0.005550238769501448	-0.00021207882673479617	0.0020566743332892656	-0.0046150702983140945	0.001939934678375721	-0.0010025682859122753	-0.0025693243369460106	-0.004601771477609873	-0.0029781400226056576	-0.00947839580476284	0.0013221255503594875	0.010282821953296661	0.0013390026288107038	0.0015450769569724798	0.0006395595264621079	-5.949835031060502e-05	0.008220922201871872	0.0039016888476908207	-0.0008779390482231975	0.0017218969296664	0.0052209398709237576	0.0069373114965856075	-0.00021505837503354996	-0.009513132274150848	-0.0015447542537003756	0.0005728387623094022	
-6.562975613633171e-05	-0.0007265621679835021	0.0003713718615472317	0.0002825928677339107	-0.000734405592083931	0.0005630471277981997	0.00024454493541270494	-3.059841401409358e-05	-0.0003350104088895023	-0.0002464881690684706	0.0007688428740948439	-0.000558634230401367	-0.00010000781912822276	0.0004488951526582241	0.00037843745667487383	-0.0005871595931239426	0.0006966663640923798	-0.0008449270972050726	-0.00013594019401352853	0.00010962571104755625	-0.0005215731798671186	-2.9673554308828898e-05	-0.0005765986861661077	0.00039132003439590335	0.0005838174838572741	0.00042910274351015687	5.682440587406745e-06	0.0009551867842674255	-0.00015518453437834978	-0.0004770360828842968	7.558680954389274e-05	0.00034337228862568736	
-0.0004126487474422902	0.00044902507215738297	0.0007456713356077671	-2.7050140488427132e-05	0.0013848635135218501	-0.002308740746229887	-0.0004173153138253838	0.0002707076200749725	0.0004236877430230379	0.00014779607590753585	-0.00038095840136520565	-0.00018972311227116734	0.00036279959022067487	0.0011018648510798812	5.110668280394748e-05	9.440442954655737e-05	0.0010378366569057107	-0.003279654076322913	0.0009215081809088588	-0.00036211597034707665	0.00014940339315216988	5.022516052122228e-05	-0.00023385505483020097	0.001318745082244277	-0.00011026598804164678	-0.0008915551588870585	-0.0008726092637516558	-0.0019197267247363925	1.8376425941823982e-05	-0.00033772949245758355	-0.00040890235686674714	-0.0010498269693925977	
-0.00012274378968868405	-0.00032464961986988783	-2.3569371478515677e-05	0.0002950577763840556	-0.0007445538067258894	-0.00032509095035493374	-0.00019223363779019564	4.4640255509875715e-05	-5.473008786793798e-05	-0.00023223500465974212	0.0001389077806379646	0.0001069030404323712	0.0003771202464122325	-8.166881161741912e-05	3.1002069590613246e-05	-0.0007091076695360243	-0.0001168454546132125	5.0197169912280515e-05	0.00022730627097189426	0.0002071004855679348	-1.179378159577027e-05	8.158742275554687e-05	0.00011766076931962743	-6.551860860781744e-05	2.710777334868908e-05	0.00048612794489599764	0.00015542239998467267	0.0012007046025246382	-8.408381836488843e-05	0.00022370174701791257	5.3027182730147615e-05	0.00016099917411338538	
-0.00016098443302325904	0.0004440919728949666	0.0002775954199023545	-0.0006724012200720608	0.0005442966357804835	-0.00022754725068807602	0.0006335442885756493	0.00011083108984166756	-0.00017470911552663893	0.0001363181072520092	-0.0004785047785844654	-0.0003004258906003088	0.00035588088212534785	-0.00034072468406520784	-0.00018083082977682352	-0.0006673149182461202	-5.9091351431561634e-05	6.465093611041084e-05	0.0003858366108033806	0.00010176890646107495	0.0004055485187564045	-0.0004004357324447483	0.00010574268526397645	-0.00020348378166090697	0.00012184831575723365	-0.00034326547756791115	-6.0752332501579076e-05	-0.0011423828545957804	0.00011144042218802497	-0.00044614251237362623	1.4504727914754767e-05	-0.0004137882206123322	
-1.1435606211307459e-05	-0.00048459431855008006	0.0008299127803184092	0.0005439032102003694	-0.0005528731853701174	-0.000777512090280652	0.0006628914270550013	-0.00012421709834598005	0.00013199263776186854	-6.960651080589741e-05	0.00020419548673089594	-0.0001166899164672941	2.8768403353751637e-05	0.0012504786718636751	0.0008614073158241808	-0.0016377096762880683	0.0004795316781383008	0.00014476908836513758	0.00021967056090943515	2.1122847101651132e-05	-0.00011963978613493964	-0.00026011900627054274	-0.0003086719661951065	0.0006890557706356049	-4.700043427874334e-05	0.0005935726803727448	-0.00017229637887794524	0.0009184493683278561	-0.00019503025396261364	-0.0012194016017019749	-0.0002334408345632255	-0.00026249251095578074	
-0.0001315566332777962	-0.0007237980025820434	-9.671108273323625e-05	0.0009104461641982198	-0.0009351177723146975	-0.0012185839004814625	0.0005875245551578701	-0.0001814103889046237	-0.00012328427692409605	5.2574628170987125e-06	0.00014556034875568002	0.00031054342980496585	-0.0007425974472425878	0.000784950505476445	0.0005341194337233901	0.0025516715832054615	-0.0005504093132913113	0.0007205685251392424	-0.0011212843237444758	-0.0003240083751734346	3.969584940932691e-05	7.74393993197009e-05	7.276245014509186e-05	0.00015456098481081426	-0.0006885618786327541	0.0003806606400758028	0.00015416716632898897	-0.0005851277965120971	6.758340896340087e-05	-0.000578389735892415	-0.0008867980795912445	-0.0002709117834456265	
4.615953002939932e-05	-0.0008561988943256438	0.00032464845571666956	0.0004414301074575633	-0.0007809801027178764	-0.000668094027787447	0.000670241832267493	2.1585781723842956e-05	0.00032295528217218816	-0.00014819222269579768	0.00019434737623669207	0.00030670399428345263	-0.00022044019715394825	-0.0001206232191179879	0.0006648445851169527	0.0011317696189507842	0.000595222576521337	0.0003851613437291235	0.00010233749344479293	-7.646578887943178e-05	0.00024817330995574594	6.579679029528052e-05	0.0003761052794288844	0.0001657130487728864	-0.0003396852407604456	-0.00013568703434430063	-3.360684422659688e-05	-0.0005058195092715323	-0.0003008162311743945	-0.0001051188592100516	0.00031305497395806015	0.0001474889286328107	
-0.23385290801525116	0.1875484585762024	0.18104085326194763	-0.046486273407936096	-0.03388727083802223	0.07466146349906921	-0.15372946858406067	-0.0006682741804979742	-0.14808423817157745	0.0009752368205226958	0.26455405354499817	0.22600096464157104	0.05020875483751297	0.13988563418388367	0.0001194265132653527	-0.08622443675994873	0.0012500123120844364	-0.07060165703296661	-0.1104239821434021	-0.013380816206336021	-0.007892767898738384	-0.15084616839885712	-0.11953643709421158	-0.0006166413659229875	0.0008444109698757529	-0.008159222081303596	0.03968459740281105	-0.03941800072789192	0.0046526240184903145	-0.2006615698337555	-0.03609341382980347	-0.0011079184478148818	
-0.0009969566017389297	-0.0011425461852923036	-5.2789764595218e-05	4.36536138295196e-05	-0.0011552103096619248	-0.0005165293114259839	0.0010453463764861226	-0.00014198922144714743	0.0006402618018910289	0.000307683163555339	-0.0002794387110043317	0.00011543597065610811	0.00023233870160765946	-0.0008560737478546798	-0.0003306174767203629	-0.00034938217140734196	0.0007505979738198221	0.0003018162678927183	7.118101348169148e-05	0.0003442557353992015	-2.9792017812724225e-05	-0.000561146589461714	0.0009728928562253714	0.0006065251072868705	-0.0005137426778674126	0.00030751145095564425	0.0006190420244820416	0.002001755405217409	-0.0002866157446987927	-0.0009090848034247756	-0.0007099270005710423	-0.0007401905604638159	
-0.0008280889596790075	-0.000640194455627352	5.2427600166993216e-05	-0.0001860546035459265	-0.00019210642494726926	0.00029896674095653	0.0008436105563305318	-7.260186248458922e-05	0.0008650959352962673	0.00029189905035309494	-0.00044519241782836616	0.0004363071348052472	0.00037642603274434805	-0.0008661887841299176	-0.0005297460593283176	0.0002717832976486534	0.00023557426175102592	5.724182483390905e-05	0.00046424928586930037	0.00017828712589107454	0.00020728701201733202	-0.00034731824416667223	0.0008358791237697005	-0.00039910984924063087	-0.0005329462583176792	-0.00010723366722231731	0.0004695758398156613	0.0013499431079253554	-0.00018260703654959798	-0.0009106527431868017	0.00017061961989384145	-0.0005540896090678871	
-0.000688396452460438	0.0006883064052090049	-0.002464021323248744	9.220981155522168e-05	-0.0016976989572867751	0.0032238580752164125	-0.0003213908930774778	-0.00045721401693299413	0.0004672249488066882	-0.0005046267760917544	0.0002470377366989851	-0.00020695474813692272	-0.0003760783583857119	4.4261858420213684e-05	9.758882515598089e-05	-0.005230925045907497	0.00024189586110878736	-0.002729427069425583	-0.000424469675635919	-0.00037099685869179666	-3.622232543420978e-05	0.00036545752664096653	0.0005945792072452605	-6.748133455403149e-05	-2.496612250979524e-05	-0.0027624964714050293	-1.266684466827428e-05	-9.825032611843199e-05	0.0005116959218867123	0.0052831475622951984	-5.067271558800712e-05	-0.0008380497456528246	
-0.1331636756658554	-0.07500262558460236	0.0027244347147643566	-0.007128261495381594	-0.03897429630160332	0.11042353510856628	0.05293091759085655	-0.0013652571942657232	-0.01903124712407589	0.0011963623110204935	0.009353076107800007	-0.05304824933409691	0.054900672286748886	-0.02155502326786518	-0.00042171491077169776	-0.28710708022117615	0.0012510770466178656	-0.005775135941803455	0.05150099843740463	0.002797324676066637	-0.0018703693058341742	-0.007007308769971132	0.10058017820119858	0.0006569368415512145	-0.0009709461592137814	0.23378227651119232	-0.05474795401096344	0.21448539197444916	-0.006424102000892162	-0.023861447349190712	-0.07537141442298889	-0.0015295454068109393	
9.05990309547633e-05	-5.573854195972672e-06	-0.00031221407698467374	0.0006422547157853842	-0.00038620101986452937	-0.0018811753252521157	-0.0005307854735292494	-0.0001852144196163863	0.00021058772108517587	-0.00019450589024927467	-4.162673212704249e-05	0.00016536988550797105	0.000108910164271947	0.00015932299720589072	0.00040186254773288965	0.0007898911135271192	-2.3548476747237146e-05	0.0010178944794461131	-0.00014986087626311928	-1.995471029658802e-05	8.525585872121155e-05	7.190458745753858e-06	0.0007309349020943046	0.00032821320928633213	-0.0007951384177431464	0.0006705822888761759	-2.3738066374789923e-05	-0.00048788401181809604	9.717897773953155e-05	0.00018728600116446614	0.0007743728929199278	-0.00033382672700099647	
-0.0011889187153428793	-0.0014954005600884557	0.0003945342032238841	0.0004802417242899537	-0.0007029181579127908	0.0031084436923265457	0.0004970748559571803	-0.00033902336144819856	0.000399644864955917	0.0007914093439467251	0.00021677423501387239	-0.00022523810912389308	-0.0010401220060884953	-0.0004596747749019414	0.0006264627445489168	0.0023778993636369705	0.0005550677888095379	0.0011485692812129855	-0.000724161509424448	-0.00015397828246932477	-0.00012094227713532746	-0.0001916090550366789	0.0003003833699040115	0.00035395717713981867	4.662355422624387e-05	-0.00036972895031794906	0.00048609336954541504	0.0023393037263303995	-0.0003958307788707316	-0.0013078449992462993	0.002206504577770829	-0.00036154218832962215	
0.00018285807163920254	-0.0005124137387610972	-0.0005979081033729017	0.0005184091860428452	-0.0006760746473446488	0.0011819418286904693	-0.0003001145669259131	-0.0001705095055513084	0.00014691903197672218	-0.00018439296400174499	0.0005043405690230429	0.0003633487212937325	-0.000645020860247314	-1.3856245459464844e-05	0.00019751435320358723	0.0025490778498351574	-0.00023388421686831862	0.00031493036658503115	-0.000666159437969327	-0.00020648840290959924	-0.0002227428776677698	0.00046607418335042894	0.00038978701923042536	-0.00038151541957631707	-0.00036364930565468967	-0.00027291319565847516	0.00017404579557478428	-0.00019133153546135873	-8.272840204881504e-05	0.000682458805385977	0.00046678082435391843	0.0006042498862370849	
0.00016853565466590226	-0.00016805114864837378	0.00024893402587622404	0.0003321281692478806	-0.00043517746962606907	-5.5817516113165766e-05	0.000698423886206001	-0.00011850315786432475	0.0006227269186638296	-0.00015094787522684783	-0.00021739082876592875	5.6236844102386385e-05	-0.000502553943078965	-0.00021489668870344758	0.0004896954633295536	0.0012308399891480803	4.507144331000745e-05	0.00030180730391293764	0.00021904338791500777	-6.82530298945494e-05	0.0005325366510078311	0.0002422085526632145	0.0006422247388400137	-0.00039230086258612573	-0.0006759076495654881	-0.00037204596446827054	-0.00023547571618109941	-0.001344465184956789	-0.00017115571245085448	-0.00011365798127371818	0.000427299237344414	1.699319909675978e-05	
-5.910295294597745e-05	-0.0009250288712792099	0.0004967378336004913	0.00023808592231944203	-0.0008186881896108389	0.0008412031456828117	0.00040641348459757864	-0.00010897462925640866	-0.00013405396020971239	-0.0003380705020390451	0.0008926966693252325	-0.0009631002903915942	-9.111276449402794e-05	-3.546232619555667e-05	0.0005393782048486173	-9.72625712165609e-05	0.0008174882968887687	-0.0011813818709924817	-0.00042778628994710743	0.00023358466569334269	-0.00040135541348718107	-0.00013913023576606065	-0.0007053035660646856	0.00016669725300744176	0.000602079089730978	0.0003583612269721925	0.00016457350284326822	0.0011145559838041663	-0.0003576026938389987	-3.588572872104123e-05	1.2962026630702894e-05	0.0004958108766004443	
0.38611549139022827	0.07268934696912766	0.23244553804397583	-0.17037156224250793	-0.032810457050800323	0.2038855105638504	-0.044458482414484024	-0.007828040979802608	0.1595737636089325	-0.0025668262969702482	0.16625738143920898	-0.07750162482261658	-0.08535099029541016	-0.13158991932868958	5.905240323045291e-05	-0.0060543036088347435	-0.0005410854937508702	0.10958165675401688	-0.17995299398899078	-0.0036364716943353415	-0.0011893941555172205	-0.023403692990541458	-0.40768668055534363	-0.00022801075829192996	-0.00020668543584179133	0.16473475098609924	0.10921363532543182	-0.00023278751177713275	0.00632068607956171	-0.14515168964862823	-0.17488279938697815	-0.001371091464534402	
-0.0005500117549672723	-1.529856672277674e-05	-0.0005335269961506128	0.0004975548945367336	0.00026693110703490674	-0.001188355148769915	-5.525503365788609e-05	-0.0001470390852773562	0.00025696837110444903	-0.00026554689975455403	0.00029698858270421624	0.00017284399655181915	0.00012950565724167973	0.0005591341760009527	0.0005070946644991636	0.0016109849093481898	0.00014062858826946467	0.0008008167496882379	-0.0002478134701959789	-0.00017744716024026275	9.221617801813409e-05	0.00036328629357740283	0.0015094532864168286	-0.0002937452227342874	-0.0004456873575691134	0.0002904567518271506	-0.00021499418653547764	-0.0022796811535954475	2.619916085677687e-05	0.00012771460751537234	0.0011206306517124176	0.0002692848502192646	
0.00028755617677234113	-0.00030881536076776683	0.0007344484329223633	0.0009181323694065213	-8.194480324164033e-05	0.0005068304599262774	9.687384590506554e-05	-0.00018460910359863192	0.0005690791876986623	-0.00040266220457851887	0.00027543347096070647	-1.1617868040048052e-05	-0.0002474212960805744	0.0012994600692763925	0.0009634213638491929	-0.0009810798801481724	4.4033367885276675e-06	-0.00017907719302456826	0.00026910609449259937	-8.860736124916002e-05	0.00018300724332220852	0.00027059964486397803	7.700435526203364e-05	-0.00024797534570097923	-0.00012198428885312751	0.00049410859355703	-0.0004149385786149651	-0.0006904010660946369	-0.00025505517260171473	-0.0002313016157131642	0.00031006187782622874	0.00015849847113713622	
4.582274777931161e-05	-0.0002023288980126381	-5.220804087002762e-05	0.0003859438293147832	-0.00023142111604101956	-0.0013338204007595778	-0.0005195808480493724	3.2234784157481045e-05	-2.081511411233805e-05	5.3886851674178615e-05	7.58518508519046e-05	0.00052702019456774	-0.00040213941247202456	-0.00012580155453179032	0.00025553812156431377	0.0011690148385241628	-0.0003348131140228361	0.0009263672400265932	-0.0004164344572927803	-4.5367665734374896e-05	-2.889808820327744e-05	0.00015435164095833898	0.00014661723980680108	0.0002201990137109533	-0.00040284424903802574	-5.7530814956407994e-05	0.00039712133002467453	0.0008509253384545445	2.298993967997376e-05	0.0008929478353820741	0.00011101127893198282	0.0002237231528852135	
0.0567561499774456	0.12343589216470718	0.03297193720936775	-0.02070399560034275	-0.09031877666711807	-0.4112706184387207	-0.03327879309654236	-0.0005352142616175115	-0.0009569242247380316	-0.0014696101425215602	0.009567588567733765	0.029535003006458282	-0.021055927500128746	0.012102237902581692	0.00507482560351491	-0.005943124648183584	-0.002218832727521658	-0.27072063088417053	0.17770977318286896	-0.0032330018002539873	0.0012442966690286994	0.003326680976897478	0.014243033714592457	0.0014825928956270218	0.003356529399752617	-0.10003875195980072	0.0011835918994620442	-0.2544082999229431	-0.002130911685526371	-0.13341769576072693	-0.09377449005842209	-0.0007897270261310041	
-0.1403152048587799	0.25302791595458984	0.10529796034097672	0.0729784220457077	-0.2198898196220398	0.12983044981956482	0.21914486587047577	0.031029975041747093	-0.17518573999404907	-0.0013296151300892234	-0.1280679553747177	-0.05568116903305054	0.13817359507083893	-0.10183852165937424	-0.0005631583626382053	-0.15715250372886658	-0.00044799954048357904	-0.0697496086359024	-0.16154563426971436	0.035664211958646774	-0.052241917699575424	-0.22694747149944305	-0.21635234355926514	-0.0016164890257641673	0.00014941247354727238	-0.15757600963115692	-0.214609295129776	0.005327185615897179	-0.06408753991127014	0.13186979293823242	0.31717267632484436	-0.0002465992292854935	
0.2414025366306305	0.13683931529521942	0.04919695854187012	0.029667794704437256	0.01853884570300579	-0.03542057424783707	-0.1620500683784485	-0.05748962610960007	0.08213929086923599	-0.001080756657756865	0.051711950451135635	0.011341581121087074	0.053793229162693024	-0.1479620784521103	-0.0009371066698804498	-0.07830231636762619	-0.0005877871881239116	-0.2643217444419861	0.034010957926511765	0.03630360588431358	0.06158232316374779	0.01817827858030796	0.28674808144569397	0.00045972183579578996	0.0006114720599725842	-0.11895457655191422	0.10109040886163712	0.19371142983436584	0.23218807578086853	0.08592429757118225	-0.03679961338639259	-0.00014446667046286166	
0.00022520171478390694	0.0003007705381605774	0.000107232277514413	7.251450006151572e-05	0.00036811851896345615	-0.0006297497311607003	-0.00116464972961694	1.1462417205621023e-05	-0.00046839792048558593	6.848265184089541e-05	0.0001295406837016344	-9.963498087017797e-06	0.00022919695766177028	0.0004836549633182585	-2.262611269543413e-05	-0.0011957625392824411	-0.00023210702056530863	-0.00016730242350604385	-0.0004120166995562613	5.009308733860962e-05	-0.00044138627708889544	-1.1341097888362128e-05	-0.0008375257020816207	0.0005966406897641718	0.0003516129218041897	0.0009547294466756284	0.00010740921425167471	0.0014053473714739084	0.0002580488217063248	0.000715601840056479	-0.00023487549333367497	-7.417520100716501e-05	
0.00014477719378191978	0.000689809035975486	-0.0004956161719746888	-0.0003004634927492589	0.001075800391845405	0.0009009701898321509	0.00010922038200078532	-0.0001561761018820107	0.0006597792962566018	-6.821614078944549e-05	-0.0004601507680490613	-0.0002675254945643246	0.00030479684937745333	-0.0001912041479954496	-0.0002783695817925036	0.00019107747357338667	-2.620148916321341e-05	-0.00016467687964905053	6.085914355935529e-05	1.701946894172579e-05	0.00026233328389935195	-0.0002113898954121396	0.0006256371852941811	-0.0003022500313818455	-0.00047700692084617913	-0.00014151317009236664	-0.0002419496886432171	-0.0013399473391473293	0.0001864535006461665	-0.00045112945372238755	0.0003849930944852531	-0.0007159999804571271	
-0.00030057516414672136	0.0009598545730113983	7.330125663429499e-05	-9.829104237724096e-05	0.0020995105151087046	-0.001239763107150793	-0.0006803656578995287	-1.2923507711093407e-05	0.0006746306899003685	-3.9263846701942384e-05	0.0002953227376565337	-0.0002614011464174837	0.0007283393642865121	0.0008013640181161463	0.00030499332933686674	0.0009008737397380173	0.0008836046326905489	-0.002585009206086397	0.0005215606652200222	-0.0001374203129671514	-5.1543451263569295e-05	0.00024124531773850322	0.00121926364954561	0.0008409197325818241	0.00036694813752546906	0.00021779831149615347	-0.0003524939529597759	-0.0022158671636134386	-6.593255966436118e-05	4.12470762967132e-05	0.004863316193223	-0.00015832508506719023	
-0.000759159040171653	0.0015689670108258724	-0.0008081963751465082	-0.0006636556936427951	0.001588917220942676	-0.00029404956148937345	-0.0005874879425391555	5.3358358854893595e-05	0.00038551827310584486	0.00010456999007146806	-2.2592790628550574e-05	-0.0006305316928774118	0.0006605082307942212	0.00033206268562935293	-0.0004263271111994982	0.0031654846388846636	0.0010825537610799074	-0.004537474364042282	0.0008865042473189533	-0.00031803417368792	-7.771340460749343e-05	0.00017155367822851986	0.001202170504257083	0.0010875822044909	0.0003480106533970684	-0.0015540015883743763	-0.00046061069588176906	-0.004263557028025389	0.00014098048268351704	0.0010610545286908746	0.004535465966910124	-0.00030337157659232616	
0.00028095702873542905	0.00045547366607934237	-0.0001238932163687423	-0.0005552025977522135	-2.246501207991969e-05	-0.00024159734311979264	0.00013589809532277286	7.213906792458147e-05	-0.0004258392145857215	5.433395926957019e-06	-0.00024272306472994387	-0.000425538863055408	-0.00014715637371409684	-0.0004711126384790987	3.6327030102256685e-05	0.0015719975344836712	0.00014083670976106077	5.851954847457819e-05	-0.00030204729409888387	-0.00014871434541419148	0.0001802031183615327	4.5619410229846835e-05	-6.073579061194323e-05	0.00017133633082266897	-8.631341756881739e-07	-0.0006773930508643389	-0.00026224867906421423	-0.0018724134424701333	4.995259587303735e-05	-9.690026490716264e-05	-0.00013023741485085338	-4.24610152549576e-05	
-0.005112210754305124	-0.03408766910433769	0.24492700397968292	-0.20890137553215027	0.13581331074237823	0.03306085616350174	0.07750649750232697	0.013889919966459274	-0.20265232026576996	0.0005801193765364587	0.1189151480793953	0.07901490479707718	0.08798839151859283	0.2751390337944031	0.0007062467047944665	0.18663804233074188	0.0002212373656220734	-0.33339202404022217	0.28424587845802307	-0.02517678216099739	-0.00022822924074716866	0.09716401994228363	0.08430670201778412	0.001519009587354958	-0.0011743594659492373	-0.06465480476617813	0.1364871710538864	0.10557397454977036	-0.06265362352132797	-0.24876689910888672	0.19300398230552673	0.000674086797516793	
0.10789885371923447	0.04100224748253822	0.057716090232133865	-0.10195181518793106	0.1447860300540924	0.02554469183087349	0.16891507804393768	0.2362145334482193	0.04796839877963066	-0.0005619054427370429	-0.11208220571279526	-0.10428669303655624	0.06822367012500763	-0.05780208110809326	0.00034038431476801634	-0.03919396549463272	0.001031355932354927	-0.05172502249479294	0.012758071534335613	-0.3131365180015564	-0.09469740092754364	-0.10340219736099243	0.09613486379384995	2.5934137738659047e-05	0.0002453526249155402	-0.061772048473358154	0.0628126859664917	-0.10688533633947372	0.08414021879434586	0.04714902862906456	0.013713786378502846	0.0007355752750299871	
0.014364364556968212	-0.0006648728740401566	-0.010006300173699856	0.030218200758099556	0.058182571083307266	-0.3180931806564331	0.0026344351936131716	0.00153678422793746	-0.0019974485039711	0.002051843795925379	0.0034408997744321823	-0.004001164808869362	-0.003783716354519129	0.01861659437417984	-0.004280332941561937	-0.06532824784517288	-0.007932443171739578	0.015302091836929321	-0.018316425383090973	0.00033818488009274006	-0.0005459983367472887	0.0033992084208875895	-0.04036276414990425	-0.0007204186404123902	-0.002319181337952614	0.02159140072762966	0.006055602803826332	0.08495839685201645	-0.0016695128288120031	0.0690685361623764	-0.11632625758647919	0.0016385754570364952	
-0.0889580100774765	-0.1299000084400177	-0.007511897943913937	0.09598299115896225	0.0957798883318901	-0.644920825958252	0.004872437100857496	-0.0022623559925705194	-0.020301667973399162	-0.0007173330523073673	-0.000290839234367013	-0.09016185998916626	0.07789026945829391	-0.033709485083818436	0.0005467592854984105	-0.38014379143714905	0.0010574223706498742	-0.09076553583145142	-0.17079763114452362	0.017762919887900352	-0.003979663830250502	-0.009714624844491482	0.021017972379922867	0.0007526144618168473	0.00015046208864077926	0.04071885719895363	0.007391304709017277	-0.2826489806175232	-0.0029862020164728165	-0.1052229180932045	-0.1575929820537567	-2.649042653501965e-05	
-0.0009843313600867987	-0.0017160952556878328	0.0003277001087553799	0.0007696123793721199	-0.0008014205377548933	0.0015185800148174167	0.0012513648252934217	-0.0003404312883503735	0.0008987822802737355	4.931217699777335e-05	0.0008811213774606586	-0.0001994268095586449	-0.0006854075472801924	-0.0004837778687942773	0.0009733199258334935	0.0014760677004233003	0.0006913833785802126	0.0003536324657034129	-0.0005712723359465599	0.00019912442076019943	5.731730198021978e-05	-6.669794674962759e-05	0.0013066454557701945	0.0001897265756269917	-0.00014787906548008323	-0.00026253238320350647	0.0006102902116253972	0.0007816868019290268	-0.0007475224556401372	-0.0002479873946867883	0.0016883248463273048	0.0003284919948782772	
-0.0001473203592468053	0.00014692640979774296	-0.0004572636098600924	-0.0003287890285719186	-0.0008323387010022998	-0.00036705000093206763	-0.0006644449895247817	0.0002277594176121056	-0.0010291517246514559	-0.00023846060503274202	3.0218996471376158e-05	-0.0002976094256155193	0.0004820892645511776	-0.0007004407816566527	-0.000544017122592777	0.0005298468749970198	-4.8586120101390406e-05	-0.00019090026034973562	-0.0001741531305015087	9.131117985816672e-05	-0.00017961357661988586	-7.111131708370522e-05	-0.0005365674733184278	0.00021523110626731068	0.0004989428562112153	-2.5917919629137032e-05	-2.967547914067836e-07	8.793034794507548e-06	9.86744198598899e-05	0.00022869878739584237	-0.0003092116385232657	0.00013358825526665896	
-0.0003648440178949386	-0.00048340775538235903	0.00116998259909451	0.00043594848830252886	-0.0003610729181673378	-0.0006050921510905027	0.000303399603581056	0.0001003305587801151	0.0005292188725434244	0.0002670547110028565	-0.0005865928251296282	0.0008259735768660903	0.0007327013881877065	0.0009136693552136421	-0.000336458848323673	-0.001182521809823811	-3.7532197893597186e-05	0.0004542841634247452	0.0008486545993946493	4.8788344429340214e-05	0.0003257858916185796	-0.00038322070031426847	-0.0006264449912123382	0.00030920590506866574	-0.0002161926095141098	0.0008529483457095921	-0.0002223388582933694	0.0019139834912493825	-5.6731623772066087e-05	-0.0006424401653930545	-0.0018203550716862082	-0.0007403858471661806	
0.0005674536805599928	0.0007322777528315783	-0.0007244560983963311	0.00030109533690847456	0.00010558436770224944	-0.0009007962653413415	-0.0007520978106185794	0.0001728724892018363	-0.0006867253687232733	-0.00018461933359503746	0.0004989611334167421	-6.838728495495161e-06	-0.0006797768292017281	0.00047545164125040174	0.0003752280317712575	0.0022213810589164495	-0.0006629136041738093	0.00045194782433100045	-0.0003964840725529939	-0.0003784083528444171	-0.000175266875885427	0.000607658235821873	-0.0005290561239235103	-0.00014110354823060334	0.00047142794937826693	-0.0003235584881622344	-0.00042795768240466714	-0.0027190835680812597	3.943936826544814e-05	0.0006465746555477381	0.001232925453223288	0.001147771836258471	
-0.03974367305636406	-0.07988055050373077	-0.04037186875939369	-0.07910694926977158	0.2541569471359253	-0.1251739114522934	-0.07718435674905777	0.0005235521821305156	-0.01951107755303383	-0.001338147441856563	0.021862434223294258	0.011120462790131569	-0.17175503075122833	-0.06821507960557938	-0.00025499059120193124	0.345907598733902	0.0005509512848220766	-0.1683771014213562	-0.17765328288078308	-0.008235208690166473	-0.0012041334994137287	0.03108389489352703	-0.007216461934149265	-0.0005627719219774008	0.00033760975929908454	-0.050850383937358856	0.04502410814166069	-0.27485498785972595	0.006723181344568729	0.38667136430740356	0.08253650367259979	0.0029128200840204954	
0.00010243763244943693	0.00036752098822034895	0.0005565602914430201	7.340223965002224e-05	0.0010164497653022408	-0.0020646697375923395	-0.00018234472372569144	0.00020786408276762813	0.00033220788463950157	2.4610484615550376e-05	-0.00028244993882253766	-1.30424668896012e-05	0.000622992345597595	0.0003178707556799054	0.0002835287305060774	-0.001214614836499095	0.0008336243336088955	-0.0017977836541831493	0.0007659188122488558	-0.0003141420311294496	0.0003854152746498585	-3.419887798372656e-05	0.00045146470074541867	0.0005220712628215551	-5.674067324434873e-06	-0.0003548766835592687	-0.0007429412798956037	-0.0026401549112051725	-1.6780219880274672e-07	0.0007040833006612957	0.00230227317661047	-0.0004800032183993608	
0.0006143121281638741	0.00014479798846878111	-0.00031250304891727865	2.6528168746153824e-05	-0.00034045823849737644	2.9294704290805385e-05	-0.00043402393930591643	4.559369699563831e-05	-0.001016461756080389	-0.0002269676188006997	0.0005861849058419466	-0.0001849798281909898	-0.001157533610239625	0.0004162647819612175	0.0004162099212408066	0.0017431093147024512	-0.0006140607292763889	0.00018586796068120748	-0.0008705831714905798	-0.0002410118468105793	-0.0004422035126481205	0.0002917507663369179	-0.0010909701231867075	-1.537869502499234e-05	0.0005417634965851903	-0.00038172680069692433	0.00011096362140960991	-0.0003778471436817199	5.636590867652558e-05	0.00034402142046019435	-0.00012621514906641096	0.0009066130733117461	
0.00011956270463997498	-0.0007374404813162982	5.53949321329128e-05	0.0010165051789954305	-0.0007529804133810103	-0.0010872922139242291	0.0004811633552890271	-6.444711470976472e-05	4.593598350766115e-05	2.8135003958595917e-05	0.0002287708775838837	0.0005660597234964371	-0.0009031984955072403	0.0007468725088983774	0.0008674589917063713	0.0026397607289254665	-0.0003513311967253685	0.0009557494195178151	-0.0006979027530178428	-0.0003914323460776359	0.00016927569231484085	0.0002733558649197221	0.00019927659013774246	0.0001272634108318016	-0.000571217795368284	-0.00011528709001140669	-6.068584116292186e-05	-0.0012383749708533287	-0.00016453664284199476	-0.0003007581690326333	0.00036848161835223436	0.0002775557222776115	
0.0001811544643715024	-8.99062943062745e-05	-9.225760732078925e-05	0.00017217222193721682	-0.000642651051748544	-0.0005674593267031014	-0.00010060656495625153	9.895173570839688e-05	-0.0003356407687533647	-0.0003176589380018413	0.00019148940918967128	-0.00024486007168889046	-0.00025115301832556725	-0.0002572079247329384	0.00023378692276310176	0.0006660599028691649	2.4559569283155724e-05	0.0005306355888023973	-0.00014451854804065078	8.822332165436819e-05	2.8322479920461774e-05	0.00013467291137203574	0.00018166574591305107	0.00012730162416119128	4.914300370728597e-05	-0.00010107529669767246	-2.8598853532457724e-05	-0.0009051578817889094	8.324287045979872e-05	0.0003425248432904482	0.0006085217464715242	0.0001967894349945709	
-0.0009730970486998558	-0.0015757345827296376	0.0006202699150890112	0.0007279575220309198	-0.0011540743289515376	0.0005972638609819114	0.0009924016194418073	-0.00013641147234011441	0.0009224118548445404	-5.155862163519487e-05	0.00025361182633787394	0.00010945852409349754	-2.4053127845036215e-07	-5.586748557107057e-06	0.0001648132165428251	-0.0002573797246441245	0.0005140382563695312	-0.00044150149915367365	0.0002659190504346043	0.00027371299802325666	9.086073259823024e-05	-0.00026874602190218866	0.0006385485175997019	-0.00025577301857993007	-0.000179422611836344	0.000567446113564074	0.00037987573887221515	0.0018608685350045562	-0.0006003398448228836	-0.0011271503753960133	0.00031497119925916195	-0.00017304827633779496	
