5	10
-0.05035277083516121	0.16420286893844604	0.3260357975959778	0.007272771559655666	-0.23593556880950928	0.4317978322505951	0.2682831287384033	0.25775814056396484	0.4168040454387665	-0.06379321217536926	
0.3507554233074188	0.14672431349754333	-0.07997649908065796	-0.16827067732810974	-0.1808973103761673	0.32752567529678345	-0.057057663798332214	-0.35095369815826416	0.11341864615678787	-0.44672781229019165	
-0.24384616315364838	0.09767763316631317	-0.037204641848802567	-0.35791468620300293	-0.1216239482164383	-0.1866188645362854	-0.1502162516117096	-0.13941475749015808	0.0775936096906662	0.34688204526901245	
-0.1064632385969162	0.28016552329063416	0.37535032629966736	0.2491321563720703	0.31260207295417786	-0.01290913112461567	-0.205308198928833	-0.2715989649295807	0.2599674463272095	0.3049652874469757	
0.05175120010972023	-0.3987857699394226	0.40259718894958496	0.25142890214920044	0.3136960566043854	0.1783488392829895	-0.3853629231452942	-0.1871798187494278	0.09986977279186249	-0.20763349533081055	
