512	126
0.007719116751104593	-0.019680801779031754	0.058681562542915344	0.027844704687595367	-0.01725708320736885	-0.014863239601254463	0.02920014038681984	-0.015823455527424812	-0.009205282665789127	0.008900384418666363	0.004706000443547964	0.042329076677560806	0.0016798718133941293	0.00915179681032896	-0.07979941368103027	0.23698776960372925	0.07282737642526627	0.21281687915325165	-0.20156678557395935	-0.0038578761741518974	0.013742287643253803	-0.05494438484311104	0.056166138499975204	0.03644793853163719	-0.060041800141334534	-0.018744630739092827	0.014148780144751072	-0.09428998827934265	0.02499369904398918	0.05223863199353218	0.14947199821472168	0.047379348427057266	-0.01106321532279253	0.14428678154945374	-0.049102455377578735	-0.20107612013816833	0.02761598862707615	0.03977057710289955	0.010174466297030449	-0.016993971541523933	0.05607903376221657	-0.03273337706923485	-0.08374492824077606	0.013201824389398098	0.08391223102807999	-0.060800641775131226	-0.07011164724826813	-0.014061491005122662	0.1147141233086586	0.018123770132660866	0.08067619055509567	0.17555338144302368	0.02718563750386238	-0.028513222932815552	0.006029804237186909	-0.0015547281363978982	1.7359752746415325e-05	0.007955745793879032	-6.728862354066223e-05	4.980408994015306e-05	0.0005647077341564	-0.00013019799371249974	-1.621067349333316e-05	5.008805965189822e-05	0.00010645938164088875	4.1266775951953605e-05	0.06339938938617706	0.05308708921074867	0.13670656085014343	0.37213289737701416	-0.06460743397474289	0.3292768895626068	0.14477333426475525	-0.04186742380261421	-0.15373732149600983	0.07070540636777878	-0.38178715109825134	0.07343708723783493	0.19374656677246094	-0.019125279039144516	0.173892542719841	0.054467275738716125	0.22326892614364624	-0.060414157807826996	0.052639927715063095	0.030212724581360817	-0.09134503453969955	0.3358753025531769	-0.1246189996600151	0.40771907567977905	0.08086171001195908	0.04777940362691879	-0.35403159260749817	0.047479137778282166	0.0363183356821537	-0.06303161382675171	0.20866502821445465	-0.05761672928929329	0.41783228516578674	0.0764700397849083	-0.16008733212947845	-0.020619649440050125	0.17719513177871704	-0.01762840524315834	0.2157750129699707	0.17810304462909698	0.3118657171726227	0.08358076959848404	0.27135857939720154	0.11489230394363403	0.026393497362732887	0.21307985484600067	-0.2172463983297348	-0.1219635158777237	0.26245972514152527	-0.0681244507431984	0.02971593849360943	0.42649051547050476	-0.045237574726343155	0.011263012886047363	0.1849198043346405	0.02188475988805294	-0.002204007236286998	0.2294677495956421	0.024025918915867805	-0.028741123154759407	
0.09925577044487	-0.04868151247501373	0.07393117249011993	0.1068207249045372	-0.05393903702497482	-0.05877755209803581	-0.006454218178987503	0.11410409957170486	0.03238607197999954	0.17216603457927704	-0.00010458664473844692	0.04182751476764679	0.09540015459060669	0.04052582383155823	0.03710484877228737	0.1412741243839264	-0.05848659947514534	0.07613210380077362	0.1111067533493042	-0.05439745634794235	0.005225826520472765	0.23174342513084412	0.02206752635538578	0.006412543822079897	0.39283671975135803	0.1418309062719345	-0.050394415855407715	0.3866525888442993	-0.06448297202587128	-0.15426005423069	0.0794406458735466	-0.02472720667719841	0.016503071412444115	0.1394476443529129	0.01984289474785328	-0.03286316245794296	0.17095690965652466	0.06939463317394257	-0.07600649446249008	0.031260378658771515	0.019415229558944702	0.006195248104631901	0.04249073937535286	-0.0538366325199604	-0.00033540980075486004	0.05316483601927757	-0.014741772785782814	0.03643238544464111	0.02585315890610218	-0.02052442356944084	0.04987640678882599	0.12805166840553284	-0.006156445946544409	-0.02856503427028656	0.035640813410282135	-0.002440911717712879	2.3541109840152785e-05	0.03339780122041702	-3.1920203582558315e-06	-3.545708386809565e-05	0.026235807687044144	-0.0020264782942831516	3.7404795421025483e-06	0.022342845797538757	2.4660614144522697e-05	-1.5159974282141775e-05	0.04678540304303169	0.02643684297800064	-0.001748143695294857	0.0346161425113678	-0.04223475605249405	0.013459304347634315	0.03755988925695419	-0.008022626861929893	-0.011286076158285141	0.022690966725349426	-0.002997360425069928	-0.04449658840894699	0.06962715834379196	-0.010146488435566425	0.03533016890287399	-0.04589521512389183	-0.02007373422384262	-0.008333749137818813	0.0189095176756382	0.0025463637430220842	0.010625072754919529	0.08356698602437973	0.03541899845004082	0.011515609920024872	0.010498125106096268	-0.0046785748563706875	0.043137840926647186	0.037367578595876694	0.028054045513272285	-0.010753728449344635	0.038549065589904785	0.017862120643258095	-0.11942139267921448	0.03701545670628548	-0.023921824991703033	-0.03284959867596626	0.0628727599978447	0.017485346645116806	-0.059540994465351105	0.004832127131521702	-0.0017460155067965388	0.03735240548849106	-0.02197340689599514	0.008552241139113903	0.028704607859253883	0.00823188666254282	-0.01350129023194313	0.040123820304870605	0.012574655935168266	0.0064906650222837925	-0.03025445155799389	0.015094367787241936	0.008006071671843529	-0.008369541727006435	-0.004394603427499533	-0.03641650080680847	-0.009516512043774128	0.06463579088449478	-0.0073653655126690865	0.031739719212055206	
0.19379499554634094	0.06016892194747925	0.014199110679328442	0.14966139197349548	0.014566303230822086	0.04209531843662262	0.18291331827640533	-0.07894351333379745	-0.0025137760676443577	0.20607057213783264	0.02005353569984436	0.03453676402568817	0.4240846335887909	-0.028172412887215614	0.06867362558841705	0.4524209797382355	-0.024458112195134163	-0.020948944613337517	0.18615560233592987	0.08463052660226822	-0.01621263660490513	0.07860676199197769	0.053483981639146805	-0.00012679150677286088	0.15688014030456543	-0.030290750786662102	0.015666630119085312	0.11019988358020782	-0.004899587482213974	0.012571885250508785	0.20488494634628296	-0.046454157680273056	-0.011978233233094215	0.3741973042488098	0.00939674861729145	0.09797642379999161	0.17517195641994476	-0.02115577831864357	0.014822357334196568	0.08979394286870956	-0.024418316781520844	0.008683213032782078	0.11682846397161484	0.03874954581260681	-0.044077880680561066	0.13331176340579987	0.03435589745640755	-0.032545384019613266	0.3163697123527527	-0.01900606043636799	-0.05216743052005768	-0.01666046865284443	-0.0030710233841091394	-0.01833827793598175	0.03320324793457985	-0.003638341324403882	-5.360711384128081e-06	0.028017200529575348	-1.6618019799352624e-05	-1.1110057130281348e-05	0.022959286347031593	-0.0033648014068603516	2.3947377485455945e-05	0.020190458744764328	1.3786282579530962e-05	1.0673037650121842e-05	0.20430532097816467	0.08435503393411636	-0.0031395512633025646	0.5103698372840881	0.020744191482663155	-0.15949970483779907	0.1172056570649147	0.11185002326965332	-0.0646262913942337	0.10565267503261566	0.034574877470731735	0.027095234021544456	0.10663894563913345	-0.08988598734140396	0.09537360072135925	0.11969374865293503	-0.12472081929445267	0.02445274032652378	0.26914113759994507	0.009558053687214851	-0.0024570601526647806	0.003281268524006009	0.04204341396689415	-0.02853286825120449	0.04533347487449646	0.022647779434919357	-0.058730870485305786	0.06928204745054245	-0.028490310534834862	0.038756467401981354	0.01870925910770893	0.057068172842264175	-0.06119779497385025	0.02936702035367489	-0.053682707250118256	0.017177410423755646	-0.10234780609607697	0.005865560378879309	0.02080497145652771	0.0869700238108635	0.09347784519195557	-0.03185815364122391	0.05744523927569389	0.029114598408341408	0.024782177060842514	0.04785783588886261	0.008279019966721535	0.027292726561427116	0.1014433205127716	-0.052477188408374786	0.030121298506855965	0.031732432544231415	0.020232828333973885	-0.08146587759256363	0.039445117115974426	0.03813889995217323	0.0015283465618267655	0.07626823335886002	-0.03139633685350418	0.030608702450990677	
0.0018609055550768971	0.10879095643758774	0.04154229536652565	0.05658285319805145	0.03703225031495094	-0.06535489112138748	0.03959251940250397	-0.05424027144908905	0.005841896869242191	0.06073936074972153	-0.018763665109872818	-0.023430369794368744	0.15615665912628174	0.06513502448797226	-0.09666743874549866	0.016355587169528008	-0.11831923574209213	-0.017100729048252106	0.017121590673923492	0.013046959415078163	-0.00456657400354743	0.024024710059165955	-0.0007621039403602481	0.05223784223198891	0.012223955243825912	0.04610484838485718	0.016217047348618507	-0.01309061050415039	0.004448551218956709	0.019196927547454834	0.081327885389328	0.003040179843083024	0.08751019090414047	0.076757051050663	0.043153904378414154	-0.02282811515033245	0.03850540146231651	0.04699874296784401	-0.03885968402028084	0.029299894347786903	0.0032963769044727087	-0.016635116189718246	0.08984966576099396	-0.08174188435077667	0.0275577325373888	0.0565718375146389	0.015071753412485123	-0.02727295644581318	0.10184583067893982	0.05400892719626427	0.025942087173461914	0.005653842817991972	0.005802622530609369	0.1470116525888443	0.022264983505010605	-0.0017822178779169917	3.607404505601153e-05	0.021799921989440918	1.3736907021666411e-05	5.6230190239148214e-05	0.013780132867395878	-0.0007806078647263348	-2.763656993920449e-05	0.011410786770284176	1.9855966456816532e-05	1.0160281817661598e-05	0.06625593453645706	-0.10946327447891235	0.07745643705129623	-0.005720374174416065	-0.07660138607025146	0.023504888638854027	0.07910003513097763	-0.03604348748922348	-0.06887151300907135	0.08492649346590042	-0.06899711489677429	-0.017310049384832382	0.18399493396282196	0.07388061285018921	0.174833282828331	-0.008817176334559917	0.16328677535057068	0.04251944646239281	-0.005475516431033611	-0.04201127216219902	0.034798361361026764	-0.012027766555547714	0.027482308447360992	0.020632974803447723	0.14736296236515045	-0.004194275010377169	0.009270205162465572	0.09829434007406235	-0.058462709188461304	-0.030513066798448563	0.12639760971069336	-0.031983137130737305	0.1814604103565216	0.04353438690304756	0.10531605035066605	-0.013356623239815235	-0.03385532647371292	0.06197793781757355	-0.026011137291789055	-0.015650762245059013	0.002052227733656764	-0.01994899846613407	-0.15153151750564575	0.01151649747043848	-0.17487232387065887	0.04690922051668167	-0.03666973486542702	-0.08885495364665985	-0.06222943961620331	-0.058576591312885284	0.044175442308187485	0.05024239420890808	-0.027171170338988304	0.002756313653662801	0.006846257951110601	0.07086081802845001	-0.002150964457541704	0.04712338373064995	0.05807291716337204	0.016649506986141205	
0.0209084153175354	-0.010001136921346188	0.0015260693617165089	0.046760156750679016	0.002790279220789671	0.053802281618118286	0.018873514607548714	-0.010139025747776031	-0.00834404956549406	0.022023629397153854	-0.007530766539275646	0.02765076234936714	-0.006300446577370167	-0.013132918626070023	-0.026568997651338577	0.04753536358475685	-0.012297200970351696	-0.043275587260723114	0.008760030381381512	0.030686786398291588	7.5068004662171e-05	0.03887477517127991	0.02342252805829048	-0.029857749119400978	0.001876435591839254	-0.019272416830062866	-0.016163934022188187	0.0558217354118824	-0.02733808010816574	-0.047785684466362	0.008513519540429115	0.014694594778120518	-0.03268846869468689	-0.016694650053977966	-0.01544648315757513	-0.04020879790186882	0.01578974537551403	-0.006483415141701698	-0.03995635360479355	-0.00041815146687440574	0.029913639649748802	-0.011062903329730034	0.005552269052714109	0.0018259338103234768	0.027855094522237778	0.01973394677042961	-0.0444280244410038	-0.0018605940276756883	-0.0018547321669757366	0.0008430549059994519	-0.03531165421009064	0.029386963695287704	-0.015413977205753326	-0.04001454636454582	-0.0017511658370494843	-8.837788300297689e-06	-0.0056661684066057205	-0.0016203600680455565	-0.004663843661546707	-0.0031900012400001287	-0.0002540811547078192	-7.20894749974832e-05	0.0026461624074727297	-0.0003239168436266482	0.0012102214386686683	-0.0013679942348971963	0.0005761825013905764	-0.009131327271461487	-0.024658076465129852	-0.006772285792976618	-0.013817297294735909	-0.03901020810008049	0.016911908984184265	-0.011418553069233894	-0.04119304567575455	0.009367842227220535	-0.014879683032631874	-0.022076256573200226	0.020997842773795128	-0.015186309814453125	-0.007959512062370777	-0.00031654100166633725	0.00668365927413106	-0.013484539464116096	0.011260277591645718	-0.020748237147927284	-0.00653647817671299	-0.004181303549557924	-0.018909253180027008	0.0011546282330527902	0.008898352272808552	0.01578415557742119	-0.04292849451303482	-0.018307846039533615	0.006449846085160971	-0.002766876481473446	0.023181147873401642	-0.015900487080216408	-0.006935747805982828	-0.022977294400334358	-0.020305747166275978	-0.006771896034479141	-0.020931193605065346	-0.01423560455441475	-0.0009363575372844934	0.035336196422576904	0.02764349803328514	0.007382167968899012	-0.011613607406616211	0.02582373097538948	-0.018125642091035843	-0.005358721595257521	-0.014288200065493584	0.03472055867314339	0.030818821862339973	0.03555936738848686	-0.03031456656754017	-0.026360442861914635	0.016323352232575417	-0.04407069832086563	-0.0005444595008157194	-0.025224143639206886	0.022100821137428284	-0.0002413484180578962	-0.015013246797025204	-0.019382646307349205	
-0.015387194231152534	-0.02447653003036976	-0.0005929803592152894	-0.023139173164963722	0.07084081321954727	-0.015851492062211037	0.06197904050350189	0.09215261787176132	-0.02945585921406746	0.07914890348911285	-0.04501129686832428	-0.022647779434919357	0.1343248337507248	0.022204723209142685	-0.08802887797355652	0.2149568796157837	0.06345202028751373	-0.06834308803081512	-0.08577589690685272	-0.002508200006559491	0.014920966699719429	0.06407447159290314	0.15656159818172455	0.06808840483427048	-0.025811441242694855	-0.012736253440380096	-0.04065243899822235	0.04331859573721886	-0.07922086864709854	0.011484470218420029	0.029290931299328804	-0.06397490203380585	0.04563964158296585	0.09188907593488693	0.07558761537075043	-4.3446947529446334e-05	-0.05667218565940857	-0.033422406762838364	-0.022781752049922943	-0.02413766272366047	0.06843789666891098	0.009018339216709137	0.03594326972961426	-0.04656599462032318	0.052519433200359344	-0.054728541523218155	0.008308096788823605	0.02216443233191967	0.0997917652130127	0.012050405144691467	-0.023741189390420914	0.0033162275794893503	0.04215141385793686	-0.005876193754374981	0.011995441280305386	-0.0008802589727565646	1.8938767425424885e-06	0.01334019098430872	-3.0489936762023717e-05	7.972672756295651e-05	0.0036806699354201555	2.5778668714337982e-05	-4.6405388275161386e-05	0.0029394328594207764	2.332844633201603e-05	3.529182868078351e-05	-0.02431529015302658	0.012254185974597931	0.0076468936167657375	0.004900846164673567	-0.05171624571084976	-0.02022840641438961	0.03499411791563034	0.05146801844239235	0.037595234811306	0.0464605987071991	-0.060914602130651474	0.026753831654787064	0.13317054510116577	0.010347169823944569	-0.05908771976828575	-0.014189733192324638	0.05744649097323418	-0.007900347001850605	0.06215156614780426	-0.02410997450351715	0.014737943187355995	0.09602499008178711	0.027840279042720795	-0.026877153664827347	0.014584378339350224	0.02695400081574917	0.08758258819580078	0.012310551479458809	-0.018334509804844856	0.06395261734724045	-0.01886710338294506	0.04679379612207413	-0.001853125635534525	-0.027778897434473038	0.0479409359395504	0.07328302413225174	0.08424597978591919	0.008108748123049736	-0.07618704438209534	-0.002734290435910225	0.05149275064468384	0.03479461744427681	0.05722716823220253	-0.019734928384423256	0.07705717533826828	0.08410752564668655	-0.049265507608652115	0.04164031520485878	-0.10823327302932739	-0.004726674407720566	-0.027276866137981415	0.03257425129413605	0.023848270997405052	-0.022225257009267807	0.01598532684147358	-0.04703227058053017	0.06336591392755508	0.10714541375637054	-0.002759112510830164	-0.09877291321754456	
0.10342923551797867	-0.13116228580474854	0.027910834178328514	-0.008921262808144093	0.007613071706146002	0.037534188479185104	0.08416445553302765	-0.059655193239450455	-0.0006949882372282445	0.1632334291934967	-0.0513947568833828	-0.09769991785287857	0.14257661998271942	0.030519206076860428	-0.046669330447912216	0.03714752942323685	0.06524281203746796	-0.07840187102556229	0.042106252163648605	0.26840513944625854	-0.07955679297447205	-0.20930342376232147	-0.03652246668934822	0.40313977003097534	0.14594236016273499	0.0051278923638165	0.005976222921162844	0.1145462840795517	0.06486284732818604	0.04229328781366348	0.038549743592739105	-0.035182733088731766	0.0893092080950737	0.10618553310632706	-0.02053126133978367	0.08266399800777435	0.17722821235656738	0.35610145330429077	-0.14100296795368195	0.07218514382839203	0.11492834240198135	0.37596598267555237	0.03001774474978447	-0.000960960634984076	-0.07551760226488113	0.13982278108596802	0.02848224528133869	0.005663416814059019	0.06995793431997299	0.09714771807193756	0.026563044637441635	0.07032350450754166	0.01573292911052704	-0.05567731708288193	0.023867912590503693	-0.0025990211870521307	-4.671239821618656e-06	0.022943448275327682	-4.9591519200475886e-05	-2.121467696269974e-05	0.014910122379660606	-0.0008639527950435877	1.986040388146648e-06	0.01160549744963646	-2.724369551287964e-05	2.8979597388456568e-08	0.04383859038352966	0.009514788165688515	-0.041032642126083374	0.028709303587675095	0.03320851922035217	-0.001034988323226571	0.04203322157263756	-0.013396755792200565	0.014595191925764084	-0.0062471781857311726	0.011765302158892155	0.020452823489904404	-0.030041716992855072	0.023155728355050087	-0.044308729469776154	0.01583707332611084	-0.017964188009500504	0.005724385846406221	0.013616848737001419	0.020482368767261505	0.006955150049179792	-0.017032122239470482	-0.031223436817526817	-0.002378803677856922	0.0210270918905735	0.054951172322034836	-0.05208398029208183	-0.0034552025608718395	-0.010487237013876438	0.02010185457766056	0.004042680375277996	0.029573654755949974	-0.030568769201636314	-0.009612479247152805	0.015144667588174343	-0.01581338420510292	0.03818092867732048	0.006633506156504154	-0.02737942710518837	0.025510398671030998	0.0047919005155563354	-0.0047322828322649	0.020497985184192657	0.00410651508718729	0.01366453617811203	-0.0069351051934063435	-0.029727909713983536	0.013830211944878101	-0.056575097143650055	-0.04057501256465912	0.0022522429935634136	0.044092465192079544	-0.010184220038354397	-0.0016109674470499158	-0.035380806773900986	0.06129981577396393	0.019836772233247757	-0.041607096791267395	0.001568219275213778	0.0025432000402361155	
0.18849118053913116	-0.026111237704753876	-0.04178180545568466	0.2953508794307709	-0.0527200773358345	0.05095774680376053	0.127167209982872	0.009534383192658424	0.023328619077801704	0.17513348162174225	0.01789306476712227	-0.010040946304798126	0.18725796043872833	-0.02191697247326374	0.02109578251838684	0.11458253115415573	-0.07393369823694229	0.07306462526321411	0.14128965139389038	0.049058932811021805	0.02620587684214115	0.0994642898440361	0.035109397023916245	-0.018768757581710815	0.025288281962275505	-0.046978581696748734	-0.0029774175491183996	0.044370293617248535	0.019514312967658043	0.03504832461476326	0.10005899518728256	0.024946121498942375	0.06423772871494293	0.17588183283805847	-0.024640994146466255	0.027813639491796494	0.013167725875973701	-0.018967781215906143	0.02147565223276615	0.05113283544778824	0.0023147037718445063	0.033795543015003204	0.014543583616614342	-0.039026182144880295	0.008847082033753395	0.06269709020853043	-0.042253825813531876	-0.02196904830634594	0.10126066952943802	-0.01650986820459366	0.005577411036938429	0.1384640634059906	-0.05154573917388916	-0.10633482784032822	0.013506635092198849	-0.00272749038413167	4.277607877156697e-05	0.014354076236486435	2.3484019038733095e-05	9.061952732736245e-05	0.00560843525454402	-0.00010156843927688897	3.897762508131564e-05	0.003855441464111209	-2.1673415176337585e-05	-7.002733582339715e-06	0.12341664731502533	-0.00947672687470913	-0.010852980427443981	0.020825980231165886	-0.10986009240150452	-0.008196109905838966	0.04517832770943642	-0.029181689023971558	0.04369751736521721	0.031555548310279846	0.10009507834911346	-0.02793557196855545	-0.005193711258471012	0.012214097194373608	0.025278598070144653	0.031149523332715034	0.005225027445703745	0.03750934824347496	0.06303229928016663	-0.01889251358807087	-0.07209714502096176	0.18270069360733032	0.07699330151081085	0.014562956057488918	-0.03277365490794182	0.07088690251111984	-0.006599828600883484	0.026571787893772125	0.02751019597053528	0.041654735803604126	0.0257500521838665	0.005349387414753437	0.008196402341127396	0.03578618913888931	0.0400218665599823	-0.033577561378479004	0.1779993325471878	-0.025344975292682648	0.03560212627053261	0.014396642334759235	0.037903692573308945	0.0880507081747055	-0.02771632745862007	0.042214829474687576	-0.08319954574108124	0.04693768918514252	0.04818497225642204	-0.03659333288669586	0.16010922193527222	-0.02432752400636673	-0.1975562870502472	0.0010016950545832515	-0.1264595240354538	0.03539389744400978	0.11808264255523682	-0.03496462106704712	0.08487793058156967	0.048553869128227234	0.05958130583167076	-0.0519242137670517	
0.12958921492099762	0.019458051770925522	0.03766250237822533	0.20503047108650208	0.05104277282953262	-0.10765150934457779	0.11542057991027832	-0.040746089071035385	0.018552960827946663	0.08032722026109695	0.007704812102019787	0.008307813666760921	0.11213840544223785	-0.012440979480743408	-0.03418140113353729	0.08892790228128433	-0.06435775011777878	0.0006628424162045121	0.02304728887975216	0.0025281175039708614	-0.0015313345938920975	0.09969542920589447	-0.012257328256964684	0.01678812876343727	0.09020785242319107	-0.13117386400699615	0.0074234590865671635	-0.24858053028583527	0.030270956456661224	0.26826974749565125	0.12039553374052048	-0.05038778483867645	0.0434253104031086	0.1119844987988472	-0.023819271475076675	0.015528293326497078	0.06213655322790146	0.05205019563436508	0.019601959735155106	0.168849915266037	-0.004796623717993498	0.024347543716430664	0.18942096829414368	-0.40139326453208923	0.09155169129371643	0.16283510625362396	0.008887337520718575	0.4733678102493286	0.09017312526702881	-0.06439816206693649	0.032442037016153336	0.11851107329130173	0.011923630721867085	-0.04992319643497467	0.025507647544145584	-0.0026893976610153913	-1.8638359051692532e-06	0.02461528405547142	-4.1495390178170055e-05	-2.8243803171790205e-06	0.01654541864991188	-0.0009286513668484986	-6.249157195270527e-06	0.013196383602917194	-1.3668414794665296e-05	1.0568930520094e-05	0.08242502808570862	-0.029683364555239677	-0.011678419075906277	0.09847775846719742	0.09276937693357468	-0.006126493215560913	-0.02034127153456211	-0.00437244214117527	-0.008098062127828598	-0.02857525460422039	0.030821088701486588	0.009520303457975388	0.08130918443202972	-0.058555468916893005	-0.01845826581120491	0.08749811351299286	0.0019229557365179062	-0.02767970785498619	0.11263800412416458	-0.04543878510594368	0.03525066003203392	0.09797371178865433	-0.0543816052377224	0.013603758998215199	0.01622161455452442	0.055771853774785995	-0.024289945140480995	0.023139849305152893	-0.028789035975933075	-0.018976017832756042	0.02238021232187748	0.021753275766968727	0.03825797140598297	0.026025941595435143	0.0294977854937315	0.0004637868842110038	-0.001434788922779262	0.015219227410852909	0.0034835583064705133	0.0006266847485676408	0.006329266354441643	-0.009455149993300438	0.024472013115882874	-0.0076955812983214855	-0.0014708832604810596	0.005274277646094561	-0.00871284306049347	-0.02654843218624592	-0.03364967182278633	-0.013280076906085014	-0.030902473255991936	0.0011882842518389225	0.01987140066921711	0.024907536804676056	0.01413664873689413	0.07116040587425232	0.02171710878610611	0.022801071405410767	-0.014021948911249638	0.0008016764768399298	
0.04369044676423073	-0.035423483699560165	-0.07626467198133469	0.05826745927333832	0.00955768208950758	-0.055288683623075485	-0.0491236113011837	0.04956696182489395	-0.04054563120007515	0.013359075412154198	0.036327388137578964	-0.06955331563949585	-0.019939513877034187	-0.0633188933134079	0.16565941274166107	0.08469941467046738	0.046589307487010956	0.0015557738952338696	0.14717942476272583	-0.017069220542907715	-0.0462055467069149	0.3593333959579468	-0.07575538009405136	-0.04467018321156502	-0.005235486198216677	0.016942426562309265	0.04551990330219269	0.33704447746276855	0.06710466742515564	0.0009605698869563639	0.10019742697477341	0.01922563649713993	-0.09483077377080917	0.02768767811357975	-0.0012365574948489666	0.0024721988011151552	0.13082599639892578	0.06454455107450485	-0.059211261570453644	-0.0031642846297472715	0.02580043487250805	0.03848415985703468	0.08546586334705353	-0.017180781811475754	0.015368703752756119	0.03178683668375015	-0.009948673658072948	-0.006527783814817667	0.06982789188623428	0.04705970361828804	-0.08915925025939941	0.10254978388547897	-0.050849031656980515	0.03973302245140076	0.011104079894721508	-9.169788245344535e-05	8.66515711095417e-06	0.011473281309008598	-3.1263884011423215e-05	4.119586446904577e-05	0.002375427633523941	0.00024333100009243935	3.4087817766703665e-05	0.00202550133690238	-4.018103572889231e-05	-1.3987160855322145e-05	-0.06500516831874847	0.050371378660202026	-0.0924244076013565	0.06211502477526665	0.007539311423897743	-0.10906849801540375	0.053941044956445694	-0.029729517176747322	0.061034999787807465	0.0197768434882164	0.040266767144203186	-0.05755120888352394	0.0333523266017437	0.07119808346033096	-0.06775027513504028	0.0005217482685111463	-0.03405648097395897	-0.039586469531059265	-0.04918207600712776	0.09001407027244568	-0.1098540648818016	0.03881093114614487	0.10174548625946045	-0.006435272749513388	-0.015288220718502998	0.011187051422894001	-0.02576739713549614	0.07095715403556824	-0.03095824457705021	0.05193155258893967	-0.044791750609874725	-0.00012994167627766728	0.07304124534130096	0.03861897811293602	0.010927107185125351	-0.012650356628000736	-0.025997690856456757	0.08130615949630737	-0.02008461020886898	0.027134303003549576	0.08280307799577713	0.020938348025083542	0.026029400527477264	-0.08555595576763153	-0.020259466022253036	-0.07835080474615097	-0.0580386146903038	-0.07509677112102509	-0.07584022730588913	-0.03822724148631096	-0.03383774310350418	0.06892898678779602	-0.02726641297340393	0.010740249417722225	-0.06270315498113632	0.10583708435297012	0.0003887843049596995	0.0002438168739899993	0.06303872168064117	-0.010292626917362213	
-0.037982288748025894	-0.030378194525837898	0.051068827509880066	-0.01527457032352686	0.006954659707844257	0.04830519109964371	-0.06651415675878525	-0.055865898728370667	0.12538330256938934	-0.15110255777835846	0.0322718545794487	0.07663874328136444	0.004939335864037275	0.04150354117155075	-0.0705777034163475	-0.1270664930343628	0.06860098987817764	-0.007189943455159664	-0.02595505677163601	-0.03476937487721443	0.06137165427207947	-0.08990202099084854	0.1006215363740921	-0.025136958807706833	-0.08061131834983826	0.12608087062835693	0.01778607815504074	0.011566829867661	-0.0017475620843470097	-0.020863376557826996	-0.07146497815847397	-0.03413622826337814	0.17757545411586761	-0.07064943015575409	-0.025197595357894897	0.08949723839759827	-0.05908261239528656	-0.051859330385923386	0.01464249100536108	0.050048042088747025	-0.014147507958114147	-0.07017556577920914	-0.04509030655026436	-0.10441100597381592	-0.03963219374418259	0.008436005562543869	0.024484682828187943	-0.018729278817772865	-0.03625846281647682	0.03993786871433258	0.19481199979782104	0.07964061200618744	0.025128185749053955	-0.018811115995049477	0.004141998942941427	6.434737588278949e-05	0.0001505376276327297	0.004034714307636023	5.95361489104107e-05	1.8379294033366023e-06	0.000692075293045491	0.00018909484788309783	-0.00013421326002571732	0.0008785823010839522	-1.658208748267498e-05	1.0749987268354744e-05	-0.04354017972946167	-0.08246802538633347	0.020532997325062752	-0.09970379620790482	-0.044991880655288696	-0.05726040154695511	0.005466362461447716	0.08823563158512115	-0.12826955318450928	0.0012567492667585611	0.0965525433421135	0.023101815953850746	-0.059781745076179504	0.05524759367108345	0.14916588366031647	0.0006807615864090621	-0.0056822774931788445	-0.00797978788614273	-0.0021113818511366844	0.06519094854593277	0.00019391260866541415	0.0017259560991078615	-0.10799802094697952	-0.018248790875077248	-0.11562754958868027	0.004381796345114708	-0.06898105889558792	-0.044901199638843536	0.002341119572520256	0.03125033155083656	0.2595745921134949	-0.0036434996873140335	-0.2365603893995285	0.03217417001724243	-0.023210594430565834	-0.046372830867767334	0.07093018293380737	-0.0014035693602636456	-0.04279341921210289	0.05687478184700012	-0.007703684736043215	0.017295600846409798	-0.08617129921913147	-0.04549800977110863	0.11162671446800232	-0.0004425802326295525	-0.015586682595312595	0.021952034905552864	-0.17323288321495056	-0.11016671359539032	0.11048054695129395	0.11835163831710815	-0.04241327568888664	-0.029907263815402985	0.034408219158649445	0.041100114583969116	-0.00859678816050291	0.0077933152206242085	-0.022243479266762733	-0.025824951007962227	
0.12621209025382996	-0.035428427159786224	-0.02455158159136772	0.10263235867023468	0.002782226540148258	-0.10173232853412628	0.07010956853628159	0.04836402088403702	-0.010983089916408062	0.06376872211694717	-0.007355895824730396	-0.10440298914909363	0.2906423807144165	0.10376385599374771	0.020004354417324066	0.23307877779006958	-0.02295032888650894	0.10565783083438873	0.18771721422672272	-0.0296146459877491	0.003761525731533766	0.014633949846029282	-0.031307023018598557	0.03101254627108574	0.12931931018829346	-0.02628706581890583	0.010774681344628334	0.02238546498119831	-0.01416055392473936	0.03797629475593567	0.09697684645652771	-0.10109097510576248	0.032838430255651474	0.1857539713382721	0.0007431716076098382	-0.09756921976804733	0.2064257264137268	0.01952713541686535	0.0425456278026104	0.18381865322589874	-0.13403713703155518	-0.1905050277709961	0.16691681742668152	0.05977744609117508	-0.016293630003929138	0.12885092198848724	0.028703467920422554	-0.17528343200683594	0.15052472054958344	-0.020701799541711807	-0.014408789575099945	0.1529647558927536	0.008919071406126022	-0.013690114952623844	0.023630576208233833	-0.0031765426974743605	2.485076038283296e-05	0.022851046174764633	3.458937499090098e-05	-4.111036832910031e-05	0.014649086631834507	-0.0014040637761354446	2.0556492472678656e-06	0.011590416543185711	2.5918218398146564e-06	2.0462313841562718e-05	0.03661986067891121	0.04352523759007454	-0.021854998543858528	0.0634215921163559	-0.007131165359169245	0.036792270839214325	0.010267943143844604	-0.0637677013874054	0.0015941758174449205	0.05795857310295105	-0.07113155722618103	-0.011228934861719608	0.023557864129543304	0.07558487355709076	0.013848775066435337	0.02225172333419323	0.11569884419441223	0.012195483781397343	0.06993145495653152	-0.039001140743494034	-0.02965441532433033	0.15814314782619476	0.05540500953793526	0.010143795982003212	-0.0034652110189199448	0.023487145081162453	-0.049895938485860825	0.03458838537335396	0.038719967007637024	0.0010431864066049457	0.030390962958335876	0.040992870926856995	0.01831369288265705	-0.023887712508440018	0.025584084913134575	-0.0032620388083159924	0.06511455029249191	-0.018539434298872948	-0.015032200142741203	0.06601545214653015	-0.002723373007029295	-0.03977642208337784	0.022593434900045395	0.051841024309396744	-0.006755642127245665	0.11233245581388474	-0.07623254507780075	-0.012688720598816872	-0.010979332029819489	0.07325073331594467	-0.020882105454802513	-0.009549462236464024	0.030549759045243263	0.022786252200603485	0.05653410404920578	0.001033550826832652	0.016937987878918648	0.0498780757188797	-0.01178650464862585	-0.013359620235860348	
0.06490948051214218	-0.07926895469427109	0.05505463480949402	0.10691697895526886	-0.05117291584610939	-0.013867928646504879	0.11875119060277939	-0.0114962263032794	-0.06804883480072021	-0.0173649825155735	-0.020174233242869377	-0.02859179489314556	0.05370594933629036	0.08768323063850403	0.021346792578697205	0.12152788043022156	0.24571901559829712	0.15483984351158142	-0.024896156042814255	-0.059679266065359116	0.0027247443795204163	-0.018326135352253914	-0.06761134415864944	0.018433967605233192	-0.03232596069574356	0.04380820319056511	0.025284430012106895	0.04408061131834984	-0.08048775047063828	0.032975900918245316	0.0820041373372078	0.020985685288906097	-0.023928793147206306	0.19166433811187744	0.05589621141552925	-0.04334639385342598	0.09785524755716324	0.083318792283535	-0.041929733008146286	0.08117232471704483	0.0028262746054679155	-0.02229507826268673	-0.00849604420363903	0.06397081166505814	-0.009158712811768055	0.03981028497219086	-0.035139814019203186	-0.07975181937217712	0.08514869958162308	-0.041398465633392334	-0.03485634922981262	0.10554105043411255	0.054514337331056595	0.017078472301363945	0.013975565321743488	-0.0007125549600459635	-4.197409361950122e-05	0.014182258397340775	-0.00011308988905511796	-1.6860532923601568e-05	0.0045256479643285275	6.495184788946062e-05	1.091428316613019e-06	0.003424230730161071	-1.9227200027671643e-05	-1.8131009937860654e-06	-0.014231622219085693	0.03338463604450226	-0.1841355413198471	0.04567771032452583	0.018632398918271065	-0.14556245505809784	0.12029032409191132	-0.01452895998954773	-0.013561427593231201	0.05008317902684212	0.008050775155425072	0.015323402360081673	0.12448715418577194	-0.017844920977950096	0.07720913738012314	0.03604544699192047	-0.1296265572309494	-0.003220350481569767	0.052080996334552765	0.02888508141040802	-0.08934392035007477	0.0065589058212935925	-0.02102242410182953	0.007363264914602041	0.04937615245580673	-0.01880820095539093	-0.05260293185710907	0.0031403021421283484	-0.014842954464256763	-0.04428597539663315	0.013180853798985481	-0.0190429724752903	-0.10577583312988281	0.07017670571804047	-0.09530657529830933	-0.004271022509783506	-0.06001337617635727	-0.005320077762007713	0.030983032658696175	0.0712253749370575	-0.027024779468774796	-0.037602055817842484	0.05561470612883568	-0.06652969121932983	0.03695226088166237	-0.004958427976816893	-0.10344860702753067	0.007595223840326071	0.01662071794271469	0.013252003118395805	0.0515422560274601	-0.036663156002759933	0.008155720308423042	-0.013928498141467571	-0.002031908603385091	-0.06573422253131866	-0.021252235397696495	-0.0007451960700564086	-0.05193425342440605	0.00443691574037075	
0.27883097529411316	-0.030023695901036263	0.010235733352601528	0.27527377009391785	-0.28843626379966736	-0.09384511411190033	0.14472012221813202	-0.026355531066656113	-0.018666019663214684	0.16200624406337738	0.23775450885295868	-0.2377784103155136	-0.0937284380197525	-0.023711644113063812	0.06627906858921051	-0.0594751350581646	0.01815996877849102	0.06828818470239639	0.11202506721019745	0.11552638560533524	0.05020229145884514	0.14058956503868103	-0.04393303394317627	0.09710278362035751	0.021891457960009575	-0.06190529465675354	0.01751461625099182	0.07024592906236649	-0.08069581538438797	0.1007586345076561	-0.01691145822405815	-0.005470041651278734	-0.10999005287885666	-0.02307009883224964	0.02549031190574169	0.030959630385041237	-0.014018937945365906	0.08371325582265854	0.04178251698613167	0.08678995817899704	0.0010219711111858487	0.02498772367835045	-0.001922669936902821	-0.060401227325201035	-0.004582174587994814	-0.007920974865555763	-0.12823741137981415	-0.017680201679468155	0.03276749327778816	0.02548132836818695	-0.0012965346686542034	0.036221690475940704	-0.12952816486358643	-0.1690579354763031	-4.8302867071470246e-05	-3.4093004614987876e-06	5.030061583966017e-05	-2.7294786377751734e-06	-4.250326310284436e-05	5.978641183901345e-06	-0.00031854480039328337	-0.00010334503895137459	-7.948600978124887e-05	-0.0003690035082399845	8.083817374426872e-05	1.1565018212422729e-05	0.01405908539891243	-0.028754983097314835	-0.205500066280365	0.1353159099817276	0.09833504259586334	-0.057731665670871735	0.09971482306718826	0.11443284153938293	-0.303049772977829	-0.04538368806242943	0.1733727604150772	0.023935260251164436	0.11182408779859543	-0.07022833824157715	0.3378661274909973	0.053252335637807846	-0.31994232535362244	-0.05695144459605217	-0.043451178818941116	0.00968876387923956	0.003650669241324067	0.28367847204208374	0.04760339483618736	0.03359830752015114	0.38495150208473206	0.07567145675420761	0.19057537615299225	0.017494134604930878	-0.09662571549415588	0.11029114574193954	0.3019390404224396	-0.06611625105142593	-0.06833895295858383	-0.08798374980688095	0.11485373973846436	-0.0031540528871119022	0.012348475866019726	0.17637468874454498	-0.24346986413002014	0.28244107961654663	0.1935170590877533	-0.1578463464975357	0.0727173238992691	-0.28117939829826355	-0.19599483907222748	0.15595728158950806	-0.0300298985093832	-0.2845529019832611	0.4631577432155609	-0.0634521096944809	-0.005458780098706484	0.15635889768600464	-0.07838822901248932	-0.18073144555091858	0.21780572831630707	-0.05307881161570549	0.07608911395072937	0.11994604021310806	0.10436064749956131	-0.06538408994674683	
0.08692816644906998	0.02788431942462921	0.027280671522021294	0.003949170932173729	0.003390544792637229	-0.005522125866264105	0.08599001169204712	-0.03297116234898567	-0.029860036447644234	0.005989049561321735	0.011605994775891304	-0.02316943369805813	0.19863300025463104	-0.03973894566297531	0.0035739222075790167	0.08441801369190216	0.023832786828279495	-0.023922976106405258	0.025133566930890083	0.006376571953296661	-0.015374599024653435	0.022806566208600998	-0.01863219402730465	-0.011707823723554611	-0.020525401458144188	-0.0298896636813879	-0.0006286276038736105	0.00780551927164197	-0.005697926040738821	-0.006067597772926092	0.18525157868862152	0.050519272685050964	0.02151518501341343	0.05252853035926819	0.026422690600156784	0.05030433461070061	0.0038017660845071077	0.00399342505261302	0.007937374524772167	0.026783006265759468	0.018038269132375717	-0.005692158360034227	0.02083303965628147	-0.052042920142412186	-0.009072834625840187	0.008763188496232033	-0.01171843707561493	-0.024839365854859352	0.10039696097373962	-0.0026114867068827152	0.002112372312694788	0.024224957451224327	-0.030036818236112595	0.02922246605157852	0.034588124603033066	-0.0020443571265786886	-7.801557330822106e-06	0.033430177718400955	1.990033888432663e-05	3.0955736292526126e-05	0.0255100317299366	-0.0014557935064658523	3.4855031117331237e-05	0.021431325003504753	1.3327397937246133e-05	1.3906571894040098e-06	0.06994865834712982	0.036950428038835526	-0.0006020483560860157	0.08581098914146423	-0.029288895428180695	0.0015961297322064638	0.07356757670640945	-0.09508714824914932	0.09519844502210617	0.04630843177437782	-0.00975074339658022	-0.005796302109956741	0.08109208941459656	0.1009652316570282	-0.043788570910692215	0.0016747202025726438	0.00462964316830039	0.00013558538921643049	-0.0016854003770276904	-0.0264530498534441	0.00771636888384819	-0.00015696034824941307	-0.03009439818561077	0.006031347904354334	0.022321688011288643	0.026737155392766	0.003596961498260498	-0.023626131936907768	-0.07396923750638962	0.023568514734506607	-0.0023825073149055243	-0.03631981089711189	-0.02230933867394924	-0.019221920520067215	0.03968589007854462	-0.00528526259586215	-0.04769926145672798	0.022261744365096092	0.01810700260102749	0.10878051072359085	0.17931784689426422	0.0331466868519783	-0.03499795123934746	-0.0003397066320758313	-0.03464450314640999	0.04202955588698387	-0.17907285690307617	0.00553760165348649	0.1037767231464386	0.2685428857803345	-0.18941862881183624	0.08115571737289429	0.07126732915639877	-0.14744718372821808	0.048081185668706894	-0.10390745848417282	0.2462283968925476	-0.003710191696882248	0.02410568669438362	-0.04807474836707115	
0.18295453488826752	0.08881071954965591	-0.020044589415192604	-0.2996787428855896	0.0549614317715168	-0.06998099386692047	-0.029984500259160995	0.04755984991788864	0.02149760164320469	-0.24986787140369415	0.28902843594551086	0.02194894663989544	-0.04444154351949692	-0.05371542647480965	0.23249611258506775	-0.24718987941741943	0.16936182975769043	0.03541736677289009	0.14869600534439087	0.022321028634905815	-0.0005352440057322383	0.013989387080073357	-0.046721432358026505	0.04384579509496689	0.055066365748643875	-0.0036906113382428885	-0.07682667672634125	-0.025579435750842094	0.015494083054363728	0.0910075232386589	0.05366823449730873	0.11094202846288681	-0.1779003143310547	-0.06165490299463272	-0.0022766024339944124	-0.19173036515712738	0.047669462859630585	-0.041850343346595764	0.06266283988952637	0.07131525874137878	-0.05021316185593605	-0.07882891595363617	-0.007077611051499844	0.047299377620220184	-0.0018178023165091872	-0.1436992734670639	0.11319994181394577	-0.008375841192901134	0.06638162583112717	0.011431179009377956	-0.05081360787153244	-0.04726517200469971	-0.03973819687962532	0.20107397437095642	0.002424482721835375	1.976428939087782e-05	0.0001455123710911721	0.0014001288218423724	2.749814848357346e-05	3.915408888133243e-05	0.0015186090022325516	0.00043092251871712506	-6.410743662854657e-05	0.0014965736772865057	-6.0801092331530526e-05	-0.00013945280807092786	0.0029063851106911898	0.04434121772646904	-0.11912060528993607	-0.057094164192676544	0.045768629759550095	-0.01203632727265358	-0.08250544220209122	0.1046699658036232	-0.020814910531044006	-0.03343804553151131	0.05240119993686676	0.003492803080007434	0.047585081309080124	0.005402888637036085	-0.09567707031965256	-0.010421069338917732	-0.14565414190292358	0.06036880984902382	0.08037702739238739	0.01588415540754795	-0.026767395436763763	-0.13935057818889618	0.059426091611385345	0.14608928561210632	-0.029821809381246567	0.0012288873549550772	0.008800579234957695	-0.0838724747300148	0.030738312751054764	0.013335146009922028	-0.023493966087698936	-0.012471087276935577	-0.04094236344099045	-0.16110391914844513	0.04783937335014343	-0.004885825328528881	-0.09058882296085358	0.0026378293987363577	0.01840742863714695	0.07179410755634308	-0.0003027293714694679	-0.007390517741441727	-0.042298804968595505	-0.00643145339563489	-0.08669708669185638	-0.07070304453372955	0.02655208669602871	-0.0459308996796608	0.025235939770936966	-0.049934130162000656	0.04297267645597458	0.027553103864192963	-0.019208695739507675	0.01854061707854271	0.05916447192430496	-0.012018254026770592	0.023639831691980362	-0.06623862683773041	0.04228108003735542	0.02179699018597603	
-0.06368546187877655	0.0543358214199543	-0.0015049397479742765	-0.09875164180994034	-0.05366704612970352	-0.020064836367964745	0.05179183557629585	-0.06448875367641449	-0.03702352195978165	-0.10822250694036484	-0.01969568431377411	-0.02583329938352108	0.04576636850833893	0.08858216553926468	0.01534152589738369	-0.06318681687116623	0.06942258775234222	0.06693650037050247	0.11656421422958374	0.11874274909496307	0.007668105885386467	0.030304118990898132	-0.08199911564588547	0.009405571967363358	0.08808134496212006	-0.08426862955093384	-0.008346655406057835	0.02483523264527321	0.010999913327395916	0.0010875514708459377	0.08377817273139954	0.05536982789635658	-0.029040731489658356	0.025624927133321762	-0.03081514686346054	-0.1580183506011963	-0.08855239301919937	-0.06610709428787231	0.004850497003644705	0.017519541084766388	-0.011656289920210838	-0.01677742600440979	-0.03617827966809273	-0.014888347126543522	0.0049256570637226105	0.042024847120046616	-0.0029401995707303286	-0.0006512094987556338	0.02319449931383133	-0.0018204342341050506	-0.007863187231123447	0.049219854176044464	0.04436066374182701	0.07224243879318237	0.013238644227385521	-0.0004073723976034671	-3.96499308408238e-05	0.014619791880249977	-6.669917638646439e-05	3.421255996727268e-06	0.0040825423784554005	0.0011208937503397465	3.320982068544254e-05	0.0043433052487671375	-7.006982195889577e-05	-4.186631485936232e-05	-0.02350633591413498	-0.016887344419956207	0.0639132559299469	0.044647861272096634	-0.0557749904692173	-0.04457889497280121	0.09227030724287033	-0.04935382306575775	0.12331101298332214	-0.04407365992665291	-0.17661398649215698	-0.02515587955713272	0.07604146748781204	0.019589563831686974	-0.12481815367937088	0.024949561804533005	0.11493504047393799	-0.04113111272454262	-0.05591327324509621	0.0013125062687322497	-0.006554186809808016	-0.058473024517297745	-0.03563282638788223	0.024547524750232697	-0.09221857041120529	0.047576893121004105	-0.07592440396547318	0.0022152767051011324	0.00652232626453042	0.02837870456278324	-0.08706001937389374	-0.012481734156608582	-0.05610219016671181	0.0171233881264925	-0.13896004855632782	0.04474746435880661	-0.08432728797197342	-0.01960819773375988	0.0640702024102211	0.010316590778529644	-0.11878620833158493	0.07500433176755905	0.10809888690710068	0.04276026040315628	0.06822126358747482	0.02574489451944828	0.0553346648812294	0.08251648396253586	-0.05508047714829445	0.025909654796123505	-0.127455934882164	0.1778424084186554	0.08608374744653702	-0.08616051822900772	-0.0731758177280426	-0.1025007888674736	0.08419439196586609	0.0627308189868927	-0.02286365255713463	0.019841929897665977	
0.3782162070274353	-0.0011399354552850127	-0.0035565251018851995	0.06095327436923981	-0.061707623302936554	0.16263440251350403	0.23063534498214722	0.120785191655159	-0.0184171199798584	0.2107934206724167	-0.07867000252008438	-0.06744714826345444	0.3576081395149231	-0.17530278861522675	-0.09782738238573074	0.10970237851142883	0.09482242912054062	-0.01457094307988882	0.09708328545093536	0.043667376041412354	-0.007230656687170267	0.11032848805189133	-0.007688133046030998	-0.02939804643392563	0.08589084446430206	-0.06501059979200363	-0.004853915888816118	0.207137331366539	-0.07668208330869675	-0.016682669520378113	0.24164536595344543	0.024294715374708176	0.06534215807914734	0.099932461977005	0.09262426197528839	0.1676872968673706	0.17102234065532684	-0.12652026116847992	0.06613950431346893	0.19652536511421204	-0.04759689420461655	-0.0479198582470417	0.2712228000164032	0.04212960973381996	0.05882168188691139	0.2546949088573456	-0.014847153797745705	0.005527924280613661	0.16700448095798492	0.022066624835133553	-0.020580768585205078	0.13638406991958618	0.04594724252820015	-0.10000600665807724	0.026822073385119438	-0.003024374134838581	2.468096135999076e-05	0.025237487629055977	8.23206573841162e-06	-1.810863432183396e-05	0.018595825880765915	-0.0022804085165262222	1.9362772945896722e-05	0.015173985622823238	3.3434022043365985e-05	-8.108499059744645e-06	0.1150672510266304	0.024969881400465965	-0.0032569996546953917	-0.014110715128481388	0.0029064700938761234	-0.015608002431690693	0.03849298879504204	-0.07253129780292511	0.024364212527871132	0.0552922822535038	-0.038034990429878235	0.010746200568974018	0.056238193064928055	0.08153669536113739	0.02215832844376564	0.027452604845166206	0.0010671823984012008	-0.0480206124484539	0.053792499005794525	0.01776018738746643	-0.02356625348329544	0.09186773002147675	0.02643173560500145	0.025929398834705353	0.013392157852649689	0.004033855628222227	-0.03508266806602478	0.027346031740307808	-0.022321686148643494	0.026598721742630005	0.0016427462687715888	-0.08568207174539566	0.016569126397371292	0.04802992194890976	-0.049463801085948944	0.07271654158830643	-0.023869846016168594	0.017684098333120346	0.06461086869239807	0.021692920476198196	0.002902418840676546	-0.002317700069397688	-0.03432830795645714	-0.01136880274862051	0.0017230164958164096	-0.02362683415412903	-0.010498887859284878	-0.017856670543551445	-0.06313174962997437	0.004530018195509911	0.0010426033986732364	0.008419446647167206	0.020985063165426254	0.0070862420834600925	-0.08559352159500122	0.07080114632844925	0.04030508175492287	0.019501078873872757	0.007042254321277142	-0.02168278582394123	
0.00579216331243515	0.017071401700377464	-0.013086192309856415	-0.009551743045449257	-0.02582716941833496	-0.018017562106251717	0.07465790212154388	0.03339423984289169	0.007429355289787054	0.16611076891422272	0.03449293226003647	-0.028704702854156494	0.05630401521921158	0.010423198342323303	-0.21430015563964844	0.163380965590477	-0.024493133649230003	-0.10714082419872284	0.030028412118554115	-0.016733746975660324	0.0087116165086627	0.02435753308236599	0.029734544456005096	-0.015813304111361504	-0.011536889709532261	-0.02154419757425785	-0.0311718862503767	0.017687540501356125	0.021938176825642586	-0.02477523870766163	0.016690688207745552	-0.016348594799637794	0.16824966669082642	0.006430753972381353	-0.02111135795712471	0.12198023498058319	0.0806008130311966	0.04352392256259918	-0.02108299359679222	0.04433659464120865	-0.02102319337427616	0.04196569323539734	0.0965958833694458	-0.07406385242938995	0.025518571957945824	0.1650894284248352	0.07240497320890427	0.041553884744644165	0.05282425135374069	0.013414006680250168	0.025000857189297676	0.06629128009080887	-0.09719789773225784	0.13522377610206604	0.0036799502559006214	-6.09477428952232e-05	0.000121397984912619	0.003626605961471796	-0.00017782338545657694	3.2565299079578836e-06	0.0001229542394867167	-1.9272238205303438e-05	-5.1489150791894644e-05	5.1888837333535776e-05	-1.4430023838940542e-05	-9.921784658217803e-05	0.09484677016735077	-0.012328444980084896	0.15535469353199005	-0.07835703343153	-0.042798034846782684	0.06522602587938309	0.06276282668113708	-0.09933840483427048	-0.128506138920784	0.12857969105243683	-0.15216678380966187	-0.18803325295448303	0.062006015330553055	0.014354300685226917	0.11505371332168579	0.011116382665932178	0.24578043818473816	-0.07177804410457611	0.023520851507782936	0.031707726418972015	0.08712343126535416	-0.06425706297159195	-0.12090552598237991	-0.15606576204299927	-0.06288397312164307	0.028212565928697586	0.049518171697854996	-0.003325394820421934	0.11984451115131378	0.2471362054347992	0.07449869811534882	-0.0165936890989542	-0.15642301738262177	0.013184333220124245	-0.16004446148872375	0.006808161735534668	0.019271263852715492	-0.02286016382277012	-0.16048559546470642	0.13558267056941986	-0.02660081908106804	0.10917741805315018	-0.023526974022388458	-0.13652187585830688	0.1510063111782074	0.15290667116641998	-0.03565921261906624	0.07594121247529984	0.18970432877540588	-0.0830099955201149	0.1552206575870514	0.1837632954120636	-0.06991784274578094	0.0621250756084919	0.06882302463054657	0.029688019305467606	0.03451232984662056	-0.03640768676996231	0.08196688443422318	0.0797424465417862	
0.17150060832500458	-0.048475831747055054	0.05191873759031296	0.049580685794353485	0.05869165062904358	-0.018861843273043633	0.0019395085982978344	0.02323218807578087	-0.010766381397843361	0.10080163180828094	0.09602135419845581	-0.030055750161409378	0.06369903683662415	0.04852759465575218	-0.027694808319211006	0.09949696063995361	-0.013401797041296959	-0.04093391075730324	0.016172099858522415	0.110359326004982	-0.04828619584441185	0.09775343537330627	0.02811405248939991	0.09582743793725967	-0.045614782720804214	-0.023965492844581604	0.030343588441610336	0.15109549462795258	-0.0271926149725914	0.07736413180828094	0.04998943954706192	-0.01023030374199152	-0.001937264809384942	-0.12404107302427292	0.002618317725136876	-0.025314928963780403	-0.02173948846757412	-0.002932462375611067	0.011559585109353065	0.10060688108205795	-0.11727093905210495	-0.004504532553255558	0.004772999323904514	0.059643376618623734	0.022791113704442978	0.1187228411436081	0.09905396401882172	-0.04167827591300011	0.05440051108598709	0.04242243245244026	0.10323281586170197	0.049353424459695816	0.017041774466633797	0.07150335609912872	0.00024937998387031257	1.9740544132673676e-07	-8.270069520222023e-05	-0.00020455534104257822	0.00015699260984547436	-1.7131022104877047e-05	0.0006081750616431236	0.00017028870934154838	0.00019882940978277475	0.0007005631923675537	6.837504042778164e-05	0.00022240688849706203	-0.0348379909992218	0.018118975684046745	-0.03495826572179794	-0.054488182067871094	0.10981336981058121	-0.0073367818258702755	-0.013733764179050922	-0.013987075537443161	0.04209465906023979	-0.02759580686688423	0.012557395733892918	-0.04383508861064911	-0.018747273832559586	0.09065061062574387	0.0026412219740450382	-0.011767787858843803	0.04566382244229317	-0.10896492004394531	0.031557898968458176	0.10924609005451202	0.004936312325298786	-0.05747697502374649	-0.12416630238294601	-0.022674113512039185	0.05310472846031189	0.01579202152788639	0.14165282249450684	-0.045112501829862595	-0.16442100703716278	0.2976733446121216	-0.01978442259132862	-0.0010630812030285597	-0.10853055119514465	-0.09268201142549515	0.1438111662864685	0.2715917229652405	-0.4084082543849945	0.12405549734830856	0.05483006685972214	-0.0217355377972126	-0.11098130792379379	0.11796379089355469	-0.40984776616096497	-0.11249501258134842	-0.2631867527961731	-0.09666065871715546	0.03958636149764061	0.011720837093889713	0.10959033668041229	0.08386436104774475	-0.08730991929769516	-0.17433708906173706	-0.3925434648990631	-0.12359379231929779	-0.2916457951068878	0.08290578424930573	0.24957145750522614	0.056320324540138245	0.18730196356773376	-0.17095966637134552	
0.2027829885482788	-0.012533820234239101	-0.09989028424024582	0.08340508490800858	-0.032373834401369095	0.0010446312371641397	0.1518559455871582	0.06023499369621277	-0.01732821948826313	0.11542313545942307	0.0919438973069191	0.020838620141148567	0.18249261379241943	-0.0348777212202549	-0.00161415571346879	0.18565700948238373	-0.018614036962389946	0.14363141357898712	-0.026856044307351112	0.06208465248346329	0.09676695615053177	0.07536207884550095	-0.021649133414030075	0.07415442168712616	0.009604306891560555	0.09121116995811462	-0.08770542591810226	0.034411702305078506	0.19321979582309723	-0.05445975437760353	0.12460692226886749	-0.027981679886579514	0.144359290599823	-0.0913858488202095	0.03731400519609451	0.07803385704755783	0.024640541523694992	-0.01236326340585947	-0.022401880472898483	0.15592798590660095	0.037473734468221664	0.0831662118434906	0.11305344104766846	-0.047996457666158676	-0.02001022920012474	0.1391511708498001	0.0952170342206955	0.14583416283130646	0.07407183200120926	2.396706804574933e-06	0.1331014782190323	0.03628920391201973	0.06539048999547958	-0.18082216382026672	0.00019774418615270406	4.963342234987067e-06	2.9618509870488197e-05	0.00010893209400819615	-5.2184765081619844e-05	2.564335591159761e-05	0.0006322051049210131	0.0003055667330045253	-1.1314983566990122e-05	0.0012019251007586718	-6.802935968153179e-05	-7.216859376057982e-05	-0.03863261640071869	0.13992123305797577	-0.20301812887191772	0.026556119322776794	0.10942886769771576	0.06883225589990616	0.12224708497524261	0.03197687491774559	0.10452931374311447	-0.002998706419020891	-0.14234277606010437	-0.051438890397548676	0.1922251582145691	0.028243545442819595	0.09401002526283264	0.03402918204665184	0.002827754709869623	-0.12186587601900101	0.14549897611141205	0.0208587609231472	-0.1647716611623764	0.1587700992822647	-0.026619525626301765	-0.15897777676582336	-0.0723266452550888	0.18342380225658417	-0.055962320417165756	-0.03361846134066582	0.03713861107826233	0.0010162567486986518	0.145398810505867	0.08588172495365143	-0.08079107850790024	0.07664467394351959	0.031116098165512085	0.08196965605020523	-0.046208951622247696	-0.2829822599887848	-0.08351040631532669	0.04018270596861839	-0.013956061564385891	0.22530396282672882	-0.06803836673498154	0.014123481698334217	-0.07172217220067978	0.24764183163642883	0.05059700086712837	-0.007248752284795046	0.35090750455856323	0.0371132418513298	0.14551082253456116	0.14824017882347107	-0.3216443359851837	0.4093330502510071	0.10217434167861938	-0.15634970366954803	0.18002180755138397	0.18695545196533203	0.08689464628696442	-0.08127186447381973	
0.10046931356191635	0.04264139011502266	-0.03440903127193451	-0.03330155834555626	-0.025507144629955292	0.022052079439163208	0.012321662157773972	0.07696002721786499	-0.040931250900030136	0.038213636726140976	0.015748929232358932	0.004312584642320871	0.09782305359840393	0.08431417495012283	-0.005273968912661076	0.1986072063446045	0.012598096393048763	0.007652700413018465	0.04768720641732216	0.03105618804693222	-0.04511145502328873	0.0765574499964714	0.06825751811265945	0.04874773323535919	0.03328956291079521	-0.04788457974791527	0.019449245184659958	0.030969882383942604	-0.033801548182964325	0.005793123040348291	0.1068904772400856	-0.048634156584739685	0.02758615091443062	0.09232782572507858	0.11445000022649765	0.04904278740286827	0.013788275420665741	-0.0030664647929370403	0.052949171513319016	0.05461130663752556	0.044957395642995834	-0.05410943552851677	-0.02352953515946865	0.06145954132080078	0.021685190498828888	0.12170252203941345	-0.02540414407849312	-0.005440689157694578	0.04267779737710953	0.013724341988563538	0.03413041681051254	0.12045439332723618	0.06236698850989342	0.009320588782429695	0.014560163952410221	-0.0017278145533055067	-1.7322581697953865e-05	0.0149326017126441	-4.702971637016162e-06	5.2211056754458696e-05	0.006438075099140406	-0.00033767876448109746	7.627438236568196e-08	0.004567952360957861	3.081586692132987e-05	-1.2276938832656015e-05	0.09376168251037598	0.12352316826581955	-0.022962819784879684	0.06372322887182236	-0.1542002558708191	-0.09646717458963394	0.009414426051080227	0.032710958272218704	0.008611397817730904	0.10161301493644714	0.11043472588062286	-0.03755205124616623	-0.041789669543504715	0.049923863261938095	0.08115254342556	0.05866377800703049	-0.048152368515729904	-0.041595324873924255	0.09159272909164429	-0.0006521081086248159	-0.0352216437458992	0.19252516329288483	-0.12607237696647644	0.02653898485004902	0.0017286238726228476	-0.02949688769876957	0.0310440082103014	-0.043275583535432816	-0.06602340936660767	-0.04544766619801521	0.09730786830186844	-0.03043968603014946	0.04288444668054581	0.05619359761476517	-0.12652288377285004	-0.0668414831161499	0.0626579076051712	-0.013517486862838268	0.0733056515455246	-0.0044247847981750965	0.0301645677536726	-0.022260362282395363	0.02919154241681099	0.006206036079674959	-0.03968516364693642	-0.03801453858613968	0.09942309558391571	-0.09140905737876892	0.034663546830415726	-0.0943983942270279	0.018370892852544785	-0.016777612268924713	-0.04388842359185219	0.0019697765819728374	0.0905860960483551	0.05329669639468193	0.01374751515686512	-0.11078368872404099	0.02475051023066044	-0.035272445529699326	
-0.01808011345565319	-0.021133869886398315	-0.03302285075187683	-0.06632623821496964	-0.018477514386177063	-0.07216285169124603	-0.011808005161583424	-0.007583561819046736	-0.024807535111904144	-0.02348252944648266	-0.0024185851216316223	-0.027034590020775795	0.08594412356615067	0.02100350335240364	0.045299921184778214	-0.008315485902130604	0.031044071540236473	-0.1360183209180832	-0.054104313254356384	0.01689046435058117	-0.03837773576378822	0.024834884330630302	-0.001832861453294754	0.006686288397759199	0.03254153952002525	-0.018706662580370903	0.018406987190246582	0.07837291806936264	0.026081953197717667	-0.01741662435233593	0.09266802668571472	-0.026658466085791588	-0.020688496530056	0.12269490212202072	0.048473894596099854	0.22323790192604065	0.060430776327848434	0.004709230735898018	0.03589930757880211	-0.015029629692435265	0.05763701722025871	0.04598368704319	-0.023149404674768448	-0.0008972432697191834	-0.013644695281982422	-0.003453892422839999	-0.05328291282057762	-0.0007450972916558385	0.04126082360744476	0.0226470697671175	-0.11851358413696289	-0.04681381583213806	0.01142012421041727	-0.11076653748750687	0.0014537767274305224	1.3129183571436442e-05	0.00013055112503934652	0.0009315817151218653	-5.3822866902919486e-05	-1.8275906768394634e-05	0.0004957168712280691	9.983014751924202e-05	-7.527502020820975e-06	0.0005438971566036344	0.00017861805099528283	0.00012446052278392017	0.06854377686977386	-0.022265741601586342	0.07552959769964218	-0.10317009687423706	-0.15872398018836975	-0.10562483966350555	0.08356639742851257	0.0196211077272892	0.04418214410543442	-0.06756383925676346	0.0022956838365644217	0.10021527111530304	0.11167638748884201	0.009963398799300194	-0.06647497415542603	-0.006677838508039713	0.0049224840477108955	0.1619277447462082	0.07198777794837952	0.007898916490375996	-0.04131477326154709	-0.046129148453474045	0.06134854629635811	0.11703110486268997	0.12246444076299667	0.10142640769481659	-0.020676007494330406	-0.012647544965147972	-0.14317189157009125	0.025133676826953888	0.0023827548138797283	0.009052135981619358	0.0528884083032608	0.020242631435394287	0.05065511539578438	-0.04864368960261345	-0.047014269977808	-0.1650550365447998	0.2088259607553482	0.02178974635899067	0.017196370288729668	0.09186003357172012	0.0153557313606143	0.1636376976966858	-0.14275409281253815	-0.01950589194893837	0.011123698204755783	-0.018268277868628502	0.02293109893798828	0.009626979939639568	0.19138239324092865	0.13382725417613983	0.25469502806663513	0.03831104934215546	-0.11483947932720184	0.033672355115413666	-0.06489240378141403	0.06453269720077515	-0.17606598138809204	0.02736235223710537	
-0.00334409368224442	-0.06540615111589432	0.07700430601835251	0.004678431432694197	-0.08184195309877396	0.11154983192682266	0.012099872343242168	-0.0747973769903183	-0.029676711186766624	0.007298445329070091	0.06081705540418625	-0.027386700734496117	-0.0101773701608181	0.15927165746688843	0.031371232122182846	-0.027601009234786034	0.13844138383865356	-0.1155071035027504	0.1397891491651535	0.12025603652000427	-0.11413462460041046	-0.16078639030456543	-0.14382508397102356	-0.1926165372133255	0.110796257853508	-0.041978463530540466	-0.002068384550511837	0.15153944492340088	0.13871566951274872	0.17308181524276733	0.11930885910987854	-0.021862883120775223	-0.034738022834062576	-0.15108193457126617	0.04390997812151909	0.2638314366340637	-0.06089257821440697	0.019727928563952446	-0.03974144533276558	0.21816691756248474	-0.07701931148767471	-0.02083444409072399	0.06672392785549164	0.009289850480854511	-0.013284723274409771	0.09894920885562897	0.03128153830766678	-0.04407274350523949	0.06878132373094559	0.024889890104532242	-0.10207342356443405	0.047924235463142395	0.10172394663095474	-0.06665680557489395	-9.455478902964387e-06	5.97506823396543e-06	0.0001354864361928776	9.780865366337821e-05	-1.376442287437385e-05	1.6032443454605527e-05	-7.427103264490142e-05	-4.404408628033707e-06	8.518800314050168e-05	-6.538930028909817e-05	4.497535337577574e-05	-3.170105628669262e-05	-0.092831552028656	-0.05997690558433533	0.08482301980257034	0.05018586292862892	-0.0448426827788353	-0.01974732056260109	0.1505119353532791	0.0174220260232687	0.11021047830581665	-0.09235549718141556	-0.4283967912197113	-0.21797902882099152	-0.06177894398570061	0.10869023203849792	0.09150319546461105	0.012762603349983692	0.4286021888256073	-0.20273597538471222	-0.19591912627220154	0.16358961164951324	-0.09145445376634598	-0.2707311511039734	-0.038482874631881714	-0.0827324166893959	-0.12377235293388367	0.06174023076891899	-0.03811991959810257	0.026548273861408234	0.15866950154304504	0.07993802428245544	0.17413826286792755	0.06485075503587723	0.10881589353084564	0.07366634905338287	-0.14540132880210876	0.07903848588466644	0.1712697148323059	-0.11278073489665985	-0.0485057570040226	-0.0024003463331609964	-0.02011692523956299	-0.03947645425796509	0.09262888133525848	0.03165825456380844	0.16738452017307281	0.03331676125526428	-0.1954396814107895	0.19314414262771606	0.23598456382751465	0.0037657031789422035	-0.04442596063017845	0.29717448353767395	0.1706070601940155	-0.24685630202293396	0.011228300631046295	0.05652403086423874	0.02892843261361122	0.2842935025691986	-0.09456931799650192	-0.06634730100631714	
0.07686654478311539	-0.04283953830599785	0.040402282029390335	-0.13062916696071625	-0.0008091027848422527	0.017417093738913536	-0.05974278599023819	0.05334329605102539	-0.04892122745513916	-0.035889629274606705	-0.015077359043061733	-0.08031050115823746	0.07336609065532684	-0.027356529608368874	-0.017002472653985023	-0.002499923575669527	0.04821854829788208	-0.012067120522260666	-0.11273596435785294	-0.03844742104411125	-0.015883976593613625	-0.23153698444366455	-0.06652095913887024	-0.026592208072543144	0.24265927076339722	0.238779678940773	-0.03882039338350296	-0.6884099245071411	0.11592906713485718	-0.5238887071609497	0.1263793408870697	0.009800497442483902	0.0825558677315712	0.1626276671886444	0.01210876740515232	-0.007695015054196119	0.06639531999826431	0.025686882436275482	0.04039829596877098	0.07709642499685287	-0.05982084199786186	-0.1085546463727951	-0.12846051156520844	-0.002401274861767888	-0.08208619803190231	0.03772325813770294	-0.09719499945640564	-0.09458809345960617	0.08450266718864441	0.01715673692524433	-0.08130918443202972	0.08141130954027176	0.004158378578722477	0.038072578608989716	0.01263509877026081	-0.00017292259144596756	-2.7387390218791552e-05	0.012899561785161495	-1.0031035344582051e-05	1.228229507432843e-06	0.004109269008040428	0.0004817310837097466	4.244569572620094e-05	0.003282802412286401	-3.081543400185183e-05	-2.146131191693712e-05	0.0811992883682251	0.0348343662917614	0.010796770453453064	0.025209737941622734	-0.06639201939105988	-0.008755701594054699	0.008261903189122677	-0.05997289717197418	0.06407197564840317	0.002225569449365139	0.0458400622010231	-0.023669347167015076	-0.001414228929206729	0.05864208936691284	0.017406608909368515	-0.02163594588637352	-0.022254474461078644	-0.011274251155555248	0.19531190395355225	0.01693132519721985	0.006735987029969692	0.08092430979013443	0.062441594898700714	-0.006752401124686003	-0.03645933419466019	0.04077983647584915	-0.006501952186226845	-0.04819018766283989	-0.05758896842598915	0.021562226116657257	0.007177910301834345	-0.026938050985336304	0.01230036374181509	0.028544632717967033	-0.03415423631668091	-0.03480212390422821	0.0009669846622273326	0.036878641694784164	0.008259084075689316	0.017017021775245667	-0.0007374493288807571	-0.02243225648999214	0.02862641029059887	-0.018267054110765457	-0.008983062580227852	0.03421522304415703	0.007037886884063482	-0.0075528863817453384	0.030283242464065552	-0.002380909165367484	0.03899502381682396	-0.01976638473570347	-0.010035950690507889	0.0020621141884475946	0.0138609753921628	0.026813974604010582	-0.014426839537918568	0.005555553827434778	-0.006262183655053377	-0.0036182934418320656	
0.2631891965866089	-0.11702719330787659	0.021623283624649048	0.6132544875144958	-0.13716356456279755	-0.30509933829307556	-0.030385823920369148	-0.011699177324771881	0.03734912723302841	0.06694294512271881	0.07078927010297775	0.3291248679161072	0.21581481397151947	-0.1376974731683731	0.18198928236961365	0.02949671819806099	-0.05979037657380104	0.12643608450889587	0.15917371213436127	-0.08541228622198105	0.06955863535404205	0.21822772920131683	-0.045102883130311966	-0.4410051703453064	0.13118897378444672	-0.06803017109632492	-0.017182663083076477	0.07633525878190994	-0.18958565592765808	0.07121695578098297	0.03399112820625305	0.038456350564956665	-0.12250816822052002	0.09436798840761185	0.053562164306640625	-0.0074594696052372456	-0.05422103777527809	-0.11154840141534805	-0.09006285667419434	0.09980684518814087	-0.0353977307677269	-0.029271049425005913	0.12131036072969437	0.06952881067991257	-0.06144862249493599	0.3578934967517853	-0.03343138471245766	-0.20865876972675323	0.07393965870141983	-0.034476008266210556	-0.030404629185795784	0.022762835025787354	-0.001089455676265061	0.049222759902477264	0.0060000610537827015	-0.0008798777125775814	5.844524275744334e-05	0.005958995781838894	6.361808482324705e-05	2.0935678548994474e-05	0.0001447518152417615	5.523949084818014e-07	-3.926946737919934e-05	0.00012867580517195165	-8.994258678285405e-05	3.513554111123085e-05	0.08598463237285614	-0.02595997415482998	0.007856865413486958	0.1479315161705017	-0.07259426265954971	-0.06447256356477737	-0.04053603857755661	0.0462927520275116	-0.036077454686164856	-0.005829621572047472	-0.021584011614322662	-0.054497331380844116	0.10299422591924667	-0.018934689462184906	0.05569256469607353	0.018814101815223694	-0.015571515075862408	-0.05116191506385803	0.09199985861778259	0.030290480703115463	-0.00985773280262947	0.04007882624864578	0.01610642857849598	0.028788821771740913	0.07254403084516525	0.024581631645560265	0.009211978875100613	0.0018111568642780185	-0.05328912287950516	0.0007347068749368191	0.10798781365156174	-0.11419226974248886	0.0724756270647049	-0.008149255067110062	-0.1028764620423317	0.02870890125632286	0.014166499488055706	0.022642968222498894	-0.015507100149989128	0.018600398674607277	-0.008580394089221954	0.029637906700372696	0.11579656600952148	-0.026685472577810287	0.011029328219592571	0.022019194439053535	-0.13228175044059753	-0.01118687354028225	0.021473009139299393	-0.009741191752254963	-0.0059640249237418175	0.019992858171463013	-0.014124293811619282	0.025201862677931786	-0.008709914050996304	0.003569301450625062	-0.04413430020213127	0.1434759497642517	-0.01879761926829815	-0.017905518412590027	
-0.04596571996808052	-0.013404066674411297	-0.028545325621962547	0.005902492441236973	0.03180505707859993	0.012236203998327255	0.061070721596479416	-0.10035541653633118	0.012227795086801052	-0.044958118349313736	-0.013289393857121468	0.07739534974098206	-0.2161819487810135	0.051810372620821	-0.10160461813211441	-0.0712175965309143	0.01948692835867405	-0.06802798062562943	-0.09516351670026779	-0.03530137240886688	-0.03977189213037491	0.06233888864517212	0.063480906188488	0.013018753379583359	0.046967145055532455	0.058791838586330414	0.008765140548348427	-0.08160800486803055	-0.0003925456549040973	-0.04509321227669716	-0.04147873446345329	0.012691624462604523	-0.040458425879478455	0.12376221269369125	0.05867939814925194	0.13274423778057098	0.023642120882868767	0.06369700282812119	-0.018061714246869087	0.08822181820869446	0.12363103777170181	0.006295870989561081	0.06210338696837425	-0.06634354591369629	0.03557185083627701	-0.025403646752238274	-0.005558627657592297	0.010055038146674633	0.00886646006256342	0.05663469433784485	-0.09186679124832153	-0.10246571898460388	0.04789484664797783	0.00035253839450888336	0.013279465958476067	0.00018672736769076437	-1.4439547157962807e-05	0.01311784703284502	2.502791176084429e-05	-6.16330435150303e-05	0.003362785093486309	0.0005021367687731981	3.0216364393709227e-05	0.0031915069557726383	2.232562837889418e-05	2.3567825735426595e-07	-0.0641985684633255	0.046209029853343964	-0.054933950304985046	-3.574441871023737e-05	0.038245249539613724	0.05449249967932701	0.011274478398263454	-0.014876531437039375	0.048851896077394485	-0.02942972257733345	-0.022793635725975037	-0.04040234535932541	-0.07499025017023087	-0.006279595196247101	0.043643705546855927	-0.0946924164891243	0.05744726210832596	0.001218598335981369	-0.025520335882902145	-0.03762248530983925	-0.004423519130796194	0.003990305587649345	0.13426083326339722	-0.07489889860153198	-0.1672133505344391	-0.011319566518068314	0.015908315777778625	0.049320679157972336	0.10435546189546585	0.050660617649555206	0.0008639844600111246	-0.015771307051181793	-0.05178946256637573	-0.004707407671958208	0.022943437099456787	0.06061520799994469	0.13227799534797668	0.045739661902189255	-0.054226163774728775	-0.07188904285430908	0.01679741032421589	-0.008784810081124306	-0.09924057126045227	0.014138525351881981	-0.021772176027297974	-0.04056417942047119	0.12753073871135712	0.02655951678752899	0.005093524698168039	-0.031904518604278564	0.015096679329872131	-0.0716787576675415	5.073220563645009e-06	-0.010788412764668465	-0.025242969393730164	0.12490248680114746	0.01665152795612812	-0.06174350902438164	-0.02679496817290783	0.02629399485886097	
0.1795409768819809	-0.06433011591434479	0.09182783961296082	0.2081662118434906	0.015498600900173187	-0.0436827689409256	0.1075018048286438	0.04118619114160538	0.08585049211978912	0.1448935717344284	0.04729358106851578	-0.04431204870343208	0.023155556991696358	-0.03660905733704567	-0.07886304706335068	0.04093088209629059	0.11269870400428772	0.019154898822307587	0.0843067616224289	0.010929296724498272	0.03554259613156319	0.0845208391547203	0.09974882751703262	-0.029044069349765778	0.02762652561068535	0.08890830725431442	0.017891403287649155	0.09435790032148361	-0.01036340743303299	0.038680899888277054	0.02946716547012329	0.013672899454832077	-0.14682286977767944	0.1354278028011322	0.02065819501876831	-0.07575037330389023	0.04366619139909744	-0.010834367014467716	-0.0018599742325022817	0.04843650013208389	0.0005834281328134239	0.02724340930581093	0.011133866384625435	-0.038349006325006485	-0.021583015099167824	0.03634738177061081	0.07843069732189178	0.02768886089324951	0.04485486447811127	0.00022607730352319777	-0.06134653836488724	0.03608039766550064	0.24024035036563873	-0.01102487277239561	-4.4349908421281725e-05	1.648130137255066e-06	0.0001225639571202919	-0.00011761913629015908	2.4231518182205036e-05	2.7848651370732114e-05	-0.00023241282906383276	-7.291509245987982e-05	3.900064984918572e-05	-0.0002668262750376016	2.1407302483567037e-05	-0.0001162454645964317	-0.01056485716253519	-0.017889589071273804	0.32620033621788025	0.0824018195271492	-0.06392078846693039	-0.01565852202475071	0.09692654758691788	0.024491822347044945	-0.30188310146331787	0.02979385294020176	-0.15972572565078735	0.09880642592906952	0.09564056992530823	0.09084080904722214	-0.15021459758281708	0.011719820089638233	0.010509143583476543	0.07572104781866074	0.015771403908729553	-0.013494310900568962	0.2420339584350586	0.11153954267501831	-0.18374808132648468	-0.007618966046720743	0.12545664608478546	0.018557721748948097	0.009232418611645699	0.036225561052560806	-0.041380126029253006	-0.10387074947357178	-0.14209729433059692	0.10860998928546906	-0.06274503469467163	0.025744333863258362	-0.13997679948806763	-0.026863647624850273	0.15777309238910675	-0.008013349026441574	0.11723652482032776	0.031122753396630287	0.13643774390220642	-0.030987616628408432	0.24139592051506042	0.01202930323779583	0.07727016508579254	-0.04264365881681442	0.021882906556129456	0.11938077956438065	0.2058848887681961	-0.010846581310033798	0.14016346633434296	0.07281865179538727	-0.05272257328033447	-0.05317569151520729	-0.20452100038528442	0.13056010007858276	-0.10689759254455566	0.1119784563779831	-0.009807873517274857	-0.0018394258804619312	
-0.05459029972553253	-0.07568170875310898	-0.006366128101944923	0.03663364425301552	0.034925978630781174	-0.025360479950904846	0.05474744737148285	0.022754261270165443	0.024387041106820107	-0.002233454491943121	0.002455378882586956	0.016972554847598076	0.13197751343250275	-0.03967249393463135	-0.026352658867836	0.24311617016792297	-0.0143465306609869	0.08268412947654724	0.004657358396798372	0.039399661123752594	-0.014748532325029373	0.004119019489735365	0.011390969157218933	-0.00024964421754702926	0.04777872934937477	-0.046749699860811234	-0.0044587538577616215	-0.01819436065852642	0.07912370562553406	0.0054017724469304085	0.12017102539539337	-0.023747723549604416	0.04301980137825012	0.2758614420890808	0.03474583104252815	-0.08618079125881195	0.029614638537168503	-0.01999160461127758	-0.012091798707842827	0.04132460430264473	0.0396164134144783	-0.001945051713846624	0.06826681643724442	0.042918626219034195	-0.01081500481814146	0.09886343777179718	0.03885210305452347	-0.031289368867874146	0.14495743811130524	-0.06577754765748978	0.06584030389785767	0.30943411588668823	0.04122092202305794	0.03605824336409569	0.025535602122545242	-0.0029384326189756393	-2.5937790269381367e-05	0.025844288989901543	-8.935028745327145e-05	1.7775397282093763e-05	0.018064694479107857	-0.0008524004369974136	-4.2238163587171584e-05	0.014561659656465054	-4.848425305681303e-07	1.3694211702386383e-06	0.03496065363287926	0.07495267689228058	0.023882592096924782	0.04385565221309662	0.0030025411397218704	0.043831344693899155	0.07646524906158447	-0.09239345043897629	-0.030502336099743843	0.07330287992954254	-0.010121691040694714	0.027137110009789467	0.20527365803718567	0.03840238228440285	0.00032012962037697434	0.031974490731954575	0.034133683890104294	0.01914733275771141	0.013821592554450035	-0.08812206238508224	-0.011249422095716	0.0006007044576108456	0.009997038170695305	0.044724006205797195	-0.03757541626691818	0.08322814106941223	-0.14205624163150787	0.09094767272472382	0.014794307760894299	-0.03144270181655884	0.009221338666975498	-0.21619123220443726	0.24077729880809784	0.13090880215168	0.0873839482665062	0.08082623034715652	0.08761103451251984	0.005758433602750301	0.014039775356650352	0.11822860687971115	-0.0027694865129888058	-0.05294113606214523	0.047267962247133255	0.0008510337793268263	0.06877335906028748	0.12784290313720703	-0.12901107966899872	0.01993384212255478	-0.0037543545477092266	-0.07048574090003967	0.005591437220573425	0.05409848317503929	0.03013455681502819	0.03869355842471123	-0.03170635923743248	-0.055524732917547226	-0.029183920472860336	-0.04331173375248909	-0.03308159112930298	-0.010080434381961823	
-0.046558380126953125	0.039422567933797836	0.01767904683947563	0.02738477662205696	-0.014773904345929623	0.03673936799168587	-0.016102449968457222	0.017064185813069344	-0.031795684248209	0.023564225062727928	0.013779962435364723	0.013261045329272747	0.1724291890859604	-0.05200832709670067	0.029036834836006165	0.09356973320245743	-0.020881569012999535	0.00534631684422493	0.11128490418195724	-0.07499127835035324	-0.01066199317574501	0.00028837949503213167	-0.020687833428382874	-0.004906644579023123	0.033576600253582	0.008627546951174736	-0.0004161253455094993	0.02184097096323967	-0.03335994482040405	0.02839699573814869	0.2318999022245407	-0.026990510523319244	0.042635634541511536	0.033567626029253006	0.03426419943571091	0.08608558773994446	0.06034473702311516	0.012401316314935684	0.014166886918246746	0.013902447186410427	-0.026658575981855392	0.013027729466557503	0.09062757343053818	-0.06520891934633255	-0.02073555998504162	-0.008842989802360535	0.037519197911024094	0.0030239049810916185	0.26991361379623413	0.01628783717751503	0.010610637255012989	0.23734353482723236	-0.007248659618198872	-0.004868924617767334	0.07651441544294357	-0.0034461987670511007	-2.9327262382139452e-05	0.0622851736843586	5.8620739764592145e-06	-1.53822147694882e-05	0.06304182857275009	-0.0035286403726786375	2.8532958822324872e-05	0.05849698185920715	-1.9852700461342465e-06	4.843219358008355e-06	0.11589284986257553	-0.0018367121228948236	-0.006831062026321888	0.14551490545272827	-0.012835456058382988	-0.008999543264508247	0.10755212604999542	0.015458407811820507	-0.005367382895201445	0.07300008088350296	0.03402363881468773	0.0005068104946985841	0.1833079606294632	-0.016436049714684486	0.029407411813735962	0.07646963745355606	-0.04281473532319069	0.04122856631875038	0.10419757664203644	0.023189231753349304	0.008838650770485401	-0.01105677243322134	-0.002424642676487565	0.016479995101690292	0.10936419665813446	0.05466238036751747	0.04321886971592903	0.17139801383018494	-0.0029712358955293894	-0.053709566593170166	0.013528108596801758	-0.058919407427310944	0.07838978618383408	0.08646909892559052	0.02623545564711094	0.07608755677938461	-0.19464723765850067	-0.06521227210760117	0.011640897952020168	0.21904316544532776	0.2882504463195801	-0.04060504585504532	-0.4136008322238922	0.1253955215215683	-0.16157768666744232	0.17464260756969452	-0.3227240741252899	-0.13235466182231903	-0.012043416500091553	-0.04867485165596008	-0.013489363715052605	0.0348702147603035	0.0006146299419924617	0.0036282131914049387	-0.020684383809566498	0.025326736271381378	-0.009671577252447605	0.04505375027656555	-0.037917543202638626	0.03647703677415848	
0.000880103325471282	0.0006791620398871601	-0.003376719541847706	0.0009009112836793065	0.012526310048997402	0.010671333409845829	0.0009041503071784973	-0.0007042444194667041	-0.0022686191368848085	-0.00033518331474624574	-0.009922261349856853	0.010881463997066021	0.002690979279577732	-0.0036854564677923918	0.006108783185482025	-0.0016348791541531682	-0.002340149600058794	-0.011613898910582066	0.0008671009563840926	0.0018137458246201277	0.016958901658654213	0.01436544582247734	-0.0024341729003936052	-0.009357054717838764	9.329334716312587e-05	-0.0004586234572343528	-0.0045844558626413345	0.010961002670228481	-0.009918568655848503	-0.013248133473098278	-0.0006407406181097031	-0.0018382611451670527	0.00578246358782053	0.004563141148537397	-0.008272461593151093	-0.0076458267867565155	0.00035403083893470466	0.0024559227749705315	0.00585926603525877	0.005651084240525961	-0.0004686795000452548	0.01783311739563942	0.0001617410744074732	0.0012281980598345399	0.00030887447064742446	0.004345519468188286	0.003143267473205924	-0.010163999162614346	-2.2839276425656863e-05	-0.00022610434098169208	0.0036390686873346567	0.000411719229305163	-0.010754348710179329	-0.00809156522154808	-8.697031148585666e-07	1.7748815750451286e-08	1.4593280866392888e-05	-3.001351387865725e-06	0.0008663345361128449	-0.00041837815660983324	-1.2601092748809606e-05	-4.198377610009629e-06	-0.0015768351731821895	-2.0635385226341896e-05	-0.0003914945700671524	-0.0016520495992153883	0.0004131831228733063	-0.00016594903718214482	-0.007831506431102753	0.0020775836892426014	-0.005462590605020523	0.007970103994011879	-0.00311420951038599	-0.0026156047824770212	-0.006988209206610918	0.0007142510148696601	-0.00200021849013865	-0.014615137130022049	-0.01111159659922123	0.0033181998878717422	0.003935195505619049	0.00019963433442171663	-0.012364882044494152	0.006708924658596516	0.0007217127131298184	-0.00037405555485747755	-0.0142625467851758	-0.0006475652917288244	-0.0007939846836961806	0.016490589827299118	-0.00520440423861146	-0.0008002989343367517	-0.012186544947326183	-0.00030112481908872724	0.009214191697537899	0.013915331102907658	-0.0011220660526305437	0.0015006106114014983	-0.0016568161081522703	6.275154009927064e-05	-0.0066406456753611565	0.00912230834364891	-0.007973249070346355	-0.004393141716718674	0.0032775248400866985	-0.0017435018671676517	0.009369398467242718	0.011742128059267998	0.01420143898576498	-0.015915310010313988	0.0024112313985824585	0.0015349865425378084	0.003028793493285775	-0.024387946352362633	-0.001064648269675672	-0.002809401135891676	0.0028066036757081747	0.003536361502483487	0.002404387341812253	0.005726619623601437	-0.00023721261823084205	0.0007484376546926796	0.0006245740805752575	0.004257291089743376	0.0034318247344344854	0.009982466697692871	
0.09990687668323517	0.026543481275439262	-0.0033379329834133387	0.04217318445444107	0.030136091634631157	-0.03151393309235573	-0.0323757641017437	0.08175928890705109	-0.006328908260911703	-0.0021883647423237562	-0.008503826335072517	0.0018577163573354483	0.09003689140081406	0.048238854855298996	0.1291896402835846	0.02187761664390564	0.041500579565763474	0.014796463772654533	0.008470529690384865	-0.007950017228722572	-0.043089285492897034	-0.031875938177108765	0.07739896327257156	0.016782652586698532	-0.06728854030370712	0.040090419352054596	0.017625562846660614	-0.009503280743956566	-0.061043981462717056	0.02275335043668747	0.10859628021717072	0.05928667262196541	-0.15890879929065704	0.10953110456466675	0.023765839636325836	-0.14018158614635468	0.07753445953130722	-0.023018909618258476	-0.006272878963500261	0.06483159959316254	-0.021153181791305542	-0.04891377314925194	0.05200449377298355	-0.05751000717282295	0.0013797373976558447	0.004075561184436083	0.019362833350896835	-0.04141194000840187	0.07092014700174332	-0.0095919668674469	-0.049315910786390305	0.08480338007211685	0.0377105250954628	0.15336352586746216	0.022028908133506775	-1.1744118637579959e-05	-2.2695650841342285e-05	0.02208707295358181	-4.486263787839562e-05	-3.8618269172729924e-05	0.012052415870130062	4.387595254229382e-05	4.708802225650288e-05	0.010117199271917343	1.2403294931573328e-05	-2.3460554075427353e-05	0.007342408411204815	-0.022336414083838463	-0.05959587171673775	0.0028743708971887827	0.02304590865969658	0.1148037239909172	0.07755664736032486	-0.054597001522779465	-0.007793230935931206	-0.008311626501381397	0.03074590303003788	-0.028342612087726593	0.2291889488697052	0.03879285603761673	-0.1578664630651474	0.08228638023138046	0.04472414031624794	0.0019014767603948712	0.08647453039884567	-0.039207592606544495	0.005064330063760281	0.05333053320646286	-0.09905397146940231	-0.07784286886453629	0.1325889676809311	0.014820527285337448	0.0940844938158989	0.05348389223217964	-0.00567620387300849	0.010938254185020924	0.089071124792099	-0.062231749296188354	-0.039014872163534164	0.10268351435661316	0.10049896687269211	-0.012347901239991188	0.013980301097035408	0.026387803256511688	-0.023729300126433372	0.06139322370290756	0.11519018560647964	-0.027131233364343643	-0.18831004202365875	-0.10942583531141281	0.11891888827085495	0.05865011364221573	-0.12042883038520813	0.04591317102313042	-0.008473752066493034	-0.005231600254774094	0.045172855257987976	0.005745339207351208	0.03975800797343254	0.04418257623910904	-0.036680128425359726	0.0026032880414277315	-0.06281870603561401	0.0030872889328747988	0.0003959417517762631	-0.0254446342587471	
0.04927306994795799	-0.012130584567785263	0.09810062497854233	0.16962866485118866	-0.04994656890630722	-0.12129771709442139	0.014796505682170391	-0.020879898220300674	0.12237716466188431	0.00029613482183776796	0.11819709837436676	0.10342022776603699	0.0036965752951800823	-0.011008655652403831	-0.03987613320350647	0.09119219332933426	0.12811699509620667	0.11638375371694565	-0.0016566603444516659	0.06608504801988602	0.07193250954151154	0.04943130910396576	0.093471959233284	-0.15017758309841156	-0.044506002217531204	-0.01798822171986103	-0.03516226261854172	-0.034660689532756805	0.18368536233901978	-0.15822993218898773	0.026264088228344917	-0.0038310198578983545	-0.08718729764223099	0.0733506828546524	0.1546596884727478	0.052507396787405014	0.040982168167829514	0.0060440837405622005	0.09226393699645996	0.05033256858587265	0.010888392105698586	0.021527400240302086	-0.06237687170505524	0.008013248443603516	-0.26747360825538635	0.035746317356824875	0.24586588144302368	-0.15225711464881897	0.04286791756749153	-0.03519704192876816	0.022323885932564735	0.003417776431888342	0.052495963871479034	-0.004386369604617357	-0.0011034905910491943	-3.0935955237509916e-06	-3.56216769432649e-05	-0.0011559322010725737	-0.0002727320825215429	0.00021893934172112495	-0.00034707889426499605	-8.93620090209879e-05	-2.2132720914669335e-05	-0.00040521868504583836	5.383144525694661e-05	-4.1439443521085195e-06	-0.09718804061412811	0.00782790221273899	0.3139230012893677	0.08626071363687515	-0.1562500298023224	-0.22465193271636963	0.09326910227537155	-0.004245196934789419	-0.11148598790168762	-0.003875340335071087	-0.015414198860526085	0.18949732184410095	0.16186538338661194	0.09407433867454529	0.09554423391819	-0.0013535984326153994	0.0347357839345932	0.3235814869403839	0.044413235038518906	-0.03370911255478859	0.1114649623632431	-0.015426388010382652	-0.12955878674983978	0.2681282162666321	-0.0035503366962075233	0.13553479313850403	0.09196367114782333	-0.04377930611371994	0.09918177127838135	-0.14400121569633484	-0.036326758563518524	-0.1350325495004654	-0.2857191562652588	0.02705475315451622	-0.20766155421733856	-0.2587217688560486	-0.17907361686229706	0.25250494480133057	-0.05194367468357086	-0.1767805963754654	0.02026929333806038	-0.28281736373901367	0.09193891286849976	0.04058875888586044	0.13846714794635773	0.1410922259092331	-0.17375607788562775	0.08904308080673218	0.2081969529390335	-0.06488583981990814	0.13208496570587158	0.160226970911026	-0.04116616025567055	-0.04550100490450859	-0.0423254668712616	-0.014038000255823135	-0.06967096030712128	0.19877927005290985	-0.30862072110176086	-0.17823000252246857	
0.2059774249792099	-0.04117504507303238	-0.06820257753133774	0.16441470384597778	0.022706778720021248	-0.06429916620254517	-0.11275326460599899	0.0618828609585762	-0.06866965442895889	0.0818333700299263	0.0544375441968441	-0.013991315849125385	0.01184315700083971	-0.0862937718629837	0.14999303221702576	0.08787676692008972	0.0858222022652626	0.018476132303476334	0.16821151971817017	0.08719426393508911	-0.02871464379131794	0.07377743721008301	-0.004895394667983055	0.07168020308017731	0.21042686700820923	-0.12526088953018188	-0.08425556123256683	0.021720996126532555	0.07892979681491852	0.059078216552734375	0.056110672652721405	0.017904512584209442	-0.11615563184022903	0.14526784420013428	0.02481909841299057	-0.11258227378129959	0.1343032270669937	-0.02594413422048092	0.03818438574671745	0.22721630334854126	0.02019394189119339	-0.03810896351933479	0.11231455206871033	0.0001748733629938215	-0.02563038468360901	0.24965214729309082	0.18991704285144806	-0.1348022073507309	0.07805104553699493	0.05470724403858185	-0.08984877169132233	0.1749752312898636	0.13489291071891785	0.11833100020885468	0.0085460115224123	-0.0008090035989880562	-6.263008799578529e-06	0.009507739916443825	-2.8733848012052476e-05	3.0238713861763244e-06	0.001232784939929843	3.0857128876959905e-05	3.205399934813613e-06	0.0008888013544492424	-2.2899359464645386e-05	-2.6285904823453166e-05	0.07193771749734879	0.020099954679608345	-0.08824724704027176	0.050126198679208755	0.061528246849775314	-0.006185530219227076	0.07761658728122711	0.08342161774635315	-0.08288834244012833	0.02856072597205639	-0.09222731739282608	0.10108426213264465	0.07078513503074646	0.0817071944475174	0.040735770016908646	0.0606868714094162	0.0024250068236142397	-0.054048407822847366	0.048683036118745804	-0.02287735603749752	-0.10024061053991318	0.009291782043874264	0.006371147930622101	0.02576146088540554	0.14343059062957764	-0.032316021621227264	0.06468414515256882	0.10810143500566483	0.043110594153404236	-0.10367310792207718	-0.07040126621723175	0.02250020019710064	0.025456437841057777	0.05712319165468216	-0.11205801367759705	0.02910853549838066	-0.0025974451564252377	0.06768107414245605	0.007397310808300972	0.05758626386523247	0.03332413733005524	-0.00038364058127626777	0.020731084048748016	-0.1272098422050476	0.026046691462397575	0.03656845912337303	0.02107881009578705	0.011895484291017056	0.1373184323310852	-0.05657745525240898	-0.09040945023298264	0.07383375614881516	-0.01536528393626213	-0.03215846046805382	-0.10386093705892563	0.026820436120033264	0.021451132372021675	0.09094268828630447	0.01362445205450058	-0.0204415675252676	
-0.0058921636082232	0.007144756615161896	-0.011849132366478443	-0.06960346549749374	-0.026260334998369217	0.04124780744314194	-0.005852473899722099	-0.013570956885814667	-0.0027707868721336126	0.02235541306436062	0.009083001874387264	0.04234205186367035	-0.09957090765237808	0.0003446408954914659	0.1075344830751419	-0.09078963845968246	0.0937436893582344	0.04563703015446663	0.02686513587832451	-0.024662213400006294	-0.003390910802409053	0.01172089297324419	-0.014569630846381187	-0.008954184129834175	-0.024035854265093803	0.061863865703344345	0.002371283248066902	0.019083047285676003	-0.007228097412735224	-0.006190937478095293	0.05766856297850609	0.08536846190690994	-0.13874304294586182	-0.03285050019621849	0.06381190568208694	-0.06960524618625641	-0.014120983891189098	0.0037039408925920725	-0.028180135414004326	0.033885542303323746	0.001223421306349337	0.004203571006655693	0.057107217609882355	-0.07365281879901886	0.029897140339016914	-0.0012173914583399892	-0.0037469721864908934	0.003337323432788253	0.030134456232190132	-0.0183913242071867	-0.07009375840425491	0.05146360769867897	-0.01081603392958641	0.04161784052848816	0.023857641965150833	-3.0502515073749237e-05	2.2710213670507073e-05	0.02365523763000965	5.063465505372733e-05	-7.369138188551005e-07	0.013454418629407883	-0.0003287101280875504	-6.758402378181927e-06	0.011782829649746418	-1.2967479051440023e-05	5.8677425840869546e-05	0.08118408918380737	-0.026443475857377052	0.029657363891601562	-0.048992056399583817	-0.002610120689496398	-0.02418704703450203	-0.02561638504266739	-0.05709502100944519	0.023642200976610184	0.08205590397119522	0.022849060595035553	-0.043617818504571915	-0.025017965584993362	0.1163981631398201	-0.22604724764823914	0.027315927669405937	-0.036168020218610764	-0.02326824888586998	0.0013201823458075523	0.009268173947930336	0.055751897394657135	0.034865155816078186	-0.09776787459850311	0.005108984652906656	0.1667689085006714	-0.01447188202291727	0.11981040239334106	0.1317434161901474	-0.02385232038795948	0.0074410829693078995	0.20202216506004333	-0.021593322977423668	-0.3351384401321411	0.21168117225170135	0.14667575061321259	-0.1425204575061798	0.08010711520910263	0.044398751109838486	-0.09377757459878922	-0.0011054123751819134	-0.0020511001348495483	0.024229979142546654	0.5083634257316589	-0.058272380381822586	0.17261755466461182	0.02876848354935646	-0.02155447192490101	-0.0073012071661651134	0.01768963225185871	-0.04925356060266495	-0.009433428756892681	0.002928335452452302	0.054408494383096695	0.03593204542994499	0.15888415277004242	0.016366634517908096	-0.005182765889912844	0.08566620945930481	-0.0821973904967308	0.0460352897644043	
-0.06204165145754814	-0.07425610721111298	0.014278908260166645	0.021694183349609375	-0.012746894732117653	-0.04302160069346428	-0.14334499835968018	-0.006634111981838942	-0.0006541573093272746	-0.04349208250641823	-0.00783348735421896	0.009837125428020954	-0.1329798400402069	0.03849359229207039	0.050437938421964645	0.0032211930956691504	0.012450839392840862	-0.06389383971691132	0.07955926656723022	0.05335688963532448	-0.021045027300715446	6.277782631514128e-06	-0.01984878070652485	-0.031007394194602966	0.03293400630354881	0.0231770072132349	0.008190452121198177	-0.041345223784446716	0.056765273213386536	-0.028471754863858223	-0.046248167753219604	-0.07607395946979523	0.020907022058963776	0.06477420777082443	0.033668313175439835	0.08172417432069778	-0.04451705887913704	0.027469085529446602	-0.03831108659505844	-0.012425980530679226	0.05877380818128586	0.04738973453640938	0.07802824676036835	-0.06755752116441727	0.03260716795921326	-0.014693784527480602	0.046625182032585144	0.012111984193325043	-0.05787428095936775	0.03786381334066391	0.03832077980041504	-0.054835107177495956	0.005931374151259661	-0.019627364352345467	0.015496788546442986	0.0002986920007970184	2.0362962459330447e-05	0.017305124551057816	3.114387072855607e-05	-3.752309930860065e-05	0.005829332396388054	0.001485486631281674	-2.0129862605244853e-05	0.005688636563718319	-4.125489795114845e-05	-5.896504444535822e-05	-0.040968745946884155	-0.060570552945137024	-0.02776261791586876	0.06098230928182602	-0.057225752621889114	0.021346179768443108	-0.031049160286784172	-0.02245442382991314	0.008833768777549267	-0.056983862072229385	0.041152939200401306	-0.007654564455151558	0.0324847511947155	0.08842165768146515	-0.03940581902861595	0.017683815211057663	-0.03136152774095535	0.002519033383578062	0.004242644179612398	0.011278384365141392	-0.04639613628387451	0.0401669479906559	-0.04073039069771767	-0.003471456468105316	-0.11113004386425018	-0.09362945705652237	0.10771700739860535	-0.05284922942519188	-0.06599485874176025	-0.03396685793995857	0.013267542235553265	-0.031061001121997833	0.006457869429141283	-0.049309518188238144	0.10087650269269943	0.010510249994695187	0.01879335753619671	-0.03202230855822563	-0.028619706630706787	-0.001948147197254002	-0.0031685407739132643	0.061699386686086655	-0.08983907103538513	-0.010019049979746342	-0.12777557969093323	-0.03384575620293617	0.0017013365868479013	0.050730299204587936	0.017558619379997253	0.035549815744161606	-0.16076043248176575	0.07973236590623856	-0.06760627031326294	0.13204391300678253	-0.006802787072956562	-0.11191534996032715	0.11254692077636719	0.0952916219830513	0.07349197566509247	0.10044775903224945	
0.101075679063797	-0.01259763352572918	0.06367672234773636	0.06391385942697525	-0.04743541404604912	-0.18613453209400177	-0.08373866975307465	0.03468884527683258	0.0981244444847107	0.10138679295778275	0.012850552797317505	-0.24793653190135956	0.060863249003887177	0.0956750363111496	0.06922974437475204	0.019748549908399582	-0.22318027913570404	0.07398179918527603	-0.13688558340072632	0.045401718467473984	-0.007441387977451086	0.06926707923412323	0.018149977549910545	0.07254835218191147	-0.11816704273223877	-0.037383534014225006	0.007938855327665806	0.06107669323682785	0.049564287066459656	0.052975885570049286	0.030253088101744652	-0.032781895250082016	0.1156291514635086	0.007590529974550009	0.03233254700899124	0.16472795605659485	0.08274821192026138	-0.046786967664957047	-0.02312489040195942	0.12056013941764832	-0.017262833192944527	-0.2532678544521332	-0.012330877594649792	-0.09918207675218582	-0.02250206656754017	0.2289886474609375	0.05688023567199707	0.10532524436712265	0.01633400470018387	-0.036725908517837524	-0.07323724776506424	-0.04722954332828522	0.10207898169755936	-0.6636256575584412	-0.0005072415224276483	-2.5464996724622324e-05	0.00014629300858359784	-0.001333775115199387	-9.43512495723553e-05	9.059717558557168e-05	0.0004419611068442464	4.2121515434700996e-05	-7.127021672204137e-05	-0.00013405154459178448	0.00011899897071998566	0.0001827512023737654	-0.08325168490409851	-0.07788624614477158	-0.05122233182191849	0.08640110492706299	0.10146424919366837	0.1886288970708847	0.07628469914197922	0.009774131700396538	-0.19110345840454102	0.013644899241626263	-0.24361936748027802	0.05406666919589043	0.12861914932727814	-0.03423573821783066	0.0879409983754158	0.006431255489587784	0.20995034277439117	0.13452397286891937	0.033562034368515015	0.05663031339645386	0.0055883461609482765	0.05524541437625885	-0.005423128139227629	-0.0470806285738945	0.168290376663208	-0.0937480702996254	-0.08214672654867172	-0.08719228208065033	-0.01092507317662239	-0.16602793335914612	0.22036901116371155	0.009725035168230534	-0.041840266436338425	0.043898630887269974	-0.14006675779819489	-0.025975815951824188	-0.03325052186846733	-0.1177820935845375	-0.027226967737078667	0.052997853606939316	0.17481884360313416	0.2975192666053772	0.06394468992948532	0.12513785064220428	0.19698557257652283	0.12164913862943649	-0.151849627494812	0.2670319974422455	-0.04951229318976402	0.22081109881401062	-0.5218765139579773	-0.032505668699741364	0.13158677518367767	-0.2169807404279709	0.08202245831489563	-0.16327141225337982	0.1710895597934723	0.07523166388273239	0.0021372518967837095	-0.3299877643585205	
