512
-0.0005920057301409543	0.00039629527600482106	-0.000410378270316869	-6.290868623182178e-05	0.01987418718636036	0.0003336460795253515	-0.00010781312448671088	-0.00012653131852857769	0.0005048681050539017	-0.00018428843759465963	7.89659025031142e-05	-0.00022993730090092868	-0.0006234298343770206	-0.0002013680204981938	-0.0671868622303009	-0.01706755720078945	-0.0003323405107948929	-0.0004750570224132389	-8.297541171486955e-06	-0.00011109266051789746	-0.0002451739856041968	0.00046328248572535813	-0.0004973015165887773	0.0003075104614254087	-0.000755692773964256	0.0003004214377142489	-9.578721801517531e-05	0.00025068953982554376	-0.0003022381570190191	0.000365105748642236	0.002388509688898921	-0.00010672331700334325	-0.00043058223673142493	0.00021230903803370893	0.00018301709496881813	-4.539740257314406e-05	4.3094980355817825e-05	0.0003175090823788196	-0.00030920273275114596	0.00017574179219081998	0.00017385248793289065	0.016204139217734337	0.00015519966837018728	-0.0005979249835945666	-0.0009836405515670776	-4.907753464067355e-05	-0.0004002985078841448	-0.0017829786520451307	0.08508705347776413	-3.170388299622573e-05	5.653287371387705e-05	0.00047740244190208614	0.004645063541829586	-0.031009739264845848	-0.00048763721133582294	-0.00028087853570468724	0.0005803976091556251	0.00040670300950296223	-0.008815412409603596	-0.00017498695524409413	9.733939077705145e-05	-0.0001611352345207706	0.00022662479022983462	0.0003141042834613472	4.7856032324489206e-05	-0.0003945373755414039	-0.0004798682639375329	0.0005257199518382549	7.680785347474739e-05	-0.00042159610893577337	2.6723735572886653e-05	-0.00029502203688025475	0.0003069365047849715	0.0004227537428960204	0.0004928451962769032	0.027483738958835602	6.69930232106708e-05	0.0002598642895463854	0.0008248687954619527	-0.00010884347284445539	0.0004074800235684961	0.00013356203271541744	-0.0003048072976525873	0.0003745056746993214	0.0001804850617190823	0.00020517152734100819	0.00023115731892175972	-0.0004884689697064459	0.0005105158197693527	0.00027611598488874733	0.00022379749862011522	-0.0010511124273762107	0.0004704711027443409	-0.0004193392815068364	-0.0004677851975429803	-0.00014535295485984534	0.0007887555402703583	-0.0008275734726339579	0.00010762527381302789	-0.00012919648725073785	0.0004141656681895256	9.189225238515064e-05	0.000511932943481952	-0.0007755666738376021	-0.00039003751589916646	0.0003105037030763924	0.00011837028432637453	0.000514577201101929	0.00014997016114648432	-0.000507947348523885	0.0006086802459321916	-0.0004194680950604379	-0.0007223254651762545	0.0005758741754107177	0.10695762932300568	0.00012385309673845768	0.00015049538342282176	-0.0010664449073374271	0.000491135404445231	-0.019031774252653122	0.0004832441918551922	3.573647336452268e-05	-1.8135080608772114e-05	-0.00012091585813323036	-0.00015338968660216779	0.000695678114425391	0.00030442257411777973	0.0006966908113099635	-0.00021334814664442092	0.00017585069872438908	-0.012561650015413761	0.000651229580398649	0.000352269213180989	-0.0004233447543811053	-0.000971466361079365	0.0003540761535987258	0.00022667257871944457	-0.00018746561545412987	0.0005939044058322906	-0.0001809893292374909	0.0005954838125035167	-0.0009132003178820014	-0.0007622168632224202	-0.00027614235295914114	0.0006490512751042843	0.00021979935991112143	-5.194866025703959e-05	0.0138234319165349	0.0001813424751162529	-0.0008827907149679959	0.0005013469490222633	0.0008879843517206609	0.00014756295422557741	-2.1949250367470086e-05	0.0005596734117716551	0.0008663982735015452	0.0002021081163547933	0.00012892326049041003	2.7290358048048802e-05	0.0004622434207703918	0.0004160109965596348	-0.00028291234048083425	-0.00037213144241832197	-0.0003156681777909398	0.0007224254659377038	-7.434957660734653e-05	-0.036963485181331635	-0.0010629015741869807	-7.089464634191245e-05	-0.0006394844967871904	0.0001864849909907207	0.0001671179779805243	0.00012549659004434943	-0.0005368887796066701	0.0001415875303791836	0.00031435684650205076	0.0003254064649809152	0.006130442023277283	0.0001457392645534128	0.0006869330536574125	-4.666298991651274e-05	-0.00012051239173160866	9.454179962631315e-05	-0.0005804344546049833	-0.00029602344147861004	0.025591706857085228	0.0005745287635363638	0.00012370625336188823	0.0004770356754306704	3.2897937671805266e-06	0.0002575528051238507	0.00048009076272137463	-0.00016923880320973694	0.0005767180118709803	-0.0008274089777842164	0.0005757170147262514	0.05749981850385666	-0.0006190922576934099	-0.00031053455313667655	0.0003183273074682802	-0.00011353447916917503	0.00042976162512786686	-0.0009120648610405624	-0.00043401343282312155	0.02821630798280239	0.00044374496792443097	0.00027836288791149855	-0.003914834465831518	-0.0003471161180641502	0.0007581169484183192	0.0004266890755388886	-0.0005968764889985323	7.028038089629263e-05	0.0004949568537995219	-1.3260735613584984e-05	-0.005981980357319117	-0.0003149216063320637	0.00014546376769430935	-0.00024741762899793684	0.0004675594682339579	-0.0002740546769928187	-0.00018524911138229072	0.0003349127364344895	-0.012017900124192238	0.0009001049329526722	-3.296990689705126e-05	0.0005063784192316234	0.0002844729460775852	0.0001257674302905798	-0.008047658950090408	0.00016514258459210396	-0.0007491703727282584	0.0004852411802858114	0.000851679767947644	0.0005403427639976144	0.000360002217348665	-0.0005377156776376069	-0.0002485451987013221	0.0005247496301308274	-0.0001325120683759451	-3.9657217712374404e-05	1.3118267816025764e-05	0.0005838919896632433	0.00017176328401546925	0.0007311137742362916	0.00029699745937250555	0.0829291045665741	0.0002089718182105571	2.4416718588327058e-05	0.0006232287269085646	-0.0001588170853210613	0.00481396121904254	0.0003088984522037208	0.0002484152209945023	-4.483207158045843e-05	0.000612391799222678	-0.0002184266922995448	0.0006242299568839371	0.0002742412034422159	-0.0007217993843369186	0.02160433679819107	0.00014497181109618396	0.010460603050887585	-0.00030379858799278736	0.00036669985274784267	0.0007805665954947472	-0.00037007455830462277	0.00018762741819955409	-0.00018513143004383892	0.00047219175030477345	-0.0006931505049578846	-9.233562195731793e-06	-2.1994517737766728e-05	0.0005091867642477155	-0.0006142182392068207	0.0007541709346696734	-0.0007734044338576496	-0.0008161416044458747	-0.09813731908798218	0.0003220616199541837	0.04887739196419716	0.0003032395034097135	-0.0008746386738494039	-0.0002960377896670252	0.0017363184597343206	0.0004400840844027698	0.0001368571538478136	-0.0005188313079997897	-0.02010200172662735	0.00012578137102536857	-0.0007340959855355322	-0.03949848935008049	0.00031637048232369125	0.00040983539656735957	-8.316661842400208e-05	0.00042274099541828036	-0.1168578714132309	-0.0006613479927182198	8.42783774714917e-05	0.0006247541168704629	0.00034761230926960707	-0.0002302642969880253	-0.0004293726815376431	-4.5578555727843195e-05	0.00020184241293463856	0.000425489095505327	-0.00034266631701029837	0.0004760072333738208	0.000317317753797397	5.278931712382473e-05	0.00022013977286405861	3.460983498371206e-05	7.45076613384299e-05	0.0035656443797051907	7.109369471436366e-05	8.186742343241349e-05	-0.0007199626415967941	-0.000307401642203331	2.5644380002631806e-05	-0.000614315620623529	-0.00031064965878613293	-0.04289752244949341	-0.03225898742675781	0.00032327978988178074	-0.0003106074291281402	-0.0006004408351145685	0.00031361408764496446	0.0001940533402375877	0.000568056886550039	-0.0009484185138717294	-0.0006408272311091423	-0.013170130550861359	-0.00020978903921786696	-6.628280971199274e-05	2.794755891954992e-05	-0.00012363598216325045	-0.04105610027909279	0.00033814131165854633	-0.00012432291987352073	-0.0003065888013225049	4.345076376921497e-05	0.00028417183784767985	0.00039140935405157506	0.11239780485630035	-0.000326090696034953	-0.0005953498766757548	-0.0001126277566072531	0.00043230297160334885	0.00012352067278698087	-8.497797534801066e-05	-0.00081253721145913	0.0012569702230393887	-0.0005016219802200794	-0.0004337260324973613	-9.481163579039276e-05	3.2740638289396884e-06	-0.0003252483729738742	1.00103352451697e-05	-9.599033364793286e-05	0.0004424181242939085	-0.00018993078265339136	-0.00011159109271829948	7.310795626835898e-05	-0.0005939619732089341	-9.188559488393366e-05	-7.974505024321843e-06	0.007207236718386412	0.000541090383194387	-0.0003289950836915523	0.00028867623768746853	-0.00022832518152426928	0.00020528901950456202	0.0002818612556438893	-0.0007288211490958929	0.00012837648682761937	0.0004961058148182929	0.0002932166971731931	0.00030398633680306375	-0.00028351988294161856	0.0006463383324444294	-0.00042905809823423624	-0.0005585618782788515	0.0004408453532960266	0.026313193142414093	-0.00019032754062209278	0.0004854941798839718	0.0004989721346646547	-0.00037324303411878645	0.00018981224275194108	9.639184281695634e-05	-0.000426037993747741	-0.0001475891622249037	0.0007249448681250215	0.00022327384795062244	0.00021883104636799544	-0.0003274253976996988	0.003903330070897937	0.00033587575308047235	-0.0005722291534766555	-0.0003818534896709025	0.00028076168382540345	0.00019853483536280692	-0.026294175535440445	9.73303394857794e-05	-0.0003774347133003175	0.0003567342064343393	0.0003159639018122107	0.00015599597827531397	0.00026882003294304013	-0.00025346502661705017	0.0005669273086823523	0.08739286661148071	0.000824607617687434	-0.0012630581622943282	-0.00022824642655905336	-0.0005979917477816343	0.0006093605188652873	0.0008144753519445658	8.234151209762786e-06	-0.0005170296644791961	0.0003468443755991757	-4.4032465666532516e-05	0.0003282872785348445	-0.00046425446635112166	0.00031532655702903867	0.001018773764371872	-0.0007056464673951268	-0.0002860467357095331	0.00016426361980848014	-0.000342795392498374	-0.0006380536942742765	-0.0006955270073376596	-0.00018527415522839874	0.0004956292686983943	0.00012274301843717694	0.00024018051044549793	0.00026321274344809353	0.0004487810656428337	0.0007766946218907833	4.757315764436498e-05	0.015686962753534317	0.01112997904419899	-0.00016733708616811782	-4.148609878029674e-05	0.0002163345052395016	0.0159332025796175	-7.728124182904139e-05	0.0005332432338036597	4.0171562432078645e-05	0.00023541170230600983	1.923701711348258e-05	-0.0002820137597154826	-0.0005034285131841898	-0.00021963239123579115	-1.3928527550888248e-05	7.696836837567389e-05	9.387746831635013e-05	-0.0006831862265244126	0.0005784081295132637	-9.680166840553284e-05	8.709832763997838e-05	-0.0006098729791119695	0.01623629406094551	-0.00029747289954684675	-0.0004850260156672448	-4.985579380445415e-06	-0.014489931054413319	0.0003216492768842727	0.0001482599473092705	0.00028885845676995814	0.00016554819012526423	0.0007218469399958849	0.0005997610278427601	-1.700313077890314e-05	0.00036285887472331524	0.0005524320877157152	0.000370701338397339	-0.00017631187802180648	-4.469395207706839e-05	0.00040682527469471097	0.0004960084334015846	0.0002757095207925886	-0.0006005859468132257	0.00022362585877999663	8.805375546216965e-05	-0.033050306141376495	-0.011456290259957314	-0.0002366118278587237	-0.0003607251856010407	-0.0005018349620513618	0.0069735306315124035	-0.0006029204814694822	-4.6426128392340615e-05	0.0003635946486610919	0.000313195661874488	0.023075047880411148	0.0006675537442788482	2.9837821784894913e-05	0.0003794233489315957	0.0004355215933173895	0.0007487902767024934	-0.005395967047661543	0.0005435520433820784	-0.00024255694006569684	0.0006201088544912636	0.00012472394155338407	0.0004494055174291134	-0.00046806223690509796	-0.0004768139333464205	0.0005435452912934124	-5.0414164434187114e-05	6.023661626386456e-05	