63
-0.10562164336442947	-0.027809880673885345	0.1028783917427063	-0.1623346358537674	0.0012049212818965316	-0.06620868295431137	0.04782537370920181	-0.015476320870220661	0.02274254895746708	0.09914066642522812	0.030437467619776726	-0.024362152442336082	0.11268952488899231	0.0014211819507181644	0.02431989647448063	-0.04455387964844704	-0.030621830374002457	-0.036523833870887756	-0.046877581626176834	-0.028851240873336792	0.0013096180045977235	-0.02709590643644333	-0.0047020576894283295	0.004335077945142984	-0.08857277780771255	0.00039620004827156663	0.07584664225578308	0.711331844329834	0.8320385217666626	0.7367409467697144	0.6922748684883118	0.6862713694572449	-0.6319886445999146	-0.003556095529347658	-0.03611856326460838	-0.08120328933000565	-0.18850305676460266	-0.17065933346748352	0.1852610558271408	-0.12307452410459518	0.18014834821224213	-0.248732790350914	-0.09893578290939331	0.032942164689302444	0.0871836245059967	-0.1422642022371292	-0.030129073187708855	0.238077312707901	-0.21324734389781952	0.06254146248102188	-0.1714458167552948	-0.1498468965291977	-0.12197228521108627	0.09268111735582352	-0.09261598438024521	0.12791921198368073	-0.07597813010215759	-0.07533720135688782	-0.04516443610191345	0.05488462373614311	-0.053548455238342285	0.024430014193058014	-0.03959815576672554	