512	32
-0.0006697715143673122	0.0013897242024540901	0.002885972848162055	-0.001182482112199068	0.005577481351792812	0.0019004051573574543	0.002008623443543911	-0.0033097751438617706	0.0011846766574308276	-0.0001041321229422465	0.0012953861150890589	-0.0013179485686123371	-0.0038784360513091087	0.0008135542157106102	-0.0004960888181813061	0.002545977011322975	-0.0003229335998184979	-0.0003283687401562929	-0.0040846047922968864	-0.004007481504231691	-0.00039687115349806845	2.1731704691774212e-05	0.004530349280685186	-0.0004066239926032722	1.3719548405788373e-05	0.0037516665179282427	0.001731629716232419	0.0012615491868928075	0.003740553278476	-0.0001691761426627636	-8.124271698761731e-05	-0.0004014364385511726	
-0.0015009371563792229	0.0010586933931335807	-0.003317390801385045	0.0011077991221100092	0.004138830583542585	0.00026862596860155463	0.001575328060425818	-0.0008192760869860649	-4.0964408981380984e-05	-8.050681935856119e-05	0.0025901426561176777	-1.838129901443608e-05	0.0006400425918400288	0.0023027202114462852	-0.00045207462972030044	0.0009501321474090219	-0.00021194493456277996	0.0026959835086017847	-0.0025452871341258287	-0.0006104232161305845	0.00043287320295348763	0.00032342728809453547	0.0027914983220398426	-0.00044637653627432883	-0.0001374079001834616	0.004397040233016014	-0.000697716954164207	0.0037731933407485485	-0.0003538400342222303	-0.0005071911728009582	0.00165978679433465	-0.0004958572098985314	
-0.0007393883424811065	0.005786299705505371	-0.0021466496400535107	0.0021047398913651705	-0.00337807135656476	-0.0027711919974535704	0.004393548704683781	0.0020482810214161873	-0.002293806057423353	-0.0005058881943114102	-0.00035473794559948146	0.0024878992699086666	0.0039789448492228985	0.0006509670056402683	-0.0004795437562279403	0.0028656679205596447	-0.0004103762621525675	-0.000618704070802778	0.0014744742074981332	-0.0038176195230334997	0.0006970298709347844	0.005053753033280373	-0.0025230685714632273	-0.0006743039120920002	-0.0007163122063502669	0.0035182773135602474	-0.008475176058709621	0.0019808427896350622	-0.006774323992431164	-0.0011807908304035664	-0.004554880317300558	-0.0007376701105386019	
-0.0042194402776658535	0.0006711345049552619	-0.0031210884917527437	-0.004167497623711824	0.004333767108619213	-0.0010007451055571437	3.5985460272058845e-05	-0.00016974775644484907	0.0024808503221720457	-0.0014013746986165643	0.0015480926958844066	-0.0017115657683461905	0.0009949627565219998	0.001368472701869905	-0.0017663311446085572	-0.0011995397508144379	-0.0017220699228346348	0.003525643842294812	-0.0015899080317467451	-9.933866749634035e-06	-0.002680235542356968	0.0014425513800233603	0.0016176359495148063	-0.00168709980789572	-0.0015006582252681255	0.004639697261154652	0.00046797774848528206	0.0035759781021624804	-0.0012279489310458302	-0.00016624410636723042	-0.005038261879235506	-0.001862500561401248	
-0.007778588682413101	0.003282052930444479	0.0014121384592726827	0.001816934673115611	-0.002553362399339676	0.0002821609959937632	0.001606443664059043	-0.001546356943435967	0.0038815573789179325	-0.0008524384465999901	-0.0006636017351411283	-0.00654598930850625	-0.008647477254271507	-0.0015703896060585976	-0.001265257247723639	-0.0008429607842117548	-0.0013967928243800998	-0.0017825511749833822	0.0011313454015180469	0.0010973381577059627	-0.0005299281910993159	0.0047090365551412106	-0.0003369901387486607	-0.0013012659037485719	-0.0012066526105627418	0.005953205283731222	0.0014416560297831893	0.00039084089803509414	0.0023059388622641563	0.0020155583042651415	-0.0005359058268368244	-0.0010920590721070766	
-0.0015079693403095007	0.0015679021598771214	-0.0008739953627809882	-0.0033080524299293756	0.004941797815263271	-0.0013416438596323133	-0.005430073477327824	0.003453790210187435	0.0005292308051139116	0.0015236877370625734	0.002103960607200861	0.002032661810517311	-0.004828065633773804	-0.0038643404841423035	0.0012261985102668405	-0.012542348355054855	0.0016030333936214447	0.005336325615644455	-0.0018687793053686619	-0.0004186286823824048	0.0011437437497079372	-0.007830217480659485	0.004912516567856073	0.0017695865826681256	0.0013484269147738814	-0.0034732744097709656	0.005498034413903952	-0.0012247450649738312	0.004665276035666466	0.002581798704341054	0.0014100796543061733	0.001324147335253656	
0.0010285347234457731	0.0016571315936744213	0.003887085011228919	-0.0037506341468542814	0.006721483543515205	0.00018246265244670212	-0.004502919036895037	0.003349646693095565	0.0024280804209411144	0.0027679624035954475	0.001999635249376297	0.0016162381507456303	-0.005577250383794308	-0.0038766679354012012	0.0022482480853796005	-0.0019433312118053436	0.0028712430503219366	0.003080844646319747	-0.004314351826906204	-0.010571510531008244	0.007478731218725443	-0.010323706082999706	0.0057952809147536755	0.002788388170301914	0.002667734632268548	0.002200101036578417	0.002674288349226117	-0.004333142656832933	-0.001640640664845705	0.0008741055498830974	-0.00280266092158854	0.0021128333173692226	
0.0041485559195280075	-0.004063351079821587	-0.004835597239434719	0.0013649616157636046	-0.004354970529675484	0.0001633509818930179	-0.0017693249974399805	-0.0010357443243265152	-0.0008099465630948544	-0.0016526635736227036	-0.0017560564447194338	-0.003742082044482231	0.006967458873987198	-0.001600758172571659	-0.0011449805460870266	0.0037003762554377317	-0.001727683236822486	-0.002302004024386406	0.004525019321590662	0.010223624296486378	-0.0058242869563400745	0.0018960455199703574	-0.003164710244163871	-0.001593251246958971	-0.0014668998774141073	-0.0014910425525158644	-0.0017551877535879612	0.0024390709586441517	0.002371004084125161	-0.0009376703528687358	0.001196633791550994	-0.0012531859101727605	
0.0012900589499622583	-0.009102967567741871	-0.0017942531267181039	0.006825185380876064	0.002773499581962824	0.0011057837400585413	-1.918504131026566e-05	-0.0022597929928451777	-0.0034768828190863132	0.00305348401889205	0.0009846369503065944	-0.00122061709407717	-0.001341540482826531	-0.0003014215035364032	0.0033124706242233515	-0.004373527131974697	0.003554630558937788	-0.0027370352763682604	-0.0052317180670797825	0.010617499239742756	0.008491947315633297	-0.007112895604223013	0.0022695218212902546	0.0033195954747498035	0.0030628484673798084	-0.006120283156633377	0.0037991967983543873	-0.0008841125527396798	0.00451921159401536	0.0007099049398675561	0.012777809053659439	0.0033840828109532595	
-0.0005276129813864827	-0.00011824979446828365	-0.003918822854757309	0.00220508617348969	0.0015235735336318612	-0.003589750500395894	-0.0001774902339093387	0.002978958422318101	-0.004739533644169569	0.001714405370876193	0.001337810535915196	0.0047326236963272095	0.005336157977581024	0.0002509343030396849	0.0017149901250377297	-0.004528384655714035	0.0020128884352743626	0.0015731132589280605	0.0009666612604632974	0.0013768848730251193	0.00621840450912714	-0.0009128647507168353	-0.0012624217197299004	0.001782763167284429	0.0014121454441919923	-0.0025762857403606176	-0.004364263731986284	0.002539903623983264	-0.003342258045449853	-0.001075783628039062	-0.0006685728440061212	0.001478348858654499	
-0.002289655851200223	0.007581555750221014	-0.0002338965132366866	0.0019719370175153017	-0.0014101066626608372	-0.007482666987925768	-0.0001616873050807044	0.0035897805355489254	-0.0008870861493051052	-0.0014844236429780722	0.0024186372756958008	0.007641393691301346	0.0010807679500430822	0.0043760850094258785	-0.001578644965775311	-0.001524530816823244	-0.0015665077371522784	0.0073358905501663685	0.004421858582645655	-0.005197172053158283	-0.007834076881408691	-0.00012115804565837607	9.618295734981075e-05	-0.0015513523248955607	-0.0017373773735016584	0.0036683296784758568	-0.0033409767784178257	0.0012721092207357287	-0.007116600871086121	-0.002493259496986866	-0.0018509438959881663	-0.0016581738600507379	
0.00579811679199338	-0.009372016414999962	-0.0015180238988250494	0.004628183785825968	-0.00335544697009027	0.0028540065977722406	0.0036072107031941414	-0.0032789784017950296	0.005648307502269745	-0.002056689700111747	-0.003490172792226076	-0.003300741780549288	0.007813336327672005	0.003387839999049902	-0.0016208803281188011	0.011298118159174919	-0.002139586489647627	-0.007441482041031122	0.007879102602601051	0.002574366517364979	-0.012495240196585655	0.006767991930246353	-0.004196209367364645	-0.0023322682827711105	-0.0021243297960609198	0.001972744707018137	-0.003227145876735449	-0.0007726207841187716	-0.004128096159547567	0.011110146529972553	-0.003189589362591505	-0.0018883689772337675	
0.003827769309282303	-0.011700628325343132	0.002418107120320201	0.006624959409236908	-2.3639706796529936e-06	-0.007070820312947035	0.008582099340856075	-0.004484884440898895	-0.003511101705953479	0.0004751551023218781	0.0007615247741341591	-0.005676592700183392	-0.00018779314996208996	0.009992029517889023	0.0010721563594415784	0.008737311698496342	0.0008431042078882456	-0.009147516451776028	-0.003388634417206049	0.009501668624579906	0.0039415135979652405	-0.0013203315902501345	-0.0020885688718408346	0.0006430852808989584	0.0006682082312181592	0.0063706208020448685	-0.003750853007659316	0.0017619627760723233	-0.005703524220734835	-0.00038267113268375397	0.011837846599519253	0.0007716244435869157	
-0.007863813079893589	0.0024647917598485947	0.0035713582765311003	-0.002336133737117052	-0.00043585136882029474	-0.0011055379873141646	-0.0015230888966470957	-0.000977355637587607	-0.0008614866528660059	0.001217518700286746	-0.0002101476857205853	-0.0021995841525495052	-0.0025172296445816755	-0.0024584666825830936	0.0008457466610707343	0.004109106957912445	0.0010688126785680652	-0.001256630988791585	-0.0010959174251183867	-0.001196509343571961	0.006390620023012161	0.006104595027863979	-0.0014176465338096023	0.0010756992269307375	0.0010444943327456713	0.006284681148827076	-0.0003577314782887697	0.002026219153776765	0.0011523431167006493	0.0004023144720122218	-0.0007858889875933528	0.0008601034060120583	
0.002472738502547145	0.0005687573575414717	-0.002484135562554002	0.0077731977216899395	-0.0036697385367006063	-0.00040507136145606637	0.004207966849207878	0.0009107839432545006	-0.0026555070653557777	-0.0004025561211165041	0.00094996253028512	0.0018015129026025534	0.0021321403328329325	0.004769621882587671	-0.00020812926231883466	0.0020969249308109283	-0.0001899126946227625	0.00030427577439695597	-0.0009392743813805282	0.0007897111354395747	-0.00042077465332113206	0.000678422802593559	0.0015997664304450154	-0.00042547567863948643	-0.0002789734280668199	-0.0015685753896832466	-0.0037165514659136534	-0.00046255666529759765	-0.004605010151863098	-0.0033803859259933233	0.0070253959856927395	-5.621968739433214e-05	
-0.0016810811357572675	0.006435071118175983	-0.0011718369787558913	-0.008014542050659657	0.004363567102700472	-0.0027752164751291275	-0.001893812557682395	0.0029569375328719616	-0.003957043867558241	0.0009819197002798319	-0.0013112383894622326	0.004291077144443989	0.004063962493091822	-0.004677961114794016	0.0006611032877117395	-0.007004916202276945	0.0009193762671202421	0.0012451971415430307	0.0007166004506871104	-0.005569141823798418	0.0035305204801261425	0.0031652983743697405	-0.002180335810407996	0.001015719142742455	0.0007667653262615204	-0.0019403129117563367	-0.004391632042825222	0.0042962199077010155	0.0013343315804377198	-0.001707838149741292	-0.010912897996604443	0.0004978001234121621	
0.0041702850721776485	-0.001286497339606285	0.0012757137883454561	-0.0008673741249367595	-0.003536658361554146	0.0005341322394087911	0.00048576094559393823	0.0006301981047727168	0.0027533872053027153	-0.0016202246770262718	-0.0010731390211731195	0.0005933240172453225	-0.002332268748432398	0.000991067849099636	-0.001294054789468646	-0.0009199095075018704	-0.0015055987751111388	0.0007564870174974203	-0.00019729563791770488	-0.00184869475197047	-0.0024740316439419985	-0.0042224968783557415	0.0009440596913918853	-0.0012328727170825005	-0.0013248231261968613	-0.004051433876156807	0.0020250831730663776	-0.0028466570656746626	-0.0020477112848311663	-0.001352634048089385	0.0005281649064272642	-0.0010859138565137982	
-0.005209681577980518	-0.0029449372086673975	-0.0005495721125043929	-0.0044799624010920525	0.004227879457175732	0.002363696228712797	-0.00407050596550107	-0.002084156032651663	-0.00020405151008162647	0.0012791546760126948	-0.002348868642002344	-0.005783897824585438	0.0019811196252703667	-0.001844010315835476	0.0009129240061156452	0.002289588563144207	0.0010198415257036686	-0.004198180045932531	-0.007679643575102091	0.002766508376225829	-0.0020265071652829647	0.004184830468147993	0.0025071059353649616	0.0010881591588258743	0.0013054651208221912	-0.0045100850984454155	0.0022313441149890423	-0.0005557661643251777	0.010478721000254154	0.0010485793463885784	0.00048233772395178676	0.001195362419821322	
-0.0044393762946128845	-0.003329808358103037	-0.004380429163575172	0.007311742752790451	-0.0038320310413837433	0.0014404738321900368	-0.0005490415496751666	-0.0020435573533177376	0.00136552972253412	0.00039466365706175566	-0.003220973303541541	-0.005528387147933245	0.0009419456473551691	-0.0037033783737570047	0.0009763319976627827	0.006819399539381266	0.00042378707439638674	-0.0021455069072544575	0.00488188536837697	0.015051142312586308	-0.0032565384171903133	0.0024212179705500603	-0.00361802545376122	0.0003068470396101475	0.00012895037070848048	0.008121891878545284	-0.0020626778714358807	0.0016717355465516448	-0.001932521932758391	0.008203855715692043	0.0026273024268448353	0.0005820890655741096	
-0.0013072909787297249	-0.0015587755478918552	-0.003016935894265771	-0.0012788986787199974	-0.0026921117678284645	0.006159696262329817	-0.001400532084517181	-0.002804521704092622	0.006837847176939249	-0.0016322346637025476	-0.0018692058511078358	-0.00804196484386921	-0.005315408110618591	-0.00394626148045063	-0.0018659263150766492	-0.0013311178190633655	-0.0020990120247006416	-0.0005613066605292261	0.0032691429369151592	0.0030178462620824575	-0.003983253613114357	-0.00015922171587590128	-0.000538429943844676	-0.001867030980065465	-0.0016292487271130085	0.0003025191545020789	0.004309697076678276	-0.0018693889724090695	0.004817281849682331	0.003395186737179756	-0.0006554160499945283	-0.0016088203992694616	
-0.004499614704400301	0.005244506057351828	0.003427438670769334	0.003702638205140829	0.0002799098438117653	0.0004210599581710994	0.0013000828912481666	0.0023955798242241144	0.002833504928275943	-6.239329377422109e-05	0.0005803005187772214	0.0037430189549922943	-0.007471020799130201	0.0015845494344830513	-0.0006259285728447139	-0.009072170592844486	-1.051058575285424e-06	0.0011530161136761308	-0.00012429033813532442	-0.012493334710597992	0.002335888333618641	0.002967887558043003	0.004114053212106228	-0.00026164911105297506	-0.0004439546028152108	-0.0019523665541782975	-0.0008693326381035149	-0.0005261842743493617	-0.0015660314820706844	0.002854090416803956	0.000717043352779001	-0.00045712050632573664	
-0.12873589992523193	0.08421424776315689	-0.05345306172966957	-0.17464910447597504	-0.0348900705575943	-0.014821303077042103	-0.05510995537042618	0.0915473997592926	-0.13224829733371735	-0.02038353495299816	0.03350139036774635	-0.08788959681987762	-0.009575404226779938	0.07886377722024918	-0.019037479534745216	-0.14479045569896698	-0.019250044599175453	0.014843601733446121	-0.13067322969436646	0.044040240347385406	-0.2533854842185974	-0.05253049358725548	-0.0778147354722023	-0.019329603761434555	-0.020300274714827538	-0.19892947375774384	0.11850250512361526	-0.11132549494504929	0.21253705024719238	-0.2366788536310196	-0.04558015614748001	-0.019722357392311096	
-0.0018058379646390676	0.007797075901180506	-0.0026329343672841787	0.0025433124974370003	-0.0030419952236115932	0.004347969777882099	0.0011599636636674404	9.452102858631406e-06	0.0008289296529255807	0.00020975194638594985	0.0019686813466250896	-0.003799357684329152	-0.007638882379978895	-0.00039163639303296804	-0.0004283561138436198	-0.0031327668111771345	3.216482946299948e-05	0.002657852601259947	-0.002127622254192829	-0.004084810148924589	0.004634557757526636	-0.00038303222390823066	0.0009043968748301268	4.005518349003978e-05	0.00024101152666844428	-4.19466377934441e-05	0.0009656936163082719	-0.0021995515562593937	0.002285282826051116	-0.0027167070657014847	0.006441261153668165	1.6696396414772607e-05	
0.0051163919270038605	0.002789607970044017	-0.0003684812691062689	0.0024551935493946075	-0.0021691122092306614	0.0006165566737763584	0.0009829879272729158	0.0022187121212482452	-0.001690793433226645	0.0005041801487095654	-0.0015746267745271325	0.004201492760330439	0.003232980612665415	-0.0010798056609928608	0.0007390252430923283	-0.0016576240304857492	0.0008671507239341736	-0.0014412669697776437	0.0019985500257462263	-0.004531933460384607	-0.0012623618822544813	0.00027703060186468065	-0.001560575095936656	0.0006810831255279481	0.0006259090732783079	-0.005847061984241009	-0.0026146064046770334	-0.002590625546872616	-0.0014412698801606894	0.0008725409861654043	-0.0003955262654926628	0.000751818879507482	
-0.004928680136799812	0.0035637374967336655	0.0021290024742484093	0.0005807917914353311	-0.002278669038787484	-0.0028997326735407114	0.0012364040594547987	0.0008994592353701591	-0.0019346746848896146	0.0009868764318525791	-2.62256453424925e-05	-0.0013703344156965613	-0.0034494977444410324	0.0016453196294605732	0.000564520072657615	-0.002824445953592658	0.0007167657022364438	-0.001722192857414484	-0.002176739973947406	-0.0007801397587172687	0.004773042164742947	0.0046491422690451145	-0.0007152974721975625	0.0007371720275841653	0.0006253693718463182	0.0004661584971472621	-0.0022761777509003878	-0.00047566171269863844	0.00023845885880291462	-0.0017653374234214425	0.0007518924539908767	0.0008761391509324312	
0.004245707765221596	0.0008651755633763969	0.006587157491594553	-0.00400449987500906	0.004287864081561565	-0.002768296282738447	0.0003213923773728311	0.0021752575412392616	-0.005854134913533926	0.002499818801879883	-0.00014726052177138627	0.006209477316588163	0.002654594834893942	0.001893656444735825	0.002437427407130599	-0.0007352679967880249	0.0028286033775657415	-0.0020957516971975565	-0.007163072936236858	-0.008347432129085064	0.006596664898097515	-0.0006678527570329607	0.0011916551738977432	0.002723370911553502	0.00268360017798841	-0.0056550465524196625	-0.002132296795025468	-0.0011262318585067987	-0.0004657544777728617	-0.005153041798621416	-0.0035100451204925776	0.002463248325511813	
0.0022325615864247084	0.002785975346341729	0.0019844172056764364	0.0004815284919459373	-0.0012828282779082656	0.0001819748868001625	-0.001755091710947454	0.0025996160693466663	-0.0005278317257761955	0.001598845818080008	-0.0007024176884442568	0.004043167922645807	-0.0028183436952531338	-0.004885375965386629	0.001547990832477808	-0.005565148312598467	0.0017707651713863015	0.0004385573847685009	0.003347541904076934	-0.004853677004575729	0.0024256769102066755	-0.002340564737096429	0.0008795519825071096	0.0017698492156341672	0.0013256608508527279	-0.002693738089874387	0.00029213863308541477	-0.0023225450422614813	-0.0014520620461553335	0.0036366682033985853	-0.0019808898214250803	0.00148593180347234	
0.0010225552832707763	-0.0006897264393046498	0.0007135180057957768	-0.001412940793670714	-0.0026914014015346766	0.005062482785433531	-0.00243407697416842	-0.003133208490908146	0.0055533237755298615	-0.0016108965501189232	0.00016074356972239912	-0.0041358377784490585	-0.00399475172162056	-0.0039733946323394775	-0.0016497027827426791	1.6150311239471193e-06	-0.0018819007091224194	0.00038636274985037744	0.004528163466602564	0.001326763303950429	-0.0037641741801053286	-0.0003794351941905916	5.84995495955809e-06	-0.0016982946544885635	-0.0013907944085076451	0.0019765926990658045	0.004509692545980215	-0.0011876593343913555	0.005182163789868355	0.0026563031133264303	0.0008271292899735272	-0.0015354128554463387	
0.0006123236962594092	0.00425293343141675	-0.0012185864616185427	-0.0025029906537383795	-0.00034019604208879173	-0.0008445399580523372	-0.0007182636763900518	0.00043883343460038304	0.0020218088757246733	-0.00188721704762429	0.0006744785350747406	0.00382955651730299	-0.0001336144341621548	0.003400465939193964	-0.0019966107793152332	-0.005979639478027821	-0.001938998349942267	0.001710429904051125	0.004050892312079668	-0.005791294388473034	-0.0023144769947975874	-0.0003044959157705307	-0.0011233061086386442	-0.0018398455576971173	-0.0017595159588381648	-0.00487099215388298	-9.286982094636187e-05	-0.002213667379692197	0.0001497390476288274	-0.0013546780683100224	-0.002781635383144021	-0.0018603968201205134	
0.001445488422177732	-0.00028170712175779045	0.006234046071767807	-0.002959180623292923	0.0005355530302040279	0.001336979679763317	-0.0008119872072711587	-0.000202967319637537	-0.0035715787671506405	0.0023661458399146795	-0.0013014869764447212	0.0005006050341762602	-0.0013038947945460677	-0.00328255002386868	0.0022709055338054895	0.0004778487200383097	0.0024834771174937487	-0.003084937110543251	-0.003789472160860896	-0.0030359409283846617	0.006288303527981043	0.0012508060317486525	-0.00037900713505223393	0.0025584185495972633	0.0024603509809821844	-0.0030171319376677275	0.0005003006663173437	-0.002046958077698946	0.0023400243371725082	-0.0008265111828222871	-0.001047166297212243	0.0024146917276084423	
-0.00665484881028533	0.0051742009818553925	0.004516505636274815	0.0007926261750981212	-0.0006194731686264277	-0.007711031474173069	0.002303085057064891	0.0033158143050968647	-0.0046752807684242725	0.0018830017652362585	-0.0008744703372940421	0.007429968565702438	-0.004561964422464371	0.00030448634061031044	0.0018214142182841897	-0.0018136737635359168	0.002031562617048621	-0.001700721331872046	0.001120476401410997	-0.007712776307016611	0.006438238080590963	0.003210707800462842	0.0004438557371031493	0.0020179138518869877	0.001307756989262998	-0.001147846458479762	-0.0057773105800151825	-0.0007292082300409675	-0.007700885646045208	0.0020175452809780836	-0.004038125742226839	0.0016650904435664415	
-0.007352237123996019	0.014915465377271175	0.009078912436962128	0.009018183685839176	-0.008434521034359932	-0.005395239684730768	0.007733946666121483	0.00018052042287308723	0.0005376240587793291	-0.0003210699651390314	0.0030852677300572395	0.009246918372809887	-0.009723251685500145	0.01027856394648552	-0.0007947703707031906	-0.0003097735461778939	-0.00016207234875764698	0.001107783173210919	0.004012669436633587	-0.02327682077884674	0.004500186536461115	0.002894138917326927	0.0009825865272432566	-0.0004991673049516976	-0.0008000053348951042	-0.002576000289991498	-0.006409258581697941	-0.00499390996992588	-0.002913032891228795	-0.0017694886773824692	0.011654159985482693	-0.0005992438527755439	
-0.002683027880266309	0.0010662716813385487	0.002756302012130618	-0.0018541152821853757	0.004779791459441185	-0.006446874234825373	0.0008727217791602015	0.0024894759990274906	-0.005770570132881403	0.0019162563839927316	0.0016622012481093407	0.00445001432672143	0.00011256974539719522	0.003147006733343005	0.001743770088069141	-0.002106225350871682	0.002048123860731721	0.00010518562339711934	-0.006771070417016745	-0.003221886930987239	0.006723884027451277	-0.001072969171218574	0.0017869657604023814	0.001990231219679117	0.0017821864457800984	-0.0022575934417545795	-0.0022224634885787964	0.0002224908530479297	-0.0017161201685667038	-0.0056439898908138275	-0.0014966662274673581	0.0017310050316154957	
0.002237778389826417	-0.0015230926219373941	0.00023817086184863	-0.0008065361762419343	0.005424340721219778	-0.002823121612891555	-0.00038669322384521365	0.0031227534636855125	-0.004524907097220421	0.0026091509498655796	-9.56439325818792e-05	0.006478287745267153	0.00598046975210309	-0.0014268276281654835	0.002612764248624444	-0.0027885015588253736	0.0030435016378760338	-0.000920509803108871	-0.003716176375746727	-0.0042850784957408905	0.00387363089248538	-0.001045773271471262	0.0011318173492327332	0.0026978347450494766	0.0024092523381114006	-0.005876685958355665	-0.003637514542788267	0.00040096297743730247	-0.0005527166067622602	0.0003019672294612974	-0.0038837373722344637	0.0024011298082768917	
0.005014499183744192	-0.012717179954051971	-0.005753885954618454	-0.012544802390038967	0.0054799229837954044	-0.0006430911016650498	-0.008294520899653435	0.00247186073102057	0.00029810977866873145	-0.0015064566396176815	-0.004566877614706755	-0.00213387468829751	0.009578504599630833	-0.00950985960662365	-0.0008246767101809382	-0.005223933141678572	-0.0017529729520902038	-5.601541852229275e-05	0.0036910229828208685	0.019818902015686035	-0.009636882692575455	-0.003132111392915249	-0.005241054110229015	-0.0011388218263164163	-0.0012570788385346532	-0.0027836074586957693	0.006051916629076004	0.0013151565799489617	0.0024777338840067387	0.0034385682083666325	-0.016799267381429672	-0.000988138490356505	
-0.006221156567335129	0.0001759402803145349	-0.0004906007088720798	-0.0015335106290876865	1.074290594260674e-05	-0.0010034173028543591	-0.0011735174339264631	-0.0007979722577147186	0.00022655166685581207	0.00017037917859852314	-0.000495344283990562	-0.005216685589402914	-0.003692202502861619	-0.0002373077004449442	-0.00020034683984704316	-0.001217250945046544	-0.0003158954787068069	-0.0008231402025558054	-0.0014471489703282714	0.0038042606320232153	0.001957531087100506	0.0033626463264226913	-0.0007798527367413044	-0.00014007928257342428	-0.00019319995772093534	0.002577422885224223	-0.0005624571349471807	0.0008196720154955983	0.003168931696563959	-0.0016482623759657145	0.0006703471881337464	-3.520579048199579e-05	
-0.0018128169467672706	0.007663052063435316	0.002139847259968519	-0.005262423772364855	0.000412566470913589	-0.003725493559613824	-0.0011031848844140768	0.0004236323293298483	-0.0034624997060745955	0.0008079605759121478	-0.004095735494047403	0.004076384007930756	0.008100129663944244	-0.004961900878697634	0.0009251790470443666	0.011130432598292828	0.0004874773439951241	-0.0001620115217519924	0.010375555604696274	-0.0027250286657363176	0.0002899736282415688	0.010774928145110607	-0.00536350766196847	0.0006020626751706004	0.0003946655197069049	0.01089923083782196	-0.009216073900461197	0.00810575857758522	-0.006825711112469435	0.0025212520267814398	-0.010942311957478523	0.0003285054408479482	
0.0021299715153872967	-0.0072461380623281	-0.001052999752573669	6.943214248167351e-05	0.0012973006814718246	-0.00088294263696298	-0.0017954354407265782	-0.0005356968613341451	-0.00034006749046966434	-0.0004280653956811875	0.00023020537628326565	0.0010636931983754039	0.005137945059686899	0.0026735118590295315	9.756258077686653e-05	0.0020345961675047874	-0.0001897605397971347	0.0002651765535119921	0.0001492033916292712	0.005608235951513052	-0.001072972547262907	-0.0035805318038910627	-0.0007076925248838961	-0.00012117761798435822	-0.00018292435561306775	-0.0018256964394822717	0.0010154778137803078	0.0010407604277133942	-0.0005502192652784288	-0.0013003512285649776	0.0015559808816760778	-7.924596866359934e-05	
-0.00042184058111160994	-0.00035819708136841655	-0.003372863633558154	0.001528246677480638	-0.003651572857052088	0.0014076951192691922	0.003925754223018885	-0.001199102378450334	0.003694572951644659	-0.002749544568359852	0.0002744962403085083	-0.0036645347718149424	0.0010904211085289717	0.0036934404633939266	-0.0026275773998349905	0.006298770196735859	-0.002890408970415592	0.0010043034562841058	0.0009419944835826755	0.0016010719118639827	-0.004359757993370295	0.0026062328834086657	-0.002073843963444233	-0.0029469411820173264	-0.0025585393887013197	0.00605017552152276	-0.0014085363363847136	0.001242857426404953	-0.0034403884783387184	-0.0010376108111813664	8.637381688458845e-05	-0.002645145868882537	
-0.0026393793523311615	0.001684814807958901	0.0050447853282094	-0.0023553799837827682	-0.001198690035380423	-0.0014054456260055304	0.006104831583797932	-0.00013581848179455847	0.0031903572380542755	-0.0021931452210992575	-0.00047032887232489884	0.001092093763872981	-0.0013485453091561794	0.006625390145927668	-0.0023413263261318207	0.011246936395764351	-0.002432582899928093	-0.004565006121993065	0.0026114080101251602	-0.012840957380831242	-0.003823848906904459	0.009520432911813259	-0.002401283709332347	-0.002542460337281227	-0.0023527496960014105	0.0033523314632475376	-0.004593330901116133	-0.0022677539382129908	-0.007381314877420664	0.002610736759379506	-0.008838878944516182	-0.002428510459139943	
0.004581466317176819	0.006943817250430584	-0.00409952225163579	0.005634667351841927	-0.008267206139862537	-0.004887058865278959	-0.00021576466679107398	0.005511550698429346	-0.0009384598233737051	-0.0025952067226171494	0.0023730709217488766	0.008220057003200054	-0.003248692024499178	0.005366048309952021	-0.002491166116669774	-0.01229688711464405	-0.00249057961627841	0.010589777491986752	0.009989503771066666	-0.001537702395580709	-0.009100350551307201	-0.007845130749046803	0.0003299314121250063	-0.0022606307175010443	-0.0029585447628051043	-0.00575215695425868	-8.47905976115726e-05	-0.00271980301477015	-0.010368391871452332	0.0023862970992922783	0.0046739703975617886	-0.0022980449721217155	
0.003663489827886224	0.00844498723745346	0.005457847844809294	0.002421014942228794	-0.00672197388485074	-0.001174707431346178	0.0019930731505155563	0.001715590711683035	-2.3625425455975346e-05	-0.00038904434768483043	0.0024013712536543608	0.005243679042905569	-0.006691015791147947	-0.0013046683743596077	-0.00016166949353646487	0.004076284356415272	-0.0003269486769568175	0.005158052314072847	0.009420523419976234	-0.0066781677305698395	0.004582018591463566	-0.0028256364166736603	-0.003056201385334134	-0.00024083899916149676	-0.00042612882680259645	0.009426385164260864	-0.0007595869828946888	-0.0010345466434955597	-0.010480871424078941	-0.0029183917213231325	0.002490572165697813	-0.0004097062046639621	
0.0057049710303545	-0.0016344778705388308	0.0025559214409440756	-0.006395526230335236	0.004622940439730883	0.00012621449423022568	-0.0012708217836916447	-0.000908688991330564	0.0016286683967337012	-0.0009240371291525662	0.002629616064950824	0.0024892762303352356	-0.0018582132179290056	0.0001270816137548536	-0.0008814813336357474	-0.0006104032509028912	-0.0009473030804656446	0.0038606657180935144	-0.0013329298235476017	-0.0038969714660197496	-0.0010592464823275805	-0.007465665694326162	0.003709580050781369	-0.0006997539894655347	-0.000548245501704514	-5.531173519557342e-05	0.004422355908900499	-3.958122761105187e-05	0.0004893962759524584	-0.002168352250009775	-0.0029565112199634314	-0.0009888466447591782	
0.0006611345452256501	0.000790831632912159	0.003214428434148431	-0.003227770794183016	0.0017241007881239057	-0.002900948515161872	-0.0017088308231905103	0.0010531420120969415	-0.0023027772549539804	0.000825560768134892	1.1997771252936218e-05	0.0028501711785793304	0.0002464161079842597	0.0004580476088449359	0.0007640595431439579	-0.004434818401932716	0.0009239003411494195	-0.0013349630171433091	-0.0023720997851341963	-0.0036241391208022833	0.0027452493086457253	-0.0006585471564903855	0.0011301368940621614	0.0010277413530275226	0.0008488347521051764	-0.00617941003292799	-0.0003938770096283406	-0.0014283680357038975	0.0026137828826904297	-0.0029685967601835728	-0.0011812030570581555	0.0009005634346976876	
-0.0006322796689346433	-0.0036729525309056044	-1.8921895389212295e-05	0.0053752814419567585	-0.0009753705817274749	0.0018579188035801053	0.0011209920048713684	-0.000524488918017596	-0.000513379112817347	0.0014762072823941708	-0.0016681423876434565	-0.006497110240161419	0.0018406836315989494	-0.0016323017189279199	0.00167482765391469	0.007281562313437462	0.0015448806807398796	-0.0030096627306193113	-0.0035063994582742453	0.007781994063407183	0.0010788942454382777	0.0031632843893021345	-0.0007294745300896466	0.0013696380192413926	0.0014684490161016583	0.007762634661048651	-0.0010904875816777349	0.0042082383297383785	-0.0015266860136762261	0.0016633541090413928	0.004592549055814743	0.0014790792483836412	
0.004410746973007917	-0.007320158649235964	-0.013007604517042637	0.00032641360303387046	-0.0019512535072863102	-0.004735833499580622	-0.0031686557922512293	0.00012864019663538784	-0.0032189451158046722	-0.0013671454507857561	0.0003769281611312181	0.0003601296921260655	0.009266152046620846	-0.002021607244387269	-0.0008076730882748961	-0.0047252364456653595	-0.001290738582611084	0.0021455532405525446	0.007227664813399315	0.018717363476753235	-0.005807647481560707	-0.00652425829321146	-0.002490815706551075	-0.0011382948141545057	-0.001512399991042912	-0.0057806214317679405	-0.0009680555667728186	0.0025745676830410957	0.00031740678241476417	0.002859473926946521	-0.00063969666371122	-0.0009026247425936162	
0.002168679842725396	-0.007332534994930029	-0.005038728471845388	-0.0068913716822862625	0.00636961217969656	-0.004712690133601427	-0.006183835677802563	0.0018739377846941352	-0.005799369886517525	0.0006130601977929473	-0.0004719328717328608	0.00262893782928586	0.009962588548660278	-0.0026189617346972227	0.0009773325873538852	-0.001616172376088798	0.0005762219079770148	0.0009186425595544279	9.862025763140991e-05	0.011168119497597218	-0.00022908073151484132	-0.00246684649027884	-0.002199882175773382	0.0008072316995821893	0.0006212505395524204	-0.0019797447603195906	-0.0005899675306864083	0.005041943863034248	-0.00031701853731647134	-0.0029498471412807703	-0.007333220914006233	0.0006977767334319651	
-0.0033096792176365852	-0.042979124933481216	0.1522664725780487	0.029430635273456573	0.039283689111471176	-0.062257830053567886	0.03663839027285576	-0.14407879114151	0.060671087354421616	-0.021542321890592575	0.006872592959553003	0.16531293094158173	0.10560882091522217	-0.05252019688487053	-0.02166670933365822	-0.053859952837228775	-0.02090543694794178	-0.07550577819347382	0.24459417164325714	0.017872124910354614	0.03739045932888985	0.022065022960305214	0.043506864458322525	-0.022659851238131523	-0.021138790994882584	-0.06381040811538696	-0.11652199178934097	0.03004515916109085	0.08194035291671753	0.11643420904874802	-0.0349588543176651	-0.022358505055308342	
-0.003910763654857874	0.0030577515717595816	0.0093745868653059	0.0048964424058794975	-0.0023753889836370945	-0.0012249579885974526	0.003398053115233779	-0.0017366266110911965	-0.003623550059273839	0.0016242587007582188	3.607143662520684e-05	-0.00010179055243497714	-0.00288143171928823	0.0047494713217020035	0.0016120480140671134	0.010370451956987381	0.0017350270645692945	-0.004460553172975779	-0.004344716668128967	-0.0036030744668096304	0.005210028029978275	0.0073721869848668575	-0.00078863266389817	0.0015996143920347095	0.0018033082596957684	0.005910201463848352	-0.0018594173016026616	0.00030405493453145027	-0.0024887945037335157	-0.004735440947115421	0.0073259552009403706	0.0017132379580289125	
-0.009333433583378792	0.005853577982634306	-0.00019153760513290763	0.0051642670296132565	-0.005692978389561176	-0.0028606997802853584	0.0017578458646312356	-1.5705534679000266e-05	-0.0019358523422852159	7.420006295433268e-05	-0.0005588143249042332	-0.003438694169744849	-0.0018454315140843391	-0.0016560256481170654	-5.930138650001027e-05	0.0037921930197626352	-7.348350482061505e-05	-0.0008720616460777819	0.002689854009076953	0.0030462059658020735	0.005376444198191166	0.007336882874369621	-0.00347867957316339	-0.00010230288171442226	-0.00022829587396699935	0.008994300849735737	-0.004790843930095434	0.0034982517827302217	-0.00439642695710063	-0.0010365640046074986	0.0017223297618329525	-0.00016010159743018448	
-0.0031825783662497997	-0.0016903444193303585	0.0005134068778716028	-0.0052545336075127125	0.008313962258398533	0.004715919494628906	-0.002727743238210678	0.0011975406669080257	0.002445746911689639	0.0022691315971314907	-0.0015997531590983272	-0.004619387444108725	-0.0050738779827952385	-0.007159697823226452	0.0018256164621561766	-0.007612709887325764	0.0020926850847899914	0.0011848915601149201	-0.009193412028253078	0.0002674886491149664	0.002041975036263466	-0.004859702195972204	0.004853354766964912	0.002213532105088234	0.0022360761649906635	-0.0015705566620454192	0.0064974878914654255	-0.00217085937038064	0.005354305729269981	0.0024438388645648956	-0.005493536591529846	0.0019615686032921076	
0.002397226868197322	0.00013767086784355342	0.0012085149064660072	0.0010877958266064525	0.003494122764095664	-0.003777735400944948	0.002118081785738468	0.003125804476439953	-0.003511096816509962	0.0013707035686820745	0.0021906790789216757	0.005613114219158888	0.0029811649583280087	0.001304373610764742	0.001447286456823349	-0.0006258104112930596	0.0017255390994250774	0.0011408034479245543	-0.0025974540039896965	-0.0035239048302173615	0.004820182453840971	-0.0019384610932320356	0.0011116337263956666	0.0014107193564996123	0.0012365891598165035	0.0010276201646775007	-0.00380079192109406	0.0018060555448755622	-0.006090719718486071	-0.0011453824117779732	-0.003632552921772003	0.0010718549601733685	
-0.00036159364390186965	8.086690650088713e-05	9.886226325761527e-05	0.0025290092453360558	-0.005676612723618746	0.001277068629860878	0.0012322593247517943	-0.00099503668025136	0.0002731627901084721	-0.00031667464645579457	-0.0015328970039263368	-0.002488416852429509	0.0001555139315314591	0.0003461689339019358	-3.26440749631729e-05	0.005734974052757025	-0.0002789262216538191	-0.002416372997686267	0.00466070557013154	0.003575760405510664	1.608205093361903e-05	0.004050326067954302	-0.004731712397187948	-0.00022582766541745514	-0.00031416010460816324	0.004360899794846773	-0.0008637190912850201	-0.0003329995379317552	-0.0031435610726475716	0.0022660112008452415	0.0011642072349786758	-0.00010786643542815	
-0.00667187012732029	-0.003473487915471196	0.002541708294302225	0.0005808629794046283	0.005381784867495298	-0.0062732575461268425	-0.002751897554844618	-0.0024024650920182467	-0.001516501186415553	0.0002783959498628974	0.002416149014607072	0.0013412799453362823	0.000473359803436324	0.005823605228215456	0.0002115274255629629	-0.0018088339129462838	0.00020268232037778944	-0.001369764213450253	-0.002160802949219942	0.0040826816111803055	8.451508620055392e-05	-0.0003124602371826768	0.002260020934045315	0.0002867754956241697	0.00023048851289786398	-0.0018977083964273334	0.0031843760516494513	0.0013412832049652934	0.004849583376199007	-0.003050436032935977	0.004248153418302536	0.0003211837902199477	
-0.003002891084179282	-0.0005249426467344165	0.0007627982995472848	0.007325269281864166	-0.011020696721971035	-0.004808563739061356	0.0018815248040482402	0.00037557381438091397	0.0014392196899279952	-0.002680744742974639	-0.0011655113194137812	-0.001913885003887117	-0.004168459214270115	0.0032197819091379642	-0.0020066651050001383	0.0014512070920318365	-0.0027877073734998703	-0.0019143943209201097	0.008305947296321392	0.007496814709156752	-0.004879417829215527	0.001064344891346991	-0.0036931943614035845	-0.00249401549808681	-0.002842097310349345	0.001444269553758204	-0.00019449640240054578	-0.002197110094130039	-0.005714708939194679	0.0004827782395295799	0.004427033010870218	-0.0020378921180963516	
0.005255303345620632	-0.0010732223745435476	-0.0027141780592501163	-0.003318425267934799	0.00046938052400946617	0.0014407816343009472	-0.0009193751029670238	0.0013975539477542043	0.0015798150561749935	-0.0009731405880302191	-0.001711395918391645	0.0018682477530092	0.005143337417393923	-0.0015597137389704585	-0.0007058615447022021	-0.0020577458199113607	-0.0006367674213834107	-0.00039256055606529117	0.0004578960360959172	-0.0037500096950680017	-0.0037574335001409054	-0.0016239798860624433	-0.0016163729596883059	-0.0006823783041909337	-0.0006918262806721032	-0.0069734398275613785	-0.0002671299735084176	-0.0018149310490116477	0.0005420097149908543	0.0014496886869892478	-0.004779473412781954	-0.00083008041838184	
0.0012201117351651192	0.00845552422106266	0.0009361125994473696	-0.006291419267654419	0.0062017859891057014	-0.00037156196776777506	-0.002666558837518096	0.005750611424446106	-0.0004412333946675062	0.00196089968085289	0.002104722196236253	0.007756520062685013	-0.005476802587509155	-0.006936895661056042	0.0016402807086706161	-0.01939147338271141	0.002071492839604616	0.007822117768228054	-0.002740159397944808	-0.006786368787288666	-0.0006910922820679843	-0.010698791593313217	0.006667570676654577	0.0023605709429830313	0.001773444819264114	-0.009664015844464302	0.006286831572651863	-0.004404740408062935	0.004562245681881905	0.0015513695543631911	-0.00623326376080513	0.001842581550590694	
0.004065143410116434	-0.0011746707605198026	-0.00011965455632889643	-0.00479809008538723	0.002964514074847102	0.00063255027635023	0.00010992558236466721	-0.0008007598225958645	0.0007177225779742002	-0.001132783479988575	0.0014582815347239375	0.001441010506823659	0.0021134582348167896	0.0009813725482672453	-0.0010706714820116758	0.0008890863391570747	-0.0009814014192670584	0.001755290082655847	-0.002720046555623412	-0.003781887935474515	0.00024970475351437926	-0.002974382834509015	0.0011097233509644866	-0.0009529608068987727	-0.0006860715802758932	-0.001600536284968257	0.000668018648866564	0.0012620330089703202	0.0004992671892978251	-0.003394317114725709	-0.0039503746666014194	-0.00123081065248698	
0.005259357858449221	-0.0004905771929770708	-0.006049791816622019	-0.0013107185950502753	-0.0009437781409360468	-0.000948983826674521	-0.0024844733998179436	0.00279752048663795	0.00044872230500914156	-0.0012443847954273224	-0.0007203541463240981	0.006024821195751429	0.006172738503664732	-0.00022210141469258815	-0.0008003537077456713	-0.006649672519415617	-0.0009161378256976604	0.0017630534712225199	0.0069211372174322605	-0.00038842394133098423	-0.004477616399526596	-0.0030270873103290796	-0.0029899412766098976	-0.0008980095153674483	-0.00117482990026474	-0.008080105297267437	-0.001626610872335732	-0.0007024373044259846	-0.001427210052497685	0.000902715022675693	-0.002885708585381508	-0.0009875950636342168	
-0.0047838641330599785	-0.0038657181430608034	-0.009121360257267952	0.0006203640950843692	-0.002723182551562786	0.0007255367818288505	0.00031069546821527183	-0.0034877355210483074	0.0025374596007168293	-0.0030349865555763245	-0.0014310992555692792	-0.009486446157097816	0.0042025381699204445	0.0016109540592879057	-0.0029472834430634975	0.0057438695803284645	-0.0034102308563888073	-0.0026634393725544214	0.001664137002080679	0.011126258410513401	-0.006115150637924671	0.004639325197786093	-0.003248558845371008	-0.0032579631078988314	-0.002965247491374612	0.0007820103201083839	-0.0007928374106995761	0.0030765170231461525	0.004343627952039242	0.001468873000703752	-0.0008682748884893954	-0.002885284833610058	
0.001287934836000204	0.0028994178865104914	0.00015606614761054516	0.0008889637538231909	-0.0011740722693502903	0.00028094250592403114	0.00045158539433032274	0.0011661617318168283	0.002968489658087492	-0.000308986782329157	0.00028020513127557933	0.00200846791267395	-0.003629156854003668	-0.0007574318442493677	-0.0004250297206453979	-0.004819623660296202	-0.0003262450627516955	0.0013524089008569717	0.003500774037092924	-0.0038247057236731052	-0.00014156890392769128	-0.0030820989049971104	-0.0002483078569639474	-0.0003532780974637717	-0.0004432373389136046	-0.000917598488740623	0.0016904915682971478	-0.0017139146802946925	-0.002205826574936509	0.0027837767265737057	-0.002271047094836831	-0.00037721035187132657	
-0.14313532412052155	-0.09820576757192612	0.05605218559503555	-0.07441125065088272	-0.13229596614837646	-0.11869072914123535	-0.0824146419763565	0.15507623553276062	-0.009389430284500122	0.008831017650663853	0.0015119626186788082	-0.015199384652078152	-0.052567437291145325	0.06156002730131149	0.006983495783060789	-0.0716283991932869	0.00831469614058733	0.036059245467185974	0.015948131680488586	-0.17827358841896057	0.12426264584064484	-0.17287375032901764	-0.07020968943834305	0.00858668889850378	0.007901032455265522	-0.141855388879776	0.09915661066770554	-0.13790637254714966	-0.024590814486145973	0.08276539295911789	0.0016079453052952886	0.007440017070621252	
0.0003901073650922626	-0.0021845323499292135	-0.002974054077640176	0.002124498598277569	-0.004490711726248264	-0.00028284083236940205	0.0014554525259882212	-0.0022527934052050114	0.003362973453477025	-0.0037399933207780123	0.0003171688877046108	-0.003365557873621583	1.945310395967681e-05	0.003670658450573683	-0.00332463881932199	0.002488253405317664	-0.003939089365303516	0.001003003097139299	0.005592070985585451	0.006987886969000101	-0.007663572207093239	0.00021479699353221804	-0.002294357633218169	-0.00377138564363122	-0.0035313889384269714	0.0037828651256859303	0.0008177609415724874	0.0010125089902430773	-0.001445132540538907	-5.8909532526740804e-05	0.0018078322755172849	-0.0033851049374789	
0.010093745775520802	-0.0036056332755833864	-0.004068860784173012	0.0011947423918172717	0.0028023619670420885	0.0010336971608921885	-0.0005335755413398147	0.0006644262466579676	-0.003589833155274391	0.00047840047045610845	0.0006866451003588736	0.008808082900941372	0.010281571187078953	0.0034152904991060495	0.0008526077726855874	0.00044355381396599114	0.0009994445135816932	0.0029371834825724363	0.0012140439357608557	-0.0011898456141352654	-0.0012152519775554538	-0.004874074831604958	0.0007421565824188292	0.0007607074803672731	0.000776314118411392	-0.006388087756931782	-0.0021785213612020016	0.00041638428228907287	-0.00270884670317173	-0.0022717572282999754	0.0026410657446831465	0.0007455781451426446	
-0.003270536893978715	-0.00044980327947996557	-0.0033636244479566813	-4.083595558768138e-05	-0.00298839109018445	0.00314649217762053	-0.0012945951893925667	-0.0026295927818864584	0.004813227336853743	-0.0020212174858897924	-0.001873193308711052	-0.0066438415087759495	-0.002918943762779236	-0.0032557793892920017	-0.001910133520141244	0.0020870687440037727	-0.0024913393426686525	-0.0008753889705985785	0.006102607119828463	0.007160113658756018	-0.00589881232008338	0.0026310537941753864	-0.0029451344162225723	-0.0022506180685013533	-0.0020953896455466747	0.004814537242054939	0.0022584644611924887	0.0006823349394835532	0.0026326559018343687	0.003361162031069398	-0.0003503514744807035	-0.0019496020395308733	
0.001816424890421331	-0.001101677305996418	0.002117007737979293	-0.0007784135523252189	-0.002847568364813924	-0.005350914318114519	0.0039018329698592424	-0.000785889511462301	-0.0032755837310105562	-0.000406568986363709	-0.0017079999670386314	0.0022013692650943995	0.007771126460283995	0.00590001093223691	-0.00013403237971942872	0.015306091867387295	-0.00045687356032431126	-0.003725888440385461	0.005998602136969566	-0.0034020105376839638	0.0011262334883213043	0.006155681796371937	-0.0046393913216888905	-0.00047524040564894676	-0.0005794903845526278	0.006924663204699755	-0.008808008395135403	0.0027675435412675142	-0.011528784409165382	0.00016096259059850127	-0.004663215950131416	-0.0005257416050881147	
-0.007697556633502245	0.003455749014392495	0.0034670387394726276	-0.006191140040755272	2.5299748813267797e-05	-0.0033422496635466814	0.0014178871642798185	0.0015101996250450611	-0.002136648166924715	0.0005425499402917922	-0.0015744664706289768	-0.0013707693433389068	-0.0036179020535200834	-0.002366750966757536	0.00018854561494663358	0.0010361113818362355	0.0002641850442159921	-0.00210080505348742	-0.0026297857984900475	-0.005567632149904966	0.008252778090536594	0.005775567144155502	-0.0021626551169902086	0.0004449918633326888	0.0003171507560182363	0.001993792364373803	-0.002466623904183507	0.0010946310358121991	-0.002446582308039069	-0.0025214196648448706	-0.009258831851184368	0.00019234658975619823	
-0.06603944301605225	-0.278364896774292	-0.09013848751783371	-0.010749587789177895	0.04520998150110245	-0.22872330248355865	-0.010001607239246368	0.11205655336380005	-0.04269569739699364	0.016180090606212616	-0.002969349967315793	-0.12198347598314285	0.07976444810628891	0.11373967677354813	0.01763012446463108	0.3453328013420105	0.015119417570531368	-0.2577662467956543	0.025820869952440262	0.0559217594563961	0.07219046354293823	-0.021767888218164444	-0.03115636669099331	0.015351074747741222	0.016254961490631104	0.020825384184718132	-0.1454302966594696	0.02430121973156929	-0.01971437968313694	-0.05274572595953941	-0.10166354477405548	0.014481539838016033	
-0.003611969295889139	-0.0001837055169744417	-0.006469239946454763	0.004887684714049101	-0.001680638175457716	0.0006000798312015831	0.002239788183942437	-0.0007915427559055388	0.002588975941762328	-0.0011518151732161641	0.0018234302988275886	-0.002387586049735546	0.0002114296512445435	0.0017989244079217315	-0.0012205294333398342	0.0024505960755050182	-0.0012773778289556503	0.0024413776118308306	0.0041323471814394	0.005088889505714178	-0.0024256249889731407	0.0011923607671633363	-0.0003045938501600176	-0.0015094466507434845	-0.0014611744554713368	0.006790944375097752	-0.0011502691777423024	0.0028830061201006174	-0.0035896445624530315	0.0034888251684606075	0.002450818195939064	-0.0014072558842599392	
0.0014558855909854174	0.0031875991262495518	0.005648145452141762	-0.00035152354394085705	0.00022917805472388864	-0.0015758039662614465	0.0018338158261030912	0.0009252548334188759	-0.006509739905595779	0.002464188728481531	0.0003367813478689641	0.004890125710517168	0.00043198306229896843	0.0022782611194998026	0.0023059260565787554	0.0019875906873494387	0.0027236593887209892	-0.0028572333976626396	-0.005407704506069422	-0.007676783017814159	0.008575847372412682	0.0029262620955705643	9.941310418071225e-05	0.002583019668236375	0.002549090888351202	-0.0038025779649615288	-0.0033702158834785223	-0.001064143143594265	-5.400423106038943e-05	-0.005910654552280903	0.001789278001524508	0.0024631705600768328	
-3.855589056911413e-06	0.0002320963831152767	-0.005630296189337969	-0.010624517686665058	0.008303285576403141	0.006443496327847242	-0.006389261223375797	0.0020420667715370655	0.0039652311243116856	0.0011332187568768859	-0.0012872170191258192	-0.005669073201715946	-0.0017106523737311363	-0.014457538723945618	0.0008301471243612468	-0.013119052164256573	0.0009093281114473939	0.004459673073142767	-0.004048113711178303	0.005150538869202137	-0.0015203048242256045	-0.0066829826682806015	0.003480430692434311	0.0011978709371760488	0.0012466538464650512	-0.003927323967218399	0.008875172585248947	-0.0006553735001944005	0.01193852536380291	0.00471144262701273	-0.010228853672742844	0.0009136625449173152	
-0.00305619603022933	0.00040608554263599217	0.002066483721137047	0.0009909993968904018	-0.0015345904976129532	0.0009294848423451185	-0.00045574948308058083	-0.0005730296834371984	0.001032677129842341	0.00018887597252614796	-0.0011785576352849603	-0.003822136903181672	-0.005474683828651905	-0.0003089196979999542	-0.0001454471203032881	-0.0013606071006506681	-0.00010593397746561095	-0.002106489147990942	-0.0033073758240789175	-0.0003459326981101185	-0.00044145749416202307	0.001023379503749311	0.002432438312098384	3.255699630244635e-05	2.7393660275265574e-05	-0.0027745175175368786	0.0016027448000386357	-0.0031300445552915335	0.0041094375774264336	-0.0009200851200148463	0.003708649892359972	0.00033336691558361053	
0.001881561940535903	0.0033776299096643925	0.0009307751897722483	-0.005403490271419287	0.0035328473895788193	0.0012433098163455725	-0.0012225521495565772	-0.0007637229864485562	0.0052098240703344345	-0.001352624036371708	0.0005645403289236128	0.003918902948498726	-0.0008668210357427597	-0.002530567115172744	-0.0016696546226739883	-0.0048039923422038555	-0.0015032998053357005	0.0017674528062343597	0.004782570526003838	-0.010289265774190426	-0.004376423079520464	-0.0009187730611301959	0.0011355907190591097	-0.001460504368878901	-0.0013325202744454145	-0.002457849681377411	0.002684755949303508	-0.0011407487327232957	0.003011643886566162	0.003582342527806759	-0.008170386776328087	-0.0016860758187249303	
-0.0036727499682456255	0.00022618420189246535	-0.0014059710083529353	0.0008668048540130258	0.0011199457803741097	0.002463312353938818	0.001663725357502699	-0.0026075628120452166	0.0005356551264412701	-0.00013462669448927045	0.0006140589830465615	-0.0044561512768268585	-0.0021787218283861876	0.0015289712464436889	-0.0005215709679760039	0.00544725451618433	-0.0004590005555655807	0.0005325324600562453	-0.0038185054436326027	0.0018759963568300009	0.0001339352602371946	0.002730161650106311	0.0017694226698949933	-0.0005038662347942591	-0.00015360377437900752	0.005494080483913422	4.456607348402031e-05	0.0009576703305356205	0.0013791617238894105	-0.0007245542365126312	0.0040155802853405476	-0.0002807871496770531	
-0.007003124337643385	0.0027853231877088547	-0.0011029415763914585	-0.005871577188372612	0.005998280830681324	0.0026315483264625072	-0.003909265156835318	0.0002756221510935575	0.0011940284166485071	0.0015693205641582608	-0.0008427970460616052	-0.005092457868158817	-0.003979593515396118	-0.008616466075181961	0.0009333799825981259	-0.006444791331887245	0.0011638043215498328	0.001393520855344832	-0.004303503315895796	0.0006368081667460501	0.0021988702937960625	0.00031518840114586055	0.002920160535722971	0.001349416677840054	0.0013520671054720879	0.0016080922214314342	0.003586338134482503	0.0015662647783756256	0.007040383294224739	0.0014513767091557384	-0.005589765962213278	0.0010116801131516695	
0.02455674298107624	0.23721280694007874	-0.04710846394300461	-0.054697636514902115	-0.010332763195037842	0.18492591381072998	-0.046768851578235626	0.003932613413780928	-0.021277539432048798	0.06115036457777023	-0.07816878706216812	-0.08483478426933289	0.04256520792841911	-0.16347140073776245	0.06196991354227066	-0.053088851273059845	0.06132536381483078	0.11944360285997391	0.16012343764305115	0.08143408596515656	-0.14875367283821106	0.04582023620605469	-0.007261696271598339	0.06039486080408096	0.06095749884843826	-0.005515904165804386	0.22685082256793976	0.1110355481505394	0.08805437386035919	0.1155492514371872	-0.008527456782758236	0.06190132722258568	
0.06333310157060623	0.12326385080814362	0.004197053611278534	0.09326634556055069	0.03674833104014397	0.0570484958589077	0.06524349749088287	0.1023709625005722	0.11136236786842346	-0.029640326276421547	0.1007457822561264	0.014390366151928902	0.12200818210840225	0.01838844269514084	-0.030242886394262314	0.01761779747903347	-0.029766764491796494	0.057560812681913376	0.10560629516839981	0.13478466868400574	0.25560030341148376	0.07229886949062347	0.05772962421178818	-0.03062749281525612	-0.030218107625842094	0.07158438861370087	0.13841572403907776	0.08638933300971985	0.16955971717834473	0.04893854632973671	0.05305083841085434	-0.029833059757947922	
0.001509925932623446	-0.0032338465098291636	-0.0019230276811867952	0.0036801656242460012	-0.002303503453731537	-0.0012331065954640508	0.00024409734760411084	0.002435208298265934	-0.004858087748289108	0.0016968166455626488	-0.00035645542084239423	0.0020726535003632307	0.005514498334378004	0.0023270377423614264	0.001993024256080389	0.00038519914960488677	0.0021407443564385176	-0.0005042952252551913	-0.00306527316570282	0.003708023577928543	0.00440361350774765	-0.0011133032385259867	-0.0012674115132540464	0.0019453582353889942	0.001699024927802384	-0.004773234482854605	-0.0034991824068129063	-0.00132140819914639	-0.0030737335328012705	-0.002429049462080002	0.004719879478216171	0.002036391058936715	
0.12187296152114868	0.06556054204702377	-0.16627387702465057	-0.006141144782304764	-0.037247590720653534	0.10555900633335114	-0.009892618283629417	0.05468183383345604	-0.03911283239722252	0.010312153026461601	-0.04659475013613701	-0.06558611989021301	0.02427053637802601	0.06206626817584038	0.009598120115697384	0.20963750779628754	0.01040533185005188	0.08355095237493515	-0.006533484905958176	0.1172429770231247	-0.05505757033824921	0.08415714651346207	-0.0807734951376915	0.010222205892205238	0.010464269667863846	0.012396428734064102	0.10581380128860474	0.0092874551191926	-0.12279614061117172	0.004180568736046553	0.08090811967849731	0.010262000374495983	
0.018940577283501625	-0.02141064964234829	-0.14230158925056458	-0.01820431649684906	-0.04492415115237236	-0.0060552372597157955	-0.040876686573028564	-0.03697845712304115	-0.04690619185566902	0.03160591423511505	-0.053056180477142334	-0.031024519354104996	0.054592642933130264	0.042344797402620316	0.03124609962105751	0.0593668557703495	0.0309821218252182	0.03531385213136673	0.10473287850618362	-0.07525720447301865	-0.011340952478349209	-0.09053733199834824	-0.07401435822248459	0.031179694458842278	0.031093059107661247	0.044988662004470825	0.04081433638930321	0.06470483541488647	-0.11039578169584274	0.010623235255479813	0.06428901851177216	0.03129088878631592	
0.0024764067493379116	0.0008007919532246888	0.004100616555660963	-0.0018300057854503393	0.0034746010787785053	0.000514314160682261	0.0004294989921618253	-0.0015523018082603812	0.0036528492346405983	-0.0009282558457925916	0.0001526477572042495	0.002120479242876172	-0.0012961502652615309	-0.0007342772441916168	-0.0009830945637077093	-0.0005149986245669425	-0.0009989874670282006	-0.0005817709024995565	0.0009404422016814351	-0.00701628252863884	-0.005819452460855246	-5.439507367555052e-05	0.0022715034428983927	-0.0010985784465447068	-0.0008909969474188983	2.663379564182833e-05	0.002149684354662895	-0.0002259023895021528	0.0022031664848327637	0.0037056838627904654	-0.005292248912155628	-0.0011099169496446848	
0.0031116751488298178	0.006808124016970396	0.010320285335183144	-0.002369651570916176	-0.00017090713663492352	-0.004558649379760027	0.0031541974749416113	0.0014771975111216307	-0.0019912379793822765	0.00033751281443983316	0.0006581619381904602	0.009162296541035175	-0.0019289785996079445	0.0016390503151342273	0.0004498417256399989	0.002504016039893031	0.0004728015628643334	0.0016711750067770481	0.002631914336234331	-0.01231799740344286	0.0010532920714467764	-0.0003787486348301172	0.00022676997468806803	0.0005376693443395197	0.0003435184480622411	0.004608365707099438	-0.0018395405495539308	-0.00022508292749989778	-0.00629437668249011	-0.0004733337846118957	-0.00439112726598978	0.00016464509826619178	
-0.006983186583966017	0.07500406354665756	0.21267756819725037	0.02830994687974453	-0.043078385293483734	0.008568243123590946	-0.009181253612041473	0.04463508725166321	-0.04614648222923279	0.03588830307126045	-0.06940624117851257	0.11508236825466156	-0.1151476576924324	-0.01762375421822071	0.03778471425175667	0.0019366524647921324	0.0357387512922287	0.048619624227285385	0.0032472298480570316	0.06592964380979538	-0.008116532117128372	0.0803380087018013	-0.03294866159558296	0.03686194866895676	0.035705603659152985	-0.01241647731512785	0.053123198449611664	-0.08286362141370773	-0.05525858327746391	-0.0020855453331023455	0.0771619901061058	0.03682718798518181	
0.003295104019343853	-0.012205767445266247	-0.01451327558606863	-0.006132029928267002	0.006396370008587837	0.003939677495509386	-0.0030083446763455868	-0.001965014496818185	-0.0007279915153048933	-0.00023437695926986635	-0.0019108457490801811	-0.00754006952047348	0.011511976830661297	-0.0038100879173725843	-0.00017106755694840103	-0.004375620279461145	-0.00028874940471723676	-0.0007750868680886924	-0.005070261191576719	0.017643621191382408	-0.003019132651388645	-0.000980208977125585	0.00017972412751987576	-0.00028802838642150164	-9.189677075482905e-05	-0.005152035504579544	0.0018593574641272426	0.0052494085393846035	0.007430771365761757	0.0062525030225515366	-0.00481880409643054	-0.00011750301200663671	
-0.0019993856549263	0.0009820808190852404	0.0026878344360738993	0.0016696806997060776	-0.006822996772825718	0.001855898299254477	0.0035904140677303076	-0.0033371129538863897	0.0016201614635065198	-0.0018189569236710668	0.000418685405747965	-0.007104302290827036	-0.0050833397544920444	0.002074009506031871	-0.0016406566137447953	0.011026684194803238	-0.00207155873067677	-0.0008519212133251131	0.0019685947336256504	0.004327454138547182	0.0006885302136652172	0.004320192616432905	-0.0034222700633108616	-0.0018676723120734096	-0.0015853955410420895	0.01164519414305687	0.00014863870455883443	0.0004916441394016147	-0.0038041225634515285	-0.0010570434387773275	0.003479547332972288	-0.001681809895671904	
0.007310465909540653	-0.0034961330238729715	-0.003300154348835349	0.004019808489829302	-0.005033400375396013	0.0013450478436425328	0.0003738933301065117	-0.0003023340832442045	-6.987881351960823e-05	-0.0019518902990967035	-0.0005474467179737985	0.002092995448037982	0.005591703113168478	0.003479069098830223	-0.0013422459596768022	0.0033951241057366133	-0.001719701918773353	0.00019343466556165367	0.005711229518055916	0.0037229438312351704	-0.0061794547364115715	-0.00032604343141429126	-0.0027378734666854143	-0.0017699731979519129	-0.0016584629192948341	-0.0026954461354762316	-0.0022003527265042067	0.00023110239999368787	-0.0024720528163015842	-0.0005194921395741403	0.004747441038489342	-0.0013740028953179717	
0.050395458936691284	-0.049089089035987854	0.05181439593434334	0.08245538920164108	0.039688851684331894	0.032948579639196396	0.011424385011196136	0.011160834692418575	-0.008489957079291344	0.04474429413676262	-0.09250383079051971	0.05804336816072464	-0.25754159688949585	-0.09957197308540344	0.04515734314918518	-0.08242915570735931	0.04331622272729874	0.02591741271317005	-0.09457187354564667	-0.03458182513713837	-0.019042829051613808	0.02737133391201496	0.054105695337057114	0.04495149478316307	0.04504602774977684	-0.04637853428721428	-0.08292322605848312	-0.10840772837400436	-0.2400984764099121	-0.02170473523437977	0.03931502252817154	0.044348519295454025	
-0.0017180433496832848	0.003582708304747939	-0.0013635962968692183	0.006674300879240036	-0.0005768216797150671	0.0003371141501702368	0.004105130210518837	-0.0013327861670404673	-0.0012545782374218106	-1.6231342669925652e-05	0.001128642470575869	0.0009366064914502203	0.0011664903722703457	0.0015193662839010358	-1.5892227622771316e-07	0.0040501561015844345	-1.1910490229638526e-06	-0.00011858257494168356	0.0022858427837491035	0.0008653679396957159	0.0011107659665867686	0.003752057207748294	-0.0012505470076575875	-0.0003302275144960731	-9.491673699812964e-05	0.007234322372823954	-0.004159553907811642	0.0035488014109432697	-0.0035426607355475426	0.00024149578530341387	0.0015551600372418761	-0.0002277657767990604	
0.009166673757135868	-0.0012325915740802884	0.0004567593859974295	-0.006028215866535902	0.001400610664859414	0.0008289223187603056	-0.002320303814485669	0.002706891158595681	-0.0015927861677482724	0.0004235187661834061	1.6508167391293682e-05	0.005467512179166079	0.004355194978415966	-0.005081886425614357	0.0007796979625709355	-0.0030297511257231236	0.0007200754480436444	0.0032374283764511347	0.0024229867849498987	-0.0026363416109234095	0.002681226236745715	-0.005097030196338892	-0.001862119883298874	0.0008067863527685404	0.0006589132826775312	-0.0010433165589347482	-0.0005857896176166832	0.0018710001604631543	-0.0034509727265685797	-0.0006054679397493601	-0.00766401644796133	0.0003413505619391799	
0.005618446972221136	-0.0010970772709697485	-0.0017077294178307056	-0.00041767864604480565	0.0015786875737830997	-0.001319728558883071	-0.001523040933534503	0.0014426583657041192	0.0016048602992668748	-0.0015012893127277493	0.0015968853840604424	0.006002952344715595	-8.235991845140234e-05	0.0018646351527422667	-0.001317254384048283	-0.008425498381257057	-0.0014102490385994315	0.004366798792034388	0.0012668317649513483	-0.0018546237843111157	-0.006519918330013752	-0.008365790359675884	0.0035991130862385035	-0.0013366331113502383	-0.0013586432905867696	-0.007691291160881519	0.002806536853313446	-0.002686157589778304	0.0010257996618747711	-0.0013153667096048594	0.0005194477853365242	-0.0012054205872118473	
-0.06849771738052368	0.0070527903735637665	0.012265446595847607	-0.05629998445510864	-0.05132200941443443	0.03327171504497528	-0.0450536273419857	-0.16592638194561005	-0.05912001430988312	0.023985693231225014	-0.05313486605882645	-0.0018706514965742826	0.016888700425624847	-0.0037552639842033386	0.022855466231703758	0.06690257042646408	0.022392772138118744	0.036384452134370804	0.05597225949168205	-0.039412304759025574	-0.14175407588481903	-0.11306693404912949	-0.05859380215406418	0.022966936230659485	0.022964097559452057	0.0924060195684433	0.06712517142295837	0.02958783693611622	-0.013772649690508842	0.045395560562610626	0.04599711671471596	0.023158270865678787	
0.006693453993648291	0.005990343168377876	-0.001804216648451984	-0.0001955480984179303	-0.005504243541508913	0.004729702137410641	0.00021359368111006916	0.003612854750826955	0.0016475707525387406	0.00017370817658957094	0.0004704213351942599	-0.0012450123904272914	-0.005792788229882717	-0.005915517453104258	6.48747882223688e-05	0.0010817970614880323	0.00022617795912083238	0.005779207218438387	0.0026787498500198126	-0.00552993593737483	0.004516042303293943	-0.00474786851555109	0.0005060601979494095	0.00024305758415721357	0.00013789937656838447	0.00708736339583993	-0.00039787625428289175	-0.0003800386330112815	-0.00685474555939436	0.0025266739539802074	0.0005260995822027326	-7.162807014537975e-05	
0.08921454846858978	0.01680615544319153	0.03186018019914627	0.004447092767804861	0.1380278468132019	-0.05310799181461334	0.027454683557152748	0.2044239193201065	-0.024936586618423462	0.04057886451482773	-0.028217410668730736	0.05566191300749779	0.010593085549771786	0.04478657618165016	0.039926592260599136	0.17544537782669067	0.03988160565495491	-0.006633024662733078	0.0022549587301909924	-0.012527279555797577	-0.022009212523698807	0.10759276896715164	0.05289699509739876	0.03988838195800781	0.04000520333647728	0.16094903647899628	-0.025727394968271255	0.09623192250728607	-0.13156211376190186	0.09133250266313553	-0.009538392536342144	0.03922444209456444	
0.10343479365110397	0.13039784133434296	0.060637589544057846	0.13476240634918213	0.021243557333946228	0.057129524648189545	0.08685652166604996	0.28994131088256836	0.13107632100582123	-0.030645662918686867	0.11490113288164139	0.07773145288228989	0.05697457864880562	0.06796301156282425	-0.030868347734212875	0.039273470640182495	-0.031024418771266937	0.11621825397014618	0.017462465912103653	0.21149568259716034	0.23134611546993256	0.1637537181377411	0.08664219081401825	-0.030934151262044907	-0.03020484745502472	0.11195099353790283	0.22524262964725494	0.0416945181787014	0.10630423575639725	0.10277927666902542	0.08279011398553848	-0.031217150390148163	
-0.0058434512466192245	0.003415693063288927	-0.0035369752440601587	0.009155652485787868	0.00017127962200902402	-0.003238487057387829	-0.0010846982477232814	0.0012167758541181684	-0.002248151693493128	0.001748033333569765	0.0015886123292148113	0.0023141452111303806	-2.1361043764045462e-05	-0.00015758305380586535	0.0018255749018862844	3.8850978967275296e-07	0.001971852034330368	0.003452684497460723	0.00404803641140461	0.0071628037840127945	0.0013038117904216051	-0.0004486959660425782	0.0014045418938621879	0.0016645120922476053	0.001215562573634088	0.008704513311386108	-0.003047802485525608	0.004593289457261562	-0.004440292716026306	0.003057371126487851	0.007668277248740196	0.001484953216277063	
0.025067640468478203	-0.009044057689607143	-0.012892374768853188	-0.010307691060006618	0.009973298758268356	-0.05829256772994995	-0.0009480593726038933	0.02061939239501953	-0.09044218063354492	0.01593664474785328	-0.027705969288945198	0.12738387286663055	0.09105118364095688	0.01827193610370159	0.015415658243000507	-0.08339886367321014	0.01585259847342968	-0.006065207067877054	0.05460204929113388	0.00834792573004961	-0.008413119241595268	0.032559171319007874	-0.024287356063723564	0.01625705510377884	0.012662115506827831	-0.11461923271417618	-0.054794792085886	0.049219757318496704	-0.0047667003236711025	-0.027497345581650734	0.006506900303065777	0.01685737818479538	
-0.003976901993155479	0.0005059079267084599	0.0012960899621248245	0.0002926888701040298	-0.003267912194132805	0.00124790717381984	0.0003845877363346517	-0.0011878913501277566	-0.0008113305666483939	0.0009366568992845714	-0.0026588982436805964	-0.004158071242272854	0.0008201117743737996	-0.003013218753039837	0.0008460246026515961	0.0030716750770807266	0.0008483357960358262	-0.004526835400611162	0.0013339368160814047	0.002197182271629572	0.003499592188745737	0.0066781616769731045	-0.004586671944707632	0.0008480402757413685	0.0007562566315755248	0.002676241332665086	-0.0018955679843202233	0.0004438717442099005	0.0009227420086972415	0.002574792830273509	-0.0022329490166157484	0.0008402790990658104	
0.0037504571955651045	-0.0046339211985468864	0.004432023037225008	0.004415575880557299	0.007778087165206671	0.007950030267238617	0.0024726116098463535	-0.003116774605587125	-0.0009703945252113044	0.0050036003813147545	0.0023352166172116995	0.004970064852386713	-0.003802234074100852	-0.0044881128706038	0.004979368764907122	-0.01279738824814558	0.005711914040148258	-0.0033599641174077988	-0.008888044394552708	-0.0032930984161794186	0.011374133639037609	-0.007876977324485779	0.005945747252553701	0.005237650591880083	0.00504181208088994	-0.013456352986395359	0.005063431803137064	-0.005128178279846907	0.013308473862707615	0.0024044367019087076	0.010896525345742702	0.005068340338766575	
-0.0005860576056875288	-0.0008500406402163208	-0.004039297346025705	-0.0001429740950698033	0.002366789849475026	0.0025185090489685535	0.0006775240763090551	-0.0019348342902958393	0.0015221860958263278	-0.00055073166731745	0.0016302356962114573	-0.0013160575181245804	0.0012599037727341056	0.00013324886094778776	-0.0007049798732623458	0.0039221737533807755	-0.000670658191666007	0.0027334310580044985	0.0006778124952688813	0.002053002128377557	-2.8375950932968408e-05	0.00017602638399694115	-0.00011297821038169786	-0.0008301365887746215	-0.0004914715536870062	0.006512893829494715	0.00012490259541664273	0.0035546435974538326	-0.0008532762294635177	0.0003491718671284616	-0.00019961017824243754	-0.0009365043370053172	
-0.0011696304427459836	-0.0019839273300021887	-0.003939691931009293	0.002919356105849147	0.0020055132918059826	-0.0006206652615219355	-0.0022073781583458185	0.002671755151823163	-0.0018314229091629386	0.0013496452011168003	-0.0005303018260747194	0.0011552503565326333	0.0008525008452124894	-0.0006522785988636315	0.0012549059465527534	-0.006697978358715773	0.0014627334894612432	0.0005724460352212191	-0.0035054937470704317	0.0026446811389178038	0.00034354408853687346	-0.0026030964218080044	0.0030835389625281096	0.0013411365216597915	0.0011306285159662366	-0.007694563828408718	-0.0008396873599849641	-0.0013233051868155599	0.002796659478917718	-0.0008162633748725057	0.004634212236851454	0.0014709418173879385	
-0.005697618704289198	0.0018073089886456728	0.0020238151773810387	0.0015396963572129607	4.3244901462458074e-05	0.00036686862586066127	-0.0011467020958662033	-0.0012773030903190374	-0.0021281070075929165	0.00235576624982059	0.0005454719648696482	-0.0019631616305559874	-0.001586403464898467	-0.0010366418864578009	0.0019008436938747764	0.0025600148364901543	0.002340225037187338	-0.00209410535171628	-0.0023585213348269463	0.000917653611395508	0.004593949299305677	0.004429327789694071	0.0003909483493771404	0.002169008133932948	0.002106740139424801	0.0031204838305711746	-0.0002970084024127573	-0.0004721879668068141	0.0026258814614266157	0.001737618469633162	0.004935150966048241	0.0021095192059874535	
-0.008148846216499805	0.0071251546032726765	0.00380261754617095	0.004302807617932558	-0.003959313966333866	0.0010375288547948003	0.007263016887009144	-0.0019160278607159853	0.002272838493809104	-0.000967484840657562	0.001052302890457213	-0.003593459725379944	-0.008217450231313705	0.008115896955132484	-0.0014760898193344474	0.0021900401916354895	-0.0010615955106914043	-0.0024538286961615086	-0.0054214089177548885	-0.008033269084990025	0.0006605988019146025	0.0068534258753061295	0.0001573374611325562	-0.001206965884193778	-0.0009044489706866443	2.4661736460984685e-05	-0.0011911343317478895	-0.003708325093612075	0.0013718019472435117	-0.001810123911127448	0.006810004822909832	-0.0009906821651384234	
0.0012490488588809967	0.0016733555821701884	-0.00035789713729172945	0.006710065063089132	-0.002911908319219947	0.0008543987642042339	0.0028041626792401075	-0.0012420377461239696	-1.7275402569794096e-05	0.00017165618191938847	0.002123347483575344	0.0004449056868907064	-0.00023043282271828502	0.0024355873465538025	0.00011862812243634835	0.0047138528898358345	0.0003479542792774737	-0.000446387188276276	0.0017628540517762303	-0.0013779737055301666	0.001127369119785726	0.0009556416189298034	0.0008637457503937185	5.189744842937216e-05	0.00024119348381645977	0.0026598703116178513	-0.0015902607701718807	-0.0006666639819741249	-0.0025083005893975496	-2.8226808353792876e-05	0.00591877568513155	0.00019697700918186456	
0.01303189154714346	0.011499631218612194	-0.0006687568384222686	-0.04371614754199982	-0.04389670863747597	0.06355402618646622	-0.0015080649172887206	-0.13312683999538422	-0.0021889519412070513	-0.0059618414379656315	-0.02414160966873169	-0.055982138961553574	-0.10454931855201721	-0.05498671159148216	-0.00477944128215313	-0.0873648151755333	-0.004805402830243111	-0.022256655618548393	-0.06631799787282944	-0.15973155200481415	-0.058772776275873184	0.03778618201613426	-0.0095977783203125	-0.0052373968064785	-0.0050384290516376495	-0.08214551210403442	-0.11515798419713974	-0.08943117409944534	-0.08219034224748611	-0.04542829096317291	-0.055233389139175415	-0.004857074469327927	
0.0006133837159723043	0.0033289650455117226	0.0029910621233284473	0.0035686278715729713	0.0020653284154832363	-0.003499199403449893	0.0033289019484072924	0.0006843212177045643	-0.006834966130554676	0.0020468542352318764	0.0008131535141728818	0.005880688317120075	0.005011513829231262	0.004158129449933767	0.0020336450543254614	0.003141532652080059	0.002412459347397089	-0.0004392725822981447	-0.0030712303705513477	-0.004248958546668291	0.0065963189117610455	0.0023918836377561092	-0.000204797979677096	0.0020778740290552378	0.0020591560751199722	0.0021032013464719057	-0.005986310541629791	0.0031344140879809856	-0.004371833521872759	-0.004747937899082899	0.0014150893548503518	0.0018815825460478663	
0.0021670982241630554	0.0014287132071331143	0.0006826224853284657	0.003260097000747919	-0.0016736407997086644	-0.002319165039807558	0.0035853206645697355	0.0024770498275756836	-0.004795525688678026	0.0007433278951793909	0.001342963078059256	0.002693010261282325	0.00036546203773468733	0.003253958420827985	0.0008262470364570618	0.0003349490580148995	0.0009571411646902561	0.0004559950320981443	-0.003631003899499774	-0.001363226561807096	0.005176961421966553	-0.00025871023535728455	0.0010595652274787426	0.0007806941284798086	0.0007638787501491606	-0.0009964066557586193	-0.004481207579374313	-0.00056844501523301	-0.005030835513025522	-0.004971767775714397	0.0018941086018458009	0.0008258972084149718	
0.0037620032671839	-0.00938989594578743	0.002990406472235918	-0.00048395784688182175	-0.004269537981599569	-0.0057490733452141285	0.0060118986293673515	-0.004620613530278206	0.0010509949643164873	-0.0014567261096090078	-0.00034980400232598186	-0.010387306101620197	-0.0005476328078657389	0.009494537487626076	-0.0007673981599509716	0.013085803017020226	-0.0014440802624449134	-0.011958159506320953	-0.000757572241127491	0.011883939616382122	-0.008311730809509754	0.0029970137402415276	-0.0049877227284014225	-0.0011552802752703428	-0.0009302476537413895	0.011265164241194725	-0.006215108558535576	-0.002114542992785573	-0.006002216134220362	0.004640096332877874	0.006955473218113184	-0.0010188121814280748	
0.053985968232154846	-0.0642150267958641	0.252779483795166	-0.02980470471084118	0.042013898491859436	-0.018666092306375504	0.027964802458882332	-0.05213165655732155	0.04888887330889702	-0.027540789917111397	0.03611556440591812	0.19671960175037384	0.014267944730818272	0.09702730178833008	-0.02842729724943638	0.12799015641212463	-0.025703299790620804	-0.017591604962944984	0.09177368879318237	-0.04738280922174454	-0.19905933737754822	0.025232117623090744	0.010138973593711853	-0.027133066207170486	-0.02678239718079567	-0.05884573236107826	-0.026503413915634155	-0.10830872505903244	0.02012810669839382	0.07959897071123123	0.017534596845507622	-0.026377737522125244	
0.0020505860447883606	-0.0009510726085864007	0.002259476576000452	0.000550355645827949	0.003812505630776286	0.0037198758218437433	0.0032407387625426054	-0.0036826112773269415	0.0011171498335897923	-0.00016689348558429629	0.0023227492347359657	-0.0017722579650580883	-0.00017493612540420145	0.003886098973453045	-0.0003871795197483152	0.00910221692174673	-0.0001468946284148842	-0.0011287365341559052	-0.005443335510790348	-0.0042800684459507465	4.453018482308835e-05	0.0022198508959263563	0.0026235764380544424	-0.0004745183396153152	0.000218968401895836	0.005038348492234945	0.000318624748615548	0.0008984816959127784	0.0011042723199352622	-0.002329752082005143	0.0026474541518837214	-0.0003137662715744227	
0.006296049803495407	0.009687690995633602	0.012138327583670616	0.0012089216616004705	-0.004687432665377855	0.0006383268046192825	0.0017044955166056752	0.0029970344621688128	0.00027725042309612036	0.0010370364179834723	-0.0005536627140827477	0.0053512114100158215	-0.0029539866372942924	-0.004229214042425156	0.0012867379700765014	0.008604380302131176	0.001097618485800922	-0.0003009082283824682	0.005258241202682257	-0.010294047184288502	0.0020269853994250298	0.0019299940904602408	-0.0019041381310671568	0.0010051354765892029	0.0010611193720251322	0.010222908109426498	-0.003276122733950615	-0.0021255766041576862	-0.008169583044946194	-0.005812838673591614	-0.0006794710643589497	0.0009722413378767669	
0.0028475457802414894	0.0018526259809732437	0.0037443211767822504	-0.0007035938906483352	-0.006507314741611481	0.0005392321618273854	0.005259234458208084	-0.0022136103361845016	0.003193704877048731	-0.0030934899114072323	0.0003999297914560884	-0.0027443948201835155	-0.0021235039457678795	0.004659165628254414	-0.0028707904275506735	0.008512158878147602	-0.003254556329920888	-0.0010277610272169113	0.0046737040393054485	-0.003611549735069275	-0.0034256738144904375	0.003669317811727524	-0.0032872084993869066	-0.0031032750848680735	-0.0027995239943265915	0.0071220737881958485	-0.0007843293715268373	-0.000731191539671272	-0.006225074175745249	-0.0005557784461416304	-0.002341478131711483	-0.0029560322873294353	
-0.0005078549147583544	-0.0007127525750547647	-0.000550040858797729	0.006800986360758543	-0.001452764612622559	0.000675048737321049	0.003554190741851926	-0.0009290211601182818	-8.765180973568931e-05	-0.00024627079255878925	0.0011222338071092963	-0.0014219642616808414	-0.001980409724637866	0.0035575551446527243	-0.0002664178318809718	0.004408444743603468	-0.00031920280889607966	0.0002386328997090459	-0.0018008971819654107	0.0014517497038468719	-0.0008579405257478356	-0.0003146964590996504	0.0033254805020987988	-0.00042561758891679347	-0.00023196863185148686	0.002256750361993909	-0.00029770785477012396	-0.0009569308604113758	-0.0026076228823512793	-0.0007992589962668717	0.006381245329976082	-4.7904950406518765e-06	
-0.004652000498026609	0.0007158444495871663	-6.286182906478643e-05	0.0011788113042712212	-0.0033517652191221714	0.0008785109384916723	-0.0005147591000422835	0.00015757854271214455	-0.00028920703334733844	0.0011317722965031862	-0.003815328236669302	-0.003089466132223606	0.0031538710463792086	-0.005242633633315563	0.001272773020900786	0.006580190733075142	0.001108701922930777	-0.0037802208680659533	0.0034986736718565226	0.00343105336651206	0.002079533413052559	0.007042711600661278	-0.005010887980461121	0.0011286735534667969	0.0008757447940297425	0.005284648388624191	-0.002734802197664976	0.0012913059908896685	-0.0025345315225422382	0.00441823760047555	-0.003005094127729535	0.0010458980686962605	
0.07319709658622742	-0.09526323527097702	-0.011107447557151318	0.013314862735569477	0.049269020557403564	-0.05803179740905762	0.03208855912089348	0.1259772628545761	0.010923492722213268	0.0008390257717110217	-0.03257235139608383	0.021515490487217903	-0.12341021746397018	-0.03779148310422897	0.000889590650331229	0.01499729324132204	0.0011142006842419505	-0.051532089710235596	-0.036929767578840256	0.058368001133203506	-0.007546125445514917	0.08728082478046417	0.05474238842725754	0.001477765035815537	1.4317414752440527e-05	0.031017843633890152	-0.08991739153862	-0.05962519720196724	-0.14668016135692596	-0.10388057678937912	-0.08265236765146255	0.0012033268576487899	
0.0016295667737722397	-0.005749494303017855	0.00033491934300400317	0.006287129130214453	-0.0011905194260179996	0.004261490888893604	0.004592811223119497	-0.006341978907585144	0.0031036522705107927	-0.0016130495350807905	0.0017392210429534316	-0.006001723930239677	-0.0007561249076388776	0.00780579773709178	-0.0015091391978785396	0.007510937750339508	-0.0016008337261155248	-0.0048399390652775764	-0.004037702921777964	0.0037624838296324015	-0.001634981483221054	0.0024792691692709923	-0.0002863199042622	-0.002041840460151434	-0.0012128623202443123	0.0038091838359832764	-0.0008621643064543605	8.61481294123223e-06	0.001428415416739881	-0.003252223366871476	0.006555088795721531	-0.0014423729153349996	
-0.007675364147871733	-0.0015447430778294802	-0.0006129429675638676	0.004759890027344227	-0.0007503546657972038	0.0010654659708961844	0.001112255617044866	-0.0029547736048698425	0.0019748234190046787	-8.777629773248918e-06	0.0014369660057127476	-0.006848317105323076	-0.00486154668033123	0.001202325220219791	-0.00023201320436783135	0.006802116055041552	-0.00036518851993605494	-0.00044933348544873297	-0.001848976593464613	0.006689737550914288	0.0003419660497456789	0.0014137140242382884	0.0017536567756906152	-0.00041564120328985155	-0.0002474067732691765	0.008187237195670605	0.0019107640255242586	-7.551279850304127e-05	0.0008640882442705333	0.000845321745146066	0.006014203652739525	-0.00011692412954289466	
0.0010468477848917246	0.0021574601996690035	-0.001183689571917057	-0.0005127406911924481	0.0035889518912881613	0.0011353580048307776	0.00208650017157197	-0.0016125267138704658	0.003339978400617838	-0.0010608761804178357	0.0024921540170907974	0.0015156443696469069	-0.0009510297677479684	0.001719856634736061	-0.001418192870914936	0.0011453001061454415	-0.0011317908065393567	0.0021402330603450537	-0.00021559443848673254	-0.006489296909421682	-0.0012208976550027728	-0.0004372654075268656	0.002831411315128207	-0.0013946276158094406	-0.0009962809272110462	0.004139322321861982	0.000823559588752687	0.0023444760590791702	-0.0009098761365748942	0.0008154950919561088	-0.00298841274343431	-0.001523044891655445	
-0.10193577408790588	-0.0495351180434227	0.15263676643371582	-0.030456628650426865	0.039397064596414566	-0.155979186296463	0.000590896001085639	0.04461792856454849	-0.07377266138792038	-0.029960010200738907	0.012999001890420914	0.08317109197378159	-0.04243098199367523	-0.010579770430922508	-0.030057568103075027	-0.15137654542922974	-0.030277583748102188	-0.07416676729917526	-0.1160038411617279	0.1761198788881302	-0.15426969528198242	-0.05113358050584793	0.00434828270226717	-0.030154086649417877	-0.03038441389799118	-0.00411064550280571	0.0038067414425313473	-0.04817982017993927	0.09144918620586395	-0.11020288616418839	-0.02426980435848236	-0.030109131708741188	
0.07947093993425369	0.03205733001232147	0.015935752540826797	0.03611205145716667	0.03035922721028328	-0.018768807873129845	0.024530747905373573	0.16061188280582428	0.06287642568349838	-0.024493930861353874	0.08076202869415283	0.02135666273534298	0.06385478377342224	0.06849243491888046	-0.025239123031497	0.03156356140971184	-0.024480829015374184	0.022794680669903755	0.05500555783510208	0.11392805725336075	0.11864113807678223	0.06892610341310501	0.015205252915620804	-0.02370203658938408	-0.02407083660364151	0.12643292546272278	0.059755414724349976	0.07102403044700623	0.04874566197395325	0.042290955781936646	-0.03323465585708618	-0.02402220107614994	
-0.05532923340797424	-0.001989671029150486	-0.01749730110168457	0.05464302748441696	-0.04054590314626694	0.0028747683390975	0.015207663178443909	-0.026856545358896255	0.04630785062909126	-0.011930380947887897	0.039605412632226944	-0.05078282579779625	0.006273000035434961	0.03984522819519043	-0.011494618840515614	0.011744922026991844	-0.012107697315514088	0.001964965369552374	0.02923339419066906	0.005519000813364983	0.15694944560527802	-0.056937117129564285	-0.00982306245714426	-0.011380963958799839	-0.011107932776212692	-0.021895673125982285	0.03893226757645607	-0.03679315745830536	0.03826975077390671	0.07198755443096161	0.03439128398895264	-0.011431246064603329	
0.00024198018945753574	-3.210147770005278e-05	0.0006676424527540803	-0.00681669544428587	0.006402057595551014	0.0021261675283312798	-0.002421834971755743	-0.0011828948045149446	0.002527870936319232	0.0004601625259965658	0.00041402189526706934	-0.001773780444636941	-0.0006497438298538327	-0.004976863041520119	7.445852679666132e-05	-0.0003762774576898664	0.0003001776058226824	0.0007087804842740297	-0.0016050082631409168	-0.0036608653608709574	0.0008691817638464272	-0.00045267335372045636	0.0010066673858091235	0.00029772933339700103	0.00046095691504888237	0.0022323138546198606	0.0026944486889988184	0.0016082277288660407	0.005230233538895845	0.002558215754106641	-0.00666322885081172	-7.737781561445445e-05	
-7.91600759839639e-05	-0.0027841469272971153	0.0036790966987609863	-0.0006314780912362039	0.0003718633088283241	-0.0021132193505764008	0.00023457031056750566	0.00028482667403295636	-0.0030340603552758694	0.00045373261673375964	9.497605788055807e-05	-9.329531894763932e-05	0.0008177107665687799	0.001992369070649147	0.0006972439587116241	0.001974396640434861	0.0005689938552677631	-0.001577586168423295	-0.005005520768463612	0.0009796980302780867	0.0011450006859377027	-0.0006927496287971735	0.002746366197243333	0.0007481146021746099	0.0005419282242655754	-0.0029752154368907213	-0.0009879082208499312	-0.0015461373841390014	0.001199900871142745	-0.0033698994666337967	0.002560338471084833	0.0008258956368081272	
0.0023377344477921724	-0.010986813344061375	0.005948398727923632	0.00016578572103753686	0.004620720166712999	0.000920264923479408	0.0009523728513158858	-0.004357165656983852	-0.0031528156250715256	0.002334441291168332	-0.00139465625397861	-0.0011744694784283638	0.0002983164740726352	0.0005018152296543121	0.002566373208537698	0.0013693501241505146	0.002645117463544011	-0.00903573352843523	-0.00419261259958148	0.0015532831894233823	0.011864724569022655	-0.001960094552487135	0.0011495266808196902	0.0024404004216194153	0.0025130638387054205	-0.00441306596621871	0.002195048611611128	-0.0006953381234779954	0.007501573301851749	-0.001207119901664555	0.004679336678236723	0.002473043277859688	
0.013276451267302036	-0.010326137766242027	0.010481982491910458	-0.0030176586005836725	0.0016270390478894114	0.002030858537182212	0.0019315565004944801	-0.002563668414950371	-0.002213903469964862	0.002345884218811989	-0.0017773279687389731	0.0023527657613158226	0.002896907739341259	-0.000735543726477772	0.002929936395958066	-0.0048613594844937325	0.0027926217298954725	-0.010507190600037575	-0.00043414594256319106	-0.0010479743359610438	0.007879107259213924	-0.006495533045381308	-0.001636918867006898	0.002749765757471323	0.0026288230437785387	-0.01090417243540287	0.0027464027516543865	-0.003310896223410964	0.008697791025042534	0.00018967664800584316	0.005103421863168478	0.0028227614238858223	
0.003912252839654684	0.0003144104266539216	0.0008033141493797302	0.002228421624749899	-0.0009765042923390865	0.00017768731049727648	-0.0007576299249194562	0.0014043395640328526	-0.0007506929105147719	8.582043665228412e-05	-0.0020725263748317957	0.002662912243977189	0.0013464463409036398	-0.0008303553331643343	0.0005001920508220792	-0.0014517528470605612	0.00042548010242171586	-0.0018110540695488453	0.0014093889622017741	-0.001462227781303227	-0.0037141956854611635	-0.0015356208896264434	-0.00015031007933430374	0.0005043804994784296	0.00031433170079253614	-0.0065606143325567245	0.00035182415740564466	-0.003370261751115322	4.6245135308708996e-05	0.0006706580170430243	0.002395016374066472	0.0006291226018220186	
-0.0397682785987854	0.08307486027479172	0.0012515027774497867	-0.016778206452727318	-0.0017517609521746635	0.05053459480404854	-0.030590491369366646	-0.048316411674022675	-0.02088872902095318	0.008044040761888027	0.04670848697423935	-0.04178130254149437	0.06248997896909714	0.05880273878574371	0.008467326872050762	0.03397757560014725	0.008680889382958412	0.0759827196598053	-0.09788302332162857	-0.03642973303794861	0.04113241285085678	-0.039466969668865204	-0.03840870410203934	0.00831624586135149	0.008672544732689857	0.03363281860947609	0.0981118455529213	0.04846137762069702	0.06139195337891579	-0.07664769887924194	0.08566808700561523	0.008524366654455662	
0.03427514061331749	0.0027542568277567625	0.02076168917119503	0.044260215014219284	-0.009151988662779331	0.027043931186199188	-0.0029020437505096197	0.004104110412299633	0.014839312992990017	0.0014867347199469805	-0.005243904422968626	0.035636886954307556	-0.037695132195949554	-0.021369146183133125	0.0017527699237689376	-0.05941607058048248	0.0015603513456881046	0.007604984566569328	-0.021645590662956238	-0.04183192551136017	0.13135673105716705	0.03317644074559212	0.002942749997600913	0.001611609011888504	0.0022325238678604364	0.0018397524254396558	-0.04640853777527809	0.007557075470685959	-0.0748683512210846	-0.009234962984919548	0.024470223113894463	0.0016392586985602975	
0.15995611250400543	0.09119876474142075	-0.05729120969772339	-0.02104656770825386	0.13106562197208405	0.05930178984999657	0.012053845450282097	0.06846557557582855	-0.09599284827709198	0.018411697819828987	0.012255732901394367	0.19769498705863953	-0.07061365246772766	-0.005377122666686773	0.01713787391781807	-0.2745093107223511	0.017099501565098763	0.240810364484787	-0.20299845933914185	-0.04072438180446625	0.04322950541973114	-0.07550615072250366	0.03535768762230873	0.018165936693549156	0.01737360656261444	0.026805004104971886	0.11037761718034744	0.013349741697311401	-0.17075495421886444	-0.17510674893856049	0.10359406471252441	0.017596732825040817	
0.15317627787590027	0.09985111653804779	0.026504358276724815	0.07845927029848099	0.0009293896146118641	0.15570580959320068	0.09331675618886948	0.1056305319070816	0.1186453327536583	-0.017035970464348793	0.08139637112617493	0.060506802052259445	0.011101283133029938	0.035480476915836334	-0.015695815905928612	0.0404387041926384	-0.014703409746289253	0.009762970730662346	-0.05095933377742767	0.11531393229961395	0.18158118426799774	0.2774510681629181	0.054101236164569855	-0.01541820541024208	-0.01618935726583004	-0.08089274168014526	0.015508756972849369	-0.08325458317995071	0.1101514920592308	-0.07709310203790665	-0.006136420648545027	-0.017131119966506958	
-0.008137501776218414	0.0015935536939650774	0.004547446500509977	0.009399611502885818	-0.00784847978502512	-0.008695916272699833	0.003983264323323965	-0.0002448965096846223	-0.00489492854103446	0.00023009133292362094	-0.0006380858249031007	0.0033991720993071795	0.0012248539132997394	0.0079889465123415	0.00047529960284009576	0.012468909844756126	0.00034982437500730157	-0.005003494210541248	0.0046682339161634445	-0.0014588184421882033	0.006525173783302307	0.009537839330732822	-0.004530793521553278	0.0002308695256942883	-0.00013503959053196013	0.007933879271149635	-0.00858979020267725	0.0029955143108963966	-0.012820701114833355	-0.0023556912783533335	0.007080950774252415	0.00023888717987574637	
0.005126677919179201	0.00042097188998013735	-0.0024337833747267723	-0.002692502224817872	0.0011356454342603683	0.003965220879763365	-0.0014364694943651557	0.0002656944561749697	0.0011101624695584178	-0.0008576505351811647	-0.0014755004085600376	0.00035098817897960544	0.0034871615935117006	-0.003824810264632106	-0.0006127164233475924	-0.00039889808977022767	-0.0006446704501286149	0.0009133772109635174	0.0014584062155336142	-0.001612102147191763	-0.0032256220001727343	-4.619112587533891e-05	-0.002633779775351286	-0.0006321059772744775	-0.0004449180269148201	-0.0010739504359662533	-0.00035306732752360404	0.0013366517378017306	0.0002697101153898984	-1.7054292129614623e-06	-0.0032930090092122555	-0.0008658295264467597	
0.00030054038506932557	0.003604308934882283	-0.0023714075796306133	-0.002591745462268591	0.0023379323538392782	0.0042372774332761765	-0.0023665588814765215	0.0013356119161471725	-0.0017839674837887287	0.002470132429152727	0.0013530290452763438	-0.00188581389375031	-0.0031629137229174376	-0.0029249950312078	0.0019032119307667017	-0.0035895442124456167	0.0025180382654070854	0.004096857737749815	-0.006356898229569197	-0.0018769764574244618	0.007947315461933613	-0.0035696502309292555	0.001722007873468101	0.002501975977793336	0.002514737658202648	0.00017308606766164303	0.0020291022956371307	-0.00014232734974939376	0.002135594841092825	-0.00092268455773592	0.004663184750825167	0.002161584096029401	
0.0023755610454827547	0.0016709079500287771	0.0023930922616273165	-0.002637899247929454	-0.004622497595846653	0.0022939664777368307	-0.0006330257165245712	-0.002671471331268549	0.005176884587854147	-0.003382263472303748	-0.0006216879701241851	-0.00203150836750865	-0.0033668745309114456	-0.0001629362814128399	-0.0032092886976897717	0.0003248488937970251	-0.003702940186485648	-0.00046236731577664614	0.006892435718327761	-0.0017909498419612646	-0.006819446571171284	0.0013038453180342913	-0.0020441249944269657	-0.00335520482622087	-0.0030382161494344473	0.0011784385424107313	0.002845343668013811	-0.0015401036944240332	0.0022633858025074005	0.00027656773454509676	-0.0022369909565895796	-0.0031320510897785425	
-0.07934226840734482	0.08404261618852615	0.1272939145565033	-0.0490577407181263	0.11024422198534012	-0.022997381165623665	0.032636430114507675	-0.02464837022125721	0.07568395137786865	-0.0009206518298014998	0.1015455350279808	0.02158983238041401	0.15025611221790314	0.14398840069770813	-7.681285205762833e-05	0.11321599781513214	-0.001977006671950221	0.005493479780852795	0.1397586613893509	-0.2696009576320648	0.027477914467453957	-0.03035254217684269	0.07168330252170563	-0.0013398504815995693	-0.000662909762468189	0.08351650834083557	-0.015987366437911987	0.11484276503324509	0.09229163080453873	0.14882603287696838	0.010076516307890415	-0.0015963711775839329	
0.00727121951058507	-0.006512174848467112	-0.001496248529292643	0.006098718848079443	0.0031889909878373146	0.004241834860295057	-5.035013964516111e-05	-0.0015703042736276984	-0.0004705664177890867	0.002734119538217783	0.0012963019544258714	0.0001351115497527644	0.00024010489869397134	-0.0019575210753828287	0.00284327520057559	-0.003907857462763786	0.003240519668906927	-0.001950659672729671	-0.004198204260319471	0.0030736068729311228	0.005352189764380455	-0.007984759286046028	0.003842734731733799	0.0028315347153693438	0.0028141478542238474	-0.007792383432388306	0.003261351026594639	-0.0023252367973327637	0.008158663287758827	0.003304690821096301	0.01237141340970993	0.002923957072198391	
-0.003189221490174532	0.005306311883032322	0.0006618924671784043	-0.0037750639021396637	-0.0028987815603613853	0.0007097978377714753	-0.00014472776092588902	-0.00037605277611874044	0.0056018405593931675	-0.002366907661780715	-0.0016738747945055366	-0.0012412305222824216	-0.0024789245799183846	-0.002684609033167362	-0.0025049124378710985	-0.0021921570878475904	-0.0027537262067198753	0.0007326583145186305	0.006304630544036627	-0.0041860537603497505	-0.0071339234709739685	0.004101832862943411	-0.0017864909023046494	-0.0024942748714238405	-0.002430190797895193	0.003031322965398431	0.0016635225620120764	9.280051745008677e-05	0.00024674608721397817	0.0033760862424969673	-0.007515631150454283	-0.0025151183363050222	
-0.004375792108476162	0.0062745558097958565	0.0031550994608551264	0.005909280851483345	-0.004804258234798908	7.952150917844847e-05	0.005756443832069635	-0.0028514082077890635	0.0026282824110239744	-0.0016351694939658046	0.002568292897194624	-0.0015584534266963601	-0.007430545520037413	0.007417346816509962	-0.001960761845111847	0.0037679823581129313	-0.0017383565427735448	-0.0006544858333654702	0.0005755810416303575	-0.006425686180591583	-0.000453161948826164	0.004066459368914366	0.0005288271349854767	-0.0018779031233862042	-0.0015601335326209664	0.0027375260833650827	-0.00045871970360167325	-0.0031254799105226994	-0.00037419109139591455	-0.0015842081047594547	0.007342272903770208	-0.001608234946615994	
-0.00043476224527694285	-0.0004600390384439379	-0.0027691314462572336	0.0029339331667870283	0.002015558769926429	0.0030474860686808825	0.0021398700773715973	-0.0020863793324679136	0.001946454169228673	-0.0005770582938566804	0.0002985548635479063	-0.002313051139935851	0.00022299346164800227	0.0007781302556395531	-0.0008086984744295478	0.0025206522550433874	-0.0007170461467467248	-0.0009758722735568881	-0.001362911774776876	-0.0007959610666148365	-0.001435033860616386	0.0010220757685601711	0.0018185882363468409	-0.0009619749616831541	-0.0005198278231546283	0.002218706766143441	-0.0009992822306230664	0.0008149479399435222	0.002140717813745141	-0.0004369401722215116	0.0007665870361961424	-0.0007315099355764687	
-0.004824311472475529	0.0025936535093933344	0.0005189378280192614	0.005751836113631725	-0.0038084425032138824	-0.0022653532214462757	0.005110051948577166	0.00022028891544323415	-0.0038815957959741354	0.0006212268490344286	0.0007648554164916277	-0.0025738724507391453	-0.001026740064844489	0.0036746610421687365	0.0005710484110750258	0.006696868687868118	0.0006952703697606921	-0.0014978500548750162	-0.0033808518201112747	0.001886542304418981	0.008043979294598103	0.005648631136864424	-0.0021215230226516724	0.0004681634600274265	0.000512553786393255	0.007651935331523418	-0.005614724475890398	0.0024375359062105417	-0.0064184051007032394	-0.004262484144419432	0.0037209424190223217	0.0005056724767200649	
0.10215958952903748	0.09264451265335083	0.0939137414097786	0.07884970307350159	0.10328572988510132	0.008077582344412804	0.08462464809417725	0.2973262071609497	0.12944500148296356	-0.029424067586660385	0.11045914143323898	0.11223364621400833	0.04009809345006943	0.04839372634887695	-0.02910703793168068	-0.05811092257499695	-0.028944751247763634	0.09604263305664062	-0.05509939789772034	0.16587010025978088	0.10564562678337097	0.10597184300422668	0.1039322018623352	-0.028632791712880135	-0.029919924214482307	0.03922123834490776	0.14996331930160522	-0.04213937371969223	0.16282930970191956	0.13073237240314484	-0.012189186178147793	-0.029305730015039444	
0.058769259601831436	-0.06572293490171432	0.05998937040567398	-0.0033761642407625914	0.07235497236251831	-0.09094390273094177	0.011987105011940002	0.11796680092811584	0.006990798749029636	-6.9937486841809e-05	0.013965695165097713	0.046176157891750336	-0.018825197592377663	0.05882131680846214	-0.0006381545099429786	0.06414399296045303	-0.0005819164798595011	-0.04668479040265083	0.049993060529232025	-0.06831713020801544	-0.06714271008968353	-0.02136223018169403	0.03872689604759216	-0.00017164023302029818	-0.0006796177476644516	0.06856868416070938	-0.04167415201663971	-0.001892607077024877	-0.0493069663643837	-0.0022021005861461163	-0.04049763083457947	0.00020008638966828585	
-0.0010422500781714916	0.005534005351364613	0.00362758943811059	0.001587003585882485	0.0017684458289295435	-0.0020836552139371634	0.0051102000288665295	0.0006203280063346028	-0.002730319043621421	0.0007430182304233313	0.0015169073594734073	0.0027954336255788803	-0.0008820609073154628	0.003292872104793787	0.000279049389064312	-9.732496982906014e-05	0.0008466629660688341	-0.0009731354657560587	-0.007331506349146366	-0.009548481553792953	0.003556732088327408	0.003333375556394458	0.003277780255302787	0.0004951972514390945	0.0007757497951388359	-0.000923806510400027	-0.0038768742233514786	8.346238610101864e-05	-0.0002661633479874581	-0.004142561927437782	-0.0001694464444881305	0.000463324598968029	
