512
0.01425369642674923	-0.07571928948163986	0.02802145667374134	-0.2878158390522003	0.07044471800327301	0.07194729894399643	0.06363093852996826	0.14411424100399017	0.06593441963195801	0.08386003226041794	0.04042854532599449	0.06916788220405579	0.04379173740744591	0.08905207365751266	0.02745235152542591	0.07325326651334763	0.04125731438398361	0.05533330887556076	0.11579940468072891	0.05530015751719475	0.08023189753293991	-0.5528547763824463	0.07407452911138535	0.06827283650636673	0.1430172324180603	0.02920638397336006	-0.023675622418522835	-0.04384681582450867	-0.11974991858005524	0.0728437528014183	0.10020965337753296	0.02375178225338459	0.01118986401706934	0.10688789933919907	0.07636012136936188	0.07471806555986404	-0.14480631053447723	0.0995466336607933	0.05344966799020767	-0.0027980003505945206	0.037543512880802155	-0.1358359158039093	0.07347725331783295	0.035988811403512955	0.050791170448064804	-0.09480438381433487	0.07792465388774872	0.023048976436257362	0.04571753740310669	0.04616321623325348	0.07680069655179977	0.033084213733673096	0.08731233328580856	-0.049699585884809494	0.04296101629734039	0.019237617030739784	0.019064240157604218	-0.15482531487941742	-0.011042061261832714	-0.007119829300791025	0.07590696960687637	0.0424703024327755	-0.05201636254787445	0.057289257645606995	0.1147696003317833	-0.03607971966266632	0.0756167322397232	0.0810963436961174	-0.11926918476819992	0.01516477670520544	0.10241085290908813	0.053579945117235184	0.01735403761267662	0.09615693241357803	0.061389606446027756	0.13791346549987793	-0.0016683919820934534	0.0506305955350399	0.09415335953235626	0.03814922273159027	0.11341653764247894	-0.055722884833812714	-0.0779135450720787	0.03633684664964676	0.02125735767185688	-0.006040764041244984	0.03308628126978874	-0.1543603539466858	0.05465012416243553	0.025468649342656136	0.07492293417453766	0.004556185565888882	0.04802867770195007	-0.007016683463007212	0.1375914067029953	0.1175786629319191	-0.047227922827005386	0.08763017505407333	0.03913461044430733	-0.06423020362854004	0.06691671907901764	0.08207684010267258	-0.006404079031199217	0.0040744817815721035	0.02936030924320221	-0.043953679502010345	0.019760794937610626	0.014888860285282135	0.055346306413412094	-0.002105529885739088	-0.03126976639032364	0.032709695398807526	0.06311773508787155	0.052681814879179	-0.02497202530503273	0.06941679120063782	0.09124687314033508	0.05930585041642189	-0.04284864291548729	0.10078683495521545	0.03866041824221611	0.062277406454086304	-0.05929482355713844	0.11121683567762375	0.08315945416688919	-0.015031354501843452	0.14994391798973083	0.05253594368696213	-0.007481464184820652	0.024150652810931206	0.16221310198307037	0.07940056174993515	-0.05734870582818985	0.09625358879566193	0.07831298559904099	-0.006289341952651739	0.036475617438554764	0.051091209053993225	0.09463091194629669	0.031026598066091537	0.11225304007530212	0.021748928353190422	0.052177052944898605	-0.31704413890838623	0.08297304809093475	0.1585296094417572	0.06647220253944397	-0.12019292265176773	0.02700996957719326	0.08936405181884766	0.07062480598688126	0.07215265184640884	0.09066182374954224	0.002758841961622238	0.08811800181865692	0.01238649059087038	-0.00901058316230774	0.0607190765440464	0.06303926557302475	0.030103512108325958	0.22041025757789612	0.0655059963464737	0.07696626335382462	0.09004036337137222	0.05874968692660332	0.05535295978188515	0.06350669264793396	0.08310093730688095	0.12254045903682709	0.004941662307828665	0.13686276972293854	-0.04829563945531845	-0.10403133183717728	0.08862058818340302	0.013458163477480412	0.07704337686300278	0.047384314239025116	-0.1301298588514328	0.19285956025123596	0.027541909366846085	0.15978021919727325	0.10167316347360611	0.01102185994386673	0.04098958522081375	0.050996482372283936	0.21165303885936737	0.08955034613609314	0.0002217336732428521	0.005085229407995939	9.924895130097866e-05	-0.09168203920125961	0.058646928519010544	-0.05272050201892853	-0.026969844475388527	0.029111461713910103	0.12080174684524536	0.12370274215936661	0.07579269260168076	0.08370175957679749	0.044143401086330414	0.08049967885017395	0.055850837379693985	0.08183061331510544	0.12642347812652588	0.025999829173088074	0.07210194319486618	-0.00609892001375556	0.008657168596982956	-0.13322047889232635	0.09293270856142044	0.10178861021995544	0.1074303537607193	0.059606146067380905	0.08662143349647522	0.04472433030605316	0.07489816099405289	0.01638200506567955	0.09762955456972122	-0.1466112732887268	0.046426013112068176	0.042605772614479065	-0.12445872277021408	0.03506430983543396	-0.295388400554657	-0.04712219908833504	0.039527762681245804	0.06046167388558388	0.09309180825948715	0.05997847393155098	-0.053377915173769	0.08692830055952072	-0.05124306678771973	0.044355861842632294	0.009737655520439148	-0.09933984279632568	-0.13532979786396027	0.08132985979318619	0.0470314547419548	-0.5160490870475769	-0.005353366956114769	-0.03214054927229881	0.05301327258348465	0.027764413505792618	-0.02673914283514023	-0.23217113316059113	0.09558357298374176	-0.06751252710819244	0.13578909635543823	-0.07451773434877396	-0.034756507724523544	0.1038571447134018	-0.018308663740754128	-0.1627562791109085	0.01942496933043003	0.006957234814763069	0.062027543783187866	0.05782453715801239	0.10167344659566879	0.10131654143333435	0.052783966064453125	0.09223823249340057	0.16182346642017365	0.023561429232358932	0.06693234294652939	-0.018769944086670876	0.06213592737913132	0.07537118345499039	0.08270465582609177	0.03511570766568184	0.048931993544101715	0.05693144351243973	0.0382818803191185	0.03401848301291466	0.033707790076732635	0.15940241515636444	-0.036006879061460495	0.10423695296049118	0.020939577370882034	-0.12793011963367462	0.04786095768213272	0.08070248365402222	0.13022007048130035	0.04477629438042641	-0.07569459080696106	0.1601332277059555	0.057847049087285995	0.08207821846008301	0.06699464470148087	-0.0038544905837625265	-0.03719208016991615	0.05185525491833687	0.10120834410190582	0.017927145585417747	0.08379720896482468	0.06208333000540733	-0.04410402104258537	-0.00200459361076355	0.025624696165323257	-0.09523595869541168	0.034691162407398224	-0.031569503247737885	0.12292487174272537	0.048792604357004166	0.09048061072826385	0.11351107805967331	0.05593617260456085	0.04572391137480736	0.06477264314889908	-0.09363213926553726	0.07512608170509338	-0.04779360070824623	0.04584344103932381	0.024769289419054985	0.019909583032131195	0.05688563361763954	-0.0001796066644601524	0.02627716027200222	0.07467149943113327	0.06327195465564728	0.028497442603111267	-0.08246048539876938	-0.05828117951750755	0.08002856373786926	0.023019203916192055	-0.20243321359157562	0.045051027089357376	0.06786941736936569	0.04637211561203003	0.05162249132990837	-0.023688534274697304	0.08665633946657181	0.14922983944416046	0.06875628978013992	0.09801370650529861	-0.11390601843595505	0.09059876203536987	0.1272231638431549	-0.022600263357162476	-0.12198483198881149	0.10023724287748337	0.12173594534397125	-0.008932683616876602	-0.18773876130580902	0.06145588308572769	-0.05420291796326637	-0.02007436938583851	0.1600261777639389	0.06252089142799377	-0.12852570414543152	0.04140313342213631	0.06295975297689438	0.026907844468951225	-0.009096152149140835	0.0341239757835865	0.12807641923427582	0.03362296521663666	0.012633111327886581	-0.11227042973041534	0.12736181914806366	0.009504792280495167	0.07624500244855881	0.10272908210754395	0.01783258467912674	0.04435058310627937	-0.07970047742128372	-0.06357937306165695	-0.04843354597687721	0.034692004323005676	-0.3512863218784332	-0.02985721454024315	0.123993881046772	0.12269537895917892	0.05215824395418167	0.07438251376152039	-0.3715088367462158	-0.009801694191992283	-0.106574647128582	-0.0457327663898468	0.06873781979084015	0.029123064130544662	0.052684031426906586	0.014015496708452702	0.036449696868658066	0.06383690237998962	0.1653115451335907	0.06631766259670258	0.17581428587436676	0.15500690042972565	0.028635498136281967	0.06739328056573868	0.0656280517578125	0.11407645046710968	-0.06272243708372116	-0.036406587809324265	-0.11562027782201767	-0.08879789710044861	0.024675868451595306	-0.05011564493179321	-0.050801053643226624	0.051082510501146317	-0.09426721930503845	0.09860062599182129	-0.07080798596143723	0.06051371246576309	-0.0018454662058502436	-0.044286247342824936	0.06988547742366791	0.13748526573181152	0.05272415280342102	-0.1273428350687027	0.02491818554699421	0.02036834880709648	0.042575590312480927	-0.03678368031978607	0.033773425966501236	6.652184674749151e-05	0.06388194859027863	-0.10157623887062073	0.07484319806098938	-0.007103210315108299	0.03598032146692276	0.029972456395626068	-0.008316950872540474	0.1843688189983368	0.06136307120323181	0.006145997438579798	0.07291620224714279	0.07128814607858658	0.13181820511817932	0.07445518672466278	0.09048790484666824	-0.015163124538958073	0.07000686973333359	0.20380128920078278	0.07841596007347107	0.06448860466480255	0.09099641442298889	0.03379780054092407	0.02184370905160904	0.05821731314063072	0.07399383932352066	0.0833914577960968	0.07067059725522995	0.08396611362695694	0.05898503214120865	0.02012217976152897	0.05570628494024277	0.11288631707429886	0.06700540333986282	0.08644407242536545	0.09407117962837219	0.04643557593226433	0.05897761136293411	0.005094918888062239	0.10231134295463562	0.16110791265964508	-0.02320351079106331	0.06486663222312927	-0.06752941012382507	-0.06756118685007095	0.1450643688440323	-0.5434413552284241	0.07289282232522964	0.059085823595523834	0.07916046679019928	-0.013023467734456062	-0.2908865511417389	0.13779906928539276	0.04279704764485359	0.08981699496507645	0.0689011961221695	-0.5101826190948486	0.03538846597075462	0.0735403522849083	-0.09404879808425903	0.0354173444211483	0.07395538687705994	-0.101708322763443	0.08993139863014221	0.11041996628046036	0.07052630186080933	0.08738675713539124	0.03816603496670723	0.06741900742053986	0.016119936481118202	-0.00720391096547246	0.0739903524518013	0.04646742343902588	0.09064003825187683	0.05325823277235031	0.0051119388081133366	0.06930578500032425	0.07342289388179779	0.01959523744881153	-0.08052478730678558	-0.17079485952854156	0.15682369470596313	0.08646940439939499	-0.035157352685928345	0.157822847366333	0.15706709027290344	0.024049105122685432	0.06962864100933075	0.06035079061985016	0.009203964844346046	0.07135363668203354	0.03284483775496483	-0.05339468643069267	0.03943927213549614	-0.1265571117401123	0.03523232415318489	0.024572955444455147	